223 64
0 0.09515355 -0.10030358 0.012098004 0.003592684 0.013626957 -0.053414274 0.14172626 0.10155644 0.1632918 -0.06956242 -0.005474165 -0.0038220314 -0.18689014 0.011759888 0.07737597 0.13031247 0.008949095 -0.08010402 -0.11996927 -0.0871002 -0.14591314 -0.07001443 -0.13329299 -0.09900748 0.07288657 -0.047164068 -0.13970871 -0.12056491 0.17594466 -0.05576545 0.04385199 0.117123455 0.08437615 -0.027564507 -0.13998714 0.017411008 0.11670645 -0.065982655 -0.08221206 0.15079287 0.07501347 0.16917232 0.089244895 0.1343987 -0.16559301 0.13289261 -0.15129475 0.18923198 0.13714746 -0.0044543752 0.024939466 0.018070681 -0.045014642 -0.0006749695 -0.07104488 0.17215367 0.03957333 -0.081800975 -0.1722809 -0.18494795 0.06100977 0.16627729 0.069106765 0.031612158
1 0.040297713 -0.019850835 0.121497735 0.15967841 0.15469508 0.009404652 0.16076122 0.1462851 0.1934244 0.04130251 -0.10431309 0.08989968 -0.03324932 -0.08531684 0.052902557 -0.1668363 -0.16073833 0.003041422 -0.10034002 -0.18927594 0.12426989 0.061725624 0.05347844 0.09865985 -0.15560329 -0.15886408 0.09384724 -0.029401693 0.021599736 -0.08464579 0.15650974 0.038877875 -0.03662379 0.13581987 -0.18466009 0.018403701 -0.07440581 0.15351413 0.15860762 0.0098729925 -0.014184354 0.069073245 0.07685185 -0.021765515 -0.1854758 -0.13704972 0.019982774 0.13787614 0.13197877 0.031424843 -0.028242793 -0.07231119 0.02266933 -0.1380662 -0.1781688 0.0039525973 -0.18428417 -0.092664234 0.075650744 0.008885383 0.18075512 0.15282923 0.051122207 -0.124618545
2 -0.16467954 -0.06347291 -0.12382401 -0.13589852 0.15380163 0.16506588 0.18368748 -0.09446023 -0.021794599 -0.17658839 -0.117333926 0.031856082 -0.19290216 0.010756347 0.08116922 -0.12722042 -0.085816935 0.021266807 0.19248497 0.03527504 0.07050156 0.008497747 0.114763916 0.16578317 -0.00032248348 0.096477136 -0.14023656 0.116650894 0.04080671 0.03990093 0.05287911 0.046926416 0.08034218 -0.09772174 0.14837301 -0.03563423 -0.082367085 0.09707466 0.07442831 0.063010015 -0.04530181 0.18452242 -0.15150082 -0.08640916 -0.1282878 -0.0075774295 0.038910497 0.18192269 -0.011038456 0.12987974 -0.07220026 -0.087626144 -0.04287865 -0.121552944 -0.091689944 0.112715915 0.034318835 -0.023261067 0.075467765 -0.04665718 -0.13150276 -0.028702883 0.1800289 -0.021262735
3 -0.00014919043 0.055972796 -0.018933518 0.17209047 0.057560135 -0.09572533 0.03048896 0.15205507 -0.0036093798 -0.11342636 -0.0759801 0.01871936 -0.1788271 -0.07895245 0.025973398 0.004732972 0.08691247 0.08216179 0.0690655 -0.12562329 -0.08048128 0.047774125 0.11741108 0.011743275 -0.1817873 -0.00094070565 -0.13228285 0.11099363 0.0037262589 0.16997913 0.030096062 -0.09840359 0.14884946 0.03369853 -0.1148279 -0.023464039 0.074489705 0.060574204 0.094487146 0.083733775 -0.016790297 -0.01701234 -0.069195464 -0.10807387 0.19421497 0.17380653 0.13949403 -0.0355357 -0.02853255 0.09796509 -0.15037416 -0.17459935 0.15159024 -0.12781881 -0.19112323 0.08347283 0.0063287644 -0.16959243 0.1440701 -0.18086495 -0.074046575 0.109005205 -0.18232779 -0.1446723
4 -0.061376482 -0.02078777 0.040737547 0.0681285 -0.10942271 -0.06810308 0.09437012 0.16691208 -0.14837548 -0.018964045 0.062316194 -0.17198053 0.16929585 0.07770747 -0.16988112 -0.099951275 0.01699176 -0.157449 0.012166538 0.1513821 0.104702584 0.013795628 -0.02493419 0.16293533 0.05906461 0.004504515 0.09200841 -0.014328992 -0.022001576 0.015550284 -0.029404707 0.12551454 -0.06812662 0.057550736 -0.13341981 0.012957112 0.008094881 0.012103348 0.06959028 -0.108671926 0.101174764 0.10137933 0.047981 0.035038948 -0.18736802 0.08916256 0.086893395 -0.06922134 -0.073128656 -0.065597914 -0.0015642 0.12054263 -0.14794827 0.0048732003 -0.11677558 0.07074448 -0.008184636 0.0050814953 0.06707847 0.09003942 0.014174851 -0.04020326 0.0619597 -0.11873433
5 0.14216253 0.18740982 0.066685155 0.059001952 -0.024549916 0.089165434 0.044996303 -0.16769081 0.054139644 0.053843286 -0.053547077 -0.14870119 -0.17849083 0.015224312 -0.0020896597 -0.064872235 -0.049335986 0.029249828 -0.022898313 0.19033213 -0.019593272 0.15792224 -0.1481531 -0.18799031 -0.12348106 -0.17347875 -0.0013030749 -0.02119426 -0.042670205 -0.18766311 0.0702795 0.06914304 -0.061622888 0.086459704 -0.14577496 0.16862206 0.1326641 0.111985974 -0.0012870692 0.08736405 -0.0013110535 -0.024817817 -0.06335921 0.1671504 -0.13897769 -0.14937174 -0.021477297 -0.03128244 0.09616258 -0.15291303 0.064418994 0.021346215 -0.16636181 0.040822994 0.18967286 -0.07998464 -0.19066446 -0.08945301 -0.002086158 0.17906234 -0.06725271 0.043046188 0.11454346 -0.06693044
6 -0.09510617 0.03958849 -0.16511002 -0.038809348 0.15599181 -0.07677982 0.13618776 0.020987783 0.1423902 0.18644597 -0.079015166 -0.09807041 -0.038423635 -0.14233172 -0.0050357664 -0.03356651 -0.050718475 -0.18723367 -0.06828768 0.08664733 -0.17405874 0.13447732 0.051184565 -0.009068853 0.15590139 -0.13493308 -0.0009270087 -0.013088704 0.039512027 0.053312294 -0.100494996 0.11551939 0.022557251 0.08468978 -0.070665546 0.098588675 0.01859881 -0.08332775 -0.06630313 0.057768434 -0.0041530943 -0.05866716 -0.07922784 0.087623045 0.021303382 0.1311022 -0.019638095 0.17498049 0.16339223 0.18010598 -0.004909671 -0.020572182 0.13666934 0.17294966 -0.0032549733 -0.030920874 0.02439928 0.07605213 0.030542225 -0.035798207 -0.0030934084 0.01630612 -0.13803852 0.02070503
7 -0.0661413 -0.07553438 0.0094794715 -0.1863707 0.0065712463 0.0064317435 -0.1455405 -0.17738038 0.07706893 -0.18519461 0.036449783 0.041528035 -0.16615775 0.036032006 -0.18634251 0.031812325 -0.06206032 0.13578378 0.18464261 -0.12333322 -0.17878705 0.14568242 0.10349907 0.09529237 0.15917812 -0.10347656 0.16480508 0.15133315 -0.04327775 0.15275744 -0.19286159 -0.03141085 0.08933463 -0.13357669 0.147532 0.111239284 0.17385513 0.121983215 0.05391922 -0.03831378 -0.06954064 0.14635156 -0.025134651 -0.122784674 -0.14159676 -0.111077964 0.03864867 -0.023113504 0.07334113 -0.1765255 -0.08337157 -0.05643652 -0.18330982 -0.14731064 -0.04261362 0.1809543 -0.19318195 -0.07233063 -0.07206659 0.009697425 0.055940133 0.05498155 0.18820277 -0.08618229
8 0.0045910403 -0.06744821 -0.10984279 -0.12311228 -0.123586826 0.18118487 -0.10187663 -0.0034865513 0.015809312 0.16115241 -0.07863699 -0.08291548 -0.17002758 0.008460283 -0.15795818 0.0704302 -0.013809207 -0.14665538 -0.15450732 -0.15290877 0.09530041 -0.0032977378 0.08803092 0.061252076 -0.15532428 0.13705078 0.18140335 0.15502778 0.043370984 0.12547359 0.04357525 0.034646653 0.014233394 0.029994002 0.08884308 0.050653905 -0.15504889 0.13848807 0.17525822 0.0772535 -0.15369363 0.16426672 -0.09231178 0.054595456 0.10092696 -0.18605337 -0.08663904 0.0038529234 -0.123941824 -0.023481539 0.117104426 -0.04957752 0.18405145 0.12274947 0.18478893 -0.05329366 -0.18593635 -0.04891999 -0.045076303 -0.13765171 0.13146937 -0.013932299 0.006514904 0.1505544
9 -0.057454675 -0.057591457 -0.08214151 0.034407075 0.09719087 -0.12238518 0.084976986 0.07215126 -0.055486184 0.021553017 0.1670599 -0.00039219018 0.1174354 0.14032646 -0.1221998 0.17924708 -0.09835808 0.06711488 -0.037086982 0.021302447 -0.0392031 0.09443821 0.018362157 0.08599503 0.13783857 -0.003327798 -0.034866847 -0.09627199 -0.17765005 -0.1505502 -0.027386457 0.011734532 -0.14158802 -0.13370426 -0.0047467463 -0.0734357 -0.033956673 -0.17293172 -0.11366698 -0.11774125 0.08468466 -0.057430226 -0.16085601 0.07577184 -0.034186378 0.031460892 -0.17621042 0.16556038 0.029432282 -0.04113853 -0.039253056 -0.043557115 0.11618651 0.09782327 -0.04906747 -0.062940136 0.07361346 0.17183092 0.09432915 -0.17789981 -0.12066683 0.15693973 -0.118881755 -0.14744961
10 0.16485634 -0.1732222 -0.073575705 0.016781868 0.13497075 -0.08491154 0.10154327 -0.0068000527 0.085071 -0.13110095 -0.11521972 -0.0044878135 -0.17227452 -0.039067566 0.069334365 0.12040428 -0.16589464 0.11265676 -0.018033559 -0.13555124 0.116533615 0.18220472 -0.07696048 0.027110882 -0.16597599 -0.15045635 -0.1323125 0.07940736 0.020110112 0.103319466 0.14617059 0.16050021 -0.05135742 0.052707568 0.18700546 0.1869789 -0.06338264 0.02828559 -0.16977313 -0.11712425 0.03009228 -0.09374059 0.14099205 -0.13648033 0.12876724 -0.07216015 0.038218725 -0.058842227 -0.12064516 -0.1220074 -0.05887597 -0.13892594 0.116720416 -0.040914178 -0.1929842 -0.0018961523 -0.15226647 -0.11772629 -0.05066204 -0.0882328 -0.118916325 -0.10411407 -0.01954108 -0.052480824
11 -0.13765739 -0.0068783257 -0.1017981 0.009601795 -0.022184938 -0.169445 -0.11950474 0.032346003 -0.1448119 0.02688 0.18719223 0.06345524 0.009935064 0.12170002 0.08549045 0.1296302 -0.093377374 -0.109242156 0.08849594 0.034184277 -0.109650865 0.007544811 -0.12806082 0.1501934 0.08003602 -0.032499053 -0.022159304 -0.08862965 -0.15065187 -0.17138337 0.0038394034 0.03123047 0.016324338 -0.06910295 0.07465735 -0.012326347 -0.08427111 -0.12796262 -0.0069555724 -0.10583912 -0.080775596 0.06483188 -0.028745174 -0.17114611 0.13921012 0.104172334 -0.092343226 -0.11012534 -0.0039246436 -0.13492897 -0.03848236 0.1294229 0.17422669 0.031851716 0.02076221 -0.036381923 0.15894465 -0.13451578 0.18760733 0.018070877 0.04080084 0.025362547 -0.13824338 -0.09419779
12 -0.0034602107 0.12946077 -0.19204679 -0.14861724 0.1215919 -0.021980219 0.17542532 -0.05359791 -0.060011 0.12473106 0.14367467 0.10943628 -0.1746628 0.045676246 -0.15365604 0.047521807 0.040389974 -0.18751267 -0.16907394 -0.12823658 0.091281004 -0.012913093 0.090801 0.076566026 -0.14118433 0.13559426 0.04816807 -0.03354817 0.12740244 -0.0061745355 -0.06745501 0.1606279 -0.14874223 0.02473107 0.08464438 0.073200375 -0.17729943 0.1901088 0.15938954 -0.14518277 -0.047012083 0.14646097 -0.01904678 -0.012111862 0.05592425 -0.13293083 -0.057245575 0.06937113 -0.104455285 -0.11870703 -0.06264109 -0.093469456 0.023990069 0.096004754 0.17805174 -0.11868711 0.05957925 0.009736325 0.1880632 -0.1851136 -0.020969307 0.021964686 -0.178035 -0.05727945
13 -0.04735229 0.031319354 -0.17289895 0.12988916 0.14575453 -0.0038472163 -0.035950158 0.18267852 -0.123769835 0.12851891 0.12916979 -0.043209065 -0.09349263 -0.0048991134 0.056538817 -0.043740876 -0.009917692 -0.02828275 -0.040318538 0.10723662 0.07668261 -0.14509474 0.052831046 -0.0517974 0.03588748 0.12809736 -0.13468644 0.0833311 0.17816137 -0.06590424 -0.12404498 0.024966966 0.15952122 -0.005385045 0.073130265 0.11280276 -0.14098132 0.13442329 0.005511608 -0.021532614 0.020491272 0.0431809 -0.038678534 0.017184675 0.01663217 0.10989413 0.15987146 -0.1428785 0.12400836 0.16806969 -0.11713165 -0.083649136 0.011281521 -0.019855209 0.014651105 0.12391832 -0.18819073 -0.036414504 0.14694795 0.06691895 0.08428395 -0.087477684 -0.025441766 -0.16862378
14 -0.04106101 0.16351351 0.07215979 0.0036960524 0.13596556 -0.06963013 0.07089876 -0.09605145 -0.15504806 -0.062008716 0.18036142 -0.040511765 -0.039511215 -0.18260121 -0.083287016 0.1180027 0.021054555 -0.15785763 0.095662795 -0.1196823 -0.05375921 0.1796852 0.14429297 0.059375804 -0.073681355 0.06403422 0.06115176 -0.00034472812 0.07765159 -0.057136785 0.16751443 0.1522147 -0.19189373 -0.12426313 0.06010381 0.18177088 0.09270389 -0.17333096 0.13856974 0.15895525 0.118520275 -0.058961216 0.0050182305 0.07970693 0.17867951 -0.19387618 -0.18566719 0.089162804 0.0247745 0.15172517 -0.13025066 -0.1299823 0.09691741 0.14412178 -0.13207075 0.08341516 0.116111636 -0.17624623 -0.10904383 0.10779546 -0.040690027 -0.11080901 0.0031422805 -0.05590114
15 0.07662266 0.051444307 -0.061849818 0.01481247 0.08894767 -0.18773805 0.16963126 0.1522695 -0.010862169 -0.07814542 -0.122768424 -0.13321784 -0.17732874 -0.11431288 0.09626551 0.16540492 -0.117381155 -0.08864088 0.15513262 0.13523328 -0.17248419 0.025575818 0.056385603 -0.069256306 -0.061104823 0.07148944 0.14515238 0.15307645 0.15472855 0.035932228 -0.1628761 0.14862442 0.13015102 0.09165341 -0.08504133 -0.110226855 0.004036193 0.11601317 -0.12920915 0.121126 -0.034335878 0.04175052 -0.17748864 0.10311547 -0.014495507 -0.09771941 0.0076318476 -0.0077676354 0.044640332 -0.02646304 0.031011174 -0.0022216868 -0.14853144 0.18340291 -0.058093533 0.13832258 -0.15866238 0.051814105 -0.06796246 0.103729814 0.1486225 0.09815392 0.17250593 0.14220716
16 0.019492984 0.17345275 -0.060179587 0.105410606 0.030507436 0.04769361 0.10550666 -0.09228989 0.004159556 0.050448995 -0.15238287 -0.0038181567 -0.13479005 -0.10048601 -0.09317951 -0.15336117 -0.14220208 -0.13323644 0.091338545 -0.11259355 0.035241887 0.16846387 0.111472316 0.08039863 0.1732198 -0.107254595 0.07938913 -0.18761098 -0.17842723 0.06983801 0.08457689 -0.026934545 -0.014036125 0.10749775 -0.08790304 0.048096612 0.15131876 0.11894161 0.031345922 0.06927644 0.036527492 -0.0887867 0.043956876 0.072213024 0.08405086 -0.052060246 0.093750656 0.109981656 0.10302195 0.054392412 0.13493152 -0.14644158 0.022974042 0.026992785 -0.07154275 -0.00045556016 -0.04162176 -0.1541687 -0.009644716 -0.16607524 0.122818574 -0.010894085 0.070150726 -0.15488996
17 -0.09137778 0.09696323 -0.1711841 -0.13521102 0.18743572 -0.008484728 -0.17840782 0.12037566 0.013669913 -0.04405994 0.13902017 0.012434404 -0.04968051 0.003050346 -0.071264155 -0.13228786 -0.17196646 0.011711934 0.16179478 -0.16466315 -0.19172193 0.12619126 0.013123581 -0.0808557 0.17206639 -0.009078845 -0.14381206 -0.014015216 0.18320283 -0.15865803 -0.010342175 -0.122499555 -0.13450935 0.03990401 -0.060493473 -0.091304615 -0.0924525 -0.011897235 -0.18579602 0.130546 -0.18460062 -0.17485929 0.1494908 -0.088627465 -0.05990687 0.08133384 0.005019199 -0.13954858 -0.16936493 0.15341206 -0.13756023 0.051073518 -0.0803227 -0.106121354 -0.042088605 -0.12878472 0.10030555 -0.19290017 0.14638169 -0.16594474 -0.041290477 -0.15106627 0.06598999 -0.06650964
18 -0.11604351 0.1711503 0.19222623 -0.14599487 0.15292709 -0.019361798 0.11625287 0.06825715 0.028936958 0.10889779 0.1000138 0.16288552 0.11463299 0.14948905 -0.0284044 0.08561545 -0.091210656 0.019849984 0.0140681965 -0.11276427 -0.0985893 -0.15168868 0.113907486 -0.03378646 0.15515228 0.0099603 0.030709393 0.031196479 -0.13560139 0.006971213 0.11570944 0.127559 -0.073783115 -0.058927692 0.16179511 0.10689503 0.15737736 0.0739599 -0.025504034 -0.006233328 -0.014319095 0.127626 -0.16775805 -0.15695804 0.0016870024 0.13048482 0.045375273 0.08336106 -0.18163218 0.062835574 0.15761094 0.044676468 -0.094976485 -0.07790981 -0.07637544 -0.18498266 -0.078198195 -0.09353465 -0.15949914 0.12367921 0.1330569 -0.09875129 0.18562457 0.079852425
19 -0.092790596 0.09188384 -0.07872496 -0.099432915 0.19247569 -0.14009877 0.093054675 -0.09026461 -0.0388478 0.063458934 0.1597522 0.0098917 0.17588186 0.15950796 0.07298571 -0.13948035 -0.1121803 -0.1279377 -0.1466778 -0.033992298 0.006531777 -0.08794999 0.005991605 -0.061025884 -0.08058669 0.12352361 -0.09028964 -0.19337949 -0.036534823 -0.16572453 0.12814993 -0.08520734 0.12147711 -0.0021578846 0.17807156 -0.08948389 0.045128264 -0.10191066 0.085089296 -0.015156862 -0.09410459 0.17741475 -0.14836125 -0.063448444 0.047999747 0.111104354 0.11232255 -0.01011288 -0.012513052 0.063078985 0.13364218 0.13082364 0.18409514 0.005715519 0.13512439 0.1648393 0.1574408 -0.036148593 0.060145825 0.09341142 0.012221302 0.11792207 -0.14684464 0.15242669
20 -0.057787646 -0.02715647 -0.120613635 0.18006863 -0.0745524 -0.18059494 -0.022405742 -0.102869965 0.13332117 -0.034874596 0.017503047 -0.04457777 -0.058804646 -0.062235594 0.07767206 -0.18699883 -0.13856857 0.12226343 -0.15707073 -0.109203756 0.0832414 0.08119007 0.034266256 -0.028801978 0.053140834 -0.084427476 0.027082972 0.02451209 0.088893406 -0.008135044 -0.053689472 -0.089768596 -0.006143595 0.17777343 -0.04465478 0.028449103 0.06913113 -0.018691419 0.17666082 -0.17919724 -0.090471044 -0.08341205 -0.03752353 -0.03546649 -0.028265137 -0.15890484 0.1205226 -0.18321964 -0.15524988 -0.17069365 0.13957419 0.004706961 0.084016696 0.17436503 0.040743064 -0.053854775 -0.14628093 -0.14599803 0.17973885 -0.06506915 0.10908687 0.031324238 0.14355946 0.04511571
21 -0.0043087592 -0.04902334 0.033948906 0.018266972 -0.12674879 0.093620636 -0.041451488 -0.12731934 0.01052403 0.021764573 0.09557699 -0.15416756 0.092495985 0.18432617 -0.079972595 -0.16908355 0.16167963 0.054243866 -0.15985066 0.027977007 -0.13337848 0.18358532 0.051869348 -0.1334721 0.020772312 -0.120741874 -0.022080502 0.051940523 -0.17301181 0.15537564 0.048589125 0.042458117 -0.026317853 0.085539445 0.066394486 -0.0462728 0.08498536 0.09515413 -0.15860985 0.09704441 0.07056754 0.15123603 0.022305684 0.09072492 0.1517685 -0.1744129 0.16080299 -0.13186507 -0.054944463 0.15566015 0.07958407 -0.031776592 -0.03074836 0.12291336 -0.031242926 0.1304437 -0.08436061 0.07522777 -0.061655443 0.07599312 0.009583297 -0.074866146 -0.16102286 0.11101414
22 -0.1713055 -0.13884278 0.043763127 0.16031194 0.017740631 0.021119788 0.13841529 -0.078264534 0.15311529 -0.05334298 -0.02865113 -0.04842106 -0.03850213 0.06792001 0.0075980932 0.1439346 -0.17024988 -0.07128957 -0.1533055 -0.08903627 0.08917752 -0.0024253475 0.10168878 -0.06936931 -0.11439353 -0.18441522 0.15435727 0.156127 0.08567173 0.06556271 0.16238207 -0.13618022 0.0013272241 0.007421828 0.16721942 0.09872279 0.13515739 -0.02181933 -0.021945719 -0.023950148 -0.10158733 -0.033468857 -0.058761254 -0.1341475 0.087548815 -0.084704876 0.07512516 -0.17276546 0.02309338 -0.08459101 -0.164783 -0.15633862 0.1546101 0.13468209 -0.060303662 -0.017911518 0.08109297 -0.18656668 -0.16572124 -0.15087572 -0.06442718 -0.18689978 -0.026969591 -0.1518416
23 0.06278218 -0.018142063 -0.18182702 0.12173166 -0.053787142 -0.11263372 -0.029499706 0.081894614 0.152738 -0.06032477 -0.16577366 -0.043045297 -0.1870807 0.06324951 0.13211787 -0.08947475 0.040264204 0.1208343 0.09987153 -0.1231141 0.022315316 -0.14404353 -0.15297017 -0.106058896 0.059168193 -0.18881918 -0.110408045 -0.16812435 0.13876429 0.100248784 -0.073246785 0.1146252 -0.042502347 0.06867038 0.17730378 0.046154186 0.09215351 0.063712925 0.1914823 0.044847332 0.03357857 0.023646217 0.1881093 0.06307837 -0.077212974 0.03165119 0.09111281 -0.16871572 0.11610375 0.038942523 -0.08673447 0.1735887 0.10787658 0.1838589 -0.0054199686 -0.17272152 -0.18957333 0.07822957 -0.0900207 0.018977555 -0.06744804 -0.16526975 -0.043409754 -0.06900814
24 -0.028076798 0.031422816 -0.1912132 -0.0069171283 -0.15048862 -0.02862363 0.0667574 0.0046312055 -0.004824046 0.10561965 0.10227967 -0.0882033 -0.06026943 -0.12088808 0.08785531 -0.07631488 -0.14080128 -0.11693629 0.14845698 0.15061706 -0.025769144 0.053093374 0.053407546 0.030333087 -0.18017869 -0.18601465 -0.19143593 -0.12028164 -0.16467124 0.008849907 -0.043922417 -0.07630854 0.15058485 0.087338164 0.08877752 -0.08317083 -0.15082324 0.17441086 -0.07016462 -0.113228634 -0.020570777 -0.05826378 0.18405284 -0.18784985 -0.05430389 -0.045078557 -0.103835315 -0.17437743 0.1284163 -0.068544514 0.080280885 -0.028910533 0.17912981 -0.063194506 0.13979886 -0.022869466 0.011773333 0.065289386 0.13486461 0.11649146 0.06573261 -0.06965303 -0.15854579 -0.042119533
25 0.06561296 -0.18122241 0.1773304 -0.08567207 0.10303904 0.13822676 0.10810725 0.15670569 0.05286777 0.036983244 0.12717062 0.028871045 -0.077852495 0.008584621 0.17546721 0.19420817 0.099028796 0.043504506 -0.005726113 0.010390967 0.069034666 0.13862227 -0.1398687 0.058743093 0.019540995 0.051422358 0.09902805 -0.14527142 0.06928614 -0.07636913 0.0092871515 0.050549895 0.09668939 0.11985166 -0.08647039 -0.04781028 -0.06861189 0.008809904 0.08255939 -0.08648862 0.051375743 0.13904268 -0.07781755 -0.17231554 -0.014961822 0.09655188 0.036393773 -0.13882208 0.13602772 -0.055084217 0.12530097 -0.11494216 -0.116012335 -0.08600205 0.04959146 -0.01706676 0.1531255 -0.080363564 -0.025900517 -0.055878703 -0.016825993 -0.014245657 -0.13331226 0.020059917
26 -0.18166828 0.06724787 -0.07702712 -0.014616915 -0.17876095 0.03400736 0.0769963 -0.14092045 -0.103959836 0.02505652 -0.14353402 -0.18976465 -0.18956359 0.13652171 0.038397916 0.17363158 -0.042692043 -0.076026805 -0.09559631 -0.18967919 -0.07846503 -0.05103881 0.13890298 -0.016104743 0.051040478 -0.019906111 -0.14093965 -0.05519853 -0.022475597 0.10822698 0.15304047 0.0993851 -0.19132851 0.16690594 -0.1891714 0.023516983 0.17904274 0.08779339 -0.120448 -0.067163944 -0.15723899 -0.025105555 -0.19288188 0.08735083 -0.07228613 -0.17460008 0.11304973 -0.17588916 -0.16678791 -0.031492364 -0.030606946 -0.05719593 0.09619954 0.11322859 -0.102979325 0.17683856 -0.111987635 -0.042776875 0.10223627 -0.09598126 0.08226192 0.0026881723 0.05751741 0.06736253
27 -0.03442462 0.045349587 -0.0587212 -0.09348638 0.0760619 -0.14199108 0.16820355 -0.1542126 0.051270727 0.08775845 0.18245104 0.16650741 0.14036746 0.16941264 -0.15582494 -0.044244908 -0.13834862 -0.092174314 -0.15464489 -0.117695674 0.13997012 -0.065891676 -0.13382562 -0.00028962456 0.14293124 0.1797703 -0.06268896 0.16203266 -0.08247592 0.16431744 -0.17420727 -0.04187041 0.06579248 -0.097927295 0.15174457 -0.039113585 -0.020397682 0.19139361 0.11051142 0.09310709 -0.0011749519 0.045241255 0.020297194 -0.06647827 0.091662094 -0.17840955 -0.13435273 0.030740637 0.04243372 0.13823995 -0.006118493 0.09189007 0.18772691 -0.15644452 0.06411527 0.039491773 0.1270639 0.058844894 0.14004281 0.03628299 0.15664774 0.06995915 -0.07501321 0.11924426
28 0.18030947 0.040992633 0.06842113 0.09854102 0.078357324 -0.07875556 0.07970028 0.010441517 0.04491692 0.12364855 -0.13339019 -0.08955161 -0.024218865 -0.14548634 0.04173456 -0.03272505 -0.10146656 -0.18740663 0.1442625 0.076945566 -0.10679508 -0.113697655 0.10581282 -0.12926419 -0.020569809 0.084724024 -0.1357343 -0.15709443 0.040336937 0.09464365 0.16145447 -0.021550603 0.024214845 0.09352843 -0.04788667 -0.021367924 0.05337496 -0.051384658 0.015990032 0.04918301 0.16735776 -0.17672162 -0.0382133 0.15885063 0.13303043 -0.11969239 -0.036862098 0.16270567 0.18364085 -0.13406648 -0.067484856 0.036372356 0.056270733 0.059729915 0.1728153 0.080244094 0.13978192 0.18963054 -0.06310859 0.13173062 -0.10247836 -0.046659485 -0.16718052 -0.032188613
29 0.077039085 0.05872304 -0.18341705 -0.031656247 0.06637355 0.18407042 -0.08718868 -0.1287644 -0.081552066 0.05866283 -0.15912943 0.025904475 -0.01499182 -0.009237806 0.04944383 -0.020043202 0.13468187 0.080513895 -0.10269842 -0.11643621 0.1857238 -0.043216646 -0.11315384 -0.09305348 0.04182639 -0.08104009 0.051614583 -0.04565875 0.04802777 0.14471075 -0.007622783 0.021579588 0.043417856 0.08658309 -0.16115192 -0.16824143 0.16978088 -0.11533789 0.10326569 0.020555913 0.020207861 -0.16833861 0.15317416 -0.16921486 0.15072738 -0.18795931 0.14170578 -0.09615057 0.08703324 0.10332727 -0.054407276 -0.030192342 0.09599799 0.14678141 -0.17952952 -0.14966644 -0.1377424 -0.05472672 0.15464307 0.010912613 -0.04777299 -0.109229274 -0.04643907 -0.028030068
30 0.017759826 -0.18286413 -0.16734217 -0.13769671 0.074182086 -0.12587726 -0.03465987 0.1682126 -0.05146432 0.057432316 -0.06507918 -0.14641431 -0.18359637 -0.1743424 -0.15060286 -0.11410279 0.19394001 0.14784732 -0.00349354 -0.027862106 0.06184081 0.09131415 -0.057671055 0.15277931 0.06461351 0.17785247 0.07450265 0.10178414 -0.0042876685 -0.16804838 -0.036460467 -0.06916591 -0.09740876 0.039065883 0.1032168 -0.14530003 0.06712131 -0.15158781 0.012087724 -0.026120558 -0.13024339 -0.1304034 0.1292241 -0.16661614 0.1409673 -0.18330936 -0.016467083 0.03870784 -0.022295251 -0.14516084 0.0037122257 -0.06731843 0.08313258 -0.053374954 -0.076902136 -0.06738498 0.087466024 -0.08680979 -0.007583905 -0.035542265 0.004019566 0.09258719 -0.048373565 0.13409026
31 -0.11289972 0.12487757 0.1888307 0.049805127 0.15284628 0.15142334 -0.0566351 -0.04696056 0.03009529 0.14151335 -0.03188617 0.024536047 -0.10257172 -0.053020507 0.10480964 0.13790645 0.12619421 -0.03879979 -0.069580786 -0.083767906 -0.0100422 -0.1755975 0.015841857 0.19311042 -0.090710245 -0.13871095 -0.008175833 0.09381487 -0.06230133 0.036701478 -0.13640712 0.07412079 -0.03467859 0.015028498 -0.07672953 -0.010357961 0.08032049 -0.014112251 -0.05535668 0.009953828 0.08371278 0.11808899 0.03959582 -0.08053901 0.12132739 -0.06620996 -0.0712772 0.00033217482 -0.092600144 0.07953295 -0.10961693 -0.17005843 -0.09495199 -0.12676251 -0.07087334 -0.0038973223 0.12884963 -0.13900417 -0.15988714 0.15652221 -0.15980268 0.047123745 -0.0056900904 0.035655662
32 -0.18787786 0.027570285 -0.12973984 0.08045522 0.09823358 0.10159473 -0.12786348 -0.15740517 0.07519334 0.17309825 -0.12961169 -0.18833385 0.14829236 0.05438384 0.16598904 -0.036254194 -0.12597376 0.100731656 0.08673793 0.15953887 0.1494283 0.11960707 0.07516576 0.13713194 0.07804656 0.16631916 -0.0118983025 0.1261284 -0.13021894 0.17868073 0.14252613 0.08208537 -0.009042822 0.18436718 -0.1301405 0.09657213 0.031629622 -0.15595199 0.093152694 -0.17269325 -0.02200237 0.04678286 -0.17238133 -0.18623804 0.0968078 0.108789034 0.108870335 0.19377089 0.18040381 0.04150248 0.08593194 0.0032577422 -0.1471162 0.08601141 0.14187488 0.017815188 -0.14933336 -0.15495455 -0.06564752 -0.035883065 -0.03299652 0.16640511 0.053473596 -0.06175777
33 -0.17127457 -0.03926354 -0.14287099 0.06796111 0.16260038 -0.06595248 -0.14283651 0.12153214 0.11792734 0.079417616 0.1318319 0.034988828 0.061676174 -0.09966021 -0.012059119 -0.069919154 -0.035325594 0.10104782 0.110292606 -0.18974838 0.027321883 -0.024552297 0.103678 -0.07107309 -0.088042326 -0.14947094 0.11003561 0.17352416 -0.18318643 -0.03601224 -0.13803945 -0.054932687 -0.03063422 0.028837252 -0.17022832 -0.04995132 -0.06030535 0.10682716 -0.024270445 0.02210323 0.052330773 0.10044397 -0.0075703077 0.03415643 -0.11435655 -0.09200457 -0.100176916 0.079155184 0.10928744 -0.07245167 0.109598674 0.041114755 -0.08617182 -0.19373551 -0.056477264 -0.0007278435 0.104371645 0.16147831 -0.09250741 -0.044858027 0.15521967 0.12612048 0.017201297 0.12448844
34 0.19071877 -0.08192819 -0.0077137686 0.0028636502 0.17640741 -0.113092504 -0.14286783 -0.052874986 -0.02044534 0.121346146 0.013735158 -0.13812862 0.18272649 -0.1130993 0.17943521 -0.17278989 0.07462817 0.055104617 -0.16581635 -0.1239288 -0.17327084 0.048979662 0.05739206 0.047162905 0.043248154 -0.08750634 -0.06954198 0.10720857 -0.05376694 -0.18819024 0.10982045 0.183237 0.1292575 -0.1272167 -0.15522908 -0.14203775 0.064000286 0.058700852 -0.14195025 -0.09517482 0.03756412 -0.10700272 0.01736396 0.076577425 -0.10324433 -0.02138536 0.031858984 0.06832004 -0.0692496 0.03923241 -0.09589699 -0.073361725 -0.13671257 0.16710104 -0.13750133 0.00073131453 -0.025557408 -0.0043633264 0.1603475 -0.036656126 -0.05575242 0.16416903 0.037638012 -0.15224703
35 -0.14973366 0.023712778 0.01309083 -0.057622023 -0.10575403 -0.17416775 0.13019769 0.10435692 -0.1205038 0.043902326 -0.0644383 0.04041121 0.12787114 0.099199116 -0.15076017 0.11043504 -0.059165694 -0.18455431 0.1858632 0.007697 0.08117127 -0.118314914 -0.038113747 -0.081391655 0.016939199 -0.03679841 0.11870975 -0.1785967 -0.09028949 -0.16294107 0.00441905 0.1258501 -0.10733643 0.10911616 -0.18477145 -0.058165 -0.16841102 0.111564144 -0.102771625 0.04362771 0.115854226 0.079900704 -0.022136915 0.15745306 0.04391114 -0.05593761 -0.043747906 0.11240908 -0.08856949 -0.039165623 -0.17279255 0.08876377 -0.14747499 -0.0030912757 -0.18364158 0.16443835 0.12065484 -0.02993495 0.06175587 -0.026125746 0.0012697708 0.1311697 -0.004909194 -0.18519694
36 0.011526882 -0.13271725 0.14183603 -0.1469793 0.124124706 0.014504883 -0.050669074 0.0070670936 0.022703225 0.008930751 0.10198882 0.026844792 -0.015941571 0.011891596 -0.022397518 0.078324504 0.17350999 0.102921054 -0.11079863 -0.12389307 -0.057281855 -0.06276749 -0.06383956 0.030816283 -0.1764354 0.05315491 0.026652861 -0.1299925 -0.177269 -0.03903635 0.18379655 -0.18853927 -0.012365748 0.12790853 -0.17332211 -0.1902975 -0.0018312214 0.16923441 -0.12597412 -0.083623916 0.048908487 0.18562444 -0.1384201 0.16827285 -0.0716369 0.063037224 0.03425801 -0.015880227 0.12179678 0.089210965 0.06472912 -0.17457142 0.09243678 -0.018644325 0.14452605 0.066705406 -0.0094200885 -0.058619443 -0.11794576 -0.0833921 -0.107239 0.045667253 -0.089740776 0.12648726
37 -0.17171457 -0.11856467 0.15523201 -0.18305002 -0.012727957 0.052341525 0.08045983 -0.18427141 0.14917535 0.062379047 -0.051223632 -0.11398087 0.18859404 0.10282748 0.0844226 -0.15761843 0.1555335 -0.040119607 0.06237627 0.09139801 0.059408236 0.1721566 0.17946349 -0.10026334 0.033100598 -0.012596657 -0.100487664 -0.02937895 -0.1535595 -0.122867204 -0.052161243 0.0537366 0.0625184 0.09607544 -0.1633191 0.14490889 -0.090183884 -0.1137707 -0.10353383 -0.03746365 0.076563194 0.0800196 0.032390963 0.12014437 -0.08621472 0.08696638 -0.15829311 -0.065945394 0.07088866 -0.18420897 0.17340487 0.015487172 -0.081166275 0.11337319 0.11589153 0.07871321 0.0006971378 -0.13873428 0.11676881 0.15222542 0.059862956 0.09317698 0.112815976 -0.083017275
38 -0.11888743 0.08982633 -0.13943437 0.055144362 0.061591785 0.051009357 -0.024800478 -0.112707436 0.056421988 0.15488967 0.13036044 0.04245467 -0.1874302 -0.07008173 -0.15537217 0.092272356 -0.07092993 -0.088604756 -0.13592045 -0.06608307 0.15684806 0.17860739 -0.16034515 0.1585408 0.085043356 0.13156989 -0.080405325 -0.18011484 0.16074833 0.044682883 -0.08314642 0.14359468 0.006556061 -0.12712747 -0.08410505 -0.019859608 0.02278993 0.049650535 -0.18210478 -0.060031984 0.096923694 -0.014904582 0.020962523 -0.13696644 0.07612598 0.18718971 -0.002426771 -0.12566234 0.12453764 0.11201749 0.12635192 0.14375076 -0.1458277 -0.12276099 0.01655893 -0.034196183 -0.093011506 -0.17567658 0.08251817 0.10099755 0.15519403 -0.17772539 0.050825268 0.11511809
39 0.01835271 0.15658239 0.03366045 0.10577406 -0.16583657 -0.09281881 0.14192116 -0.09007021 0.15664235 -0.0715712 -0.028319042 0.10542353 -0.0640281 -0.1715501 -0.0070329793 -0.0507473 -0.07485892 -0.16637118 0.15131932 0.1271509 -0.1924118 -0.070175275 0.039521445 -0.11600894 -0.042466857 -0.15875898 -0.07884425 -0.16449845 0.06420682 0.14410524 -0.0039656265 0.17046753 -0.09289261 0.16184546 -0.11759809 0.04196874 0.11980829 0.08854338 0.12826462 -0.14959362 -0.013035538 0.022086082 0.14569321 0.17707144 -0.028850649 -0.1642193 0.1754411 0.113719836 0.12614517 -0.028381713 -0.1336473 0.14050636 -0.04276075 0.104514755 -0.059885178 -0.18362607 -0.079315156 0.109043285 -0.08559969 -0.060848895 -0.067725495 -0.036587704 0.12796366 -0.07020297
40 0.07435451 0.048995238 -0.111798935 0.03363555 -0.05523721 0.050441556 0.015862286 -0.1831796 -0.19193734 0.010217194 -0.108181424 -0.17103682 -0.142563 0.14944105 -0.00024077948 0.0910149 0.054953672 -0.021938413 0.041321848 -0.11352458 0.09403806 -0.15662163 0.12629732 0.097822666 -0.03222831 -0.07810997 -0.13069156 -0.09594724 -0.10658119 0.13682716 0.1250146 0.011057327 -0.099839605 0.18870066 -0.042225868 0.030640742 0.08368909 0.008675655 -0.0131112505 -0.1666578 -0.10211091 0.07969989 -0.17396669 0.11217459 0.12969401 0.033585973 0.023276111 -0.058247328 -0.13640532 -0.0007650312 -0.021375887 -0.0869618 0.13429303 -0.11044683 -0.0776268 -0.030770449 -0.14607555 -0.016662993 0.07331413 -0.14404258 -0.046849206 -0.0831279 -0.01818246 0.028045453
41 -0.10117026 0.1735643 -0.116168156 0.16247591 -0.06167984 0.12529732 0.0669561 0.033812385 0.0606713 0.100811996 -0.06809848 0.071975484 0.04759181 0.08573038 -0.0055889813 0.018000806 -0.17698233 0.09653096 -0.050720993 -0.13416454 0.07797387 0.04281176 -0.1430432 -0.014042348 -0.091969214 -0.036495455 -0.116797715 0.18626404 -0.18864587 -0.019348571 -0.06387995 0.018455552 0.15322465 -0.108633734 0.08981289 -0.13681836 0.098630294 -0.028076582 -0.17077813 0.08268385 0.013617693 0.054275498 -0.13064727 0.121271 0.015840122 -0.16099504 0.18929112 -0.029770415 -0.10641312 -0.1808136 0.12016117 0.06369769 0.08962584 -0.1947051 -0.18778433 -0.00058980845 -0.058596805 -0.14254676 0.16333929 -0.13579284 0.0012391461 0.13552293 0.04988431 0.002388604
42 0.024606 0.01820625 -0.06706517 0.10031355 -0.14584462 0.12649287 -0.066720866 0.057192273 0.14584698 0.13053055 0.12650575 0.048178848 0.09946599 0.13454548 -0.12135972 0.07897582 0.09396754 0.15404597 0.16518754 -0.11775887 0.0075929044 -0.14959207 -0.14297475 -0.009728564 -0.16848797 -0.053977475 0.07115571 -0.19085488 0.03960335 -0.0057002706 -0.062463287 -0.013277676 0.059907798 -0.16126943 0.09778184 0.049029738 -0.0021097977 0.016512396 -0.15912178 0.0017657913 0.18961489 -0.1274966 0.18101051 0.0015414888 0.03854517 -0.19248666 -0.18623433 -0.12749216 -0.033316318 0.030842077 0.104889035 0.12320254 -0.0059501138 0.015965924 0.06159429 -0.11198005 0.121174216 -0.08655022 0.19035845 0.044819668 0.08433443 0.119758576 -0.025920693 0.07381747
43 0.014035764 0.10094753 -0.12869914 0.09863881 0.03834229 -0.048205305 -0.028140016 -0.14763609 0.04432954 -0.06614873 -0.06734801 -0.07842907 -0.09012393 -0.06660174 -0.026254153 -0.16344276 0.111617416 0.08992088 0.0025226083 0.09438483 -0.18344876 0.17321844 0.060248524 -0.0688442 0.04244096 -0.10461469 0.10319954 -0.15490137 -0.15457049 0.17536974 0.15085419 0.1338204 -0.068038575 0.051143896 0.114035934 -0.032328837 -0.04566216 0.16858682 -0.13992265 0.024485623 0.16842179 0.08918162 0.08276738 0.17326534 0.057528906 0.13531567 0.04766002 -0.032652333 -0.1776287 0.031079061 0.10588578 0.10694125 -0.05206033 0.14787671 -0.077955455 0.030732919 -0.18717033 0.0315822 -0.034083158 0.12542665 0.12863235 -0.05631808 -0.1732599 0.07771066
44 -0.080821544 0.08658514 -0.08140012 0.09384318 -0.15803987 -0.15934974 0.024702065 -0.067234516 0.122195266 -0.11154355 0.19287701 0.15793154 -0.12166899 -0.18943115 -0.17646685 0.07838111 -0.0063961865 -0.027745966 -0.032141194 -0.0014588442 0.08881515 -0.05575966 0.015717167 -0.1524677 0.05167365 0.16506884 -0.17716812 0.14643121 0.007941078 0.12579522 0.10279789 0.13484472 -0.115284465 -0.19253433 0.013169201 0.117545106 -0.13933195 -0.16743775 -0.011393344 -0.15591547 -0.13677765 0.068010695 -0.13711107 -0.19065583 0.08714275 -0.18277556 0.022238238 -0.14315118 -0.13661137 -0.06388883 0.03882601 0.10889177 -0.06211976 0.10651071 -0.17346261 -0.16549137 0.08680069 0.06474844 0.12754801 0.044591095 0.1650467 0.085670166 -0.0071605183 0.0324123
45 -0.079675585 0.13029781 0.08540401 -0.13198519 -0.067225486 -0.063242756 -0.1554928 0.09698489 -0.007271968 -0.15375352 0.18895963 -0.09402137 -0.07941829 -0.19263768 -0.02787634 -0.09861707 0.0110970205 -0.15731238 0.108824216 0.026184548 -0.08434607 0.14507985 -0.19002657 0.11784439 -0.1348444 -0.03905939 -0.1264093 -0.11281286 0.05565623 0.119285606 0.006186544 0.056294426 -0.10610585 -0.06263961 0.17405128 0.16491944 -0.12739907 -0.04574738 -0.09037379 0.18298392 -0.09980762 -0.00078643207 0.062404655 0.037546903 0.06847717 -0.08110098 0.13583247 -0.07972736 -0.08894363 0.090262935 -0.19337508 0.1034279 -0.16062202 -0.036182567 -0.09073828 -0.10702844 -0.0017448599 -0.012173437 -0.041073635 0.066293865 0.031114426 -0.09552399 0.18310732 0.053177312
46 0.036379185 0.03634453 0.19193584 0.11783634 -0.04506112 -0.15797724 0.004458665 0.12185135 0.006932495 0.14784643 0.19110753 -0.014677482 -0.11644342 0.19473173 -0.11682932 -0.016302653 0.05409849 0.028785782 0.09829263 -0.014867202 -0.13777551 0.18580943 0.15104197 -0.111045815 -0.04194836 0.11641469 0.08390873 0.11691651 -0.09339769 0.009556436 -0.0034429077 -0.07388649 0.08098861 0.07379234 -0.08123293 0.08637012 -0.0030717943 0.0024776794 0.085640505 0.026355453 -0.022295477 0.10913061 0.045990974 -0.063600674 -0.15908435 0.038139585 -0.1325431 -0.017115187 -0.12796059 -0.15751408 -0.008052879 0.059646398 -0.11444645 0.18746965 0.067407906 -0.17034264 -0.11185632 0.12698454 -0.10093494 -0.01564646 0.037832193 -0.1756068 0.16128449 0.056441538
47 0.08733372 0.119404644 0.08504509 0.059745077 -0.1286624 0.14483264 -0.13756144 0.1374232 0.10521777 -0.18712507 -0.08627614 0.049669772 0.031077076 0.12757474 -0.18357705 -0.027263952 -0.013166295 -0.054416697 -0.07973099 -0.029440248 -0.11829512 -0.15471238 -0.14114104 -0.14413294 0.06282932 -0.08058197 -0.1101326 -0.023309086 -0.07935927 -0.13161051 0.09062202 -0.14869718 -0.08327663 -0.042802267 0.050351277 0.09328995 -0.14883535 -0.06323878 -0.012734422 0.08792253 -0.07943747 0.015413493 0.15308344 -0.087098114 0.07623389 0.12598272 0.026393268 -0.17246187 -0.10877964 0.022546971 -0.12887149 0.0016126633 -0.068695664 0.1595476 0.018490443 -0.17503564 0.08964354 -0.02556636 0.18458314 -0.10542061 -0.12292581 0.15567972 -0.17219348 -0.022101397
48 -0.01151942 0.016074099 0.06818947 0.16793846 0.18528242 0.026377412 0.1435155 -0.04412294 0.07343293 0.08467816 -0.15521722 -0.10879562 -0.06317587 -0.10740134 -0.10006255 -0.112817906 -0.18064757 -0.103777066 -0.08623098 0.03425263 -0.07108362 -0.024025287 -0.013320617 0.04768242 -0.086525746 -0.14720741 -0.16637099 -0.041394114 -0.13715689 -0.060618024 0.15546092 0.045506734 0.1262896 0.09323105 -0.16896677 -0.020051893 0.07486926 -4.5016408e-05 0.066394046 -0.11665675 -0.14695065 0.07095275 0.14977136 -0.06686437 -0.089202516 -0.098314665 0.16033511 0.05639512 0.17039841 -0.17187046 0.1823219 -0.18275274 0.12087814 -0.057405435 -0.02623227 -0.055927426 0.0526221 -0.06710587 0.07395528 -0.15682462 0.016576786 0.071058415 0.06629597 -0.1670271
49 -0.15369923 -0.16219643 0.04487905 -0.08271698 -0.01368216 0.19234699 0.012754604 0.054470606 -0.08135514 -0.10955682 0.19395413 -0.0642473 -0.009777485 -0.033597223 0.09412402 -0.13980609 -0.12859668 0.10331088 0.018708192 0.00391337 -0.010075953 0.08294616 0.10803296 -0.052357294 -0.047815047 -0.09747501 0.17665397 -0.1600275 -0.07783215 -0.14233325 0.19385672 -0.029257707 -0.19261527 0.018559622 -0.04327831 -0.17337623 -0.083556205 0.13864431 0.10822469 0.021799328 -0.18757938 -0.17489606 0.06753134 0.08515023 -0.018474396 0.007869656 -0.0062450357 -0.036921173 -0.18426223 -0.08213187 -0.14304851 0.0433387 -0.0997357 -0.03891865 -0.09836005 -0.08456167 -0.0831051 0.026305716 0.081530854 0.1800992 0.011122422 -0.17541684 0.14928547 0.03225493
50 -0.15365298 0.07463722 0.12440708 -0.18943202 -0.040201344 0.019090682 -0.044288624 0.17256355 -0.09173938 -0.15727404 0.0064805495 -0.05554396 0.007584188 -0.13469017 0.021973751 -0.14838375 0.08616226 -0.05895921 -0.019740757 0.03098167 0.1705043 0.038717367 -0.14014477 0.12032078 0.17565542 0.10479288 -0.06628457 0.047241375 -0.05301547 -0.18593101 -0.18948221 0.18864284 0.007845041 -0.10371408 0.105313726 0.0529755 -0.038114242 0.14783077 0.17763422 0.0361283 -0.17024156 0.049775124 -0.09733327 -0.10640452 0.08428022 0.13445185 -0.13083936 -0.13222721 -0.132244 0.08312632 -0.06133656 0.104318485 -0.18404192 0.024147442 0.09573825 0.009794174 0.042348832 0.049265668 0.09116329 0.0016822666 -0.003646953 -0.049901597 0.06825941 -0.08865419
51 -0.038014997 -0.0467965 -0.019069856 -0.17906481 -0.06710176 0.037925147 0.018378075 0.0636306 0.07987507 0.013347424 0.15550949 0.14798328 0.018580325 -0.03502544 -0.03574595 -0.1376043 -0.027238382 0.09709664 0.13012652 0.016173482 0.08234241 -0.13987322 -0.037994165 0.17978477 0.1885363 -0.17243156 -0.161563 -0.1245456 -0.14058958 -0.085672855 -0.18479085 -0.15290241 -0.13857865 0.035856742 -0.050091006 -0.117183946 -0.12958501 -0.024884833 -0.08290172 0.102464214 0.13908935 0.011714457 0.12101062 -0.034035213 0.07043559 -0.07524127 0.038182702 0.1112182 0.10165276 0.16822211 0.058236144 0.18823618 -0.16339605 -0.064857416 0.1333289 -0.011494601 0.0047970796 0.16108152 -0.022956034 -0.07865136 0.027543008 -0.15437718 0.037447274 -0.12802537
52 0.030130953 -0.17716123 -0.06302307 -0.020340998 0.009341588 0.113288134 -0.07817836 -0.02603107 0.13406602 -0.15284663 -0.076215036 -0.02262196 0.02415775 0.13364242 -0.063133836 0.046746545 -0.19452292 -0.057623886 -0.15973876 0.045860313 0.021685692 -0.0070368918 -0.0038033472 -0.15039846 -0.15474482 0.10787195 -0.14523289 0.1406125 0.066093095 -0.14934427 0.15630087 -0.038481977 -0.060099 -0.10079698 0.062455934 -0.030645695 0.090424255 -0.14104693 -0.1156824 0.16460742 0.008573266 -0.022114497 -0.062478278 -0.08997461 -0.16679864 -0.0083032735 0.052274518 -0.011324924 -0.05112292 -0.15520133 0.010589045 -0.1551394 -0.050698422 0.052500032 0.01586046 0.075082414 0.08591786 -0.08841762 0.09726242 0.08425259 0.16472124 -0.13696751 0.01688562 -0.005953308
53 -0.013014841 -0.17684515 -0.013685995 -0.038248293 -0.033422224 -0.16932756 -0.09695588 0.13339895 0.061831985 0.08434265 0.11507882 0.12211719 0.059859965 -0.13726549 0.01917551 -0.16360947 -0.18609314 0.034374654 0.08756963 0.105439894 0.041377153 0.026167065 -0.04573211 -0.06681975 0.14441234 -0.082100265 0.003019372 -0.076157406 -0.07862454 0.11709937 -0.09084922 0.06644504 0.15707438 0.050664056 -0.07119764 -0.1378153 -0.031992067 0.16288145 -0.08272149 0.1229607 -0.06617363 -0.014844488 -0.12497426 -0.1342081 0.056021698 0.14540003 -0.010304119 -0.033398047 -0.015381629 0.16044725 0.008948739 -0.1707182 0.11790197 -0.17229679 0.02599245 -0.10269843 -0.14831457 0.19296664 -0.019027336 -0.012934274 -0.13836007 0.19080141 -0.079702705 -0.055070445
54 0.048305966 0.17887302 -0.03994188 -0.15413575 0.03852725 -0.18142846 0.12271778 -0.06735446 0.116611265 0.045531515 0.060650956 0.13354877 0.12745318 0.037790895 -0.11478965 -0.07936181 -0.1353167 -0.027172513 0.1410154 -0.11029193 0.19133253 -0.16670029 0.07999325 0.18130362 -0.041253548 0.006265631 0.19298251 0.17508656 -0.1090273 0.19252321 -0.15503174 -0.033838723 0.058495767 -0.007183574 0.11110839 0.106208235 -0.10070564 0.1109248 0.104559 -0.020899577 0.13058056 -0.09287829 -0.15870719 -0.15171319 0.10905296 -0.06127524 -0.105016686 -0.01159691 0.015654996 0.15039869 0.036247704 0.07513481 0.019303195 -0.08498285 -0.09047408 -0.023230776 0.1342051 0.18308923 0.10427238 0.10055088 0.12928604 0.09400729 -0.1689624 -0.02634947
55 0.08164924 -0.048323736 -0.03305549 -0.057555467 -0.115196496 -0.12638624 0.023640737 -0.19079053 0.16040044 -0.16311026 0.029956682 0.1171871 0.008499645 -0.06669972 0.027329827 -0.17627314 0.00915217 -0.01364829 0.15645227 -0.16563115 -0.0051069725 0.06510998 -0.08414434 0.12791058 0.1690403 0.017065704 0.18327253 -0.06666283 0.09144122 0.11980094 0.04331074 -0.07993337 -0.07197778 0.09608802 0.12401567 -0.173911 -0.16365679 0.16094741 0.177616 -0.06243013 -0.04302389 0.05590385 0.035158835 -0.17605059 -0.014198374 0.09197003 -0.039328642 0.0066817077 0.16401598 -0.09798503 -0.0688511 -0.017685853 -0.0539855 -0.0975959 0.16558537 0.08934394 -0.1277303 0.026349373 -0.16980842 -0.1916678 -0.096107855 0.024803547 0.077374846 0.028513517
56 0.008170535 0.11474895 -0.055721402 0.07278366 -0.1903644 0.061457828 0.17523208 0.15891004 -0.022947934 0.037196852 -0.086298704 -0.08253506 0.015575915 -0.09076787 -0.013349843 0.1606214 -0.11989304 0.17486717 -0.016914379 0.048100792 0.16590242 0.05003759 -0.07031161 -0.16517253 -0.06500055 0.09312287 -0.025604237 0.08758434 -0.0055733696 0.08165985 -0.17920485 -0.13032421 -0.026076822 -0.08294485 -0.15607384 0.13687599 0.15482406 -0.12619525 0.14082925 0.19348738 0.1205071 0.11223699 0.105125844 -0.035432074 0.08566598 -0.12314005 0.113811515 -0.03934273 -0.04935269 -0.10465933 -0.0047229147 0.06511819 -0.1257729 0.18778318 -0.079151 0.17659655 0.04465961 -0.19163556 -0.07189715 -0.035765294 0.027898667 -0.1782695 0.12558886 -0.013178048
57 0.07269716 0.14358538 -0.046340205 0.16495982 0.07614125 0.18710099 -0.18669346 -0.01282845 0.09039956 -0.10987465 -0.12515618 -0.052912027 -0.18455045 0.07954381 -0.051324517 0.064140365 0.11235324 -0.12935913 -0.16632962 -0.13822526 0.1405166 -0.14220074 0.088168286 0.10723194 0.04792867 -0.08861662 -0.0921 -0.094587766 0.08017355 0.15212323 0.078153 -0.17832042 0.09070213 0.18049744 -0.08689106 0.06754127 -0.0024200631 0.0033126855 -0.088410325 -0.19181708 -0.00013903016 -0.163113 0.1372071 -0.083258756 -0.027539277 0.033939887 -0.12955064 0.103886165 0.17811075 0.029130762 0.017794807 -0.15697926 -0.06994994 0.19017552 -0.051346958 -0.047453627 0.10771279 -0.16030878 -0.19085354 -0.014362573 -0.11211155 -0.17648146 0.052637488 -0.008673376
58 -0.046408672 -0.027719596 -0.1569807 -0.16526493 -0.027658328 0.18501157 -0.15538548 -0.006166215 0.06934752 0.08189559 -0.13800526 0.046856508 0.053308845 -0.15219021 0.10461865 -0.15771316 0.0069750156 0.17284198 0.1041525 -0.07088023 0.19052519 -0.14791399 -0.15359317 -0.045679614 -0.043399885 -0.13606428 -0.06981121 0.12519602 0.112927586 0.08095204 -0.08246269 0.1313221 0.13930067 -0.07325822 -0.071697965 0.087421976 0.12970944 -0.018934788 0.083038345 -0.10740933 0.1897336 0.061370753 0.12945206 -0.18556589 0.0014090696 -0.027082738 0.16552535 -0.15888454 0.15628561 -0.028263014 -0.11052208 -0.1736426 0.11995262 -0.00041553006 -0.050417878 -0.16323018 -0.1315903 0.10124414 0.029132959 0.112789035 -0.088656224 0.040637456 -0.14643334 -0.16085461
59 -0.03350161 -0.0013515521 0.0273197 -0.108204655 -0.14818951 -0.0031852555 -0.07163757 0.061792865 -0.06289294 0.10158436 0.15934746 0.19307852 0.04903159 0.058282666 -0.13623084 0.12358503 0.07189987 0.044232167 0.16078323 0.04511273 -0.17001465 -0.15864985 -0.10820422 0.025049783 -0.14245734 -0.15594439 -0.060517672 -0.038871396 0.15257822 -0.05170261 0.18415198 0.098466694 -0.091238566 -0.0017528748 0.07916134 -0.043380532 -0.15408616 -0.18437195 0.09758625 0.060831927 0.17157762 -0.16212371 -0.18300994 0.18008965 0.00088850595 -0.053591233 -0.14631034 0.09974189 0.09652939 -0.019162446 -0.16325398 -0.1691026 -0.03239378 -0.1757517 0.053135376 -0.15583497 -0.10678614 0.14310478 -0.011157168 -0.011651483 -0.14119731 -0.18108526 -0.02233202 -0.095680416
60 -0.07632964 0.01613962 -0.120477565 -0.14959303 0.14744389 -0.07148711 -0.117430404 0.03479392 -0.07494523 0.06854219 0.07542849 0.07510839 0.17992057 -0.015496144 -0.08781636 -0.11134093 0.046480946 0.043320976 6.220862e-05 -0.03167595 0.017599802 0.17085928 -0.124353506 -0.16083874 0.19291045 0.009517559 0.015267722 -0.034434326 0.14134704 -0.12385179 -0.082534574 -0.15114786 -0.119077414 0.19436014 -0.08662559 -0.08783809 -0.16145101 -0.08006643 -0.14637814 -0.043622203 -0.033337485 -0.15777965 0.06838813 -0.14488588 -0.08937272 0.08909659 -0.059848092 -0.12164715 -0.04118387 -0.11547736 0.19125754 0.088425875 -0.15356268 -0.13389544 -0.06944134 -0.023287237 0.16956416 -0.14146316 0.17134264 -0.15005991 -0.11452676 -0.1938765 -0.09482141 -0.16416644
61 0.19339302 0.1882349 -0.17266512 -0.026907614 -0.18484724 0.0046451474 0.030253503 -0.19149783 0.08683083 0.0442189 0.060864456 0.15151617 0.010344767 -0.1560629 0.17166404 0.0846728 -0.015697181 -0.18969056 -0.07254681 -0.083171114 0.035768777 -0.074879184 0.13304117 -0.0028346442 -0.09448201 -0.030049779 -0.16371919 -0.14067337 0.17363775 0.10600321 -0.043393463 0.034838334 0.08337374 -0.08403249 0.021239234 -0.021597585 -0.057544418 0.07201721 -0.18270616 0.0764077 0.084813274 -0.09744721 0.12319265 -0.12518436 0.09802538 0.15417148 -0.02841157 -0.022913508 0.053222384 0.06914534 0.07474006 0.08056554 -0.15676135 -0.03976298 -0.06857404 -0.03323303 0.12908076 -0.18614723 -0.06960059 0.094872266 0.108596906 0.16196969 -0.015586798 -0.04945336
62 0.14630315 -0.070218734 0.007086375 0.009722732 -0.18510927 0.1680377 0.17790984 -0.17198636 0.05314316 -0.17914684 0.06321443 0.18023017 0.019952554 0.034435734 -0.1733027 -0.118824676 0.09413221 0.020634362 -0.022489838 -0.018503118 0.028368387 0.16076851 -0.08182151 -0.014223626 0.091156326 0.0037983023 0.0707341 0.14917794 -0.10490338 0.067647755 -0.09796861 0.18221481 0.115767695 -0.18917257 -0.12113232 0.11102552 0.07066977 0.056913137 -0.113955826 -0.061190885 -0.0009415643 -0.0066593913 -0.05657043 -0.092827186 0.13944484 0.13295303 -0.13942093 0.1537403 0.12798591 -0.17754619 0.040838573 -0.049464777 -0.11917174 -0.17602018 0.041089866 0.048132017 0.1209322 -0.121796995 -0.087585896 -0.12115977 -0.13901092 -0.1589036 0.04267917 -0.19099203
63 0.1176217 0.11341633 -0.12104504 0.1228399 0.06035049 -0.14794758 0.14463241 0.11617993 0.16507997 0.018578254 0.12430847 -0.083297685 -0.19340673 -0.17516468 0.037763916 0.0007506972 -0.060548216 0.01824259 -0.105236225 -0.073578976 -0.019531142 0.09280713 0.11279668 0.18491694 -0.036797263 0.042322654 0.026171599 -0.14792255 -0.019230124 0.18497784 0.10665507 0.15769367 -0.10557332 0.0006101541 0.055124275 -0.18868598 -0.008710186 0.12020411 0.060281303 -0.072884284 0.11699939 -0.023510765 0.13742039 -0.055895105 0.054593127 -0.002793667 -0.0867458 -0.11455265 -0.08987141 -0.102777824 -0.04926292 -0.029875722 -0.13239604 -0.0311019 0.1104782 -0.10834016 -0.12562776 -0.060304504 0.18606877 0.13671249 -0.15352412 -0.06309612 -0.003357606 0.035753626
64 0.00018093735 -0.07858162 -0.09856751 -0.011420954 0.18257178 -0.12541819 -0.03541939 -0.08218649 -0.022809705 0.031120483 0.18564257 -0.005558567 -0.03553646 -0.16533954 -0.10833964 0.0087105585 0.04565951 -0.08313238 0.025716778 0.059167154 -0.11757688 0.020926973 0.0572602 -0.015605937 -0.1591678 -0.021686913 -0.12536342 0.17907225 -0.06850022 0.18053669 -0.1506302 0.13821821 -0.10849655 -0.17097707 0.11732012 -0.16965713 -0.15678771 -0.08276965 -0.048286572 -0.015205608 -0.15892024 -0.08043912 -0.06687701 -0.15645143 -0.021654256 -0.018561337 -0.13706115 -0.03846103 -0.14813194 0.038926594 0.06418678 0.018226895 -0.014606652 0.1019213 -0.14677393 -0.0025358535 0.17230634 0.0788404 0.15935023 0.09600848 0.17724718 -0.07498059 0.11150321 -0.025056385
65 0.083840236 0.07918775 0.11120363 0.16739012 0.060799856 0.13033457 -0.1754102 0.15487319 0.055404488 0.122290924 0.021801976 -0.13304245 0.02074473 -0.061295196 -0.09587904 -0.039157696 -0.16415814 0.09186356 -0.057129826 -0.14544846 0.07416711 -0.13700679 0.17170012 0.17118071 0.14996679 -0.14493915 0.016452901 0.13277474 0.07747457 0.030863017 0.16979821 0.022431485 0.001197326 -0.06726511 -0.056125555 -0.19199063 0.15930608 -0.1679682 0.01482398 0.07960352 0.014846991 0.06429316 0.18831547 0.14584115 -0.06736685 0.033954903 0.18995418 0.0863933 0.10057454 0.18811019 -0.16349897 -0.087536186 0.046919983 0.03483485 -0.025228301 0.13891572 -0.0026901728 -0.0561577 0.05412191 -0.018145464 -0.12849271 -0.18557224 0.13257429 0.13023448
66 0.0049348315 0.15893152 -0.187148 -0.17828728 0.04659363 -0.085929126 -0.013945938 0.04573673 0.17416264 -0.08269549 0.081847824 -0.067242146 -0.14775683 -0.18801014 -0.051795095 -0.039797116 -0.1815537 -0.02416905 0.08829599 -0.039884783 0.1415428 0.14262366 -0.12687744 -0.0772515 0.116883434 -0.16212428 0.17602542 0.047433484 0.19002116 -0.1744834 -0.088839084 0.032882523 -0.036984928 -0.029684383 -0.16073188 0.0914131 0.036518298 0.11989129 -0.018695686 -0.17385234 0.10502368 -0.13230054 -0.08551042 -0.0550298 -0.07315127 -0.035440825 0.065997 0.044081807 -0.06211531 0.062928244 -0.029107338 0.03107088 -0.17478962 0.04321517 0.00028621964 0.059225865 0.00833882 -0.15889396 0.1450716 0.10861638 0.0013150992 -0.06329938 -0.15878707 -0.16089667
67 0.074114956 -0.13067849 -0.10166686 0.054700386 -0.04083044 -0.10341535 0.09732659 0.09367423 0.065873444 0.17781645 -0.07599083 -0.09044215 0.013316164 0.18056184 0.014337534 -0.15486157 -0.01657403 -0.008803483 -0.049388725 -0.12915827 -0.019495998 -0.07930264 0.11101471 0.07596111 0.18065748 0.17262676 0.12289141 -0.07104312 0.046102382 -0.14489329 -0.1648578 -0.114972614 -0.10655081 0.13062383 0.024325341 -0.10389881 0.10073711 -0.008346912 -0.08747589 -0.030400213 -0.15332063 -0.1051136 0.18956892 -0.09601421 0.16217712 -0.120795235 -0.08407432 -0.0811856 -0.032950412 -0.17570686 -0.1882656 -0.11769266 0.16922417 0.0063597793 0.031508062 -0.07188811 0.113506384 0.1714594 -0.13330333 0.05289569 0.029325178 0.100096755 0.06526777 0.17565267
68 0.04469885 0.06409948 0.11085838 0.14289519 0.060502153 -0.13488485 0.19070117 -0.13940114 -0.13121697 0.18228036 0.18675047 -0.06376059 -0.1821204 0.008299241 -0.09823355 -0.10363894 -0.1311505 -0.07515942 0.059856474 -0.074248895 -0.14599057 0.013680424 -0.08515434 -0.17214344 0.0931725 -0.08197978 -0.1102693 0.15522228 0.08551103 -0.11897981 -0.0018500844 0.11430656 0.18771254 0.15723623 -0.10113532 0.12460117 0.063834004 -0.06805219 0.09242492 0.09287231 -0.06945486 0.03444286 0.040802523 0.13576381 -0.083646014 0.19030195 -0.11143312 0.038051464 -0.03688638 -0.17818183 0.10672869 -0.12443407 0.027094536 0.09500066 0.03172745 -0.028192911 -0.15482119 0.058967285 -0.15979409 0.19119522 -0.08391508 -0.17107266 0.089512184 -0.17173399
69 0.14730605 0.16283233 -0.16062412 0.1059224 0.013407592 0.02663181 0.09178654 0.13614036 0.046507876 -0.09970084 0.11107321 0.15195985 -0.10419441 -0.14844164 0.005091639 0.14026979 -0.063478366 -0.06876547 -0.08814102 0.18833876 0.03748587 -0.0132719185 0.081005864 -0.01804844 -0.13977394 0.0656845 -0.089339465 0.026856534 0.025780149 -0.16175151 0.1543498 -0.000120346434 0.14533807 0.1819659 -0.06230026 -0.1439212 -0.16145922 0.08449714 -0.14046444 0.07392772 -0.10061025 0.14825943 0.0037364298 -0.007786993 0.0933663 -0.13927814 -0.17569233 -0.13820247 0.010378356 -0.04200903 -0.0043688044 0.07265999 0.18674925 0.11527331 -0.07306789 0.040253278 0.1515858 0.10346499 0.039948266 0.042721767 0.015467253 0.090859145 0.02613407 0.07119143
70 -0.13989897 -0.0013015755 0.09635463 -0.033540413 -0.07094044 -0.07609866 0.044984892 0.08697436 -0.07019235 -0.030230224 -0.009582251 0.17985126 -0.103946604 -0.09937248 0.10655458 -0.03338791 -0.0015197871 -0.062214762 -0.011548992 -0.029315678 0.0278063 -0.12754162 -0.16149598 0.14599895 -0.079987474 -0.09606475 -0.16696864 -0.18086569 0.17827246 0.035571016 -0.09495302 0.06904265 0.05431094 0.1694138 -0.10611131 0.107482746 -0.071060225 0.00095477235 -0.09994345 0.1476587 0.04378631 -0.12076256 0.052162807 0.06399611 -0.18770318 0.043811947 -0.13832304 0.1921532 0.07392564 -0.07790111 0.16016407 0.004287431 -0.11427475 -0.037874956 0.06387345 -0.06664035 -0.17897525 -0.096340485 0.08592162 -0.031045388 -0.07950382 0.11301576 0.043765448 -0.070045896
71 -0.18903476 0.18317048 0.093934685 0.12938821 -0.1834435 0.13129428 -0.066186585 -0.13161828 0.14402689 -0.037010096 -0.12757517 0.11446573 -0.04570484 0.09829061 0.075678214 0.06709921 0.008240581 -0.1618965 0.00017502718 0.0671258 0.075864226 -0.12674494 0.098667145 -0.032226626 0.15642716 0.08010664 0.09077254 -0.17561124 0.10444416 -0.034615897 -0.014616677 0.13421015 -0.12733723 0.07721802 0.011429362 -0.08027079 0.027011171 0.047900815 -0.08943208 -0.101453885 -0.046749573 -0.052610345 0.11643373 -0.008813666 0.061327536 -0.03130167 0.010858117 0.04912612 0.16449177 0.1173333 -0.044852674 0.040254362 -0.16374952 0.10883799 0.13351192 -0.17123833 0.15893961 -0.099310376 0.023786537 0.14284316 0.07674815 0.13552666 -0.072527915 -0.1758059
72 -0.028067809 0.058992576 -0.13667278 0.045694977 -0.1493378 0.033353478 0.050216142 0.06924343 0.063521765 -0.07433838 0.15433225 0.070573606 0.093358055 0.15285689 -0.061308812 -0.0381502 -0.038651247 -0.16382791 2.1624379e-05 0.036145017 -0.16985124 0.0133030815 -0.06563248 -0.07519339 0.18733394 0.13694718 -0.18249199 0.044362452 0.02312492 -0.07839142 -0.03228201 -0.03697934 -0.046782173 -0.11324357 -0.06457834 -0.074567296 -0.15484723 -0.16543755 -0.022318363 0.016502723 0.08989013 -0.11868927 0.14511994 -0.08519544 0.1456526 -0.11487003 -0.089105174 -0.0471911 0.08240192 0.042622313 0.018969104 0.029165486 0.002240668 0.072674826 0.037635084 -0.046016395 -0.03513477 0.008741565 0.121618606 -0.06616344 -0.13928655 -0.13795061 0.18924125 -0.07072319
73 0.11211097 0.09947451 -0.1549041 0.030023001 0.033609435 -0.03313826 -0.085596256 0.14834948 0.19160151 -0.0057518473 -0.06358477 -0.0900253 -0.09249764 -0.110698074 0.05815721 -0.04393549 0.18777564 0.19178915 0.1297085 -0.09163384 -0.15923876 -0.1768664 -0.07197966 0.005611049 -0.05529628 0.019768912 -0.14664958 -0.11243474 0.080279514 0.07298966 -0.1909745 0.06507245 0.016366672 0.073416755 0.15645981 -0.09609548 0.12313866 0.15139703 0.1342777 0.06032205 -0.08761323 -0.0891545 0.18417828 -0.06662983 0.15090539 0.10399862 0.17288682 -0.1447802 0.07631085 0.19392279 -0.058390528 -0.05367008 0.18962318 0.10205105 -0.18458275 -0.06667048 -0.008519826 -0.010365969 0.19079706 0.027024867 0.052914873 -0.0460622 -0.14987412 0.028058667
74 -0.19241583 0.082910776 0.011226617 0.07157427 -0.13416745 -0.01564729 -0.18960221 0.003836641 -0.16220826 -0.05307594 -0.028294139 0.11789442 0.19091529 0.19078171 -0.16332112 -0.19310927 0.072724536 0.06679179 -0.057582222 -0.08015021 -0.022754952 0.18381275 -0.14253107 0.00046675 -0.0001404807 0.057525337 -0.10398425 -0.17884754 0.07535014 -0.048066832 0.13791823 -0.17006752 0.07770158 0.1455836 -0.13443889 0.041485056 0.019791335 0.07493309 -0.08254846 0.099893756 0.13713685 0.021506697 -0.032981 -0.102285996 -0.18370265 0.13398366 0.066278815 0.024313726 0.005886472 -0.11281541 0.17351058 -0.029966965 -0.023720166 0.056887254 0.06836875 -0.172035 0.17257051 0.07504051 0.11383784 -0.11131351 -0.17907353 0.055368237 0.04594982 -0.054665312
75 0.0015802765 -0.10824559 -0.14028169 0.05140717 -0.12790257 0.13291603 -0.03667258 -0.023283204 -0.15995976 -0.15970218 0.16849141 0.12308873 -0.072104484 -0.14761277 0.05731673 0.100285076 -0.03837025 0.054858103 -0.17499836 0.14646754 0.18934868 -0.0071728537 0.045419823 0.043600455 -0.08570943 0.07693437 0.008737999 -0.0049510645 0.07324446 -0.14073095 0.095399424 0.08437451 0.15255469 -0.18279196 -0.029902391 0.03153394 0.10006548 0.0916106 -0.11622006 0.043345697 -0.0024722014 0.09497698 -0.02652761 -0.0390192 0.10842502 -0.14711538 0.089913994 -0.09315276 -0.1762381 0.1790107 -0.15806822 -0.06478683 0.020716993 0.014497127 -0.062810645 0.11451863 -0.15188958 0.0031840238 0.15246771 0.13693957 -0.058003563 -0.04360915 -0.09331257 -0.096123666
76 0.053738944 0.06664854 -0.034583636 -0.02621283 -0.026270581 -0.09445933 -0.12456615 0.003049937 0.061273772 0.028946739 0.18984705 0.106841184 0.18186182 -0.018865071 0.044024993 0.039244965 -0.08892821 0.09703754 0.1386302 0.15713106 0.034283243 0.052563313 0.113650426 0.10914062 0.12587813 0.16155821 0.045410745 -0.16083957 -0.14351952 -0.12263477 -0.13989775 -0.07027298 -0.05916425 -0.0877208 -0.009940284 0.13993487 -0.038427774 0.17134818 0.1220801 0.07870523 -0.15572423 -0.07822639 -0.08318983 -0.066312194 0.09663538 0.0025437288 -0.087823674 -0.13977398 -0.13277146 0.118338905 -0.18301357 -0.0087353485 -0.17656162 0.096466266 0.18712708 0.15218237 -0.06979673 0.17128651 0.094528675 -0.07118836 0.11707707 -0.021799222 0.18011534 0.090082034
77 -0.14218442 -0.06790385 -0.15517354 -0.010445517 0.010814009 0.10351865 0.028262952 -0.0582069 -0.046897344 0.014588807 0.045814678 -0.10258312 -0.1563929 0.18493794 0.1600082 -0.084329635 -0.18171705 0.114262 -0.17652988 0.048035618 0.08323305 0.022314478 0.07135758 -0.17894071 0.034325562 0.16618872 -0.005420251 -0.11021817 -0.13866259 -0.18862519 0.106241286 -0.18830582 -0.107854545 0.036666945 0.016739149 -0.038615324 -0.11993583 0.15761323 0.16723488 -0.058326434 -0.15743414 -0.16235971 -0.12793499 0.05620696 0.0017957678 -0.1770574 -0.14467712 -0.058384866 -0.14632027 -0.14849484 -0.1722704 -0.06204078 -0.12925667 -0.031948663 -0.19395053 0.023489952 0.090432175 -0.14445698 -0.026150249 0.081927314 -0.04283786 0.09303956 0.09675618 -0.05189284
78 0.13785714 0.105526775 0.14671984 0.07972973 -0.1347758 0.006772359 -0.09975066 0.15049529 -0.0591996 -0.16616505 -0.16959022 -0.009979682 0.18579786 0.123437226 -0.031223066 -0.005955795 0.047509007 0.1146608 0.064869255 0.02525091 -0.109714866 -0.13836257 -0.05666645 -0.15482154 -0.027460162 0.053873993 -0.038892202 -0.11340172 -0.06416887 -0.096416414 -0.0112146735 0.09228072 -0.11639571 0.1461581 -0.06808141 -0.0667538 -0.12638351 0.17614064 -0.06820258 0.12242747 0.059474852 -0.15747143 0.015859054 -0.07675919 -0.11754501 -0.026629485 -0.012103003 -0.00043186452 -0.16257851 -0.042782333 -0.07113364 -0.0021404661 -0.106024265 -0.09564985 0.15545586 -0.16383123 -0.059919953 0.045600936 0.1271424 0.010157116 -0.048175253 0.17375638 -0.032880448 0.17397031
79 -0.08536878 0.14525244 0.053952523 0.11332979 0.029477648 0.055700976 -0.17487977 0.011854604 -0.09555509 -0.0035679238 0.1652219 -0.1594216 0.15109526 -0.06712778 -0.074456 -0.108704984 -0.06510691 -0.07284665 -0.05117129 0.18702158 -0.053307343 0.07440629 -0.042726368 0.01931175 -0.16762127 0.14788653 -0.17854859 -0.10064865 0.000975796 0.060600515 -0.09667909 0.022285245 -0.06486199 -0.002345655 -0.03952063 -0.025431981 0.16655296 -0.15593906 -0.16453749 0.09797633 -0.022393294 -0.0949155 -0.115209155 -0.1444031 -0.14138816 -0.08699084 -0.019105673 -0.16410176 -0.11401782 0.11086397 0.11788003 0.020234 -0.022075124 -0.17110619 -0.047428004 0.0194079 -0.11114314 -0.050110865 0.11344258 -0.062864274 -0.09095989 0.08369627 -0.17645445 -0.025216449
80 0.15351987 -0.14159459 0.059369836 -0.13567376 -0.09547751 -0.0069887694 0.012332715 0.17273106 0.1594303 0.04710305 0.16993658 -0.18212527 -0.008309136 -0.103596896 0.15945882 -0.07024087 -0.17538649 -0.06239226 -0.14365043 0.058750406 -0.14146006 0.0010315469 -0.007609439 0.1899563 -0.17810516 -0.040069025 -0.18325801 -0.036541097 0.13888848 0.07941301 0.15231878 -0.1660346 -0.08191666 -0.092677355 -0.1619745 0.10310055 0.004854491 0.06434126 0.09469135 0.1263919 0.161175 -0.12539968 -0.028962994 -0.15456028 -0.061947417 -0.18261291 -0.060871422 -0.01368513 0.026044264 0.13731784 0.041966755 -0.05706686 -0.17693686 0.17663129 0.1326999 0.04276871 -0.18276198 -0.0012185918 -0.17453691 0.12205255 -0.110612385 -0.0940255 0.18836467 0.04863313
81 -0.06183047 0.09374035 -0.14394218 -0.13065341 0.052233364 -0.08019706 0.18015343 -0.005788359 0.07423011 0.1484462 -0.006785934 -0.18392953 -0.036219575 0.015531925 0.08191606 -0.14086744 -0.102233894 -0.10123311 0.12362239 -0.004816724 -0.1746404 -0.08222553 0.19319834 -0.12834243 0.056807935 -0.036706164 0.09337443 0.17681369 0.025452167 -0.028218597 -0.0450729 -0.060233206 0.18375508 0.08780476 -0.084958225 0.017583879 0.11516298 -0.0018315846 -0.15222397 -0.033929124 -0.0569773 -0.024015633 -0.13338256 0.1692533 0.008727935 0.15302838 0.108109325 0.087772116 -0.14304069 0.022557683 -0.0012373207 0.064358704 0.15420052 0.17702202 0.091154546 0.17576055 0.12817053 -0.094322465 0.084712744 0.08359352 -0.16615804 0.068891704 -0.03199607 -0.004249746
82 0.1415906 -0.12261532 -0.0019358885 0.07972737 0.002771522 -0.17067997 -0.096580245 -0.04405512 0.06197919 -0.16182645 0.16236922 0.06455234 -0.011470498 -0.1524314 0.16811858 -0.08926668 0.03381712 0.122757435 0.13189241 -0.1575094 -0.062712595 0.14307226 -0.16582039 -0.06324328 -0.035941966 -0.0056188432 -0.103097156 0.11844337 0.069961525 -0.0024927165 0.15040459 0.12292531 0.019555662 0.065528564 -0.15222594 -0.0689996 -0.19051085 0.03340914 -0.06787905 0.02448194 -0.061609086 0.002361835 -0.034390405 0.026293827 -0.090343356 -0.16951156 -0.057435963 0.027419992 -0.19189714 0.1770326 -0.18199639 -0.19474196 0.120160565 -0.09059107 0.09341544 -0.0006865505 -0.03338873 0.17730607 0.06281342 0.09116609 0.06305485 0.019298492 -0.06422013 -0.18817206
83 -0.11271372 -0.042624686 0.08341977 -0.1433634 -0.1200675 0.043458544 0.12402875 -0.05385188 0.13493356 -0.13554204 0.08286619 -0.06168997 -0.03270889 -0.07450353 -0.08180924 -0.029962804 -0.07988871 -0.112924285 0.095794186 -0.04249683 -0.16594334 0.024378102 -0.008751422 -0.15753715 0.03680481 -0.13543712 0.15618105 0.045225285 -0.029012531 0.0669002 0.08976575 0.045694727 -0.025569353 0.1867792 0.0062243016 -0.018613948 -0.15497245 -0.015451987 0.015065145 0.07309993 -0.17779474 -0.1506529 -0.056578293 0.16683146 0.06691825 -0.06726418 0.08514879 0.1494373 -0.0055928594 -0.16187124 -0.1906737 0.19217496 -0.018199895 0.059580743 -0.014208129 -0.066394955 -0.14271712 0.18882759 -0.09910469 0.0033299876 -0.03986936 -0.17502226 0.18036133 0.16775522
84 -0.09821819 0.1920432 -0.045875087 -0.10534141 -0.13544984 0.14835067 0.16028902 0.06943922 0.11148045 0.027460959 -0.024237791 -0.16029909 -0.007908919 -0.09844135 -0.19266196 -0.030944265 -0.007895854 0.04307785 -0.1471775 0.16155615 -0.090441525 -0.11764851 0.11310295 0.061828047 0.050302245 0.004841083 0.08173075 -0.091918945 -0.12081661 0.038604334 0.039089594 -0.17465098 0.08734652 -0.12874234 -0.14441466 0.08908716 -0.16080311 -0.18871175 0.18224803 0.051647127 -0.092669405 0.03075111 0.04337118 -0.07726543 0.12542321 0.13115726 -0.17904174 -0.017476121 -0.009419181 0.0022922056 0.031233102 0.103652164 0.07750224 0.05460257 -0.05432599 0.16131479 0.021774778 -0.12136421 -0.057943985 0.044958696 -0.123053886 0.034257572 -0.037577257 0.020450305
85 0.068110734 -3.9801933e-05 -0.17439951 0.012580384 0.11623435 0.024802797 -0.14860964 0.049449082 -0.14906491 0.1689417 0.18385532 0.05357857 -0.18886788 -0.1422311 0.00053034537 -0.137479 0.048812 0.09839103 -0.15227008 -0.14746821 -0.018921264 0.0028347773 -0.055356883 -0.07280152 -0.13421875 0.15575977 0.0039142445 -0.10251359 -0.09678253 -0.09749364 0.15495811 -0.1537949 -0.18144028 0.14907594 0.0030866163 -0.16152537 0.17100157 0.17780872 -0.05115415 -0.038584642 0.0048929537 -0.020014767 -0.019856516 0.14815989 -0.12787108 -0.18390268 0.035418984 0.18666267 0.112797044 -0.112946615 -0.03522826 -0.07907265 0.1398463 0.07037197 0.07377897 -0.040252045 -0.102866635 -0.14621855 -0.111502305 0.037786078 0.02581063 0.12087568 -0.13329917 0.18191099
86 -0.14401625 0.039754093 -0.1412708 -0.047440324 0.17328356 -0.019866908 0.02615137 0.015705995 -0.034884185 -0.18978871 0.14415634 0.07741084 -0.029779442 0.17806762 -0.07272252 -0.061653316 -0.12880158 0.060338493 -0.099356145 -0.003654737 0.044088215 -0.07983734 -0.077598795 0.018921262 0.03213235 0.109688655 0.03667061 0.16937995 -0.1582272 0.14355484 -0.13233495 -0.17684749 -0.093178615 -0.14612414 0.05383595 -0.006603783 -0.07263458 0.16766614 0.16251808 -0.09695631 -0.03413339 0.1671207 -0.15069617 -0.0072134426 0.045538153 -0.12333074 -0.1631988 0.075577594 -0.15206248 0.023360737 -0.117045045 -0.13028038 0.0047922377 -0.10329388 -0.054640047 0.013520514 0.06285025 0.012920225 0.08615728 0.0744086 -0.06571293 0.014807343 0.042550117 0.096612595
87 0.036901064 -0.07164699 -0.10521156 -0.10433402 0.15600823 -0.023301594 -0.0900128 0.0002410626 0.101108655 -0.051068146 -0.012484068 -0.07489447 0.014564702 -0.10238095 0.045844115 -0.018086268 -0.0483763 -0.02329158 -0.05199213 0.074368864 0.0686825 0.016981568 0.05350244 -0.09784602 -0.13703755 -0.058775943 -0.09989017 -0.1652896 0.010136665 0.13595058 -0.15496801 0.028473765 0.13402441 -0.0086573325 0.10357884 0.036179543 0.042762566 0.18556337 0.043781854 0.00952078 -0.14167337 0.028333306 0.03683199 -0.13323878 0.0051370645 -0.025492411 0.035173915 -0.07566681 0.12209403 -0.071982265 -0.057562053 -0.1313903 0.037163 -0.0146629 0.1559679 0.13981932 0.16831462 0.08273134 0.18439212 0.16510087 0.11352362 0.038801596 0.17359938 0.036605995
88 0.13339889 -0.018086173 0.08576523 0.08361007 0.043726202 -0.048629105 0.015948817 0.02245332 -0.13051735 0.07306418 0.021751557 -0.1878074 -0.11001757 -0.097604364 0.0661913 0.16697459 0.10656341 0.17505357 0.034857396 -0.008180645 0.14628825 0.12979731 0.18326691 0.14460091 -0.07534652 -0.08551814 0.08727083 -0.17428862 0.051627394 0.039165672 0.11920478 0.06489475 -0.17921653 0.1308024 -0.070259325 -0.019432655 0.036069375 -0.06668363 0.09185417 -0.10884136 0.14322211 -0.16953112 0.16157313 -0.06289003 -0.025371537 -0.119129 0.02388789 -0.120924436 -0.17351033 0.06499274 0.077314645 0.1642416 -0.07559427 -0.08097196 -0.08086358 -0.0948816 -0.024213497 -0.061369736 0.10070528 0.122838 0.14439628 -0.085854724 0.1881142 -0.17119259
89 -0.02156375 -0.17853674 -0.09382126 -0.04387112 0.048659313 0.010949919 0.005567222 0.04111883 0.08564146 0.083714604 -0.15970942 0.108641714 -0.090413705 0.19396254 -0.19387308 -0.18512651 0.12950401 -0.14263165 0.059692964 -0.04176474 -0.07039257 0.028868932 0.07974285 0.07772334 -0.058232073 0.032968916 0.14026102 -0.17469761 0.1357068 0.13840532 0.14385697 0.1531811 -0.008300943 -0.052265942 0.18887323 0.14487913 -0.07871764 -0.16841485 0.18301134 0.19371532 -0.002458144 -0.1062098 0.16791373 0.16560176 0.15535598 -0.017944703 0.1179147 0.16638164 -0.15876046 -0.12667653 -0.18064867 -0.14068288 0.16344137 0.067121625 0.06383044 -0.09734815 -0.12691186 -0.14006856 -0.06427573 0.010653767 0.18499722 0.020587385 0.05569925 0.106458604
90 -0.021823728 0.008987851 0.10458753 -0.07093202 0.12077823 0.124057084 0.019340403 -0.06908713 0.036792338 -0.06426251 -0.16156748 0.031844612 -0.08026378 -0.14739773 -0.047718123 -0.08225643 0.07849601 0.07065327 0.11167649 -0.03277695 -0.026132103 0.010023561 0.1751259 -0.08457257 -0.17956896 0.17581941 -0.12076277 0.08838863 -0.025979698 0.16821754 0.16553314 -0.08082842 0.06180907 0.005999036 0.1773289 0.14840443 0.026878592 0.18788143 -0.1828742 -0.043379392 0.015156527 0.11113902 -0.06659254 0.1882774 -0.18602741 -0.044576343 -4.0674582e-05 0.17066188 0.09049216 0.13284141 -0.115308166 -0.11597655 0.040644407 -0.01030005 -0.012984893 0.16804606 0.07502754 -0.03421028 0.09286646 0.1406506 -0.02574451 0.024770098 0.19354105 -0.046175968
91 0.080519825 -0.092077136 0.12146346 0.009117159 0.11091165 -0.18277766 -0.15978067 -0.18957275 -0.16463101 0.069519095 0.069739886 -0.021888273 0.18420278 -0.17673302 -0.14293247 -0.12059056 0.10198487 0.17479128 0.16101263 0.06740631 0.10204847 0.1408202 0.18575585 0.18373384 -0.051489905 0.0104655875 0.004570039 -0.16070616 0.17832476 0.14882168 0.004064208 -0.047510307 -0.12224587 0.15552685 -0.09931463 -0.14633684 -0.071352586 -0.041528508 0.1266782 -0.12057654 -0.022961905 -0.14030759 0.12314721 -0.17075332 0.191969 -0.13116144 0.07490836 0.05727119 -0.17915788 0.043825667 0.025185023 0.10515706 -0.09216919 -0.13039841 0.08776444 -0.10534323 0.1697463 -0.18617712 -0.08415463 -0.101067305 0.02422272 0.0852957 0.12224911 -0.12822767
92 0.021947738 -0.15134288 -0.017519265 -0.0025094198 0.09293349 -0.09882477 0.045083754 0.08499428 -0.029296998 -0.08354243 0.017741784 0.17887336 -0.05609437 -0.01024911 0.18797344 -0.009230919 -0.109208815 -0.05533424 -0.10760801 0.0041264794 0.16424371 0.053393632 -0.14248091 0.05223237 0.17739283 -0.106660716 -0.17292286 0.05774294 0.19030096 -0.064594835 0.10927632 0.13337918 0.021687938 -0.01571906 -0.17654091 0.045830727 0.08461642 -0.024492 -0.01583066 -0.016104836 0.0698478 0.05166012 -0.09201082 -0.16009144 0.06539309 0.16312784 -0.10233283 0.15093808 -0.027949734 0.07322569 -0.03809371 -0.015828945 -0.0029140823 -0.08832014 -0.18622817 -0.08008235 -0.19039223 0.038173757 -0.055828616 -0.13511126 -0.0012933034 0.075366534 -0.02142497 0.07186911
93 0.13548255 -0.038603086 0.16268203 -0.11432763 -0.029744517 0.018682793 -0.057217367 -0.17478289 0.11629964 -0.04791692 -0.0059212847 -0.024994276 -0.17348678 0.027526047 0.1355348 0.041843235 -0.13698958 0.16969389 -0.058428492 -0.05100026 0.12011349 0.14700669 -0.0027088653 0.18318734 0.080885306 0.057011127 -0.19051959 0.07380625 0.03516292 0.046807706 0.06093932 0.16071208 0.03536648 -0.023107162 -0.13630494 0.15860634 -0.019657033 -0.044295676 -0.16066079 -0.17540203 0.07828645 -0.16879869 0.0428594 -0.02798716 0.0166011 -0.16895911 -0.17666842 -0.06692818 -0.036165267 0.0807152 0.09500029 -0.14115492 0.12028239 0.15434213 -0.08433368 0.1400405 -0.026290774 0.050548416 0.15405646 0.069056526 -0.1752094 0.050504025 -0.19367774 0.04550285
94 -0.0416691 0.06510191 -0.1935548 0.009411713 0.06302191 0.12402017 0.03835147 0.028647218 -0.0350035 -0.186508 -0.036303308 0.035738446 -0.014710414 0.15984684 0.027075093 -0.02872692 -0.007640033 0.019853227 -0.1631507 -0.09078429 0.12174908 0.16977783 0.017105618 -0.037529044 -0.087271385 0.1537617 -0.046403635 -0.0037086378 0.14142895 0.10978083 0.096961185 -0.045191266 0.18499006 -0.10980031 -0.00037101004 -0.16276564 -0.03924412 -0.13028723 0.030249406 0.08471829 0.007697384 0.039186288 -0.015581713 -0.101011015 0.1682628 -0.16647334 -0.006798609 -0.039205886 -0.027348258 -0.10650143 -0.19110914 -0.06921299 0.044643737 0.04448771 -0.050447486 -0.02870867 -0.102359295 -0.0045924764 0.13634774 -0.03752638 -0.054117456 -0.08085216 -0.0653215 -0.13658772
95 -0.060130708 -0.1519077 -0.10983058 0.037941255 0.12566192 0.17845981 -0.18975677 -0.047637455 0.10075733 0.10349507 0.059059363 -0.00069817575 0.12883773 0.11607236 0.011498701 -0.019517034 -0.016636526 0.029974254 -0.17916434 0.050077863 -0.0071649877 -0.023790667 -0.091651216 -0.04468351 -0.06156809 0.0580794 0.02830603 -0.18572757 0.1735004 0.10106375 0.18010898 0.11993535 -0.09247414 0.10207696 -0.04195879 -0.030920286 0.071112305 -0.049844924 0.09272902 0.13320276 0.06970215 0.047687817 -0.11392769 -0.06595244 0.16784906 0.11985872 -0.11325597 -0.16306026 -0.001459416 0.123736635 0.14610708 -0.04758335 -0.08057226 -0.12581599 0.13324353 -0.14063063 -0.12188076 -0.17416458 -0.15773956 0.11068527 0.122492194 0.029221036 -0.054645568 -0.05372584
96 0.13724458 0.11796814 0.077477455 -0.05606054 0.11928437 -0.17031701 0.00024136901 -0.14588131 -0.0222929 -0.04315359 0.16408303 0.06328073 0.043304857 -0.09300021 0.14507999 -0.0278837 0.18040144 -0.16653894 -0.08789708 0.041077003 -0.025141142 -0.00013903342 0.071640655 0.09414338 -0.16651893 -0.16754799 -0.14973092 -0.13034344 0.16362426 0.18103226 -0.09544842 -0.049282607 0.036547158 -0.08337306 0.05155152 -0.1132431 -0.107349135 -0.028815959 -0.093438804 0.09660524 -0.105533965 0.03243742 0.15362723 -0.17100713 0.12991703 0.18048391 -0.04890375 -0.1284092 0.11798901 0.109727986 -0.124169335 0.013031255 -0.069712855 -0.13582791 0.19420785 0.16218667 -0.00031508505 0.016462788 -0.03472853 0.0007426217 0.13624687 0.10557142 0.18403439 -0.09150484
97 0.05662014 -0.031749316 -0.17172274 0.08751498 -0.018193644 0.085305855 0.18796696 -0.040207766 -0.052306607 -0.1510884 0.03481563 0.043063838 -0.13010065 -0.0811224 0.12455937 -0.033305764 0.1028586 -0.02246143 -0.13097179 -0.021845829 -0.1884746 -0.023662794 0.16742158 0.075544216 -0.08795259 0.12923944 0.020489156 -0.061311003 0.13706504 0.19361715 0.15820482 -0.11434637 0.1743176 -0.0626338 -0.06710384 -0.081871994 -0.025511255 -0.0781509 -0.0903396 -0.061049655 -0.05221296 0.07492024 0.06609669 -0.056459714 0.061074294 -0.1632729 0.16781485 0.05459773 -0.06599139 -0.09856166 -0.15720682 -0.17236258 0.065456815 -0.188167 -0.003519061 0.06067565 -0.047948215 -0.16804264 -0.048815813 -0.12311963 0.006191726 -0.120535865 -0.17880905 0.028735027
98 0.11161492 -0.17134568 -0.04718633 0.18818887 -0.19166604 -0.09156639 0.027517702 -0.051864542 0.16699107 -0.032845005 -0.15187788 0.08990241 -0.08366294 0.19158934 -0.15323946 -0.14987706 0.0001174584 -0.11917502 -0.11666909 -0.083506405 0.106399804 0.04445722 -0.037007906 0.079000324 0.0499968 0.020618834 0.007525009 -0.060622446 -0.009521534 -0.104904816 -0.0752872 -0.12444816 -0.1309392 -0.08941764 0.18734851 -0.088689364 -0.06698849 -0.06223147 -0.048141576 0.054284845 -0.02699244 0.02995042 0.002520251 -0.012048674 0.13689128 -0.10682332 -0.033881254 -0.13858734 -0.17313556 -0.11513718 0.08585483 -0.017253803 0.18444823 -0.110071465 -0.067794695 -0.1574123 0.00068532815 -0.12784514 0.09994987 -0.19154787 -0.031253457 -0.10499654 0.15101399 -0.12541078
99 0.1205274 0.05007933 0.060905397 -0.13088392 0.1915998 -0.11773625 -0.16639934 0.14863616 -0.18604513 -0.14698744 0.102204844 0.09577488 -0.0042059533 0.15206851 -0.020436669 0.19160801 -0.08068933 -0.07510165 -0.14773406 -0.03760807 -0.18236074 0.098197386 -0.13815446 0.0040119337 0.014710221 -0.099731855 0.08968856 -0.043329943 -0.15517537 -0.08048953 -0.02268104 -0.041002512 0.062273964 0.06091738 -0.085596904 0.13313185 0.03577791 -0.15927488 0.11112688 0.17927305 -0.099903025 0.09677284 0.046896663 -0.03771761 0.17670566 0.15193844 0.16608943 0.039022096 -0.15738134 -0.025354158 0.03183756 0.13663433 0.031623982 -0.07277269 -0.15563484 -0.1557876 -0.16810541 -0.13609314 0.16465425 0.11633309 -0.0003539566 -0.073824376 -0.13366385 -0.011635659
100 -0.056789577 0.13222785 0.14053485 -0.053889554 -0.02330568 0.15118743 0.0023816796 0.075677715 0.015678974 0.18475413 0.036717474 -0.14099826 0.056639913 -0.0894167 -0.11913277 -0.05702265 0.055299588 0.19273868 -0.10134702 0.13447355 -0.0886868 -0.113587074 -0.026059076 -0.10695011 0.029497303 -0.13396478 0.03917115 0.060549717 0.08184457 -0.00837403 0.08509053 0.01645695 0.17178077 0.09283424 -0.046884842 -0.032934822 0.07435751 -0.056581367 0.013735432 0.06905703 -0.07639942 -0.09742252 -0.07392979 0.07436164 0.0922139 0.18778785 0.016324453 0.101190045 -0.11075487 0.028938863 0.022245146 -0.07928 0.06755653 0.02071807 0.1751764 0.17581125 0.113544434 -0.097521186 0.061286658 0.048361562 -0.09379977 -0.07298873 0.17533597 0.1677777
101 -0.15146351 0.11186728 0.07810289 -0.07636522 -0.0019751955 0.06047813 -0.18824059 0.1384745 -0.1794624 0.09301117 -0.027624885 -0.009399852 -0.11050223 -0.05982116 0.106844746 -0.1574928 0.14419924 0.04759256 -0.15938926 -0.042676773 0.015182295 -0.04970125 -0.105698325 -0.08064503 -0.1913878 0.047146827 -0.16996527 -0.13502827 0.1576191 0.16157919 -0.1821522 0.14183334 -0.1454504 0.13716713 0.030281316 0.099331215 -0.11869725 -0.16420282 0.032412954 0.09085149 0.19392274 -0.18065874 0.048130438 0.14809826 -0.12806912 0.07326148 -0.0774638 0.12077057 -0.17955135 0.0015770523 0.16746035 -0.16509192 0.047155306 0.02391088 -0.011443587 0.11126147 -0.059266917 -0.14108148 0.0045799203 0.03354573 0.03167603 0.13271208 -0.056832112 0.041683674
102 0.07972498 -0.13092977 0.026939346 -0.0386827 -0.03691431 -0.08861026 -0.092423834 -0.11174168 0.11000665 0.015689796 0.039679043 0.010349341 0.06253748 -0.14135952 -0.045776196 -0.18034635 0.18668841 -0.12976757 -0.035558574 0.029163372 0.16289492 -0.07370731 -0.13900848 0.14905748 -0.030725237 0.14455812 -0.044881713 -0.066945754 0.1611062 0.18959747 0.17615534 0.15530229 -0.117194235 0.05046823 0.15082541 -0.097807154 -0.026090063 0.087653026 -0.019382197 0.07662339 0.01919215 0.14762917 0.034951556 -0.11830771 -0.042806767 0.075743444 -0.12504667 0.008752525 0.06652421 -0.088791944 -0.17474149 -0.17254183 0.08034238 0.021966536 0.12726878 0.116137356 -0.0087536825 0.15164578 -0.1528335 -0.08912723 0.07488239 0.11801001 0.061954025 0.10938306
103 -0.16995527 0.04730374 0.019278694 -0.1778272 0.004761924 0.0023887735 -0.0062185833 0.047033206 0.13403898 -0.0032567652 -0.110696234 0.04432384 -0.009301023 -0.03699138 -0.08297551 -0.06439873 -0.13839884 -0.021211024 -0.056871485 -0.14051536 0.15181537 -0.051091723 -0.11708275 -0.10691279 0.15777743 -0.02829029 -0.18305326 0.09352964 0.12083801 -0.16150022 0.15261179 0.17310718 0.054138243 -0.18771197 0.1192646 -0.12033037 0.12506524 -0.08716367 -0.014812861 0.08252802 -0.09743412 -0.018918764 -0.061165117 -0.19095708 0.13467886 0.0776533 0.013976385 -0.12984513 -0.1273742 -0.05332485 0.1767632 0.120072216 -0.15252632 0.05687258 -0.073575184 0.004491414 -0.15534793 -0.17381592 -0.016990311 0.028140344 -0.041557193 -0.009050687 0.14419296 0.0777541
104 0.07054395 0.1751987 0.08497339 -0.051723562 0.065144554 -0.06214358 -0.0332007 0.13190843 -0.03177101 0.076263964 -0.13545205 -0.045708008 -0.12973924 -0.07482754 0.14080104 -0.02530877 -0.1886244 0.07879971 0.11817516 0.12800932 -0.049581286 -0.16684449 -0.106843606 0.15700454 -0.16303262 0.030770386 0.064447284 0.09924232 -0.06539915 -0.017233443 -0.0035935398 -0.0209269 0.1897687 0.15284169 -0.117306784 -0.009877296 0.014226257 0.02031099 -0.040153064 0.1463306 0.045757808 0.11740813 -0.0020075408 0.03999728 -0.19002245 -0.025563933 -0.095744625 0.09638705 0.1734511 -0.16649388 -0.040503033 -0.038299784 -0.07398386 0.045566294 0.13889778 0.14626728 -0.122238755 -0.0704899 -0.04914635 -0.07654113 0.050911177 0.074019104 0.1396234 0.15405846
105 -0.09149287 0.18471415 -0.16181985 -0.13591072 -0.0779036 0.034838043 -0.012833352 0.08794338 -0.10407984 0.0045172647 -0.043517865 -0.13965203 -0.012000928 -0.010163682 -0.17561896 -0.050693043 -0.053856168 0.06612176 -0.04040774 0.07112108 -0.0023445198 -0.037973497 0.043074466 0.16496196 0.15261593 -0.19205353 -0.144546 -0.17470239 0.025137827 0.009675871 -0.09597743 0.003716576 0.013755014 0.11972722 0.078388356 0.12876283 -0.14082508 0.022777805 0.078923404 -0.17709528 -0.026287751 -0.06694798 0.034989506 0.12706095 0.170056 0.03136124 0.058228426 0.040013406 -0.020118976 -0.10090672 -0.17523256 -0.18332668 0.19115828 -0.092336036 0.10797812 0.06760461 -0.14244434 -0.10230028 0.080172926 -0.15035444 -0.09665773 0.07509222 -0.12617213 -0.041525383
106 -0.031408135 -0.089045644 -0.15488799 -0.1624721 -0.08688659 -0.05152749 0.012011621 -0.020566875 -0.10637368 0.18606067 0.1869227 0.15549254 -0.16430676 -0.10800713 -0.12075403 -0.18730675 -0.020261422 -0.055935565 0.0028428966 0.03624861 0.13023767 0.046784565 -0.015047543 0.07130633 0.15657064 0.106715456 0.003167036 0.024817197 -0.14444171 -0.15186982 0.11882595 -0.15768586 -0.12880865 -0.03239064 -0.16295767 -0.14397192 0.0736036 0.18070334 0.19329654 -0.17148277 0.10916004 -0.117591985 0.18125312 0.015455802 -0.17239493 -0.11872648 -0.11127273 0.1160732 0.047463987 -0.10725605 -0.1629922 0.17520517 0.093186714 0.13966306 0.06312163 -0.08224233 -0.045145832 -0.077916905 0.1005186 0.019118555 0.033904586 0.0007486688 -0.051332835 0.0020725569
107 -0.13097282 0.096660905 -0.13610575 -0.08705195 -0.14352389 0.040219825 -0.18059804 0.16430709 0.117793255 0.16274036 -0.008604935 0.062820695 -0.10083359 0.1269139 -0.04588045 -0.048298527 0.18380122 0.08192446 -0.0025681397 -0.18533641 0.11801927 0.08024494 0.1483823 0.09794461 0.14984778 0.17472132 0.06484652 0.062068254 0.054185066 0.12043342 -0.051752783 -0.053638298 -0.16646789 -0.053527802 0.16820055 0.15687703 -0.16596499 -0.091622785 -0.1113773 -0.094085306 0.18866836 -0.006706842 0.16468628 -0.1593046 0.05461942 -0.1613833 0.021563113 -0.067383975 -0.10668898 0.035811804 0.0022217818 0.055030446 -0.14666593 -0.17681825 0.03639382 -0.06421501 -0.06634712 -0.12128099 -0.19262786 -0.0073535875 0.16123447 0.019409822 0.08827518 0.16019994
108 0.04270743 -0.0650619 -0.009211541 0.030496702 -0.060774278 0.115634575 0.032078788 0.1714066 -0.16271159 -0.18536003 -0.08601059 -0.0059732413 -0.12737158 0.17879078 0.15564859 -0.13928191 0.13952179 0.09066055 -0.030737668 -0.007834702 -0.0034770938 0.0068457443 0.14512414 0.0027069142 0.19324595 0.1921212 -0.022839 0.08684953 -0.19428807 0.169305 -0.07769441 0.039215352 0.10362865 -0.084280044 -0.17980352 -0.012096118 0.1315658 -0.13276841 -0.19442649 0.06888261 0.06822312 0.15665762 0.019434009 0.06476104 -0.06545168 0.09348389 -0.017853126 -0.041902676 -0.029905189 0.1087367 0.00033665728 0.11183507 -0.11865489 0.021624466 -0.17607097 -0.091261536 0.17737494 -0.08808084 0.0028298944 -0.17879993 -0.19388954 -0.135627 -0.02438147 0.051138382
109 -0.18612704 -0.18436937 -0.15262604 -0.069713965 0.08439149 0.14702457 0.026997807 -0.057709776 0.08732334 -0.0011887923 -0.13269728 0.11419318 -0.13997881 0.0678942 -0.05171124 -0.112301715 0.038117636 -0.16909227 -0.068325594 -0.120855354 0.08528392 -0.14527741 0.098073795 0.056946583 -0.0039377334 0.16188714 0.11430488 0.08346869 0.18155263 0.06833708 -0.0737337 0.0937349 -0.08334445 0.05078472 0.13106544 -0.05814733 0.058221046 -0.13690017 0.083397016 0.06045344 0.1772113 -0.09336026 0.0247903 0.1264861 0.028562129 0.06572399 0.17067012 0.021809712 0.04809134 -0.058090605 -0.19128965 -0.13911934 0.12872672 0.18312222 0.13388781 -0.05642131 -0.1443568 0.028087007 0.09552526 0.1700112 0.09645911 -0.121961676 0.16692244 0.18869473
110 -0.015582955 -0.0586341 -0.104780406 0.036830544 -0.10967733 0.1943274 -0.14219923 -0.12287774 0.09591791 0.105839446 -0.12519373 0.11699578 0.18460885 -0.025546148 0.18200772 -0.03190125 -0.18977702 0.0357277 -0.11244976 0.11439117 -0.006246927 0.014112228 -0.039329022 0.139963 -0.13737379 -0.005109133 -0.08154124 -0.06405481 -0.02338257 0.048210472 0.13707283 0.19163293 0.13674903 0.060191832 0.02832861 0.17042433 0.10987452 -0.1892727 -0.11988383 -0.18138355 0.13802823 -0.06067005 -0.15789045 -0.06913726 0.099703535 0.106250755 0.15370539 0.050517347 0.17149734 -0.052305557 0.1887221 0.009980883 -0.048507545 -0.07979633 0.05020357 -0.076906115 0.063494004 -0.040475197 -0.10225473 -0.054327052 -0.0032524252 0.035732135 0.102601476 -0.16691582
111 -0.12207286 0.02644622 -0.18261978 0.066019095 0.0605762 -0.010222512 -0.089825496 0.06675172 0.039775558 0.16169313 -0.1717022 -0.046156798 0.08765653 0.11064108 0.006159353 -0.18734452 -0.036020994 -0.026170641 -0.006268068 0.061612077 -0.023920884 -0.08920435 -0.14738855 0.1898021 -0.108873144 0.026065988 0.16136795 0.054477762 0.021455072 -0.08719724 -0.14446966 0.107055865 -0.16084184 0.12378819 0.17595308 -0.05496377 -0.15116909 -0.16596216 0.09531717 -0.03396212 0.06026484 -0.15521088 0.05194124 -0.048469663 -0.00883235 0.0018254295 -0.07779159 0.056723252 -0.18131524 0.0031383047 0.10858261 -0.1817094 0.007921747 0.18256913 -0.07820135 0.087107964 -0.0072661154 0.13148941 -0.0705799 0.029133195 -0.018252816 -0.07050283 -0.14609577 -0.13621283
112 0.18758167 0.03519676 -0.052653722 0.11790322 0.18370971 -0.18010719 0.05910221 0.09809582 -0.0718346 -0.018251177 0.047167446 0.1873346 0.15536165 -0.06645611 0.12664378 0.18783754 -0.08631026 -0.17132944 0.14167471 -0.034657903 0.18076228 -0.025267381 -0.15170212 0.06481992 0.04897762 -0.19207743 -0.08634813 -0.031611443 0.16916259 -0.11630128 0.012549917 0.19370933 -0.11274963 0.07189755 -0.085903734 -0.18985504 -0.17401195 0.18345714 -0.18649542 0.054788224 0.07411231 0.123709306 0.01776747 -0.0022835266 0.058792405 -0.11284335 -0.029425047 0.10854964 0.032498557 0.111809246 -0.12357834 0.076224275 0.0042701056 -0.1609853 -0.037792638 0.06548932 0.05668592 0.0063695405 0.15039334 2.6035123e-05 0.127238 0.045857277 -0.01099033 -0.14192629
113 -0.000641237 0.012793735 0.0692887 0.011028889 0.13964371 0.11656157 -0.17139906 0.18497898 -0.0630189 -0.07484428 0.0296718 -0.12261762 -0.11157307 -0.06836095 0.14085424 -0.15093534 0.053571083 -0.122498736 0.07350616 -0.15595907 0.08896971 -0.14707166 0.049200688 -0.083347864 0.033117328 0.14773636 -0.04139546 0.04981728 -0.046303757 0.025394052 0.044849515 -0.048455127 0.024426835 -0.019760707 -0.088187546 -0.10221521 0.04694684 0.11683966 0.0051946603 -0.07999766 0.07364828 0.006216813 0.12849349 0.056528047 0.08804519 -0.03681112 -0.0044991598 0.17457071 -0.0493638 -0.062289927 -0.09727866 0.1266748 -0.060700975 -0.113067225 -0.15207537 -0.14467123 0.1413645 -0.079208635 -0.039215963 -0.106836304 -0.1671713 -0.16682763 -0.1310612 0.066594854
114 -0.12348162 0.032448385 0.04688702 0.057671305 -0.06991268 0.18817256 0.068309665 0.1695407 -0.103323795 0.061307408 -0.12437682 0.17747672 -0.04208583 0.1189523 0.16122589 0.015528894 -0.14132251 -0.038094696 -0.15263891 0.09132433 0.16945037 0.14231768 -0.11014291 -0.020554349 -0.04533695 0.072567746 -0.12936378 0.09207221 -0.037720494 -0.14520684 -0.020985859 -0.07801864 -0.0035901573 -0.038210195 0.01272236 -0.16174413 0.06306819 -0.048508752 0.022237552 0.16128102 -0.043973833 0.16476537 -0.009382706 -0.16223063 -0.0037456397 -0.11917074 0.19021589 -0.041559525 -0.016946238 0.0095634535 0.07075205 -0.020090073 0.16673695 -0.05760808 0.013440063 -0.029459313 -0.15202457 0.032874964 0.17845595 0.13498534 -0.12166293 -0.09093445 -0.1693223 -0.1176188
115 -0.08181072 -0.10402827 -0.1492061 -0.15039794 -0.16033348 -0.021738641 -0.1559507 0.058637865 -0.06714062 0.02282159 0.14548399 0.055164002 -0.025739 -0.04219204 0.044125434 -0.09441674 0.12090662 0.14954844 0.04284037 -0.0011670664 -0.04681911 0.07535816 0.16113348 0.10490352 0.061419033 0.14074561 0.16277719 -0.18618612 -0.07124114 -0.101259604 -0.044945754 -0.14007038 0.07964095 -0.033046547 -0.17196755 0.077229135 -0.091917984 0.13018872 0.031392395 0.116499856 -0.11966872 -0.011933851 -0.013281258 0.13205206 -0.14934951 0.07754428 -0.0922869 -0.0367434 -0.03753648 0.044411153 -0.12776515 0.16335186 0.045212243 0.16350892 0.13465416 0.13942446 -0.019966917 -0.18847862 0.03363049 -0.1303524 0.1484389 -0.1477701 -0.041502498 0.052311186
116 -0.16639584 0.061005246 -0.026325181 0.1843931 0.15061131 -0.08984254 0.18336324 0.0029631727 -0.17662928 -0.080306314 0.08770254 -0.17325999 -0.062006257 0.11786029 0.045942333 0.031202136 0.034516707 -0.043619078 -0.08937195 0.044351578 -0.02059282 -0.15083791 -0.11875962 0.1776188 0.057492584 -0.01896405 0.058471162 -0.04409078 0.12903984 0.09597272 0.09135891 -0.10274601 -0.05941694 0.1382406 -0.080166265 0.13143215 -0.15465121 0.10454452 0.10117624 0.10370303 -0.13509148 0.03572648 -0.014850103 0.073970206 -0.09574251 0.07359816 -0.021219779 -0.15340066 -0.1702927 -0.14486036 -0.07992465 0.1601831 0.068655774 0.018553298 -0.076701574 0.12965967 0.10205033 -0.18359335 -0.08535817 0.16445182 0.092045255 0.1174724 -0.1758064 0.17570885
117 0.027037416 -0.049517807 0.017417975 -0.042506777 -0.02080357 -0.15537754 -0.15996115 0.19356917 -0.102783486 -0.13176945 -0.05789729 0.16399264 -0.09319656 -0.043093774 -0.008914991 0.090529926 0.098273635 0.17761518 0.041010965 -0.116804875 -0.022279058 -0.0858381 -0.088384315 -0.11639489 -0.18954591 -0.077308424 -0.09866656 -0.09253401 0.18420835 0.11768778 0.001989385 -0.09971353 -0.14581618 0.0011473754 0.059357133 -0.087542556 -0.011679624 0.18854469 0.052490458 0.06943923 -0.1594049 -0.03288448 -0.046185557 0.08738162 -0.09090572 0.026888223 -0.026028663 -0.05314814 -0.12821274 0.10071215 0.18272491 0.18703477 -0.023815798 -0.04285796 -0.16982023 0.034403518 -0.1435845 -0.013470121 -0.11822506 0.1746102 0.036047705 0.11389329 0.15742725 -0.16883181
118 0.039548192 -0.07685291 0.013822169 -0.05615097 0.059761174 -0.09010466 -0.031295016 0.14413255 0.16650827 -0.09011552 -0.17196219 0.09336717 -0.10298479 -0.022179764 -0.1786423 -0.031928934 0.02904708 0.047572054 0.09188639 -0.16839412 -0.19411421 0.18530667 0.06918503 0.006400494 -0.18582192 0.027833479 -0.014537735 -0.1381832 -0.049567893 0.15898114 0.12610056 0.15093544 -0.16430303 -0.0071757995 -0.058286898 0.1776765 0.03592171 -0.07864919 0.034741633 0.029155415 -0.09879775 0.091449626 0.09005667 0.006645118 0.08603506 -0.06167634 0.11361028 0.12809642 -0.1540014 0.07969866 -0.11700497 -0.012269046 0.087858066 -0.013378222 0.17987727 -0.19349691 -0.18427955 -0.09123884 0.102420926 -0.124464795 0.036177658 0.18299928 0.069504134 0.1735377
119 0.029755428 0.09316517 -0.15048604 -0.104953006 -0.101044476 0.028207552 -0.135154 0.11612595 0.028384242 -0.002567728 -0.05571872 0.18736742 -0.019756237 -0.00079228485 -0.16239615 -0.0130566405 0.14897838 -0.006182123 0.05910479 0.053981032 -0.061593145 -0.019408256 -0.03592036 -0.019084256 0.17129691 -0.14294934 -0.045599855 -0.19258747 0.05558847 -0.076982625 -0.055043846 0.015572078 -0.18024698 0.18677568 0.060368456 0.04302893 -0.053993244 -0.19353355 0.018458784 0.052482553 0.07054812 -0.04078612 0.075192004 0.045061562 0.072434865 -0.09088179 -0.099809535 0.18988916 0.06519853 -0.083862945 -0.16178676 -0.18416828 0.14628989 -0.1327806 0.078872144 -0.1252819 -0.13426293 0.07338816 0.09980577 0.003441628 -0.15410864 -0.061276205 -0.06701272 -0.1856126
120 -0.15715767 0.011807473 0.032698188 0.148617 0.040419437 0.17640667 0.1257398 -0.008873504 -0.019154562 0.019690573 -0.17949866 -0.0902142 -0.10933401 -0.07015463 0.00587249 -0.07200038 0.08662029 0.14481686 -0.08381598 -0.05257703 0.09986364 -0.111923605 -0.08113067 -0.06783308 0.11213899 0.06185775 0.17910416 0.17400083 0.1467284 -0.12144235 0.030272733 -0.015265249 0.07853069 -0.08355442 -0.058572084 -0.15187904 -0.0439017 -0.19131552 -0.019108828 0.14282846 0.07415814 0.15911539 0.055082094 0.16034552 -0.13827392 -0.17016163 -0.18364713 0.051365282 0.11136004 -0.13924128 0.061813273 -0.18943326 -0.14831042 -0.06637674 0.044067696 0.0015930496 0.01590513 -0.09167609 0.191939 -0.05241487 0.17447421 -0.06521312 -0.17877084 -0.03982076
121 -0.050380282 -0.027926076 0.029543757 -0.013141945 0.017861383 0.095552936 0.007467841 -0.02791594 0.14500946 0.06742073 0.046250846 0.039653905 0.094098076 0.056823287 0.108103454 -0.08257862 -0.15676315 0.022403773 0.18826069 0.0021264013 -0.18666397 -0.09434601 0.15441924 0.13720267 -0.047997408 0.14532691 -0.0020189015 0.03574874 0.1549647 0.028007608 -0.063124195 0.17106141 0.024269935 0.14322793 -0.07743178 -0.08888271 -0.12466492 -0.18648201 0.1253297 -0.06983999 -0.039960936 -0.029685043 -0.1570139 -0.14360704 -0.17147745 0.19193032 0.0655059 -0.0783142 0.11238412 0.070955284 0.0890275 0.067767695 -0.101996504 0.026673619 0.19233175 0.11998364 -0.07873876 0.12809901 -0.15656339 0.045432556 -0.047346555 0.10291524 0.039408177 0.16099013
122 0.055693135 -0.025544522 0.006561368 -0.060096968 -0.05902098 0.19350874 0.052434202 -0.073304564 -0.056503437 -0.046775475 0.091162786 0.012647578 0.036673397 0.046609383 -0.10780488 -0.057765245 0.02279891 -0.009645846 -0.062631704 0.029618677 0.081122026 0.14666809 -0.18354252 -0.023748023 0.10217498 0.06521821 0.09788413 -0.05444521 -0.046228886 -0.094063915 -0.003490272 -0.19253515 -0.05594649 0.113260105 -0.14138967 -0.15744194 0.18766484 -0.007979569 0.16620682 -0.13387309 0.00047790445 0.040935025 0.14766714 0.0050332583 -0.16200244 0.07682011 -0.0021570465 -0.04762035 0.12129423 0.1643694 -0.05063943 0.093229905 -0.052422218 0.08950711 -0.014025116 -0.045161366 0.0061618267 -0.15959972 0.15977304 0.08712665 0.015747452 0.038325816 -0.15726073 0.18076989
123 -0.13042605 0.08080215 -0.04572676 0.19386068 0.1491495 -0.07490041 -0.051905245 0.058252193 -0.1304741 -0.19208965 -0.0129212495 -0.08965324 0.07749619 -0.03276508 0.08521858 -0.14104421 0.14155763 -0.117086045 -0.08852473 -0.06267896 -0.0460034 0.0934596 0.07386582 -0.021520246 -0.12758097 0.060706742 -0.095661 0.1751041 -0.1563391 0.049924664 -0.1288423 -0.031177297 0.054951508 -0.08363329 0.1737896 0.08109064 -0.069679655 -0.17668979 -0.16396117 0.12586078 -0.14076485 0.076624215 -0.15212 -0.111825116 0.12951225 -0.18763788 0.076848805 -0.06210342 -0.17817156 0.11129071 0.16958061 -0.092826575 -0.006033534 -0.08950034 0.12159868 0.060597897 -0.0019355537 0.055456303 0.1311473 -0.067889996 -0.0015839646 0.10561446 -0.049318947 -0.17279378
124 -0.18667278 0.0888559 -0.12464383 0.1263943 -0.006206601 0.119110405 0.1064588 0.1607108 -0.13849254 0.11458921 0.010906041 0.14717478 -0.020617012 0.1401686 0.16415478 0.18769228 0.18560493 0.044842206 -0.10851169 -0.039659068 0.0731616 -0.09280354 -0.16762154 0.14769305 -0.15707472 0.17958665 0.13198215 0.008161817 0.10942217 -0.005264555 -0.0915616 0.11126897 -0.17466778 0.025188101 0.16229898 0.1355533 0.026341412 -0.1895639 -0.07806535 -0.105103634 -0.005251471 -0.11473603 -0.10632094 0.08168164 0.17148852 0.06970667 -0.016470255 -0.03867178 -0.19071639 0.18300575 0.12937105 -0.18176365 0.14089777 0.19193205 -0.18500775 -0.15494753 0.014783342 0.025542535 0.009300105 -0.0536938 0.17792495 -0.17118059 -0.17006986 -0.13102095
125 -0.071817085 -0.16740066 -0.11472887 0.18296997 0.029458486 -0.13996774 0.15021618 -0.0014949394 0.06902605 0.16347823 0.11965125 0.13859238 0.11949965 -0.073527016 -0.17938891 0.19334936 0.04394797 0.14282323 0.15479605 -0.0369393 -0.026836295 -0.059652463 0.03881227 0.17109214 -0.11806141 0.13883728 0.15391436 -0.1656353 -0.028945308 0.072743595 0.14464276 0.06110451 0.018589713 0.004523443 -0.08479683 -0.021360833 0.18716058 0.10447847 0.062238693 0.1556914 0.068543896 -0.10516599 0.14793138 0.006699971 -0.0038643237 -0.0960796 -0.18129925 -0.17889893 0.08654575 0.119305454 0.05367899 0.04774196 -0.17472623 0.006928565 -0.032041155 0.14541791 0.108459316 0.16367285 0.069552794 -0.016255708 -0.08423908 0.041091107 0.015311165 0.15324394
126 -0.037039544 -0.1410467 0.042627104 -0.12172825 0.062133655 -0.18609114 0.09877545 0.18369934 0.10940121 0.18825257 0.18899678 -0.018073626 0.037504677 -0.07169357 0.17296223 0.12484872 -0.10655752 0.14704378 0.1699249 0.10570668 -0.122149125 -0.010837413 0.08572679 0.14251797 -0.102017105 0.17985995 -0.005159905 -0.069404684 0.10495203 0.133227 0.09422329 0.02006333 0.044217307 0.10191465 -0.07630198 0.18109302 0.034897164 0.041300002 -0.049962804 0.08876458 0.09414931 -0.19383104 0.09903379 0.0782248 -0.14782478 -0.046493556 0.06699038 -0.099414065 0.008339969 -0.079890355 0.054388635 0.07754004 -0.1262133 0.17040619 0.062889025 0.13117047 -0.057970192 0.12870464 -0.09365322 0.067377314 -0.09420778 0.015352079 0.15785916 -0.02426276
127 0.074205086 -0.05342399 0.07367628 0.043217614 0.15615906 -0.16415851 0.06837147 -0.16211583 0.090926744 -0.08739308 0.13101989 0.04328893 -0.024013083 0.082367286 0.08194694 0.13026893 -0.15780705 -0.056151748 -0.07463831 0.082187295 -0.12795804 -0.039618433 0.18712573 0.10984647 -0.16062094 -0.08201121 0.13971066 0.121655144 0.18161246 0.012406823 0.16698474 -0.07164547 -0.06294539 -0.11510155 -0.0063031036 -0.18830925 -0.064881615 -0.09894693 -0.09192133 0.1919334 -0.09110161 0.10896797 -0.08594693 -0.056883417 -0.16804709 -0.11926938 -0.15291978 -0.08523185 -0.075779445 0.17495865 0.042539515 0.111503005 -0.052810993 0.056944214 0.18797952 0.16809955 -0.110986516 -0.03278188 -0.029185537 -0.0327535 -0.16372025 0.025433324 -0.106541306 -0.10567331
128 0.09049757 0.13857381 -0.010146017 -0.15705822 -0.01734981 -0.17138848 -0.11650185 0.060667373 0.09048671 0.1519605 0.054455563 -0.060209513 0.10591142 -0.0076059857 -0.0068390826 0.0027706996 0.15193222 0.17899261 -0.18355812 0.011458385 -0.17049393 0.15343069 -0.06772436 -0.14797327 -0.11548429 -0.18730254 0.0720656 0.05554167 -0.12019538 -0.18981962 0.010463662 -0.03390666 0.101044215 -0.1364582 0.009369323 -0.093246475 0.005259636 0.13494197 0.021235906 0.14545077 0.078380436 -0.06500606 -0.19014695 -0.08019831 0.11534968 0.019830309 0.124765806 0.1301845 0.016344897 0.08758005 0.1151792 0.0054563647 -0.1418823 0.10451153 -0.09281869 0.092994876 0.01954975 -0.10784356 0.12454882 -0.16977763 0.18626288 -0.14574155 0.16364306 -0.10329314
129 -0.15485 0.11704144 0.13431442 -0.11737104 -0.036377385 -0.10377962 -0.13186951 -0.073363416 -0.1235478 0.11611928 0.19217893 -0.026569918 -0.024913453 -0.12382242 -0.16039866 0.04101171 0.074927166 0.023920638 -0.1664487 -0.10803769 -0.1618672 0.08786001 0.16999847 -0.08978658 -0.09580425 -0.05775726 0.11607683 0.030283429 -0.056639433 0.028521884 0.028609188 0.02142669 0.006576824 -0.15967427 -0.077927195 0.16207 0.095753565 0.05065821 0.050984103 0.17204371 0.1422758 -0.037167594 -0.1824784 -0.064961776 0.09084961 -0.09172273 0.13591202 0.16888243 -0.14032872 0.11227226 0.09719606 -0.11606491 -0.0031627417 0.09412437 -0.13244013 -0.094030604 0.14580284 -0.14185138 0.02230952 0.05423205 0.17796803 -0.121793166 0.08883975 0.07767908
130 0.038366728 -0.08115251 -0.13256471 0.09695099 0.15992928 -0.106229864 -0.07072265 0.155856 -0.1746259 -0.13720118 0.10297997 0.049777955 -0.04807854 -0.17408882 -0.13817583 0.08079895 -0.05517429 0.060310125 -0.16057377 0.13459647 0.17914118 0.046280622 -0.18988387 -0.12733407 0.12861933 0.06346018 0.12435241 -0.008878905 0.076109454 -0.14593339 -0.08694292 0.03729275 0.14634131 0.12737292 0.11319799 0.11186177 0.08287333 0.17209673 0.1327644 0.014949205 0.16763839 -0.18702893 -0.12630163 -0.17314264 -0.02247426 0.1196214 0.047812954 -0.1425882 -0.10111617 0.033063643 -0.045008015 0.026222125 0.18336272 -0.0931804 -0.12734656 0.14431773 -0.13103852 0.14540674 0.08875224 0.11264725 0.15771751 -0.013213622 -0.02031092 -0.12864377
