223 64
0 -0.069912 -0.494594 -0.143609 -0.370768 0.041722 0.411514 -0.299217 -0.348882 0.476060 -0.251885 -0.004780 0.069898 0.769790 -0.376878 -0.192990 0.325941 0.072423 0.058597 -0.041023 0.160931 -0.399411 -0.266172 0.120099 -0.371440 -0.171918 -0.275533 -0.471242 -0.065165 -0.214796 -0.142764 -0.425927 0.274109 -0.253434 -0.161996 0.294532 -0.006497 0.057197 0.688977 -0.519829 -0.392546 0.175498 -0.249496 -0.307970 0.374127 0.458333 0.537876 -0.211563 0.055887 0.279687 -0.108348 0.256452 -1.010461 -0.009966 -0.620800 -0.556232 -0.001799 -1.131344 0.021247 0.243520 -0.676311 0.430211 0.479885 0.046719 0.902891
16 -0.323586 -0.694641 -0.046955 -0.107015 -0.243864 0.184698 0.140381 -0.111320 -0.715509 -0.018164 0.002080 -0.170420 0.069422 0.138570 -0.293621 0.812617 -0.377990 0.167707 0.181708 0.609811 -0.020196 -0.592393 -0.785749 0.482224 0.517240 0.181485 0.616324 0.569393 0.221052 0.091468 0.112278 -0.351952 -0.194020 -0.791086 -0.537886 0.432969 -0.331419 -0.161193 -0.525127 0.099733 0.299030 0.283457 -0.505052 0.312649 -0.181452 -0.529234 0.362447 -0.009438 0.421415 0.035063 -0.380513 0.048508 0.342510 0.292962 -0.488438 -0.514642 -0.287887 -0.883352 -0.621347 0.091185 0.333067 -0.326564 0.306406 -0.624014
92 -0.061206 -0.092646 0.161096 -0.588806 0.246971 0.127405 -0.236216 -0.798816 0.272536 -0.170132 0.105061 0.004553 0.766798 -0.458962 -0.412757 -0.177387 0.027087 -0.026934 -0.007089 0.364868 -0.174805 -0.127054 0.258889 -0.117313 -0.466492 0.078859 -0.312214 0.015405 -0.484579 0.013648 -0.150505 0.462843 0.052241 -0.249810 -0.130764 0.097350 -0.114426 0.716071 -0.583997 0.053998 0.144630 -0.060488 -0.217902 0.103419 0.263720 0.198185 0.067769 -0.016316 0.655964 0.162471 0.058711 -0.562366 0.341390 -0.065221 -0.317620 0.109302 -0.846004 0.280329 -0.009479 -0.340454 0.602957 0.393751 -0.049241 0.607005
82 -0.069345 0.099778 0.262735 -0.453459 0.358915 -0.107222 -0.162038 -0.795753 0.182154 -0.141566 0.396971 -0.049327 0.767763 -0.242641 -0.319471 -0.085493 0.307305 0.004570 -0.088708 0.346680 0.241436 -0.154012 0.287831 0.025981 -0.588011 -0.007886 -0.196398 -0.033106 -0.486123 -0.116378 0.199521 0.430367 0.197169 0.024248 -0.332639 0.173714 -0.005932 0.095211 -0.747386 0.179295 -0.186310 -0.076200 0.071925 0.071499 0.048471 0.088951 0.273145 -0.265336 0.372890 0.216261 -0.024306 0.086078 0.431619 -0.172561 -0.267508 0.234213 -0.480005 0.302352 0.163979 -0.279674 0.460838 0.112108 0.002912 0.600090
221 -0.044664 -0.426595 -0.460942 -0.318399 -0.303537 0.087190 0.182405 0.192310 0.536720 0.121423 -0.068107 -0.158759 0.032031 -0.600392 0.209438 -0.395289 0.328213 0.632140 0.161152 0.245662 -0.365759 0.215488 -0.148591 -0.060118 0.317233 -0.377434 -0.156480 -0.731831 0.398992 -0.095184 -0.375198 0.340761 -0.495333 -0.186112 -0.299411 0.487023 -0.127898 -0.095062 -0.202958 -0.114629 -0.083187 0.279113 -0.154008 0.133144 0.089867 0.285415 0.169683 0.202589 0.010429 0.353715 -0.429743 -0.057516 -0.064672 -0.760810 0.356761 0.551438 -0.023245 0.367794 -0.262735 -0.400845 -0.205363 -0.162988 -0.338164 0.649217
216 -0.024609 -0.303543 -0.366162 -0.150688 0.243018 -0.217331 -0.105807 -0.134879 0.476681 -0.216177 -0.166944 0.284734 0.082769 -0.251695 0.355478 -0.002513 0.630276 -0.169013 -0.209038 0.107967 0.052396 -0.116339 -0.049330 -0.076422 0.364055 -0.279426 -0.333770 -0.187136 0.272770 0.140274 -0.293255 0.275421 -0.567628 -0.239842 -0.059716 -0.262891 -0.062360 -0.264299 0.199823 -0.574209 -0.007040 -0.247158 -0.163544 0.531803 -0.060778 0.157052 0.331447 -0.167474 0.039026 0.213643 -0.027496 -0.451365 -0.031146 -0.624596 -0.291354 -0.069692 -0.280888 -0.170097 -0.458426 -0.705925 -0.204386 -0.108994 -0.295167 0.544659
222 -0.098451 -0.642191 -0.593311 -0.174205 -0.114036 0.369643 -0.289550 0.192810 0.552071 -0.189497 -0.318699 -0.074385 0.100427 -0.011305 0.239871 -0.415816 0.133609 0.361557 0.086345 0.475516 -0.299471 -0.062422 0.099561 -0.445136 0.114009 0.016216 -0.225189 -0.542452 0.220157 0.167342 -0.550508 0.218924 -0.310675 -0.353547 0.145731 0.114962 0.013115 0.045709 -0.212077 -0.524496 0.407835 0.097449 -0.148826 0.358593 -0.380266 0.301722 0.021296 0.319969 -0.234110 0.191356 -0.342356 -0.308805 -0.177534 -0.657837 -0.089099 0.208024 -0.670862 0.380562 -0.117329 -0.332221 -0.243953 0.289181 -0.345580 0.719279
180 -0.552845 0.251369 -0.333372 0.153890 -0.545518 0.179927 0.016348 -0.176270 0.247074 -0.073270 -0.528292 -0.154961 0.432683 -0.474839 0.392746 -0.137669 0.142710 -0.450689 0.465796 -0.125065 0.094241 0.339974 0.288197 0.777000 -0.173908 -0.783994 -0.217812 -0.113688 -0.126119 -0.375623 0.418785 -0.122056 0.651387 -0.348373 -0.216405 -0.099730 0.008230 0.218978 0.089772 -0.225801 -0.426021 0.058311 0.862664 -0.283691 0.655461 0.359863 0.307703 -0.139418 0.088197 0.435216 -0.505040 -0.149229 0.061956 -0.418597 0.217599 -0.499622 -0.604149 -0.034731 -0.013464 0.061183 -0.416717 -0.183192 -0.221773 0.164907
98 -0.064659 -0.114264 -0.363192 -0.321083 -0.252049 -0.222819 0.279007 0.090036 0.363780 0.017995 -0.106269 0.080005 0.019527 -0.451456 0.343592 -0.125740 0.701580 0.028474 0.029789 -0.301774 0.039608 -0.061447 0.024588 0.319492 0.458763 -0.321632 -0.264226 -0.445068 0.458899 -0.050432 -0.416823 0.354811 -0.771616 -0.096979 -0.310941 0.018904 -0.035669 -0.017226 0.181722 -0.237726 -0.382862 0.061663 -0.131354 0.315470 0.083286 0.245351 0.451835 -0.374039 0.132376 0.248475 -0.345055 -0.095141 0.069885 -0.997178 0.103071 0.238424 -0.027499 0.027722 -0.312126 -0.620660 -0.298746 -0.251542 -0.370342 0.592084
164 -0.017432 -0.488956 -0.490171 -0.282108 -0.257602 0.452908 -0.121035 0.206181 0.646699 0.000947 -0.326068 -0.542975 -0.111537 -0.328327 0.331672 -0.101773 0.062699 0.680591 -0.134270 0.368321 0.060734 0.208767 0.093754 -0.324609 0.066087 -0.389051 -0.029769 -0.629102 0.466623 -0.097754 -0.387610 0.450987 -0.227910 -0.359644 -0.227061 0.320409 0.259279 0.059086 -0.421955 -0.161336 0.250068 0.605931 0.017607 0.182765 0.142165 -0.087101 0.060034 0.010639 -0.386740 0.476742 -0.403618 -0.236603 -0.331442 -0.766178 0.469794 0.518187 -0.122932 0.681362 -0.206355 0.055363 -0.279048 0.142965 -0.331812 0.620701
11 -0.144202 -0.270842 -0.440351 0.460652 -0.071668 0.423923 -0.272676 -0.818484 -0.506958 -0.175685 0.135518 -0.423402 0.208721 0.224998 0.264502 -0.038580 0.012661 0.131534 -0.298075 -0.006139 0.228652 0.203079 -0.530449 -0.137828 0.133814 0.361354 -0.372846 -0.250117 0.358963 0.091987 1.103934 0.266776 -0.463300 0.099106 -0.083133 0.248373 0.489779 -0.156300 -0.286339 0.698607 0.407394 0.106766 -0.383799 -0.841971 -0.538196 0.039810 0.172258 -0.006877 0.447783 0.340753 -0.360521 0.144914 0.407767 0.531952 -0.144833 -0.504141 -0.089769 -0.202314 -0.310148 0.414156 0.116013 -0.125104 0.532141 -0.400689
48 -0.419002 -0.732638 0.057942 0.106757 -0.073432 0.447293 0.231222 -0.041074 -0.707088 -0.139260 -0.096332 -0.022869 0.161825 0.239845 -0.347766 0.674289 -0.848956 0.216675 0.147775 0.855112 0.236938 -0.290850 -0.463970 0.416435 0.302337 0.444901 0.297330 0.543665 0.353177 -0.098571 0.367330 -0.472426 -0.314397 -0.484482 -0.387755 0.655973 -0.215535 -0.028313 -0.436122 0.080364 0.303598 0.322572 -0.195974 -0.078127 -0.116259 -0.591105 0.258758 0.083902 0.529346 0.115677 -0.251168 0.106843 0.363767 0.602973 -0.482103 -0.388882 -0.292435 -0.721156 -0.625782 0.088609 0.356590 0.315667 0.246585 -0.639364
134 0.216328 0.139070 -0.103483 -0.119004 0.092131 0.452286 0.707587 0.457532 0.139213 0.218680 -0.237701 -0.134037 0.046832 0.073157 0.021940 0.009632 0.123351 0.238118 0.328948 0.406735 0.446451 0.016375 -0.079204 0.483443 0.054386 -0.114191 0.139220 -0.623770 0.503098 -0.507496 -0.519351 0.055722 -0.490350 0.197145 -0.220774 -0.023997 -0.113981 -0.353774 -0.149525 0.332445 0.026846 0.015320 0.383072 -0.034550 0.249283 0.138194 0.453697 -0.405841 0.406881 0.172717 -0.434192 -0.569817 -0.648432 -0.009207 0.417364 0.630448 0.085706 0.346459 -0.111953 0.555573 -0.123974 0.195591 -0.016758 0.541070
202 -0.318992 -0.772090 0.216954 0.014156 0.017498 0.320438 0.266697 0.152628 -0.781238 -0.091391 -0.113963 -0.246767 0.075036 0.064938 -0.551743 0.666075 -0.659835 0.242792 0.204895 0.676394 0.076516 -0.435040 -0.352863 0.546015 0.311835 0.281940 0.394565 0.457799 0.257868 0.071627 0.389822 -0.324581 -0.167366 -0.444911 -0.253807 0.301089 -0.070020 -0.155972 -0.301850 -0.126562 0.210206 0.246226 -0.396048 0.156760 -0.254339 -0.378778 0.645515 -0.299258 0.318497 0.075764 -0.399201 0.049818 0.189816 0.453019 -0.587841 -0.420688 -0.220697 -0.718920 -0.619235 0.015538 0.392956 0.044537 0.056197 -0.508422
1 -0.258855 -0.731147 0.165536 -0.173198 -0.020633 0.463317 0.208098 0.156292 -0.815462 -0.068966 -0.184232 -0.089390 0.031774 0.109681 -0.543012 0.651863 -0.689832 0.241815 0.156559 0.994977 0.241394 -0.323022 -0.536150 0.544334 0.200446 0.419623 0.441685 0.623269 0.253483 -0.072165 -0.114832 -0.457383 -0.125276 -0.494970 -0.530648 0.349938 -0.086895 0.209864 -0.322643 -0.123899 0.271636 0.187417 -0.326473 0.211804 -0.241746 -0.681145 0.437144 -0.003892 0.417706 0.192781 -0.386436 -0.194108 0.063242 0.389130 -0.490592 -0.325926 -0.309107 -0.835681 -0.613699 0.035798 0.379661 0.148759 -0.077287 -0.550557
41 -0.224817 -0.231917 -0.241564 -0.669955 -0.172232 -0.468462 -0.005575 -0.111142 -0.605903 0.616489 -0.355450 -0.025343 -0.084748 -0.277076 0.204013 0.052520 -0.140728 -0.216622 0.416142 -0.323952 -0.463296 0.490708 0.350241 -0.121080 -0.735524 0.272624 0.336049 -0.630646 0.199954 -0.245741 -0.027101 0.589048 0.299674 -0.121916 -0.819621 -0.218341 0.105729 0.059347 0.710657 0.548600 -0.479528 0.162524 -0.236867 0.141283 0.486305 -0.378851 -0.406563 0.250218 -0.080201 -0.109247 0.372598 0.218384 -0.265371 0.158357 -0.322700 0.389089 0.257816 0.148701 -0.010969 -0.344675 0.363123 0.149564 0.076316 -0.032975
76 0.281397 -0.029547 -0.420110 0.082795 0.127649 0.672720 0.350668 0.501918 -0.061456 0.673852 -0.304154 -0.072889 -0.324593 -0.224348 0.141229 -0.128210 -0.570993 0.133303 -0.171431 0.183212 -0.050678 0.442805 -0.482408 -0.275530 -0.580171 0.072420 0.091686 -0.138182 -0.239206 -0.254552 0.136542 0.670356 0.117373 -0.350618 -0.158943 -0.237595 -0.460340 0.010537 0.412757 0.646918 -0.203824 -0.073960 -0.442130 0.391015 -0.073679 0.398434 -0.472164 0.185261 -0.173381 -0.144483 0.375901 0.421996 0.041199 0.689932 -0.077656 -0.618891 -0.317625 0.161673 -0.197072 -0.411929 0.169539 -0.185281 0.260316 0.074271
55 0.523479 -0.474034 0.044850 0.533577 0.149842 -0.325506 0.533949 0.498986 0.124990 -0.482447 -0.248638 0.112157 0.282270 0.322722 0.322159 0.563014 0.944318 -0.594256 0.348089 -0.222021 -0.864824 -0.095187 -0.677725 -0.421284 0.336023 0.343594 -0.022192 0.827814 -0.732643 0.570321 0.596108 -0.077420 0.110987 0.315676 0.509011 -1.172057 -0.428561 -0.208854 0.039683 0.304346 -0.328017 -0.422330 -0.127405 0.037377 -0.160681 -0.390950 -0.463294 -0.256806 -0.154100 -0.624633 0.054360 -0.078346 0.227102 0.179869 -0.278170 0.266799 0.057822 -0.050942 -0.269512 0.208842 -0.310193 -0.001372 -0.040365 -0.210765
181 -0.613581 1.449604 -0.467474 0.323312 -0.035751 -0.285988 -0.183596 0.222995 -0.148976 0.360519 0.362500 -0.200307 2.012517 -0.070002 -3.427703 -0.413403 0.250697 -0.581357 -0.110774 0.044679 0.224425 -0.050886 -0.184802 -2.315334 0.854856 0.161530 0.889869 -0.296164 1.512755 -0.561408 -1.157493 0.206205 0.520788 -0.226459 0.082303 0.769420 0.229537 0.638385 0.756769 0.590238 0.032534 0.124432 -0.598580 0.558720 -1.087911 -0.705098 -1.305783 0.776467 0.252415 -0.082788 1.462386 0.610936 -0.149973 -0.732436 0.556977 -0.067105 -0.223976 -0.289352 0.241079 -0.288542 -2.697556 0.018196 0.254738 -0.676189
17 0.734731 -0.396663 -0.525585 -0.727564 0.064451 0.627648 -0.466888 0.017530 -0.401157 -0.273851 0.683590 -0.267184 -0.030828 0.210818 -0.184587 0.036322 0.039481 -0.147647 0.182397 -0.031019 0.159559 0.169948 -0.158517 0.334280 -0.185181 0.267713 0.071486 -0.386849 0.064105 -0.093780 0.182913 -0.252295 0.239638 -0.060128 -0.526445 -0.109202 -0.394370 -0.093290 0.212144 -0.320934 0.619591 -0.864768 0.692853 -0.044538 -0.417091 -0.109579 -0.337311 0.178777 0.311736 0.208388 0.024763 0.574097 -0.269580 0.116608 0.705629 0.024709 0.481012 -0.070950 0.291898 -0.196301 0.245088 -0.444310 0.044438 -0.298537
35 -0.138567 -0.160295 0.601235 -0.149987 0.275085 -0.003346 -0.103778 -0.402293 -0.325495 -0.293508 0.419326 0.186567 -0.039449 -0.078884 -0.195928 -0.572920 0.420526 -0.745730 -0.164961 -0.004220 0.158718 0.335922 0.051407 0.242956 -0.233140 0.294316 -0.371226 -0.198245 0.185089 0.599463 0.271248 0.231150 0.110301 -0.359362 0.459983 0.240364 -0.293885 0.607785 -0.549888 0.654423 0.457324 0.081242 -0.181803 0.013671 -0.061702 0.230409 0.367488 -0.249491 0.052194 -0.236733 0.151270 0.134779 -0.467715 -0.274777 0.064705 0.280142 -0.194212 0.373437 0.103912 -0.523484 0.255769 -0.336389 -0.085952 0.313341
200 -0.394523 0.115944 -0.024778 -0.011384 0.001989 0.155228 -0.246763 -0.435976 0.034747 -0.199097 -0.502698 -0.098164 -0.568649 -0.079588 -0.275681 -0.252114 0.051180 0.036287 -0.221482 0.206131 0.254920 -0.411511 0.464409 -0.118769 0.580347 0.048204 -0.484016 0.151115 -0.114283 0.573112 -0.013215 0.102309 0.740180 0.192647 0.164104 -0.324515 -0.090753 0.025104 -0.019998 0.155371 0.541815 0.399170 -0.171072 0.461918 0.393673 0.429396 -0.130669 0.168049 0.539832 -0.105880 -0.387238 -0.364045 0.129479 0.068134 0.203386 0.352514 -0.125508 -0.479313 0.452878 0.397993 0.422133 -0.716877 -0.018754 -0.033662
59 -0.451409 0.030247 -0.041724 -0.374262 -0.182734 0.034319 -0.237824 -0.465039 0.106660 -0.325867 -0.502927 0.099626 -0.591969 -0.193284 -0.294329 -0.197132 0.187398 0.055305 -0.056972 0.077385 0.038213 -0.417173 0.480414 -0.124687 0.499023 -0.199980 -0.503434 -0.010794 -0.128199 0.667019 -0.126177 0.163483 0.690254 0.047940 0.146412 -0.214408 -0.236950 0.210462 -0.078828 0.215063 0.433632 0.393469 -0.089871 0.388061 -0.045144 0.535471 -0.061825 0.197027 0.628646 -0.304045 -0.388014 -0.292695 -0.078559 -0.220507 0.297242 0.441598 -0.190017 -0.493426 0.373739 0.355598 0.420145 -0.791833 -0.126143 -0.026830
129 -0.183913 0.105094 0.435655 -0.179788 -0.164913 -0.133496 -0.049676 -0.445628 0.087723 -0.060976 0.990561 0.019262 -0.173531 -0.144863 0.618631 0.237649 0.331671 -0.059987 -0.683656 -0.097825 0.271090 -0.372823 -0.125244 0.000145 -0.283899 0.349189 0.317627 -0.320843 0.146714 0.179298 -0.195114 -0.473303 0.287670 -0.234886 -0.211155 -0.011769 0.127822 0.412151 -0.365556 0.343390 0.413133 0.555136 -0.148293 0.554297 0.143646 0.422233 0.442459 0.272983 -0.352477 0.339511 -0.086248 -0.024888 0.157570 0.022577 -0.185094 -0.167791 0.056035 -0.185570 -0.446965 0.255425 -0.449233 -0.239447 -0.087227 0.385231
162 -0.052151 -0.458015 -0.420113 -0.192284 -0.083914 0.133693 -0.300441 -0.183857 0.255153 -0.244044 -0.162317 0.115773 0.205398 0.015698 0.115428 -0.273880 0.146971 0.044715 -0.020253 0.344146 -0.269953 -0.069762 0.031541 -0.396976 0.108184 -0.002210 -0.308065 -0.309077 0.038211 0.314112 -0.424362 0.402231 -0.402894 -0.273818 0.050080 -0.216372 -0.128931 0.056689 -0.145712 -0.502080 0.259253 -0.251318 -0.408930 0.400919 0.201974 0.327412 0.188693 -0.005708 -0.051862 0.040796 -0.183535 -0.423374 -0.076231 -0.451480 -0.329047 -0.031654 -0.785291 -0.172206 -0.092188 -0.563230 -0.011241 0.278569 -0.215899 0.647597
138 -0.040577 -0.095616 0.032065 -0.862487 0.372666 0.093774 -0.082084 -0.826770 0.074577 -0.131958 0.180666 -0.066368 0.870134 -0.354876 -0.321040 -0.265556 0.311053 0.107515 0.003197 0.283571 -0.027148 -0.109917 0.174410 -0.085518 -0.527152 0.065139 -0.234512 -0.018424 -0.371915 0.145520 0.215858 0.463962 0.213193 -0.192630 -0.401294 0.081467 -0.202228 0.271963 -0.549880 -0.000591 0.035907 0.097514 -0.079245 -0.044910 0.094410 0.101829 -0.018136 0.192970 0.356557 0.243618 -0.048744 -0.385110 0.359611 -0.175641 -0.248200 0.297975 -0.874752 0.433038 0.360743 -0.214358 0.500982 0.662800 -0.066624 0.702563
112 -0.073905 -0.107576 0.385400 -0.379285 0.217403 0.241555 -0.161382 -0.532283 -0.057410 -0.203701 0.402133 -0.176632 0.588888 -0.258464 -0.343052 -0.272626 0.178653 -0.314061 -0.193123 0.271810 0.183840 -0.043581 0.222083 0.070364 -0.477568 0.012912 -0.288864 -0.084505 -0.244041 0.224908 0.083012 0.570537 0.156524 -0.071600 0.102194 0.325081 -0.203440 0.502972 -0.692651 0.321617 0.222329 0.108563 -0.075231 0.031934 0.025954 0.193147 0.283960 -0.010097 0.449354 -0.071309 0.110157 -0.112239 -0.020023 -0.328549 -0.236424 0.244131 -0.345395 0.429061 0.027516 -0.360606 0.445166 0.025910 -0.076978 0.555517
155 -0.066771 -0.489058 -0.515384 -0.549340 0.101849 0.277636 -0.126357 0.088618 0.627698 -0.068393 -0.156407 -0.069711 0.312823 -0.367786 0.034061 -0.584332 0.345345 0.565693 0.115080 0.519376 -0.544811 0.111748 -0.142046 -0.396942 -0.003531 0.036283 -0.255421 -0.447332 0.121068 0.145136 -0.285705 0.389772 -0.182526 -0.288130 -0.069539 0.184834 -0.337357 0.076369 -0.284884 -0.357126 0.209628 0.370566 -0.257573 0.062010 -0.292532 0.419376 -0.112136 0.457828 -0.270175 0.238769 -0.339061 -0.136526 -0.179073 -0.351527 0.077179 0.471733 -0.510055 0.275080 0.163794 -0.353274 0.051968 0.345586 -0.080395 0.750783
53 -0.090284 0.166986 0.217895 -0.561633 0.357363 -0.194017 -0.158477 -0.814796 0.149852 -0.093609 0.137230 -0.083453 0.683069 -0.584528 -0.414141 0.311357 0.179697 0.058184 0.086996 0.163288 -0.060883 -0.233257 0.310768 -0.116868 -0.648054 0.396088 -0.298158 0.235444 -0.564842 -0.428831 0.185872 0.685440 -0.197227 -0.174110 -0.223592 0.278033 0.081437 0.449656 -0.755793 -0.061179 -0.115132 -0.013232 -0.160687 0.190023 0.103044 0.405279 0.306842 -0.093258 0.621605 0.301125 -0.101912 -0.315801 0.591699 0.076886 -0.038070 0.019688 -0.324144 0.191924 0.295851 -0.115954 0.462813 0.256068 -0.163570 0.404235
175 -0.328623 -0.185148 0.555631 -0.264559 0.472586 0.071716 0.121717 -0.438921 -0.230616 -0.350827 0.273302 -0.469918 -0.496998 0.194874 -0.224764 -0.715395 0.074111 -0.750867 -0.375145 0.031760 -0.068755 0.587105 -0.359125 0.122225 0.009102 0.223397 -0.468201 -0.248299 0.377676 0.622523 -0.206054 0.196852 0.068920 -0.682056 0.183710 0.010380 -0.518907 0.590743 -0.247251 0.661413 0.378918 0.276298 -0.207919 -0.246974 -0.261985 0.108318 0.537482 0.036700 0.057590 -0.191279 0.049236 0.052932 -0.873529 -0.423305 0.325067 0.310642 0.016365 0.222592 0.456058 -0.552979 0.300137 -0.000006 -0.279752 0.098225
86 -0.144527 0.369828 -0.540634 -0.392324 0.764979 -0.290781 0.218895 -0.178306 -0.975405 0.112274 0.195672 0.065147 -0.608043 -0.047756 -0.262220 -0.288349 0.428453 0.119530 0.905655 0.339933 0.139550 -0.938537 0.224665 0.074970 -0.094058 0.367669 0.203069 -0.236867 -0.400802 0.412310 -0.655420 0.417328 0.106368 0.302269 0.578912 0.295742 0.086285 -0.015064 -0.411112 -0.358022 -0.433524 -0.326165 0.196824 -0.607950 -0.147479 0.407047 -0.291779 0.061509 0.328701 0.569404 -0.066714 1.016140 0.482979 0.469207 -0.917483 0.600834 0.085518 0.501897 0.186659 -0.179289 -0.335850 -0.353024 -0.235448 -0.158318
116 0.861240 -0.345769 0.302482 0.553261 0.601785 0.349091 -0.666152 0.271471 -0.412225 -0.282245 -0.022646 0.140330 -0.516816 0.154770 -0.278795 -0.632045 -0.216413 -0.232063 0.076214 -0.183523 0.347776 -0.709529 -0.049137 0.248420 -0.516252 0.567122 0.127699 -0.186315 0.378117 -0.516666 -0.091056 0.340962 0.059505 0.108371 -0.472635 0.078565 -0.608608 -0.232860 0.007346 -0.186408 -0.216447 0.317899 0.186867 -0.270192 -0.177823 -0.199653 -0.331918 0.488149 0.096739 -0.172463 0.316820 0.304453 -0.073152 0.169057 -0.056583 -0.163524 0.732291 0.066849 -0.115719 -0.016250 -0.529948 -0.241260 0.094350 0.096141
52 -0.112608 -0.439045 -0.482064 -0.287062 -0.001246 -0.268235 -0.352194 0.175775 0.594888 -0.305399 -0.381041 0.294070 -0.011049 -0.190469 0.363598 -0.537246 0.251631 -0.055080 -0.089022 0.151173 -0.076948 0.065398 -0.123717 -0.220576 0.178526 0.054201 -0.265537 0.092011 0.152862 -0.156033 -0.067787 0.192564 -0.180281 -0.272468 0.076717 -0.545138 -0.098052 -0.271884 -0.026272 -0.677189 0.183500 -0.000657 -0.026065 0.372813 -0.047653 0.323398 0.083302 -0.051409 -0.432870 0.220329 -0.237562 -0.537692 -0.033881 -0.467855 -0.312122 -0.136561 -0.559867 -0.060120 -0.178974 -0.538045 -0.424713 0.499476 -0.291700 0.613905
100 -0.704039 0.403418 -0.306065 0.397167 -1.018299 0.290902 0.151378 -0.190526 -0.135727 -0.034461 -0.405709 -0.071118 0.353842 -0.270679 0.316327 -0.144732 0.386292 -0.451568 0.250274 -0.283951 -0.038638 -0.366568 0.248568 0.869797 -0.151277 0.201654 -0.176462 -0.467380 -0.076259 0.016124 0.044264 0.106636 0.555777 0.302817 -0.459235 -0.209298 -0.259598 0.321839 0.025073 -0.207531 -0.409763 -0.368853 0.490045 -0.309503 0.428975 0.507311 0.090443 -0.246633 -0.098794 0.237501 -0.609125 -0.207319 -0.115749 -0.637475 0.183983 -0.491118 -0.281501 -0.016589 -0.235672 0.119252 -0.364527 0.294906 -0.061352 0.165315
191 0.338648 -0.159343 -0.412042 -0.162104 0.255103 0.655335 -0.137408 0.126019 -0.453850 0.180886 0.505507 0.133846 0.225620 0.063037 0.086005 -0.259095 -0.098855 -0.491890 0.684239 0.655984 0.497345 -0.092327 -0.279241 0.140884 -0.302097 0.057880 -0.263299 -0.530917 0.073995 -0.292441 -0.033241 -0.067719 -0.035717 0.074759 0.229052 0.222361 0.179684 -0.592086 0.065449 -0.679913 0.072549 -0.333032 0.889623 0.467397 -0.052630 -0.073915 -0.397047 -0.052226 0.090509 -0.800810 0.076977 -0.162867 -0.086743 -0.108703 0.331500 0.243267 0.317475 0.252272 0.442491 0.340256 0.299893 -0.150868 -0.018747 -0.706281
68 0.308098 0.536165 0.060968 0.657118 -0.065145 0.056408 -0.711597 -0.066523 0.540981 0.330537 0.200054 -0.486700 -0.160709 -0.059239 -0.122587 -0.670475 -0.154377 0.188618 -0.297913 0.540374 0.146818 -0.088085 -0.323480 0.340881 0.540700 0.464544 -0.771372 0.219016 -0.064744 0.589753 0.343601 -1.005815 -0.034204 -0.743793 -0.153282 0.441852 0.682026 -0.552305 0.292003 0.287266 0.583556 0.074066 -0.595338 0.425301 -0.214533 0.072577 0.099202 -0.076096 0.634031 0.630393 -0.414255 0.052068 0.017631 0.346073 -0.515764 -0.026201 -0.543952 -0.783013 0.099801 0.361539 0.135285 -0.058461 0.125038 0.123365
193 0.298626 0.570623 0.104252 0.116192 0.113017 0.039059 -0.703546 -0.047674 0.358012 0.347873 0.181944 -0.320561 -0.118572 -0.272190 -0.079413 -0.640267 -0.252994 0.174639 -0.174209 0.506939 0.065240 -0.050946 -0.264056 0.340349 0.467211 0.383397 -0.791115 0.367126 -0.011156 0.563402 -0.009181 -0.813519 -0.165576 -0.568574 -0.245335 0.214970 0.765344 -0.215245 0.364706 0.257598 0.576820 -0.072107 -0.509065 0.312849 -0.242625 -0.210301 0.045471 -0.158630 0.523335 0.764299 -0.774662 0.120982 -0.156761 0.417601 -0.558112 -0.067286 -0.281843 -0.532791 0.351298 0.308089 0.086325 -0.177964 0.320790 0.124325
46 0.341531 0.524415 0.015391 0.376418 -0.079033 -0.016827 -0.752685 -0.241871 0.199816 0.322039 0.211332 -0.425005 -0.038373 -0.331690 -0.030536 -0.619082 -0.239036 0.134930 -0.051045 0.301522 0.295929 -0.128688 -0.314366 0.299756 0.514113 0.301768 -0.775598 0.335528 0.000835 0.386120 -0.010747 -0.630195 -0.245753 -0.444734 -0.416572 0.557209 0.865531 -0.203919 0.295573 0.308829 0.339968 -0.039955 -0.498225 0.265244 -0.400503 -0.052656 0.016786 -0.022947 0.613319 0.845271 -0.518399 -0.096282 0.194745 0.352008 -0.543209 -0.159782 -0.340617 -0.750518 0.141194 0.378646 0.069003 -0.210569 0.401102 0.039442
137 -0.423332 0.325615 -0.271389 -0.365412 -0.602435 0.327728 0.290782 -0.236845 0.381446 -0.047768 -0.312112 -0.474083 0.289705 -0.616526 0.449998 -0.299990 0.410978 -0.559093 0.150377 -0.658255 0.414056 -0.305536 0.105814 0.920259 0.124500 -0.529067 -0.271777 -0.330024 0.146526 -0.001157 -0.045260 0.415610 0.058265 0.002354 -0.116710 -0.143771 -0.275669 0.242058 0.220221 -0.184673 -0.524927 -0.146880 0.434833 -0.153659 -0.010968 0.420932 0.482902 0.162461 0.200633 0.578012 -0.590715 -0.349293 -0.249347 -0.716723 0.106415 -0.390343 -0.724192 -0.060192 -0.374767 -0.280378 -0.450420 -0.240702 -0.217184 0.110140
3 0.441242 -0.107367 -0.756172 -0.695168 -0.033772 0.311642 0.099012 0.092323 -0.153301 -0.267830 0.663364 0.647564 0.110123 0.313294 -0.214450 -0.223099 0.262674 0.355764 0.190040 -0.368255 0.543041 0.066963 0.081129 0.427490 0.130732 0.705493 0.105094 0.162421 -0.293992 0.157741 0.526770 -0.408200 0.478006 0.423238 0.138738 0.257809 -0.267653 -0.286917 0.292546 0.028115 0.791524 -0.052425 0.196504 -0.238257 0.042287 0.208750 -0.157760 0.820388 0.203430 0.176060 0.286488 0.116344 0.054100 -0.308804 0.688891 -0.071293 0.477540 -0.060059 1.177649 -0.285203 0.484589 -0.134977 0.174033 -0.062521
104 -0.160843 0.215072 0.061436 -0.542416 0.287455 0.150110 0.287196 0.178571 -0.017050 0.160019 0.014721 0.118313 -0.609931 0.144859 -0.285639 -0.073607 -0.307815 0.038415 0.113155 -0.148148 -0.260684 0.096692 0.584809 -0.186933 -0.311501 0.438520 -0.384732 0.184437 -0.522767 0.168823 0.145235 0.436568 -0.772115 0.163511 -0.126248 0.414307 0.112706 -0.102866 -0.289891 0.060340 -0.009819 0.662223 0.091935 0.058265 -0.044107 0.802535 -0.117737 -0.089818 0.408592 0.076665 -0.196182 -0.630494 0.252968 -0.173267 0.540961 -0.547677 -0.414725 0.521017 0.210337 -0.271432 -0.096531 0.514362 -0.258352 -0.260445
72 -0.173418 0.159969 -0.263503 -0.274528 -0.127221 -0.252707 0.247231 -0.206033 0.409358 -0.132176 -0.208743 -0.053605 0.208089 -0.301918 0.431177 -0.036653 0.424266 -0.389260 0.081812 -0.601623 0.218049 -0.136930 0.193950 0.617050 0.401388 -0.075311 -0.273042 -0.197979 0.339127 0.230358 -0.035601 0.507064 -0.520666 -0.090728 -0.120134 -0.199760 -0.080017 -0.009797 0.282585 -0.351042 -0.555156 -0.126111 0.150097 0.140895 -0.211164 0.396068 0.515906 -0.083022 0.324393 0.326316 -0.470810 -0.232862 -0.215845 -0.781397 -0.115480 -0.099234 -0.133578 -0.200377 -0.443799 -0.642227 -0.374488 -0.000090 -0.217446 0.228566
13 0.026576 0.153169 -0.072456 -0.322270 0.433744 -0.328355 0.033241 -0.247009 0.368107 -0.361025 -0.093795 -0.026531 0.176943 -0.157648 0.526835 0.029276 0.427432 -0.320159 -0.156464 -0.593700 0.255603 -0.031473 0.129800 0.228781 0.442295 -0.060766 -0.251029 -0.176044 0.410032 0.298742 0.247734 0.346718 -0.645418 -0.237686 0.061453 -0.535214 -0.202420 -0.006417 0.272389 -0.478733 -0.001597 -0.215146 0.181374 0.411253 -0.334482 0.094379 0.436054 -0.304679 -0.326310 0.250341 -0.271116 -0.677674 -0.108560 -0.688801 -0.334019 -0.161253 -0.389338 -0.150727 -0.478758 -0.801638 -0.157272 0.263428 -0.058051 0.149564
34 -0.006700 0.258958 0.283562 -0.452354 -0.035757 0.004447 -0.080870 -0.730556 0.222883 -0.012309 0.645137 -0.141486 0.518753 -0.016452 0.036347 0.348770 0.040063 0.129591 -0.495859 0.172877 0.448546 -0.088731 0.261047 0.225755 -0.503876 0.415071 0.145081 -0.287801 -0.306824 0.010371 -0.171003 0.086840 0.482723 -0.203417 -0.465740 -0.069509 0.113944 -0.009695 -0.672587 0.252430 0.034452 -0.019238 0.013411 0.261140 -0.094148 0.453305 0.544288 -0.288816 -0.043750 0.123510 -0.225739 -0.248113 0.602002 0.186221 -0.338350 0.182345 -0.179497 -0.392033 -0.258161 -0.013655 0.034116 -0.163592 -0.338325 0.587465
194 -0.263756 0.367538 0.193218 -0.303950 0.372300 -0.181597 -0.088777 -0.468128 0.163068 0.039510 -0.122668 -0.044211 0.103090 -0.304201 -0.368292 0.239674 0.135717 0.093988 0.107283 -0.047141 -0.331396 -0.472390 0.379327 -0.181068 -0.676383 0.171425 -0.336456 0.561805 -0.593533 -0.374211 0.157842 0.540107 -0.576460 -0.296321 -0.200289 0.784217 0.170893 0.538346 -0.724861 -0.143875 -0.096529 -0.255065 -0.191896 0.227031 -0.266536 0.334057 0.255963 -0.234814 0.696596 0.311010 -0.077180 -0.274319 0.358732 -0.057872 0.344421 -0.290410 0.074100 0.306459 0.183932 -0.032592 0.224992 -0.004221 -0.381530 -0.133159
19 -0.512147 -0.223916 0.199063 0.189738 0.122553 0.042659 0.441196 -0.067775 0.360617 -0.154465 0.786200 -0.020833 -0.336267 -0.137659 0.175362 -0.040533 -0.180957 0.198182 -0.337333 -0.255881 0.037464 -0.313073 -0.195400 -0.478106 -0.141204 -0.017706 -0.097324 -0.515611 0.088448 -0.462912 -0.524083 0.348634 0.092210 0.265348 -0.203939 0.111722 0.321299 0.171988 0.519516 -0.411783 0.799831 0.319934 -0.348339 0.045640 0.173941 -0.745886 -0.080887 -0.063656 -0.087060 0.933357 0.203828 -0.036808 0.082018 0.741043 -0.037334 -0.337189 -0.403428 0.410296 -0.347593 0.626747 -0.035015 -0.101248 -0.020705 0.391057
190 -0.456895 -0.176247 0.180821 0.078709 0.510006 -0.009671 0.425982 -0.252895 0.311804 -0.191349 0.880760 0.062879 -0.363574 -0.448615 0.383527 -0.038726 0.108566 0.154499 -0.280131 -0.206973 0.122596 -0.328163 -0.375294 -0.540000 -0.174591 -0.458287 -0.065106 -0.570437 0.176853 -0.399264 -0.671747 0.262180 0.176463 0.207340 -0.284759 -0.466399 0.222558 0.159270 0.387593 -0.282706 0.542308 0.399822 -0.586140 0.132768 -0.070000 -0.907257 0.039249 0.107846 0.058325 0.842552 0.127281 -0.299083 0.274108 0.532178 -0.065845 -0.390611 -0.471106 0.429763 -0.233747 0.574606 -0.139815 -0.219609 0.139887 0.327218
183 0.197066 -0.119150 -0.027003 -0.075330 -0.426014 0.108454 0.515498 0.292373 0.788858 0.401231 0.098280 -0.034694 -0.027897 -0.462633 0.161192 -0.225368 0.294736 0.486772 0.201022 -0.046090 -0.409212 0.179451 -0.374729 0.349377 0.391092 -0.253535 -0.034471 -0.327264 0.466660 -0.479875 -0.547303 0.171627 -0.436624 0.015006 -0.162967 0.238900 -0.238682 -0.307951 -0.141495 0.098197 -0.174521 0.350625 -0.180677 0.022161 0.356510 0.356973 0.232860 -0.286755 -0.045973 0.134247 -0.168568 -0.222663 -0.209454 -0.238746 0.474890 0.577006 0.209661 0.225084 -0.042278 -0.371057 -0.183212 -0.559100 -0.136558 0.442057
169 -0.517822 -0.121180 0.216449 -0.053838 0.418842 -0.070623 0.296256 -0.287491 0.410454 -0.161438 1.030274 0.174732 -0.411641 -0.292402 0.354012 -0.134371 -0.017029 0.155669 -0.322886 -0.096399 0.336224 -0.628231 -0.168785 -0.390391 -0.213992 -0.235626 0.069057 -0.687728 0.156490 0.148528 -0.698038 -0.194767 0.156522 0.049869 -0.179265 -0.113740 0.154990 0.423338 0.268693 -0.262865 0.543026 0.587489 -0.262908 0.185320 0.118640 -0.794582 0.015562 0.285910 -0.091486 0.883948 0.033320 -0.294203 0.050147 0.662059 -0.093952 -0.324930 -0.249800 0.294493 -0.241725 0.570582 -0.217626 -0.484232 0.186453 0.372937
136 0.381614 0.752550 0.580484 -0.080823 0.148146 -0.123255 0.135146 -0.180132 0.284747 -0.499194 -0.050605 -0.520339 0.159944 -0.277567 0.566903 0.248288 -0.058083 0.236892 -0.044498 -0.645755 0.292533 0.242577 0.464254 -0.119443 0.215391 0.485091 0.131989 0.045114 0.505749 0.464810 0.548084 -0.206872 -0.113999 -0.173168 0.475923 -0.226511 -0.181404 0.033821 0.101919 -0.294356 0.446182 -0.047167 0.580334 0.139253 -0.171345 -0.493401 -0.094930 -0.569235 -0.701632 0.208914 -0.303320 -0.495230 -0.091922 0.216826 -0.170564 -0.108899 -0.537824 -0.014841 -0.532295 -0.648703 0.334859 0.517722 -0.341042 -0.434484
111 0.323346 -0.027395 0.698059 -0.262691 0.464440 -0.024971 -0.034636 0.044024 -0.218575 0.830967 -0.080186 0.245993 0.165249 -0.218938 0.321080 0.181544 -0.327297 0.114685 -0.128839 -0.067871 -0.244149 0.016299 0.048448 -0.301674 0.407705 0.358936 -0.002857 -0.218066 0.102121 0.567924 -0.203049 -0.045860 0.430481 -0.231631 0.437007 -0.668285 -0.289350 -0.289126 -0.223860 -0.447077 0.092850 0.312768 0.095842 -0.521164 -0.456267 -0.589174 -0.004382 -0.478468 -0.858695 0.329530 0.309987 -0.428537 -0.241513 0.059354 0.186608 -0.063593 -0.143992 0.871311 -0.413680 -0.366930 0.169334 -0.316982 -0.347369 -0.182463
143 0.483738 0.208137 0.848658 -0.264907 0.177264 -0.085427 0.089792 0.195395 -0.098919 0.702194 -0.002041 -0.056282 0.177374 0.157312 0.385303 0.286809 -0.343324 0.121099 0.395183 -0.318466 -0.258270 0.009962 -0.083779 -0.044289 0.504058 0.323546 0.014267 -0.309983 0.263660 0.314158 0.096724 0.082299 0.269613 -0.072666 0.098557 -0.687488 -0.409662 -0.495901 -0.148627 -0.212803 0.211749 0.291814 0.182837 -0.283476 0.202672 -0.457178 -0.207669 -0.599047 -0.682510 0.356001 0.037162 -0.414055 -0.098568 0.232559 0.155250 0.090924 0.072990 0.518260 -0.609753 -0.584247 0.037008 -0.206246 -0.256107 -0.218914
39 -0.251010 0.179522 0.005776 -0.675920 0.188494 -0.062808 0.567167 0.419035 -0.409302 -0.109283 0.243037 -0.045915 -0.880705 0.255424 -0.427708 -0.262659 -0.305094 -0.347697 0.369204 -0.407956 0.409346 0.435148 0.090639 0.137412 -0.080479 0.549559 -0.458680 -0.353367 -0.106351 0.459845 -0.573643 -0.103878 -0.371764 -0.203075 0.235779 0.491392 -0.269746 0.374828 -0.141828 0.141303 -0.234182 0.554865 0.340982 -0.473264 -0.427747 0.692739 0.333863 -0.204568 0.460990 0.084703 0.111323 -0.011946 -0.351506 -0.473714 0.212164 0.124424 -0.225407 0.510805 0.331320 -0.592213 -0.043815 0.343965 0.087143 -0.133847
20 0.173496 -0.053070 -0.041279 -0.111145 -0.137219 -0.059537 0.676407 0.468694 0.304129 0.265767 0.004168 -0.116094 -0.046280 -0.031667 0.098244 -0.175670 0.113770 0.218546 0.132768 -0.334658 0.042982 0.235237 -0.134800 0.475887 0.359428 -0.399503 -0.091587 -0.536088 0.597249 -0.593970 -0.417483 0.200676 -0.652092 0.065544 -0.318737 -0.059124 -0.225393 -0.300085 0.021549 0.142262 -0.287580 0.433891 0.025746 0.110933 0.279436 0.321238 0.493227 -0.309660 0.472094 0.162663 -0.193027 -0.537785 -0.026270 -0.217090 0.295122 0.525838 0.177470 0.140739 -0.105869 -0.141663 -0.201367 -0.310042 -0.436948 0.533524
135 -0.175227 -0.372871 -0.364719 0.290034 0.159569 0.342606 -0.169096 -0.642032 -0.549302 -0.206696 0.071488 -0.348739 0.354417 0.219549 0.235116 0.062256 0.067625 0.173171 -0.212553 0.091063 0.106410 0.267638 -0.227023 -0.171741 0.001339 0.328421 -0.397022 -0.149802 0.398610 -0.014827 0.348313 -0.025550 -0.415750 -0.230012 -0.106992 0.493873 0.255472 -0.173043 -0.238825 0.708065 0.534949 0.238934 0.022696 -0.887673 -0.361620 0.075168 0.182620 0.046846 0.699650 0.262105 -0.304704 -0.034378 0.226433 0.605200 -0.097892 -0.416688 -0.013903 -0.305277 -0.398022 0.353761 0.134672 0.199142 0.439087 -0.413137
67 0.669154 0.183492 0.129149 0.536184 0.161709 0.512678 0.320915 0.194284 -0.326766 -0.081442 -0.468154 -0.037259 -0.060737 0.576445 -0.255735 0.074318 -0.301177 -0.232143 0.166246 0.508624 0.172262 -0.721343 0.116494 0.344153 -0.027440 0.475958 0.450543 -0.195037 0.066440 -0.002863 -0.221011 -0.199606 -0.256958 0.355137 0.157530 -0.206438 -0.025767 0.084034 -0.119222 0.237553 -0.425043 0.675760 -0.287827 -0.212443 -0.211003 -0.186833 0.828598 -0.106482 0.413812 -0.123368 -0.040175 -0.010950 -0.252656 0.171264 0.149264 -0.022933 -0.058845 0.180902 0.311663 0.788814 -0.060739 0.151668 -0.024910 0.782601
165 -0.285660 -0.575701 -0.210634 0.024108 0.034832 0.396980 -0.017963 -0.310763 -0.763090 -0.245222 -0.014802 -0.520446 0.283432 0.123228 -0.039161 0.569252 -0.228717 0.179813 0.045818 0.308147 0.242334 0.139260 -0.120291 0.008070 0.175688 0.322685 -0.164213 0.362230 0.452205 0.045691 0.254251 -0.543822 -0.398548 -0.237325 -0.258903 0.755712 0.320108 -0.218737 -0.312392 0.443101 0.621732 0.347634 0.002090 -0.654792 -0.456380 -0.165786 0.168289 0.149453 0.523193 0.145001 -0.324064 0.041790 0.142707 0.571086 -0.273190 -0.461563 -0.179019 -0.134492 -0.550143 0.209064 0.308863 0.490450 0.284318 -0.612343
6 -0.199620 -0.450115 -0.160933 0.023071 -0.279120 0.414940 0.036412 -0.156276 -0.416482 0.090197 0.192164 -0.109747 -0.035316 0.296525 -0.034956 0.368849 0.132832 0.159046 -0.181392 0.410998 -0.093477 -0.127225 -0.558623 0.415166 0.566559 0.198324 0.686593 0.377716 0.029552 0.078147 0.386223 -0.364749 -0.015385 -0.777981 -0.409073 0.186285 -0.414947 -0.146398 -0.564946 0.168810 0.104740 0.291990 -0.593181 0.549323 -0.191473 -0.646858 0.429082 0.065467 0.602426 -0.013859 -0.067519 -0.023233 0.176381 0.404111 -0.404633 -0.435398 -0.361957 -0.485575 -0.252976 0.034480 0.112323 -0.537623 0.355491 -0.480106
87 -0.173270 -0.306833 -0.304945 0.238251 0.337492 0.169025 -0.221761 -0.260093 -0.611090 -0.193247 0.061728 -0.505604 0.322356 0.143715 0.200771 0.299251 0.286981 0.222986 -0.027421 0.313604 0.137409 0.349915 -0.468706 -0.188936 -0.060760 0.016504 -0.502253 0.160347 0.439481 0.158746 0.512164 -0.415727 -0.401280 0.133160 -0.016057 0.629405 0.436221 -0.623614 -0.119829 0.511525 0.640874 0.099821 0.155904 -0.963739 -0.474791 -0.042905 0.427549 0.426640 0.798212 0.371185 -0.365459 0.257800 0.150250 0.316826 -0.156986 -0.355722 -0.342920 -0.136425 -0.369022 0.389224 0.136469 0.147418 0.270385 -0.356323
217 -0.195098 -0.510118 -0.249906 -0.230833 -0.160876 0.282590 -0.098726 -0.014343 -0.533582 0.046166 0.195467 -0.004205 0.002816 0.253812 -0.001441 0.315065 0.148837 0.136295 -0.130167 0.527732 -0.094424 -0.413691 -0.655649 0.322049 0.449157 0.257854 0.539059 0.289753 0.163063 0.107528 0.236680 -0.023208 -0.129744 -0.695808 -0.397624 0.132686 -0.202380 -0.280988 -0.538831 0.409251 0.232255 0.298982 -0.376934 0.124848 -0.147835 -0.574920 0.345906 -0.256953 0.275577 0.258086 -0.442394 -0.269305 0.186963 0.334403 -0.351108 -0.487039 0.036829 -0.716233 -0.422080 0.162434 0.115396 -0.411312 0.146232 -0.508922
24 -0.123369 -0.274388 -0.356655 0.119997 0.114854 0.715034 -0.249560 -0.467969 -0.406728 -0.159182 0.116463 -0.418167 0.312867 0.071631 0.262293 0.255046 0.390875 0.178156 -0.264534 0.071997 0.285302 0.388838 -0.468911 -0.224560 -0.078236 0.125569 -0.480512 -0.006873 0.331435 -0.184661 0.720912 -0.091005 -0.347876 0.159346 -0.161502 0.379253 0.446828 -0.297032 -0.163837 0.618185 0.460941 0.120326 0.069914 -0.932293 -0.562497 0.021321 0.164647 0.185373 0.703033 0.206015 -0.127375 0.080787 0.441299 0.660934 -0.153731 -0.365766 0.016742 -0.116995 -0.269323 0.400445 0.092581 0.030471 0.571622 -0.374751
213 0.156017 -0.411506 0.310863 0.186243 -0.420075 -0.498203 0.161743 0.399806 -0.267013 -0.491813 -0.084448 0.435411 0.330866 0.130948 0.293413 0.656934 0.664017 -0.047610 0.171005 -0.256864 0.145158 0.229477 -0.796612 -0.084012 0.259780 -0.704012 0.014544 0.938585 -0.938357 0.527482 0.660136 -0.124968 -0.076579 -0.189934 0.229380 -0.377594 -0.487414 -0.070579 0.268272 0.269834 -0.229744 -0.475908 -0.938664 0.035086 -0.355394 -0.357613 -0.409257 -0.081457 -0.224628 -1.005619 -0.052308 0.230946 0.774528 0.264991 -0.004506 0.301492 0.430284 -0.210421 -0.153845 0.072645 -0.540405 0.625637 -0.460331 -0.328743
156 0.398877 -0.531467 0.135040 0.296224 0.078190 -0.432014 0.426541 0.364575 -0.052987 -0.445828 -0.243516 0.380320 0.274296 0.131578 0.287174 0.510893 0.773120 -0.484678 0.300543 -0.071044 -0.661353 0.105908 -0.837420 -0.288251 0.326164 -0.096683 0.003475 0.771634 -0.815512 0.635986 0.624800 -0.312715 0.060080 0.289006 0.401156 -0.886936 -0.530184 -0.491181 0.116753 0.330134 -0.281902 -0.214454 -0.599112 -0.018804 -0.490393 -0.490623 -0.433499 -0.100530 -0.079674 -0.639114 0.217609 0.285620 0.529171 0.018377 -0.196030 0.331712 0.153375 -0.074356 -0.396085 0.133115 -0.388943 0.227895 -0.198242 -0.245170
10 -0.264749 -0.116582 0.574785 0.220634 -0.208293 -0.630982 -0.442144 0.290910 0.014176 -0.152907 0.057493 0.041891 0.160967 0.483258 0.094456 0.604898 0.507836 0.705872 -0.180990 -0.619831 -0.138015 0.355334 -0.499523 0.326004 -0.126147 -1.006847 0.124297 0.692330 -0.657269 0.532722 -0.232328 0.068236 -0.347684 0.313059 0.354308 0.203301 -0.371882 -0.121400 0.508771 0.100721 -0.451085 -0.518981 -0.227249 -0.028668 -0.097304 -0.860317 0.100765 -0.099303 -0.749978 -0.935544 0.298773 0.352165 0.796820 0.218353 0.307515 0.419859 0.012915 -0.065563 -0.026709 -0.010868 -0.563050 0.579512 -0.201746 -0.197575
93 -0.214309 -0.113660 0.614892 0.504297 -0.273797 -0.721541 -0.386826 0.362500 0.184998 -0.108541 0.091298 -0.049789 0.208147 0.388749 0.067356 0.605162 0.924288 0.662143 -0.154395 -0.375443 -0.318056 0.461486 -0.257719 0.393856 -0.040633 -0.857510 0.076070 1.020793 -0.716970 0.690004 -0.027377 0.132281 -0.361890 0.260630 0.403530 0.224688 -0.529081 -0.091459 0.482057 0.193487 -0.385880 -0.669747 -0.254730 0.050418 -0.395532 -0.682605 0.146606 -0.309578 -0.614282 -1.027907 0.301352 0.255841 0.770905 0.239882 0.321626 0.330098 -0.054683 -0.116041 -0.002934 -0.037249 -0.621797 0.646847 -0.234050 -0.235683
174 0.070330 -0.111547 -0.314053 -0.275771 -0.117515 -0.260740 0.137795 0.099177 -0.376992 0.684854 -0.352889 0.103950 -0.115851 -0.437468 0.261489 0.196257 -0.385789 -0.030942 0.463731 -0.026580 -0.353607 0.691689 0.310977 -0.224927 -0.654850 0.029523 0.227889 -0.430537 0.110911 -0.365023 -0.046040 0.473070 0.276018 -0.227677 -0.536267 -0.438865 -0.159815 -0.120211 0.653581 0.626178 -0.550514 0.170793 -0.238410 0.213871 0.304688 -0.185290 -0.538638 0.372505 -0.219596 -0.097379 0.388767 0.076043 -0.370942 0.117875 -0.268498 0.075784 0.096670 0.095925 -0.010809 -0.378171 0.292570 0.113885 0.385499 -0.011249
22 -0.245535 -0.100147 0.618877 0.171794 -0.114206 -0.479405 -0.348206 0.237604 0.187104 -0.122546 0.072990 0.101637 0.141352 0.540708 0.085012 0.634760 0.492633 0.719079 -0.133059 -0.519485 -0.158821 0.395390 -0.275625 0.401657 -0.150490 -0.761068 0.151262 0.916159 -0.699542 0.408376 -0.188902 -0.262239 -0.315025 0.229140 0.270149 -0.085114 -0.535323 -0.112854 0.464239 0.109608 -0.358676 -0.404948 -0.093568 -0.146216 0.070628 -0.736515 0.234231 0.298050 -0.569751 -1.082317 0.236919 0.470392 0.372542 0.254441 0.302287 0.390406 0.261784 -0.002169 0.101465 0.046426 -0.551358 0.346168 -0.249520 -0.248194
37 0.074806 -0.259551 0.357037 0.549200 -0.350307 -0.453056 -0.029933 0.246991 -0.261753 -0.371195 -0.006896 0.284758 0.209800 0.051416 0.250365 0.802823 0.590326 0.304285 0.032712 -0.190926 0.301584 0.388708 -0.694861 0.047402 0.200812 -0.826543 -0.008410 0.871067 -0.973651 0.666682 0.305486 0.008148 -0.248584 0.084288 0.067823 -0.113639 -0.415955 -0.187346 0.347964 0.252951 -0.199304 -0.363647 -0.602764 -0.006461 -0.350870 -0.368243 -0.144628 -0.213231 -0.334685 -0.914660 0.218096 0.103939 0.654099 0.077424 0.177706 0.280560 0.531016 -0.386581 0.045272 0.071902 -0.527843 0.619199 -0.483174 -0.404682
214 -0.093598 -0.251818 0.406986 0.557712 -0.613392 -0.459122 -0.169961 0.447028 -0.300224 -0.293058 0.037941 0.340329 0.191721 0.179522 0.159331 0.653827 0.428506 0.489277 -0.035872 -0.379381 0.383164 0.203765 -0.364570 0.147896 0.137892 -0.722991 -0.000754 0.925178 -0.857123 0.646448 0.268270 0.153938 -0.267410 0.156140 0.053924 0.244170 -0.509395 0.116091 0.420974 0.226935 -0.336244 -0.350510 -0.761979 0.061274 -0.214294 -0.388184 0.063399 -0.489352 -0.524361 -0.703555 -0.078814 0.249593 0.541450 0.238372 0.250310 0.432798 0.262428 -0.205623 0.080518 0.056211 -0.581697 0.683992 -0.379307 -0.289281
51 0.544364 -0.475609 0.136755 0.369305 0.057738 0.137680 0.619275 -0.075885 0.284479 -0.360612 -0.202635 0.588594 0.218420 0.086017 0.339907 0.228347 0.588482 -0.625023 0.106303 0.049653 -1.100257 -0.052228 -0.866423 -0.543396 0.334531 -0.012692 -0.057642 0.644020 -0.545678 0.706043 0.388728 -0.248465 0.083107 0.032210 0.599983 0.349407 -0.502123 -0.680643 0.166901 0.223897 -0.054297 -0.738573 0.274291 0.060646 -0.332584 -0.375350 -0.260912 -0.313493 -0.310349 -0.410377 0.511745 -0.204051 0.592124 0.059142 -0.308577 0.120431 0.579066 -0.321909 -0.401640 0.220966 -0.167357 -0.291569 -0.206971 -0.080930
120 0.319342 -0.535121 0.248388 0.352135 0.097669 -0.298125 0.285439 0.295918 -0.210694 -0.430707 -0.184891 0.385356 0.271004 0.152014 0.291265 0.555465 0.751038 -0.275973 0.196395 0.008692 -0.258108 0.136733 -0.911135 -0.216992 0.314398 -0.238445 -0.019282 0.625923 -0.924710 0.683956 0.488562 -0.194382 0.022838 0.115205 0.279056 -0.677917 -0.496194 -0.281724 0.238980 0.351627 -0.540786 -0.318479 -0.773168 0.032337 -0.312340 -0.443100 -0.512239 0.038596 -0.061106 -1.089666 0.179476 0.312201 0.525119 -0.052717 -0.229424 0.352444 0.235485 -0.144365 -0.408915 0.098254 -0.447486 0.391191 -0.337057 -0.281820
205 -0.167560 -0.149878 0.471560 0.449719 -0.630161 -0.455073 -0.338446 0.658022 -0.145643 -0.149465 0.059998 0.058096 0.229486 0.452407 0.141265 0.760836 0.869068 0.675382 -0.092076 -0.446616 0.128044 0.651618 -0.498321 0.279301 0.054219 -0.726602 0.059942 0.807944 -0.819279 0.728635 0.028419 -0.018843 -0.309462 0.307779 0.213273 0.371653 -0.528194 0.158619 0.474033 0.219601 -0.196213 -0.570440 -0.471552 0.032257 -0.199006 -0.747588 0.077519 -0.336484 -0.657099 -0.948595 0.003701 0.354364 0.525330 0.345526 0.340536 0.384035 0.062337 -0.128036 0.005332 0.042041 -0.561493 0.739275 -0.143145 -0.258412
115 0.375413 0.065828 -0.401635 0.202690 0.213278 0.632157 0.393642 0.238233 0.076298 0.556754 -0.234464 -0.208912 -0.289068 -0.060891 0.090855 -0.065157 -0.393562 0.213922 -0.077635 -0.069666 0.065071 0.287264 -0.680242 -0.236633 -0.433429 0.442469 0.001275 -0.139585 -0.350638 -0.346344 0.334814 0.508941 -0.010842 -0.278272 -0.116292 -0.067501 -0.580435 -0.083619 0.281871 0.560544 0.037652 0.048641 -0.614695 0.487864 -0.068708 0.249022 -0.243861 0.269079 -0.128905 -0.262862 0.168296 0.295821 -0.275626 0.657719 0.060948 -0.662382 0.104199 0.268186 0.094859 -0.354758 0.131792 0.092074 -0.065798 0.067051
199 -0.254007 -0.015015 0.605684 -0.078777 -0.106771 -0.678464 -0.324555 0.248540 0.360673 -0.109321 0.042756 0.249140 0.207398 0.319332 0.115963 0.618886 0.559046 0.712807 -0.421859 -0.447727 -0.101314 0.238785 -0.169052 0.405606 -0.158572 -0.684404 0.140077 0.816368 -0.708237 0.447506 -0.321438 -0.087685 -0.319726 0.187398 0.087134 0.059006 -0.573218 -0.170408 0.514223 0.081595 -0.129876 -0.247056 -0.249512 -0.184465 0.024945 -0.666469 0.326742 0.014154 -0.566621 -1.145640 0.242306 0.431359 0.656883 0.347751 0.332962 0.384378 0.255210 0.024215 -0.079004 0.139832 -0.524678 0.069591 -0.272050 -0.268113
42 -0.310086 -0.117912 -0.160665 -0.513601 -0.186296 -0.479522 -0.182334 -0.214524 -0.507801 0.531934 -0.262396 -0.101233 -0.012817 0.091610 0.296173 0.055924 -0.414813 -0.299068 0.667919 -0.005639 -0.354805 0.528795 0.159757 -0.074444 -0.618198 0.232133 0.439937 -0.578321 0.248051 -0.132194 0.225936 0.449137 0.213303 0.145542 -0.664901 -0.077450 0.067894 0.177599 0.651602 0.368231 -0.638689 -0.144734 0.179670 0.072903 0.647921 -0.414904 -0.333091 0.237459 0.067990 0.084200 0.307650 0.140715 -0.173495 0.381679 -0.309906 0.493404 0.180818 0.162996 0.470716 -0.307019 0.344023 -0.042784 0.035179 -0.105486
187 0.521247 -0.499563 0.142691 0.353790 0.041683 -0.001004 0.582399 0.078267 0.211221 -0.482396 -0.257753 0.576854 0.201840 -0.109768 0.304566 0.264025 0.411030 -0.604732 0.113600 -0.010236 -0.828197 -0.087500 -0.623590 -0.548939 0.292813 -0.260322 -0.095054 0.723041 -0.550209 0.753070 0.539921 -0.178665 0.096375 0.051816 0.909156 -0.082766 -0.497593 -0.319507 0.064184 0.302289 -0.211873 -1.000619 0.084351 0.077476 -0.563952 -0.426899 -0.098280 -0.180592 -0.447065 -0.609651 0.472233 -0.209631 0.576708 0.143069 -0.270113 0.166142 0.618315 -0.287386 -0.183514 0.127834 -0.192246 -0.142717 -0.087530 -0.088738
50 0.252321 0.003532 -0.419246 -0.211610 0.462923 0.561948 0.250206 0.429886 -0.417498 0.673548 -0.265663 -0.116014 -0.198211 -0.337147 0.173245 0.034239 -0.506427 0.172555 0.142302 0.004036 -0.162837 0.526497 -0.294624 -0.289434 -0.599617 -0.036707 0.107397 -0.473282 -0.142714 -0.206594 0.163493 0.739998 0.228972 -0.301658 -0.429365 -0.540999 -0.539660 0.090402 0.491117 0.638618 -0.489449 0.172546 -0.474506 0.395674 -0.038104 0.124968 -0.825893 0.120865 -0.076551 -0.371762 0.446579 0.165789 -0.129113 0.346016 -0.214065 -0.442460 -0.246210 -0.011498 -0.116344 -0.406366 0.232236 0.065514 0.333537 0.082380
219 0.484763 0.027927 -0.353686 -0.023023 0.139876 0.601228 0.357032 -0.012578 0.466664 0.491125 -0.208117 -0.358016 -0.403078 0.157724 -0.011351 -0.076311 -0.133160 0.164200 -0.076952 0.020160 0.130241 0.185541 -0.842565 -0.227966 -0.483019 0.334920 -0.039689 0.066084 -0.390636 -0.424938 -0.012751 0.451913 -0.143310 -0.126608 -0.033092 0.196458 -0.391240 -0.206823 0.163299 0.510242 0.336189 0.031392 -0.656336 0.414068 0.037124 0.222318 -0.251858 0.014085 -0.252515 -0.292793 0.190319 0.372300 -0.290473 0.701172 0.160160 -0.750337 -0.149605 0.080986 -0.261650 -0.283547 0.029155 0.254808 0.026812 -0.013619
168 0.365745 0.176027 -0.156975 -0.196605 0.251471 0.662584 0.348408 -0.468011 0.488884 0.398389 -0.168698 -0.352988 -0.493431 0.162892 -0.053096 -0.201829 0.037501 0.128093 0.251437 -0.243999 0.170367 0.154101 -0.590017 -0.219800 -0.346336 0.311063 -0.113682 -0.028770 -0.473985 -0.355727 0.217265 0.176321 -0.324943 0.066800 -0.031837 -0.094358 -0.360531 -0.528726 -0.028394 0.334110 0.391369 0.216054 -0.302593 0.323873 0.276815 0.199027 -0.384207 -0.046623 -0.084233 -0.060523 -0.011852 0.118824 -0.488231 0.146011 0.236117 -0.789672 0.153806 0.265010 -0.031868 -0.290387 -0.105993 0.435962 0.073767 -0.100784
125 -0.436814 -0.148874 -0.071891 -0.424573 -0.182524 -0.425177 -0.326595 -0.448280 -0.520893 0.363634 -0.224182 -0.068132 -0.074977 0.384485 0.295038 -0.286140 -0.464253 -0.385834 0.401253 0.074982 0.009041 0.221098 0.167962 -0.087086 -0.615937 -0.059932 0.497548 -0.366035 0.272961 -0.324713 0.378867 0.364964 0.019669 0.127171 -0.371093 -0.234469 0.470624 0.185606 0.601953 0.338869 -0.424930 -0.101326 0.025721 -0.017437 0.610094 -0.444982 -0.184614 -0.209551 0.205074 0.230461 0.444343 0.219279 0.139898 0.370509 -0.250010 0.550702 0.107525 0.154926 0.613549 -0.255125 0.379351 -0.260524 -0.306192 -0.104070
103 0.257222 -0.126082 -0.431542 -0.243976 0.042748 0.154774 0.143853 0.066496 -0.432489 0.704769 -0.324902 -0.134799 -0.175856 -0.427975 0.129321 0.370642 -0.308754 0.062693 0.317081 -0.014409 -0.091017 0.489548 0.052274 -0.159663 -0.636104 -0.015180 0.175709 -0.458267 -0.041760 -0.587464 -0.149324 0.633525 0.287424 -0.347793 -0.491927 -0.373575 -0.285526 -0.118615 0.631015 0.662289 -0.474310 0.184492 -0.322206 0.284240 0.131714 -0.014194 -0.672677 0.426277 -0.230667 -0.282803 0.489792 0.200812 -0.312940 0.279044 -0.264150 -0.215882 -0.074603 0.122559 -0.022744 -0.396640 0.273200 0.119648 0.409007 0.029614
179 0.481277 -0.491205 0.081192 0.445602 0.046447 -0.114844 0.516551 0.075918 0.066137 -0.479575 -0.286533 0.294798 0.304481 -0.158403 0.300987 0.506260 0.622955 -0.614745 0.237180 -0.167242 -0.446517 -0.121473 -0.662229 -0.445035 0.410232 0.111302 -0.041423 0.807349 -0.683823 0.717156 0.295518 -0.266266 0.130399 0.062195 0.787093 -0.619679 -0.379653 -0.311036 0.081421 0.349395 -0.156915 -0.587393 -0.023822 0.055994 -0.346738 -0.674020 -0.173618 -0.394122 -0.304862 -0.461751 0.215085 -0.094933 0.203248 0.198550 -0.291849 0.201187 0.507942 -0.283071 -0.163381 0.190529 -0.204667 -0.359135 0.045941 -0.182897
101 0.225502 0.275814 -0.105637 -0.577257 0.103164 0.413870 0.298762 -0.099067 0.451106 0.329361 -0.107931 0.066706 -0.577162 0.303871 -0.051505 0.039927 -0.436713 0.034864 0.146318 -0.259704 -0.082219 0.202992 -0.270751 -0.186745 -0.348762 0.419866 -0.213156 0.178025 -0.469560 -0.351797 0.112723 0.268324 -0.549107 0.280297 -0.095238 0.156245 -0.097579 -0.622666 -0.155266 0.214019 0.182143 0.384103 -0.133570 0.181896 0.110869 0.356647 -0.438363 -0.188458 0.030716 -0.086949 0.145571 -0.254217 -0.313593 -0.017121 0.344353 -0.736598 0.362553 0.073420 -0.220678 -0.276478 -0.179527 0.475673 -0.124967 -0.175189
126 -0.515765 -0.181999 0.021999 -0.346990 -0.114166 -0.501737 -0.335201 -0.395119 -0.408513 0.335128 -0.203565 -0.146300 -0.032171 0.386792 0.313645 -0.279111 -0.368054 -0.358384 0.464037 -0.107314 -0.011717 0.027647 0.244640 -0.086788 -0.505325 -0.096632 0.533526 -0.236373 0.282922 -0.354097 0.294708 0.212117 -0.050365 0.112204 -0.601112 -0.062834 0.371372 0.220755 0.587710 0.189282 -0.457211 -0.168991 0.104160 -0.122495 0.502148 -0.322507 -0.144445 -0.235192 0.152867 0.368414 0.559206 0.343027 0.360117 0.352125 -0.106439 0.632577 0.038566 0.266500 0.343486 -0.169125 0.340857 0.033062 -0.263320 -0.107693
14 -0.199614 0.121905 0.466761 -0.091637 -0.213514 -0.355943 -0.059994 -0.101536 -0.425738 -0.157459 0.875743 0.327101 -0.181159 0.008243 0.568819 -0.139808 0.455571 -0.270433 -0.355982 0.331048 0.128240 -0.271280 -0.059084 0.112668 -0.225697 0.142498 0.179739 -0.197393 0.236794 0.213099 -0.114517 -0.270182 0.160943 0.174282 0.409046 0.228881 0.289436 0.645032 -0.363883 0.427645 0.449535 0.597981 -0.006558 0.456032 0.509953 0.195842 0.382151 -0.088110 -0.466018 0.140603 -0.141547 -0.057607 -0.248294 0.166318 -0.135194 -0.103506 0.213253 -0.473527 -0.346180 0.074208 -0.372810 -0.398918 -0.169644 0.322043
89 0.181050 0.757028 0.073070 0.293271 -0.109348 0.095039 0.285410 -0.051840 -0.154331 -0.947411 -0.181856 0.387007 0.029470 -0.285840 0.313249 -0.844000 0.524287 0.445100 0.163027 0.085968 -0.303777 0.235888 -0.029275 -0.283025 -0.189613 0.018843 0.109241 0.283944 0.341670 0.302682 0.346997 -0.054495 0.296398 0.349055 0.013404 0.167833 0.943878 0.208814 0.117145 -0.145090 -0.176465 0.081379 -0.602727 0.072716 -0.097078 -0.753355 0.267384 -0.618759 -0.095342 0.044652 -0.479119 -0.928527 -0.074521 0.495539 -0.010966 -0.038822 0.233886 -0.018345 -0.327183 -0.100828 0.445140 -0.096525 0.146880 -0.337540
78 -0.334033 0.254028 0.067158 -0.215167 0.240680 0.204487 -0.128738 -0.271585 -0.068915 0.062900 -0.251155 -0.344553 -0.301775 0.180435 0.044528 -0.070584 -0.051153 -0.227435 -0.362225 -0.391528 0.703551 -0.513988 -0.210491 -0.280590 -0.544701 0.185297 -0.179394 -0.011591 -0.334874 -0.291299 -0.154121 0.014852 -0.634449 0.236050 -0.067022 0.239715 -0.023567 -0.008841 -0.595312 -0.397668 0.164059 0.238631 -0.040342 0.359667 -0.947408 -0.005999 0.477352 0.207039 0.042938 0.214934 -0.119023 -0.514956 -0.381751 0.346688 0.405281 -0.167192 -0.088032 0.095036 0.160251 0.221673 -0.029886 -0.301876 -0.278589 -0.519428
142 0.212723 0.853750 0.118646 0.210486 -0.172748 0.140620 0.222510 0.062005 0.313452 -0.854266 -0.173336 0.047883 0.001845 -0.336705 0.368351 -0.375032 0.002450 0.578628 -0.080846 0.029756 -0.557058 0.290113 0.225792 -0.392484 -0.115664 0.339659 0.214568 0.145151 0.339484 0.197386 0.201399 0.171554 0.167027 0.427488 0.284779 0.257962 0.388909 0.326094 -0.017998 -0.121188 0.153796 -0.015053 0.100282 -0.015187 -0.221524 -0.453761 -0.575047 -0.959279 -0.694120 0.151842 -0.336028 -0.758581 -0.078478 0.397195 -0.112658 -0.024310 -0.117257 0.368099 -0.251854 -0.209953 0.414921 -0.086613 -0.316327 -0.390280
196 -0.461647 0.183504 0.091398 -0.374174 0.032035 -0.414820 -0.639206 -0.607470 -0.644543 0.115343 -0.066830 0.230675 -0.064667 -0.394148 0.189548 -0.750513 -0.556834 -0.471361 0.467657 0.068857 0.184089 -0.809479 0.056955 -0.141913 -0.011686 0.354703 0.763441 0.096675 -0.089345 -0.699364 -0.064049 0.329781 -0.547510 0.587343 -0.950629 -0.096678 0.398417 0.240949 0.348294 -0.017910 -0.313284 0.425735 -0.209765 -0.264738 0.200043 0.281867 -0.131518 0.038044 0.117501 0.207566 0.493706 0.474639 0.089627 -0.166420 0.110323 0.370708 0.359774 0.026470 0.056650 -0.005745 0.541556 -0.022278 -0.200909 0.104897
146 0.215417 0.784414 0.098738 0.277587 -0.365010 -0.070708 0.243995 0.055329 -0.275527 -0.904917 -0.298117 0.080745 -0.043216 -0.088290 0.246006 -0.431079 0.238386 0.543069 -0.079578 0.271837 -0.728924 -0.052414 0.150277 -0.323409 -0.175213 0.087185 0.170037 0.355541 0.369293 0.310738 0.018020 0.200929 0.260280 0.489182 0.413010 0.266749 0.585252 0.504427 -0.010418 -0.167956 0.136830 -0.177039 -0.139173 -0.022907 -0.377326 -0.603435 -0.202173 -0.890927 -0.724993 0.189451 -0.508906 -0.942659 0.146471 0.278562 -0.047655 -0.064933 0.082376 0.235573 -0.171387 -0.181758 0.406366 -0.128068 -0.226367 -0.359580
74 0.581061 -0.367934 -0.369924 -0.398468 0.482646 0.730071 -0.221040 0.310041 -0.213294 0.017240 0.593994 -0.139562 0.183026 0.071204 -0.006078 -0.142459 0.060180 -0.445361 0.460275 0.469248 0.296105 -0.121688 -0.352762 0.212470 -0.214229 0.134650 -0.165419 -0.527248 -0.011956 -0.323269 -0.093734 -0.366096 0.076884 0.142310 -0.249433 -0.019716 0.133197 -0.451520 0.125639 -0.492008 0.383633 -0.870433 0.801757 0.315799 -0.123549 -0.150781 -0.302404 -0.002025 0.058567 -0.635624 -0.083291 0.031677 -0.049355 0.067114 0.483459 0.271942 0.300481 0.107159 0.258360 0.149409 0.225497 -0.282536 0.102670 -0.600430
210 -0.232144 0.279520 0.154801 -0.479671 0.369693 0.246656 -0.234722 -0.586006 -0.188907 0.078103 -0.206468 -0.378239 -0.140466 -0.060429 0.014053 -0.004751 0.079241 -0.156538 0.046715 -0.313005 0.545762 -0.691055 0.136550 -0.303568 -0.531959 0.132802 -0.145363 0.094078 -0.418801 -0.320452 0.185618 0.313606 -0.690525 0.035346 0.180641 0.357239 -0.008206 0.135285 -0.609757 -0.298804 0.057548 -0.191878 -0.098324 0.270982 -0.632307 0.291866 0.480610 -0.034574 0.021060 0.365816 0.075261 -0.484319 -0.205840 0.456074 0.415417 -0.272108 -0.020591 0.116569 0.207844 0.260408 -0.020646 -0.487132 -0.339411 -0.404091
123 -0.373377 0.209608 0.044181 -0.263384 -0.368633 -0.350269 -0.653533 -0.444259 -0.506946 -0.057773 -0.019300 -0.120976 -0.112191 -0.325265 0.106577 -0.877501 -0.369025 -0.401325 0.491127 0.338357 0.335607 -0.647871 -0.098073 -0.090670 0.242863 0.283773 0.876547 -0.036009 -0.242745 -0.480446 0.131874 0.333628 -0.527108 0.440221 -0.567890 -0.051559 0.042923 -0.446395 0.266961 -0.194345 -0.322462 0.474012 0.065411 -0.226160 0.337898 0.339282 0.017350 0.127539 0.141888 0.323316 0.596844 0.170836 0.427978 -0.366201 0.160888 0.111224 0.437168 0.430211 0.075918 0.144918 0.569746 -0.211179 0.303372 0.212915
152 -0.110492 0.051818 0.554873 -0.116711 -0.120809 -0.072768 -0.187397 -0.030672 -0.086344 -0.178503 0.684447 0.156877 -0.194028 0.058611 0.422913 -0.221038 0.799853 -0.522461 0.102950 0.115349 0.068902 -0.050992 0.011136 0.222098 -0.190944 0.270717 0.063674 -0.198239 0.387933 0.211967 -0.029609 0.022039 0.144398 0.025220 0.437684 0.139053 0.249878 0.667463 -0.450565 0.542491 0.762867 0.492335 -0.152621 0.363630 0.297805 0.206582 0.433305 -0.149430 -0.337484 0.143979 -0.125809 -0.068538 -0.380253 0.192191 -0.021146 0.015267 0.116568 -0.023426 -0.042847 -0.121406 -0.299604 -0.331835 -0.271955 0.187862
60 0.642592 -0.352411 -0.432265 -0.481254 0.098832 1.062716 -0.374830 0.338622 -0.098251 -0.098483 0.565549 -0.333532 0.027609 0.157470 -0.041003 -0.108704 0.172729 -0.351551 0.196393 0.187988 -0.016638 0.117975 -0.375918 0.258276 -0.172896 -0.004759 -0.094042 -0.550263 0.031157 -0.365084 0.154476 -0.365089 0.232745 0.036509 -0.261634 0.020761 -0.176390 -0.241421 0.192399 -0.404633 0.506701 -0.950675 0.608883 0.115179 -0.286108 -0.044412 -0.436258 -0.059229 0.056835 -0.242349 -0.047270 0.304730 -0.073340 0.002157 0.527104 0.111199 0.378426 -0.033904 0.663559 -0.029863 0.151236 -0.605909 0.140778 -0.425022
29 0.402131 -0.123676 -0.400500 -0.170555 0.155700 0.571817 -0.165691 -0.036815 -0.147402 0.171805 0.502112 0.282080 0.112044 -0.181879 0.109100 -0.004551 -0.251226 -0.470224 0.557994 0.466457 0.362465 -0.098260 0.111898 0.167374 -0.214546 0.076690 -0.119596 -0.437963 0.084019 -0.262564 0.005944 -0.259287 -0.078079 0.283590 0.298925 0.267771 0.333021 -0.473551 0.052445 -0.602387 -0.020248 -0.150299 0.513520 0.492458 0.028450 0.166476 -0.235993 -0.059822 0.064716 -0.569987 -0.032195 -0.168712 0.123666 -0.072129 0.301477 0.194158 0.240624 0.180865 0.607716 0.306898 0.363851 -0.062010 0.084881 -0.724580
127 -0.234806 0.156951 0.001419 0.083433 0.247577 0.239188 -0.382843 -0.266260 0.226911 -0.016936 -0.333227 -0.118954 -0.583739 -0.062573 -0.264111 -0.192602 0.180087 0.131071 -0.537426 0.385529 0.410446 -0.410295 0.292043 0.036658 0.636081 0.274288 -0.627713 0.134701 -0.167124 0.593269 0.287566 -0.094929 0.686573 -0.121364 -0.076064 0.107905 -0.028038 -0.189376 0.067613 0.150207 0.428576 0.170044 -0.365685 0.592108 0.072006 0.363865 0.258877 0.020207 0.591447 0.082273 -0.406386 -0.517460 0.015899 0.019698 0.055497 0.297743 -0.353093 -0.858226 0.279933 0.355459 0.258870 -0.602799 -0.186521 0.007648
79 -0.364319 0.219336 0.015229 -0.283589 -0.254813 -0.549999 -0.633837 -0.593707 -0.718972 -0.048481 -0.030255 0.072148 -0.116346 -0.419716 0.139846 -0.680049 -0.629229 -0.457412 0.631886 0.276787 0.253366 -0.619504 -0.010389 -0.082623 0.050275 0.203246 0.798044 -0.064435 -0.196343 -0.600850 0.137171 0.545590 -0.515897 0.471404 -0.783357 0.090498 0.158756 0.013827 0.258687 -0.059470 -0.231601 0.506344 -0.074917 -0.217616 0.335757 0.253756 0.008119 0.043688 0.333039 0.264272 0.331409 0.339633 0.284361 -0.362673 0.135110 0.227371 0.158067 0.436122 -0.014852 0.046084 0.519703 -0.072870 0.063096 0.177836
80 -0.519282 -0.053515 0.046661 -0.383400 -0.074227 -0.270922 -0.500574 -0.610021 -0.614153 0.272453 -0.199188 0.231237 -0.046714 0.156208 0.320741 -0.635105 -0.372258 -0.427838 0.372398 0.191078 -0.091422 -0.441527 0.302507 -0.114926 -0.395131 0.094701 0.599878 -0.292093 0.141905 -0.687266 0.249976 0.414344 -0.190148 0.237083 -0.465788 -0.223901 0.600733 0.264945 0.490380 0.211008 -0.294723 -0.070099 0.026124 -0.222792 0.417162 -0.076025 -0.135453 -0.248045 0.041617 0.517504 0.538913 0.328109 0.155716 0.147250 -0.096982 0.582890 -0.064402 0.236199 0.286150 -0.135953 0.421369 -0.111039 -0.388650 -0.081790
198 0.160441 0.746036 0.097925 0.290589 -0.330941 0.093695 0.209004 0.129066 -0.222481 -0.924262 -0.256567 0.396490 0.052165 -0.280140 0.333784 -0.529026 0.306247 0.480709 0.284930 0.235613 -0.675736 0.114830 0.117698 -0.252371 -0.176371 0.153382 0.182912 0.350068 0.390341 0.190489 0.152872 0.206219 0.254631 0.254005 0.333943 -0.139240 0.586894 0.193304 0.044327 -0.118144 0.110781 0.200451 -0.529838 0.064528 -0.302409 -0.694593 0.102545 -0.846991 -0.473033 0.092344 -0.125852 -0.934881 0.026951 0.377154 -0.118711 -0.008439 0.252603 0.446306 -0.246387 -0.124536 0.371910 0.086053 -0.221140 -0.328238
38 0.018901 -0.292502 -0.161577 0.126247 0.107819 0.125840 -0.492999 -0.025925 0.154949 -0.166026 -0.472734 -0.836896 -0.192186 -0.583483 0.417228 -0.130089 -0.035049 0.504900 -0.278712 0.060798 0.386975 -0.091692 0.008024 -0.266875 -0.265857 -0.045605 0.240760 -0.376801 0.296140 -0.319079 0.140162 0.498416 0.332869 -0.468423 -0.607712 -0.262558 -0.128283 -0.285169 -0.599200 0.021585 0.231088 0.294946 -0.333876 0.078467 -0.178006 -0.035006 -0.148174 -0.210827 0.019604 0.546842 -0.395690 -0.417619 -0.102425 -0.561848 0.502037 0.053202 0.038401 0.174865 -0.298991 0.515414 -0.355541 0.180976 -0.337358 -0.156503
209 -0.536825 0.089965 0.000234 -0.220707 -0.235072 -0.324121 -0.576500 -0.579085 -0.746564 0.242038 -0.102452 0.180188 -0.060155 -0.202177 0.260415 -0.607792 -0.652017 -0.495576 0.587863 -0.107498 0.301014 -0.299174 0.284044 -0.108334 -0.164087 0.255165 0.636150 -0.272692 0.030482 -0.784775 0.093965 0.565675 -0.442451 0.482601 -0.525026 -0.319867 0.448579 -0.058423 0.548278 0.137236 -0.512516 0.148939 -0.055947 -0.194553 0.105070 0.034473 -0.045997 -0.240529 0.221379 0.370964 0.309301 0.426274 0.225049 0.195128 -0.040992 0.485994 -0.052054 0.220107 0.144499 -0.129605 0.424104 0.023312 -0.127053 -0.019339
212 -0.061548 0.316528 0.022914 0.384282 0.637859 -0.042014 -0.458864 -0.257243 0.339424 0.120972 -0.185989 -0.220310 -0.503727 0.013099 -0.225491 -0.373995 -0.086105 0.181821 -0.310542 0.203032 0.400739 -0.312191 0.324316 0.197600 0.625021 0.505126 -0.624806 0.157499 -0.100073 0.334023 0.291173 -0.380659 0.511363 -0.421247 -0.324411 0.204050 0.194186 -0.285136 0.121989 0.111807 0.292814 -0.021730 -0.473657 0.545727 -0.064042 0.024156 0.154810 -0.016452 0.455021 0.229072 -0.187174 -0.236164 0.117170 0.132318 -0.168745 0.258922 -0.270874 -0.758387 0.166683 0.310649 0.214330 -0.396323 -0.322118 0.060917
204 0.641801 -0.281348 -0.608363 -0.702312 -0.134024 0.740678 -0.198359 0.093664 -0.229826 -0.306707 0.685395 0.221645 0.099731 0.347476 -0.211448 -0.225340 -0.254948 0.142859 -0.118906 -0.138684 0.309503 0.145861 0.102040 0.381462 -0.014502 0.407997 0.157193 -0.328084 -0.137959 -0.044886 0.367893 -0.327843 0.363146 0.102165 -0.500919 0.035802 -0.310249 -0.126153 0.294750 -0.088407 0.760865 -0.608188 0.178954 -0.221043 -0.276224 0.013265 -0.269340 0.399846 0.326203 0.150706 0.369291 0.378281 0.055277 -0.172506 0.743774 -0.011677 0.460154 -0.044858 0.684625 -0.307108 0.348344 -0.230206 -0.026007 -0.234968
118 0.169837 0.849614 0.043039 0.246720 -0.055069 0.182929 0.284879 -0.204887 -0.380537 -0.887272 -0.200820 0.628650 0.052081 -0.245015 0.302837 -0.602915 0.467188 0.501950 0.153320 0.102979 -0.609229 0.221857 0.119144 -0.325583 -0.186892 0.036537 0.068048 0.232509 0.338205 0.250483 0.231481 -0.027729 0.299863 0.221159 0.201018 -0.151310 0.732354 0.209233 0.073466 -0.143183 -0.190443 0.045233 -0.748503 0.095259 -0.259008 -0.781810 0.291416 -0.568763 -0.276096 0.132921 -0.404372 -0.834321 -0.067336 0.603348 -0.083870 -0.047532 0.194363 0.378553 -0.151390 -0.118019 0.479481 -0.127059 0.128415 -0.319400
45 0.756453 -0.471364 -0.207789 -0.448216 0.099260 0.694557 -0.624496 0.142305 -0.402011 -0.292195 0.424219 0.001023 -0.322614 -0.054051 -0.214293 -0.481750 0.099625 -0.221880 0.060119 -0.156177 -0.075344 0.096251 -0.005407 0.317421 -0.337799 0.181403 0.105723 -0.319506 0.232814 -0.213015 0.255690 0.174991 0.162441 -0.029391 -0.798313 -0.246734 -0.534745 -0.242937 0.146673 -0.366581 0.561438 -0.290092 0.454481 -0.127107 -0.291279 -0.141883 -0.209964 0.321930 0.491194 0.182255 0.233790 0.386035 -0.112209 0.205086 0.370727 -0.017011 0.509769 -0.031724 -0.080444 -0.229476 -0.077743 -0.295326 0.057539 -0.167004
4 -0.139565 -0.059467 0.619839 0.135865 -0.193509 -0.054812 -0.093173 -0.106654 -0.116550 -0.228187 0.565611 0.241582 -0.096008 0.363313 0.222593 -0.562908 0.719368 -0.662625 0.145715 -0.024474 0.068561 -0.046097 0.124963 0.254079 -0.197244 0.396690 -0.136363 -0.255126 0.315012 0.412338 0.188773 0.212016 0.141544 -0.137509 0.468799 0.416902 -0.043768 0.688937 -0.533479 0.615648 0.830076 0.563647 -0.303543 0.224911 0.030125 0.285473 0.399696 0.019251 -0.168357 0.097245 -0.365268 0.057088 -0.675807 -0.032000 0.035238 0.104285 0.176971 0.034708 -0.043269 -0.385639 -0.059603 -0.455984 -0.255361 0.170357
70 0.035609 0.251333 -0.005325 -0.573062 0.382386 0.239723 0.284443 -0.012686 0.316593 0.234597 -0.138203 0.041562 -0.689898 0.205649 -0.203573 -0.009224 -0.023335 -0.026720 0.279551 -0.295972 -0.063584 0.063330 0.114657 -0.212247 -0.312052 0.378246 -0.298243 0.178999 -0.403075 -0.053907 0.198778 0.364716 -0.646343 0.426010 -0.022790 0.145591 0.127002 -0.518497 -0.327576 0.143138 0.171935 0.478554 -0.042122 0.124505 -0.042014 0.592355 -0.781382 -0.291363 0.248116 -0.047026 -0.176827 -0.432561 0.089008 -0.084129 0.447822 -0.694708 -0.187965 0.167243 0.016395 -0.260876 -0.142280 0.340094 -0.116690 -0.210257
5 0.046694 0.404435 -0.011582 0.707352 0.258960 -0.014155 -0.529046 -0.030298 0.352473 0.268933 0.028523 -0.555002 -0.316703 0.058187 -0.253060 -0.595861 -0.080755 0.177461 -0.438498 0.138240 0.319150 -0.107023 0.126896 0.320257 0.589150 0.695471 -0.674804 0.273293 -0.164406 0.217743 0.284002 -0.634389 0.298551 -0.694009 -0.455893 0.390471 0.499244 -0.353433 0.130590 0.102743 0.495086 0.093324 -0.512192 0.598688 -0.126249 0.047394 0.248140 0.051541 0.914617 0.534765 -0.187373 -0.046406 0.160562 0.134695 -0.321262 0.094870 -0.329292 -1.008165 0.031242 0.285664 0.177958 -0.034066 -0.062606 0.071720
206 -0.318676 -0.348373 0.520512 0.103897 0.383808 0.229275 0.501763 -0.207621 0.082209 -0.015221 0.347311 0.500632 -0.055032 0.124694 -0.292064 0.142122 -0.047763 0.219764 -0.328481 -0.590439 -0.427917 -0.288121 -0.164422 -0.064504 -0.146126 -0.298045 -0.301450 -0.507125 0.123387 -0.278782 -0.084973 0.591573 0.067427 -0.652077 0.149029 0.091369 0.361137 -0.020996 0.816821 -0.540456 0.464645 -0.009411 -0.380500 -0.190304 -0.003721 -0.742838 0.574594 -0.193050 -0.340289 0.541062 -0.170678 0.193016 -0.170578 0.337148 -0.051118 -0.186940 -0.116966 -0.591837 -0.367744 0.344365 0.248634 0.099236 -0.244488 0.413460
7 0.001649 -0.304116 -0.286450 -0.753701 0.366782 0.085224 -0.126023 -0.362397 0.370422 -0.087296 -0.000863 0.178859 0.687008 -0.374885 -0.155586 -0.595662 0.366294 0.418309 0.189074 0.276997 -0.193230 0.029926 -0.296145 -0.285950 -0.283078 0.153252 -0.306713 -0.292672 -0.180896 0.247668 0.136226 0.219169 0.077501 -0.385142 -0.366113 0.073678 -0.223552 0.170506 -0.431171 -0.214079 -0.069855 0.269427 -0.316987 -0.050266 -0.368324 0.190108 -0.110791 0.605112 0.046982 0.326413 -0.155462 -0.228225 0.214808 -0.011481 -0.134016 0.383925 -0.734059 0.498490 0.401568 -0.245651 0.347869 0.420618 0.013715 0.817872
75 -0.107426 -0.466690 -0.385565 -0.084193 0.142827 0.055699 -0.299478 0.030488 0.317838 -0.004876 -0.470475 -0.706904 -0.129492 -0.590131 0.348242 0.052999 0.010981 0.673342 0.046150 0.563824 0.587970 -0.067232 0.232836 -0.330716 -0.134636 -0.192698 0.054087 -0.596621 0.344506 0.030873 0.230051 0.557906 0.130293 -0.524357 -0.318765 0.452404 0.170463 -0.051263 -0.571310 -0.084005 0.357294 0.309815 0.076207 0.181024 0.298327 -0.179587 -0.268947 -0.355190 -0.092517 0.458750 -0.450631 -0.453056 -0.206187 -0.396357 0.547126 0.337079 0.060817 0.302372 -0.227054 0.353872 -0.271749 -0.053276 -0.563039 0.248071
176 0.771933 -0.458241 -0.003877 -0.016615 0.438307 0.529855 -0.684921 0.148761 -0.306650 -0.367504 0.293697 0.023449 -0.396496 -0.092685 -0.184115 -0.219538 -0.010261 -0.274627 0.194959 -0.120389 0.156670 -0.133163 -0.015049 0.328431 -0.415910 0.193684 0.167977 -0.330249 0.281311 -0.373259 0.040436 0.224848 0.181640 -0.007754 -0.662587 -0.168787 -0.527081 -0.426681 0.117494 -0.336376 0.253525 -0.168624 0.195656 -0.264520 -0.103596 -0.412880 -0.182640 0.468123 0.241399 -0.055454 0.472119 0.376190 -0.159822 0.257117 0.177286 -0.122256 0.339477 -0.211218 0.039476 -0.172007 -0.303593 -0.221769 0.126603 -0.080467
21 0.288909 0.839636 0.249158 0.275407 -0.171738 0.005655 0.196155 0.004200 0.527214 -0.732420 -0.138968 -0.088513 0.046913 -0.427948 0.412191 -0.046803 0.052547 0.499304 0.000368 -0.446193 -0.333631 0.356434 0.235791 -0.331699 -0.080624 0.351737 0.187498 0.199775 0.358443 0.273931 0.142369 0.187684 0.046795 0.440162 0.293864 0.239127 0.158952 0.531162 0.042847 -0.142173 0.270926 -0.228163 0.163273 0.042547 -0.216276 -0.462945 -0.601357 -0.881402 -0.669741 0.070423 -0.359161 -0.528775 -0.164877 0.237280 -0.018748 -0.026934 -0.281353 0.189021 -0.404661 -0.311176 0.346585 -0.041898 -0.362986 -0.428057
31 -0.289559 0.275352 0.100886 -0.405373 0.541383 0.179401 -0.250236 -0.357072 -0.006403 0.090813 -0.210449 -0.318429 -0.105944 -0.314320 -0.158768 0.324705 0.365867 -0.060790 -0.024082 -0.164133 0.392415 -0.495442 0.075514 -0.244042 -0.600107 0.299217 -0.253475 0.196164 -0.504768 -0.671871 0.300360 0.330237 -0.618449 -0.154597 -0.242775 0.462024 0.246588 0.284421 -0.549295 -0.298165 -0.061491 -0.365531 -0.182938 0.188464 -0.676683 0.221522 0.280954 0.160646 0.275447 0.413480 -0.073306 -0.233642 0.134152 0.066847 0.461089 -0.331750 0.166988 0.187232 0.134158 0.108980 0.046494 -0.212024 -0.466530 -0.285712
215 -0.538519 0.323958 -0.308167 -0.384523 -0.826702 0.337186 0.142471 -0.446305 0.241455 -0.052846 -0.346543 -0.387549 0.387563 -0.650151 0.391041 0.031997 0.331669 -0.392417 0.408515 -0.394720 0.119808 -0.029062 0.161489 0.813185 0.003547 -0.628964 -0.212605 -0.168107 0.001898 -0.155630 0.128060 -0.019390 0.419326 -0.188506 -0.093571 -0.154188 -0.263058 0.186512 0.104460 -0.180281 -0.583162 0.178578 0.678074 -0.224354 0.216350 0.245549 0.497175 -0.067804 0.184209 0.344171 -0.601698 0.013476 -0.089339 -0.559756 0.193227 -0.448284 -0.489744 -0.069533 -0.037387 -0.105347 -0.389852 -0.222561 -0.210143 0.081737
149 -0.071048 -0.352777 -0.258627 0.051566 0.133279 0.244307 -0.417167 -0.227785 0.221373 -0.118373 -0.507065 -0.798319 -0.186401 -0.478576 0.358572 0.012726 0.076098 0.565992 -0.070527 0.343046 0.527607 -0.124295 -0.335233 -0.318639 -0.254655 -0.244654 0.170437 -0.503432 0.303273 -0.355775 0.058343 0.565702 0.282085 -0.481295 -0.397870 0.050584 -0.030147 0.067375 -0.584860 -0.019545 0.260202 0.499033 -0.077412 0.068837 0.237459 -0.142499 -0.045010 0.012049 -0.046122 0.590679 -0.135095 -0.791304 -0.121632 -0.382030 0.569783 0.170702 0.176434 0.233067 -0.096891 0.484506 -0.269904 -0.112038 -0.352377 -0.007065
184 -0.299760 -0.387434 0.388891 -0.016785 0.193761 -0.019778 0.430405 -0.055304 0.128281 -0.091243 0.437468 0.398837 -0.202941 0.180233 -0.206820 0.026181 -0.090493 0.161937 -0.230606 -0.648561 -0.297973 -0.199095 -0.289790 -0.290218 -0.124356 -0.307326 -0.294586 -0.535570 0.082019 -0.302220 -0.195694 0.440724 0.081321 -0.408029 -0.021350 0.191890 0.179176 0.237335 0.809751 -0.486417 0.614139 0.116888 -0.237056 -0.145436 -0.132097 -0.760823 0.557064 -0.356327 -0.458220 0.643153 -0.134492 0.125347 -0.231951 0.364305 -0.028670 -0.279713 -0.291679 -0.021659 -0.405020 0.453363 0.238471 0.322875 -0.338305 0.417951
65 -0.527958 0.423216 -0.233846 0.001935 -0.815614 0.186459 0.148033 0.041697 0.176729 -0.056374 -0.325067 -0.429668 0.235031 -0.288337 0.343226 -0.199195 0.465573 -0.497501 0.356898 -0.444388 0.052035 -0.327347 0.180386 0.864604 -0.034721 -0.096761 -0.181077 -0.445393 0.037295 0.094951 -0.047271 0.361495 0.192869 0.295939 -0.346070 -0.279265 -0.379717 0.442534 0.147202 -0.263186 -0.436450 -0.379571 0.584918 -0.163959 0.222306 0.349957 0.474216 -0.162292 0.175260 0.445652 -0.512091 0.024222 -0.080251 -0.796895 0.164937 -0.457155 -0.553701 0.091971 -0.433388 -0.087208 -0.383382 -0.112393 0.023363 0.095016
27 -0.151091 0.378511 -0.588191 -0.263310 0.749503 -0.382935 0.230889 -0.340186 -0.598478 0.088124 0.171173 0.139061 -0.554285 0.360075 -0.194092 -0.108186 0.525937 0.131305 0.645165 0.499495 0.286781 -0.490934 -0.024879 0.031522 0.025560 0.510611 0.224665 -0.217373 -0.428124 0.580963 -0.432194 0.709628 0.175670 0.667733 0.095526 0.207185 -0.010805 0.037183 -0.286518 -0.364133 -0.514001 -0.521209 0.037473 -0.552068 -0.008982 0.339982 -0.406853 0.284496 0.364290 0.581837 0.012518 0.941485 0.293946 0.470545 -0.806813 0.556066 -0.112289 0.614295 0.310146 -0.144321 -0.191165 -0.560961 -0.512080 -0.067076
140 -0.398693 0.048783 -0.408994 -0.030722 -0.213044 -0.175945 -0.168286 0.022100 0.424431 -0.238689 -0.602720 0.093434 0.144096 -0.498872 0.386241 -0.235642 0.259108 -0.347689 0.076988 -0.048797 0.151680 0.247434 0.127916 0.332594 -0.196800 -0.164121 -0.273571 -0.003009 -0.044753 -0.425007 0.313607 -0.208132 0.484776 -0.337226 -0.230230 -0.147428 -0.151986 -0.202026 0.027605 -0.451879 -0.307982 -0.202914 0.548530 -0.010940 0.416863 0.123430 0.280539 -0.161715 -0.158584 0.397022 -0.302296 -0.022489 -0.341457 -0.034027 -0.012811 -0.451015 -0.311194 0.123132 -0.047195 -0.027993 -0.469896 -0.103181 -0.453533 0.219234
189 -0.248607 -0.250419 -0.388412 0.062369 0.039499 -0.194373 -0.312121 -0.004802 0.502187 -0.313485 -0.576629 0.261108 0.125962 -0.367455 0.420134 -0.134230 0.207701 -0.254480 -0.149280 0.024236 0.080382 0.409774 0.216042 0.041381 -0.057362 -0.188829 -0.308880 0.066653 0.054628 -0.437819 0.312955 0.152401 0.215085 -0.510133 -0.297391 -0.395931 0.101850 -0.376224 0.055844 -0.587069 -0.088402 -0.039972 0.557917 0.244851 0.283406 0.221101 0.116377 -0.037246 -0.424415 0.218593 -0.259825 -0.207324 -0.053054 -0.048035 -0.246192 -0.316346 -0.359774 0.040452 -0.127323 -0.139431 -0.508298 -0.044053 -0.170578 0.369193
188 0.718026 -0.283125 0.128799 0.313800 0.587564 0.630612 -0.588375 0.424677 -0.196448 -0.324628 -0.049378 0.108896 -0.587473 0.080445 -0.296258 -0.767267 -0.201811 -0.114509 0.389675 0.098489 0.096239 -0.688421 -0.319486 0.180669 -0.547830 0.293758 0.210665 -0.369156 0.256162 -0.174054 -0.258040 0.175114 0.201760 0.185633 -0.366094 0.035952 -0.444762 -0.464945 -0.042697 -0.319487 -0.486089 0.307882 0.060596 -0.341278 -0.087603 -0.060632 -0.096565 0.494000 0.450409 -0.079487 0.396078 0.283501 0.066068 0.186797 -0.200711 0.028336 0.746155 -0.204275 -0.590449 -0.046675 -0.596907 -0.385310 -0.019109 0.009281
166 -0.399608 0.024127 -0.036057 -0.341703 0.078775 0.184351 -0.249795 -0.441756 0.124709 -0.204358 -0.414051 0.090649 -0.624925 -0.082063 -0.297464 -0.118782 0.167729 0.058988 -0.139742 0.098094 -0.014967 -0.258753 0.499528 -0.060175 0.501018 -0.095756 -0.445477 0.075814 -0.123640 0.509739 0.093720 0.198523 0.732350 -0.086725 0.286344 -0.133779 -0.261884 0.047633 0.021965 0.141475 0.547145 0.350410 -0.098584 0.437952 -0.010763 0.523118 0.054261 0.181897 0.438522 -0.153363 -0.490101 -0.330512 0.075896 0.067046 0.179112 0.363072 -0.309595 -0.394687 0.212779 0.359831 0.363969 -0.678951 -0.025553 0.018033
195 -0.309806 0.293411 0.025265 -0.303304 -0.162252 -0.269387 -0.604634 -0.620872 -0.283400 -0.049922 -0.090002 0.231712 -0.158811 -0.196446 0.038197 -0.500108 -0.371572 -0.407038 0.632307 0.400434 0.636933 -0.581068 0.232077 -0.078596 0.324914 0.019808 0.772836 -0.277028 -0.326220 -0.715593 -0.035115 0.025957 -0.506121 0.143673 -0.254852 -0.136674 -0.166327 -0.576741 0.249776 -0.129776 -0.352451 0.377377 0.172088 -0.246855 0.365304 0.338009 0.083699 -0.291869 0.086746 0.499701 0.408714 0.011825 0.544807 -0.188698 0.177935 0.095060 0.376177 0.451804 0.331035 0.176133 0.541667 -0.202634 0.253708 0.293830
119 -0.493852 -0.045598 0.013131 -0.554813 -0.274424 0.059943 -0.158300 -0.702311 0.074258 -0.393254 -0.448260 -0.046219 -0.599038 0.140928 -0.259388 -0.188947 -0.127127 -0.033019 -0.032064 0.099635 -0.369363 -0.161164 0.310205 -0.147631 0.421119 0.064344 -0.458373 -0.067582 -0.038347 0.615399 0.067152 0.321185 0.593732 -0.331846 -0.125110 0.110348 -0.334061 0.092853 -0.177679 0.246256 0.702691 0.419738 -0.159300 0.261853 -0.177589 0.548301 0.408691 -0.050025 0.486654 -0.293402 -0.276231 -0.383235 -0.417676 -0.016433 0.454257 0.411804 -0.188984 -0.347361 -0.007338 0.238815 0.384514 -0.675570 -0.192471 -0.109321
26 -0.353038 -0.215462 0.333493 -0.344884 0.461118 0.196628 0.080668 -0.465539 -0.212042 -0.373398 0.134088 -0.174273 -0.606444 0.198660 -0.290025 -0.648150 0.205100 -0.521792 -0.133776 -0.311733 -0.161442 0.304628 -0.115768 0.063984 0.180394 0.488340 -0.454656 -0.206382 0.295632 0.627466 0.246424 -0.017841 0.189759 -0.835209 0.122283 0.207434 -0.426214 0.253563 -0.201690 0.558560 0.661698 0.306187 -0.198331 -0.080836 -0.245270 0.315130 0.694490 0.239075 -0.383434 -0.474662 -0.051668 -0.090525 -0.729068 -0.358792 0.471148 0.330326 0.307125 0.412038 0.031377 -0.474447 0.356698 0.016166 -0.179990 -0.021275
117 0.493805 0.429123 0.718197 -0.304447 0.030639 -0.150667 0.040721 0.008664 0.042320 0.145965 -0.064569 -0.392616 0.170204 0.119699 0.440793 0.171919 -0.532300 0.206079 0.097952 -0.508808 -0.080207 0.228898 0.153184 -0.013401 0.360092 0.357931 0.081130 -0.351800 0.479669 0.288032 0.274795 0.234727 0.023753 0.017636 0.499778 -0.536199 -0.275313 -0.250559 -0.138140 -0.273224 0.211000 0.094202 0.173119 -0.061023 0.169159 -0.426540 -0.009140 -0.347066 -0.846995 0.339850 -0.192635 -0.402097 0.045007 0.320836 0.044563 0.031679 -0.145348 0.263189 -0.589179 -0.600532 0.185579 -0.098099 -0.058056 -0.382633
77 -0.099520 0.368841 -0.484851 -0.460254 0.751408 -0.225859 0.375873 -0.187284 -0.452761 0.103733 0.238325 0.036593 -0.591727 -0.186170 -0.260397 -0.284697 0.200528 0.079073 1.043336 0.080828 0.346634 -0.478648 -0.042590 0.070294 -0.089530 0.402926 0.125691 -0.391685 -0.428705 0.136317 -0.409292 0.260958 -0.016374 0.352801 0.427991 0.471006 0.044574 0.189033 -0.274623 -0.322899 -0.484602 0.367478 0.208390 -0.600088 -0.268391 0.367710 -0.011420 -0.144472 0.476879 0.553800 0.025965 0.552967 0.138231 0.274279 -0.784149 0.500109 -0.117918 0.558170 0.072458 -0.224446 -0.242706 -0.081514 -0.172197 -0.118746
171 0.504527 -0.114303 -0.071240 -0.083441 0.441756 0.596902 -0.475062 0.349776 -0.335968 -0.191771 -0.003363 0.263321 -0.699959 0.172360 -0.244254 -0.861465 -0.398592 -0.009244 0.663878 0.194257 0.167781 -0.809455 -0.354377 0.182603 -0.476495 0.098426 0.252533 -0.136618 0.107305 0.270142 -0.137999 0.134080 0.199536 0.297985 -0.146487 -0.098741 -0.179708 -0.288405 -0.157447 -0.336292 -0.796403 -0.020967 -0.030417 -0.525498 -0.019924 -0.157625 -0.330801 0.396733 0.566857 0.142246 0.394579 0.508202 0.042347 0.328107 -0.467808 0.188886 0.638832 -0.218619 -0.404327 -0.040480 -0.628214 -0.260337 0.075893 -0.042154
25 0.162726 0.236857 -0.123657 0.010820 0.442775 -0.478894 0.552245 0.316269 -0.114067 0.342344 0.042550 -0.056406 0.295311 -0.281782 0.132112 -0.586923 0.312347 -0.373825 0.143313 0.528941 0.241675 -0.174894 0.468325 0.208535 -0.375062 0.046931 -0.210465 -0.488198 0.128488 0.144251 0.265830 -0.079507 -0.158354 0.175765 -0.107656 0.139008 -0.595951 -0.351431 -0.110322 -0.321654 0.272482 -0.328934 0.623700 0.203351 0.331910 -0.262212 -0.200339 0.383648 0.322626 -0.052098 0.116306 -0.410340 -0.028083 -0.177480 -0.103260 0.655289 -0.020817 0.428204 -0.091993 0.813342 0.111777 -0.222297 0.709871 -0.477960
128 -0.171284 0.179785 0.353324 -0.514166 -0.199675 -0.121093 -0.015350 -0.636947 -0.107894 -0.099091 0.910354 -0.377643 0.140565 -0.018563 0.366177 0.139939 0.085006 0.014047 -0.321976 0.076681 0.545647 0.145703 0.097991 0.147913 -0.388079 0.580588 0.303642 -0.142083 -0.034119 0.015308 -0.487653 -0.291753 0.397432 -0.304410 -0.292226 -0.136962 0.355870 0.265145 -0.484310 0.352525 0.128701 0.109752 0.081218 0.469034 -0.232493 0.294035 0.113098 -0.126388 -0.196892 0.127291 -0.290258 -0.094562 0.248732 0.235635 -0.268773 -0.023456 -0.210677 -0.319591 -0.209376 0.098972 -0.257551 -0.202862 -0.142134 0.493545
43 0.328324 0.815252 0.360710 0.084666 0.032133 -0.039633 0.256981 0.106638 0.435854 -0.726388 -0.081395 -0.271632 0.147343 -0.228194 0.503991 -0.020931 -0.260973 0.322650 -0.191333 -0.365546 -0.071814 0.394508 0.275861 -0.162445 0.037593 0.366514 0.186294 0.132378 0.378247 0.220338 0.411359 0.165264 -0.064514 0.045321 0.293397 0.440126 -0.001688 0.188263 0.054752 -0.172756 0.427171 -0.264604 0.351357 0.090677 0.013630 -0.597238 -0.573189 -0.522884 -0.493681 0.111139 -0.073778 -0.554908 -0.037109 0.372921 -0.074104 -0.051424 -0.340288 -0.062979 -0.481331 -0.415788 0.350264 0.126286 -0.468989 -0.448494
18 -0.324120 0.022216 0.294613 0.016047 -0.000680 -0.057566 0.161971 -0.182699 0.216760 -0.099250 1.015049 -0.025357 -0.362397 -0.060869 0.524603 0.203391 0.107941 0.043705 -0.527924 0.031791 0.051652 -0.387392 -0.168419 -0.212560 -0.272357 0.020527 0.265266 -0.388323 0.158338 -0.115452 -0.380299 -0.276416 0.174114 -0.166887 0.014788 -0.005706 0.325519 0.339427 -0.004492 0.019076 0.661612 0.356533 -0.563041 0.334879 0.023014 -0.095113 0.007632 0.189230 -0.368765 0.501455 -0.079292 -0.300032 0.233790 0.482903 -0.083049 -0.198444 -0.170779 -0.064031 -0.426146 0.440705 -0.338610 -0.481123 0.231775 0.387015
106 0.259323 0.026722 -0.348860 0.327553 0.014318 -0.164005 0.082841 0.586772 -0.098169 0.265371 0.229854 -0.117999 0.332105 -0.484042 0.035662 -0.152588 0.173854 -0.418908 0.191091 0.824114 0.472862 -0.368245 0.293671 0.159048 -0.268289 0.316923 -0.230832 -0.601295 0.084235 -0.034962 -0.113310 0.133644 -0.101146 0.253253 0.314662 0.146163 0.125117 -0.642917 -0.077902 -0.668147 0.005164 -0.031747 0.721583 0.458017 0.008526 -0.228251 -0.181653 0.225374 0.038073 -0.451777 -0.001359 0.123175 0.025095 0.101366 0.108323 0.498274 -0.020214 0.354515 0.074486 0.584001 0.254898 0.099961 0.509847 -0.618949
147 -0.348880 -0.383434 0.509997 0.105325 0.234504 0.217239 0.548837 -0.037531 -0.303701 -0.062000 0.125753 -0.077970 -0.055585 0.144786 -0.603899 0.671076 -0.076834 0.149654 -0.336597 -0.420222 0.007020 -0.346338 -0.219913 0.180055 -0.151544 -0.201077 -0.277906 -0.220493 0.156789 -0.135357 0.556556 0.364465 0.015020 -0.270796 -0.040274 0.252442 0.483754 -0.334387 0.637724 -0.552816 0.679775 -0.031310 -0.477097 -0.136971 -0.413895 -0.780483 0.164768 -0.430502 -0.224168 0.211591 -0.261890 0.482872 -0.179239 0.197338 -0.154778 -0.217270 -0.078232 -0.460594 -0.604350 0.145013 0.414107 -0.387464 -0.107212 0.210391
105 -0.444549 -0.232944 0.124614 -0.157487 0.082028 0.082687 -0.151202 -0.771689 0.165548 -0.446950 -0.379731 0.055619 -0.669432 0.293339 -0.318503 -0.279783 -0.267585 -0.205736 -0.136284 0.022892 -0.359084 0.045578 0.227735 -0.067741 0.263868 0.369455 -0.418787 -0.107682 0.139455 0.464396 -0.056443 0.310159 0.524549 -0.714319 -0.382145 0.155419 -0.471520 -0.021038 -0.145148 0.369781 0.620533 0.433483 -0.277266 0.213369 -0.071185 0.422462 0.414892 -0.007336 0.352199 -0.373994 -0.292514 -0.340381 -0.399428 0.147058 0.450564 0.391681 0.162515 -0.047303 0.068896 -0.002142 0.349140 -0.320866 -0.132316 -0.071956
66 -0.350411 -0.356285 0.521583 0.121011 0.280413 0.165425 0.555512 -0.063895 0.182464 -0.030226 0.184335 0.030415 -0.069222 0.116783 -0.515826 0.428917 0.154536 0.238770 -0.248080 -0.332594 -0.375441 -0.416177 -0.073773 0.018850 -0.122126 -0.405330 -0.317356 -0.405809 0.128094 -0.157993 0.292444 0.420962 0.014314 -0.549885 0.144940 0.254044 0.447467 -0.120065 0.788264 -0.588484 0.721702 -0.171564 -0.343924 -0.185161 -0.344822 -0.550376 0.424959 -0.212352 -0.183629 0.380706 -0.312032 0.281305 -0.123270 0.363480 -0.130332 -0.273788 0.122604 -0.518717 -0.420148 0.231232 0.324249 -0.203580 -0.241879 0.272627
167 0.287570 -0.025842 -0.299968 -0.466443 0.224524 0.635327 -0.428019 0.457589 -0.218877 -0.145114 0.056253 -0.102786 -0.670827 -0.021149 -0.237611 -0.711051 -0.145603 0.072830 0.894774 0.299993 0.177159 -0.871695 -0.233046 0.194759 -0.423649 0.186725 0.242747 -0.140766 -0.116708 0.293878 0.010328 -0.158545 0.188720 0.568046 0.225068 -0.133750 -0.113656 -0.105498 -0.144186 -0.311023 -0.447121 -0.316532 -0.021390 -0.534464 -0.056487 -0.120164 -0.214217 0.161927 0.286053 0.330857 0.478202 0.536623 0.249170 0.670356 -0.619392 0.320450 0.675768 -0.088400 -0.290119 -0.065663 -0.536572 -0.247853 -0.037518 -0.169174
207 0.313797 0.320431 0.001312 0.079012 -0.180050 0.048688 -0.687948 -0.554255 0.073161 0.301388 0.154950 -0.438516 0.051573 -0.209671 0.090519 -0.551578 -0.227188 0.031116 -0.234867 0.187905 0.243081 0.098636 -0.460178 0.119970 0.345344 0.394838 -0.753765 -0.027860 0.209005 0.551694 0.635328 -0.334626 -0.364553 -0.261480 -0.229335 0.474355 0.833734 -0.184766 0.208257 0.468305 0.296079 0.081072 -0.607828 -0.111126 -0.725355 -0.165001 0.055802 0.079617 0.200493 0.715632 -0.414392 0.110534 0.231914 0.504122 -0.546575 -0.276079 -0.245333 -0.485066 0.019959 0.427097 0.066603 -0.112750 0.395984 -0.021278
132 0.876805 -0.235238 0.343302 0.248170 0.732271 0.122063 -0.571786 0.434430 -0.473804 -0.255386 -0.098919 -0.328791 -0.564356 0.353653 -0.271933 -0.433639 -0.225669 -0.199577 0.049793 0.040670 0.200721 -0.753998 0.287610 0.244774 -0.541682 0.519893 0.190968 0.029196 0.430250 -0.008379 -0.159777 0.485796 0.114212 0.135462 -0.471051 -0.022137 -0.415744 -0.358327 -0.028052 -0.197240 -0.143741 0.768437 -0.146728 -0.193171 0.164247 -0.130110 0.180414 0.216512 0.192423 -0.182440 0.349446 0.215060 0.288781 0.267206 -0.128205 -0.163297 0.709249 -0.077739 0.096441 0.059606 -0.433100 -0.513569 0.183968 0.060273
81 -0.389125 -0.298199 0.355123 0.219647 0.320472 0.113464 0.530089 0.003950 0.400168 -0.182622 0.662901 0.529109 -0.256766 -0.072842 -0.048744 0.015733 -0.273073 0.196269 -0.555337 -0.388499 -0.078206 -0.546917 -0.116263 -0.369469 -0.137088 -0.039214 -0.179464 -0.705630 0.089049 -0.302055 -0.430744 0.391528 0.025681 0.055862 -0.164476 -0.019797 0.057533 0.157040 0.644447 -0.539300 0.681859 0.364034 -0.207069 -0.023725 0.038472 -0.801661 0.161282 -0.133622 -0.341650 0.709349 -0.004078 -0.047011 -0.134384 0.621505 -0.013928 -0.367407 -0.243624 0.445333 -0.381658 0.584916 0.065139 0.187001 -0.265046 0.368905
157 -0.388799 -0.114582 0.091849 -0.119641 0.542467 -0.080793 0.332706 -0.040482 0.280999 -0.171888 0.785479 -0.278907 -0.393188 -0.356381 0.374958 -0.084763 0.170425 0.119218 -0.287957 -0.177543 0.363314 0.172840 -0.128019 -0.441373 -0.165139 -0.126920 0.033021 -0.428846 0.155814 -0.271688 -0.356609 0.098987 0.093668 0.331597 -0.305122 -0.492349 0.079136 0.408076 0.316446 -0.343741 0.463154 0.320765 -0.625849 -0.001396 0.135220 -0.904702 0.003101 0.111238 0.415925 0.717024 0.026572 -0.447426 0.097901 0.550658 -0.098629 -0.319947 -0.065602 0.442392 -0.151025 0.652360 -0.064888 -0.215591 0.171613 0.228947
44 0.829612 -0.183322 0.439927 0.318221 0.547455 0.092343 -0.366987 0.460094 -0.661754 -0.310281 -0.176272 -0.646464 -0.539531 0.381729 -0.290775 -0.481119 -0.392895 -0.310504 0.229747 0.044872 0.199910 -0.682084 0.362488 0.204098 -0.420428 0.595990 0.264004 -0.037241 0.463648 0.102985 -0.258271 0.346807 0.024408 0.351206 -0.233548 -0.192526 -0.450190 0.003829 -0.030702 -0.035718 -0.264385 0.769754 -0.267110 -0.267315 0.051543 0.068793 0.103091 -0.083252 0.128645 -0.106349 0.306185 0.006850 0.490556 0.223241 -0.035477 -0.167806 0.653205 -0.032493 0.211108 0.172145 -0.430924 -0.139663 0.245690 0.276615
61 0.159333 0.194052 -0.181976 0.053460 -0.174741 -0.044213 -0.403748 0.046293 -0.261676 0.006623 0.216675 -0.252793 0.161887 -0.324140 0.088512 0.194967 0.080501 0.302937 -0.519534 0.350196 -0.318174 0.089426 -0.720439 -0.056512 -0.048300 0.288667 -0.781773 0.526062 0.232124 0.329390 0.314211 -0.330992 -0.315498 0.023949 -0.434602 0.116929 0.865898 -0.314473 0.355534 0.404108 0.515289 0.203642 -0.052740 -0.556109 -0.251229 0.224909 0.537184 0.141997 0.404855 0.444549 -0.781077 0.174882 -0.034790 0.334657 -0.471037 -0.097742 -0.195499 0.328157 0.172688 0.536072 0.125840 -0.091225 0.021165 -0.036687
40 -0.424929 -0.248497 0.282173 -0.311670 0.373181 0.094045 -0.059697 -0.427458 -0.059175 -0.390747 -0.190068 0.021671 -0.703919 0.282290 -0.250591 -0.409642 -0.020512 -0.378701 -0.168649 -0.203179 -0.285415 0.187947 -0.057757 0.000773 0.242480 0.457592 -0.514326 -0.138328 0.251659 0.502774 0.175477 0.290078 0.400469 -0.736422 -0.156384 0.218261 -0.459922 0.070664 -0.081538 0.482943 0.546535 0.471114 -0.305975 0.132751 -0.147100 0.302056 0.324495 0.020954 0.021066 -0.312243 -0.300813 -0.314969 -0.540543 -0.106179 0.534171 0.374845 0.069883 0.215503 -0.261319 -0.181598 0.350041 -0.065788 -0.399288 -0.070710
36 0.177088 0.132534 -0.144656 -0.005131 0.303902 -0.528253 0.329967 0.500823 -0.172045 0.418904 0.186512 -0.179183 0.280144 -0.472328 0.105076 -0.399464 -0.005736 -0.436681 0.182893 0.595707 0.242408 -0.152560 0.465551 0.092631 -0.413198 0.098527 -0.289268 -0.611814 0.083478 0.326672 0.047189 0.064097 -0.244268 0.258323 0.392783 0.371556 -0.390703 -0.529759 -0.122265 -0.526881 0.087802 -0.233071 0.445247 0.289103 0.349403 0.152233 -0.112266 -0.023874 0.182275 -0.260652 0.109972 -0.114174 0.330385 0.015853 0.011651 0.633201 -0.100335 0.331462 0.000622 0.753090 0.114412 0.081794 0.508436 -0.579281
150 0.103862 -0.061063 0.514891 -0.509056 0.550715 0.145247 -0.010469 0.216628 -0.326321 0.843346 -0.090268 0.773797 -0.029121 -0.473385 0.257207 0.387159 0.022351 -0.011127 -0.154409 0.177848 -0.194678 0.107437 -0.381190 -0.436339 0.389890 -0.048375 -0.033895 0.136284 -0.086615 0.468376 -0.141553 -0.274186 0.513321 -0.345020 0.144325 -0.432429 -0.265810 0.091218 -0.342926 -0.514149 0.171250 0.378583 -0.086406 -0.480687 -0.502627 -0.245924 -0.205389 -0.759958 -0.626625 0.118962 0.113060 -0.161434 -0.266247 -0.380189 0.138433 -0.254554 -0.141709 0.660816 -0.248381 -0.068567 0.130788 -0.075810 0.099020 0.062345
153 -0.539965 0.153098 -0.335569 0.159173 -0.287858 0.194369 -0.038080 -0.228838 0.006829 -0.178248 -0.365521 0.002751 0.326587 0.003466 0.286928 -0.137373 -0.047460 -0.325744 0.321080 -0.229339 0.087932 0.289173 0.199561 0.645707 -0.180415 -0.783034 -0.063907 -0.011636 -0.150294 -0.010779 0.245819 -0.221401 0.605831 -0.477239 -0.029446 0.204004 -0.286922 -0.268736 0.053579 -0.117759 -0.699035 -0.120661 0.789065 -0.335030 0.555341 0.433099 0.359127 0.121201 0.054689 0.469957 -0.465745 0.052428 0.093716 -0.227047 0.228552 -0.468382 -0.455568 0.155275 0.148570 0.063836 -0.407662 0.027567 -0.215472 0.073623
73 0.355899 -0.057928 -0.688580 -0.841879 0.058197 0.341071 0.124472 0.169459 -0.118257 -0.253696 0.565378 0.620838 0.123545 0.075944 -0.196350 -0.432071 0.066327 0.308994 -0.047990 -0.265310 0.649516 0.095399 0.450957 0.471384 0.180841 0.581282 0.103719 0.019792 -0.285236 0.052799 0.302863 -0.470310 0.389112 0.355182 0.175215 0.111517 0.028491 -0.762563 0.293916 0.129970 0.791625 0.082173 0.115268 -0.271366 0.123500 0.393936 -0.152911 0.750169 0.289175 0.308256 0.676535 0.376939 0.169772 -0.535673 0.695177 -0.036010 0.211143 -0.142174 0.969333 -0.272936 0.411758 0.002556 0.049479 0.022442
2 -0.093350 0.279957 -0.464606 -0.326158 0.288101 0.118061 -0.015000 0.339954 -0.496184 0.055071 0.070818 -0.007027 -0.573772 -0.133619 -0.158848 -0.559874 0.163087 0.020847 0.861360 0.305130 0.330972 -0.810589 0.172128 0.127189 -0.229966 0.441752 0.200041 -0.271380 -0.305572 0.313791 -0.282771 0.253172 0.104663 0.671894 0.351427 -0.033767 0.101719 -0.236522 -0.333203 -0.366759 -0.567351 -0.413288 0.108668 -0.613498 -0.148398 0.272295 -0.366753 0.126074 0.467522 0.497908 0.084597 0.963672 0.414691 0.513538 -0.854033 0.555742 0.237837 0.341251 0.017862 -0.107832 -0.412663 -0.276620 -0.171284 -0.154044
186 0.131986 0.342892 -0.007996 0.099076 0.321490 -0.642050 0.618390 0.352325 -0.292813 0.381811 -0.069853 -0.119833 0.260303 -0.128094 0.077654 -0.377197 0.290174 -0.192183 0.334329 0.337974 0.149296 0.065927 0.464323 0.299050 -0.339803 0.213291 -0.096710 -0.453953 0.221877 0.040433 0.242178 -0.133608 -0.242372 -0.089021 -0.408570 0.352522 -0.524857 -0.412147 -0.192836 -0.116259 0.329052 -0.423352 0.426991 0.110963 0.675768 0.202770 -0.002739 0.223198 0.333274 0.002696 0.307261 -0.348891 -0.034234 -0.043328 0.049546 0.737381 -0.198050 0.559626 -0.251766 0.832576 0.126938 -0.221781 0.585354 -0.371297
192 -0.352160 -0.495775 0.478523 -0.006716 0.195429 0.185687 0.487108 -0.063600 -0.445406 -0.000720 0.022694 -0.222128 -0.016472 -0.001154 -0.666296 0.521677 -0.061102 0.121258 -0.323537 0.026459 0.170904 -0.462592 -0.402844 0.410900 -0.074505 -0.316146 -0.170060 -0.027479 0.150705 0.160147 0.620725 0.161953 -0.022206 -0.509712 -0.204079 0.187749 0.479543 -0.450255 0.556855 -0.526787 0.465945 0.143544 -0.412233 -0.058896 -0.451665 -0.812101 0.197165 -0.557954 -0.049164 0.139825 -0.397305 0.216818 0.033731 0.348290 -0.347125 -0.207082 0.111274 -0.243560 -0.648595 0.090066 0.356508 -0.487711 -0.189340 0.016222
64 0.868840 -0.066277 0.384365 0.526980 0.456780 0.709265 -0.257467 0.134895 -0.417784 -0.202896 -0.284282 -0.362949 -0.361729 0.534617 -0.275727 -0.278660 -0.041365 -0.340979 0.135523 0.028498 0.304228 -0.728753 0.463671 0.157053 -0.363075 0.529431 0.327266 -0.064699 0.354407 0.443061 -0.219975 0.075818 0.000426 0.158139 0.156743 -0.087541 -0.462667 -0.060773 -0.118671 0.089854 -0.222617 0.756874 -0.486011 -0.230585 -0.097306 -0.141725 0.567841 -0.107854 0.228773 -0.131227 0.337115 -0.078689 0.218166 0.102522 -0.051754 -0.186360 0.576959 0.167969 0.752501 0.325237 -0.364300 -0.134724 0.083427 0.425127
32 0.308462 0.460839 0.046250 0.223002 -0.062181 -0.200628 -0.637994 0.172721 0.044747 0.293433 0.121603 -0.355546 -0.086258 -0.663252 -0.064957 -0.346270 0.025727 0.257161 -0.476306 0.503985 -0.013375 -0.099046 -0.372384 0.210077 0.369426 0.412104 -0.826739 0.463347 0.040340 0.326499 -0.049547 -0.422195 -0.166516 -0.618401 -0.343730 0.319670 0.807237 -0.257959 0.372019 0.221424 0.380402 -0.040547 -0.428126 0.086870 -0.330187 -0.159993 0.362399 -0.004099 0.513492 0.534087 -0.955756 0.062285 -0.291730 0.577466 -0.638588 -0.017054 -0.468907 -0.193355 0.339879 0.372418 0.114971 -0.175607 -0.091406 0.097870
122 0.303565 -0.044626 -0.306203 0.047541 0.115135 0.322580 0.031682 0.281285 -0.222918 0.236603 0.355670 -0.220354 0.282404 -0.150268 0.058489 -0.243354 -0.136054 -0.447289 0.286576 0.642441 0.422557 -0.124743 0.276484 0.138577 -0.304662 -0.115265 -0.228397 -0.786600 0.123557 -0.097827 -0.272776 -0.076673 -0.066069 0.443285 0.233080 -0.042331 0.473374 -0.531648 -0.022150 -0.623492 -0.009153 -0.154732 0.744426 0.496167 0.104103 -0.307353 -0.107722 0.093506 0.243898 -0.692253 -0.019213 -0.072395 0.031245 0.121070 0.159050 0.408215 -0.043151 0.349187 0.220919 0.423823 0.295999 -0.020225 0.341506 -0.641641
90 0.117824 0.086647 -0.394009 -0.199766 0.086367 0.201743 -0.156240 0.520486 -0.432085 -0.008661 0.054307 0.020465 -0.645865 -0.069630 -0.188454 -0.655845 0.106651 0.101609 0.869484 0.145119 0.159921 -0.935297 0.038957 0.204815 -0.309351 0.391635 0.240414 -0.237931 -0.237830 0.182409 -0.332429 -0.194799 0.173200 0.345619 0.396490 -0.085330 0.127389 -0.230964 -0.214231 -0.331133 -0.343230 -0.394504 0.281455 -0.514879 -0.015347 0.063514 -0.402243 0.052124 0.073047 0.396779 0.229707 0.664705 0.312299 0.703447 -0.721153 0.514983 0.531871 -0.004846 0.012659 -0.072645 -0.449866 -0.200447 -0.268949 -0.212000
170 0.113344 -0.153484 0.424388 -0.352961 0.375262 0.423764 -0.083888 0.063098 -0.051829 0.830457 -0.059648 0.771019 -0.022552 -0.387798 0.205331 0.399246 -0.063317 -0.022817 -0.106799 0.007532 0.167809 0.107002 -0.076149 -0.438308 0.427397 -0.072279 -0.027659 0.296330 -0.140581 0.327238 -0.082967 -0.033558 0.513992 -0.082120 0.212442 0.157498 -0.357064 -0.104074 -0.285297 -0.511533 0.074707 0.497434 -0.428496 -0.564628 -0.591688 0.043835 -0.191651 -0.349824 -0.337979 -0.046163 -0.120289 -0.429911 -0.035829 -0.227846 0.236646 -0.210806 -0.133337 0.325720 0.118104 -0.019191 0.172448 -0.503743 0.062858 0.027681
71 -0.280647 -0.115421 0.304807 -0.732807 0.321452 0.120633 0.363023 -0.119238 -0.395852 -0.248700 0.284004 -0.474845 -0.686635 0.087380 -0.287465 -0.455187 -0.101609 -0.615650 0.103810 -0.426205 -0.012584 0.545106 0.073373 0.062097 -0.003616 0.451089 -0.512508 -0.489455 0.113498 0.554290 -0.104189 0.257033 -0.151448 -0.607590 0.525932 0.027068 -0.292144 0.181001 -0.164839 0.418856 0.173984 0.271032 0.218968 -0.348632 -0.463588 0.498154 0.294089 -0.124715 0.348299 0.021782 -0.032477 0.047685 -0.541434 -0.574006 0.368811 0.261688 -0.173796 0.557631 0.277284 -0.623574 0.092514 -0.014285 0.096953 -0.049488
124 0.267188 -0.098275 0.637474 -0.405479 0.587990 0.244663 -0.077490 0.266375 -0.045776 0.890045 -0.113103 0.446798 0.099606 -0.388536 0.344257 0.492128 -0.237515 0.100577 -0.010068 0.026279 -0.131886 0.177598 -0.296907 -0.377528 0.412211 0.187918 -0.058571 0.036581 0.020110 0.534562 -0.232285 -0.401670 0.490713 -0.175420 0.243955 -0.474136 -0.114684 -0.125875 -0.311840 -0.441054 0.126423 0.346246 -0.192291 -0.554149 -0.619122 -0.271491 -0.098316 -0.484924 -0.250902 0.252254 0.327686 -0.393715 -0.070191 -0.168718 0.207862 -0.144579 -0.134845 0.567654 -0.172336 -0.220298 0.091723 -0.245860 -0.211487 -0.053895
56 0.338751 0.081344 0.251041 -0.186483 -0.262639 0.049222 0.416518 0.493016 0.236468 0.578817 0.272513 -0.090387 0.008346 -0.107817 0.211854 -0.183141 0.097427 0.384021 0.270660 -0.145173 -0.004217 -0.041126 -0.253100 0.325836 0.493059 -0.360331 0.077185 -0.394387 0.343715 -0.276532 -0.303964 0.275464 -0.216158 0.066988 -0.214169 -0.244810 -0.151894 -0.703148 -0.191991 0.127403 -0.119380 0.214234 -0.190688 -0.129354 0.381515 0.037472 0.154926 -0.332276 -0.108945 0.232691 0.058118 -0.185051 0.137214 0.180728 0.455887 0.415062 0.502991 0.440216 -0.372914 -0.434418 -0.236024 -0.676217 -0.026341 0.095775
211 0.617251 0.285950 0.023652 -0.005688 0.020517 0.516040 0.295806 0.030259 -0.334047 -0.117726 -0.381497 0.106780 -0.058402 0.292675 -0.235326 0.031861 -0.424944 -0.288405 0.320745 0.662377 0.130425 -0.444903 0.050873 0.190279 0.199300 0.300115 0.500179 -0.128810 -0.135990 -0.304476 0.187726 -0.284480 -0.210767 0.356853 0.108435 0.172770 0.025451 0.068406 -0.061443 0.109233 -0.516910 0.477825 -0.378415 -0.122719 -0.158829 0.032137 0.526677 0.138397 0.213053 0.119211 -0.216704 0.139993 -0.028998 0.373891 0.126775 -0.212418 -0.422089 0.047748 -0.040423 0.747760 0.115210 -0.099514 0.143838 0.773763
84 -0.599396 0.294897 -0.272621 0.333561 -0.664448 -0.069467 0.053329 -0.101229 0.030901 -0.053022 -0.432817 -0.134798 0.408655 -0.159212 0.324164 -0.145027 0.281943 -0.322319 0.135357 -0.225540 -0.053556 -0.049738 0.247629 0.770408 -0.167792 -0.051803 -0.135704 -0.352444 -0.107078 -0.039299 0.208547 -0.243150 0.587265 0.164681 -0.186374 0.029121 -0.258477 0.294210 0.064799 -0.161114 -0.380638 -0.250692 0.694007 -0.292465 0.403350 0.505097 0.071455 -0.273504 0.055325 0.208064 -0.443732 -0.195472 0.255780 -0.492586 0.302254 -0.475392 -0.238655 0.171214 -0.197824 0.095903 -0.323324 0.414538 -0.306188 0.076819
