223 64
16 0.2518568 -0.101424806 -0.33748776 0.4807517 -0.28495038 0.76908904 0.40394092 0.027671404 -0.1742038 -0.76803493 0.29868683 0.48243183 -0.7995016 -0.94413334 -0.23990668 0.028732853 -0.046685405 -0.039692536 -0.29638335 -0.64369875 -0.055630967 0.34184793 -0.13120654 -0.08549453 -0.25726247 -0.36547035 0.47444525 0.4195818 0.06708715 0.32906672 -0.50699157 -0.26009005 0.12272607 0.102206394 -0.010456262 0.23609911 0.12055033 0.73992395 0.19985819 0.38273507 -0.03255402 0.12035417 0.6516074 -0.41812265 -0.61125815 0.23983037 -0.41090277 -0.20816998 -0.049111668 0.31423375 -0.23329031 -0.104815416 -0.71064436 0.051355813 -0.6037222 0.20055522 -0.17355356 0.2220818 -0.69623995 0.18790404 -0.42625645 0.08565685 0.77344877 -0.057324857
92 0.5973511 0.18737687 -0.20401731 -0.36756745 -0.79440504 0.38086364 0.30833966 0.09170601 -0.35266963 -0.35122198 -0.13565983 -0.2941472 0.11110136 -0.070381954 -0.08402338 -0.043100003 0.06295969 -0.34247997 -0.20093265 -0.19411233 0.45417958 0.30762714 0.13758513 0.065304525 -0.29085436 0.1687225 0.69573313 0.41988125 -0.440953 0.15835893 -0.41126373 -0.51933986 0.078543186 0.34237802 -0.20707147 -0.13354765 0.27718577 0.0915221 0.03185864 0.03116944 -0.31666952 0.4415698 0.82435465 -0.34808645 -0.14575522 -0.26601005 0.40099278 0.22968933 0.2300992 0.4599875 -0.18184921 -0.5517221 0.29691392 0.097160615 0.17127508 0.07752106 0.599513 -0.06753417 -0.008441046 -0.23172927 0.12883967 1.1244183 0.4170429 0.24723631
82 0.6419761 0.18091577 -0.012617882 -0.31871143 -0.36137363 0.1144085 0.4630461 -0.15603584 -0.35609296 -0.54998535 -0.22116 -0.2160868 -0.20673147 -0.124109216 -0.12204252 0.11647672 -0.14315724 -0.42766356 -0.28138947 -0.11732161 0.14720835 0.63631386 0.15603979 0.08679267 -0.36932576 0.19442596 0.4520025 0.43091932 -0.6739696 0.12788057 -0.27715826 -0.2866376 0.017984662 0.21669897 -0.21571569 -0.19741167 0.318224 0.14582862 -0.0053043137 -0.020146817 -0.18708026 0.32458472 0.86947864 -0.3149157 -0.20561713 -0.2621492 0.17720808 0.2829127 0.07368483 0.557339 -0.075747944 -0.58569777 0.24452214 0.049056206 0.22442445 -0.15118305 0.5813566 0.07149742 -0.13285375 -0.31065723 0.4782492 1.2999493 0.58216685 0.3056178
134 0.12269875 -0.092095375 -0.1621218 0.2504227 -0.31204665 0.45276552 0.39214793 -0.4058411 -0.05009937 0.08837201 0.82973593 -0.15047458 0.4162952 -0.43351343 -0.43512142 -0.57193834 0.037857242 0.48891076 0.37181064 -0.55183846 0.13029326 0.54051304 -0.021833308 0.21681592 -0.19201969 -0.04179387 0.12231717 0.613685 -0.1480641 0.5439378 -0.28196156 -0.53016007 -0.24575484 -0.013529372 -0.61770105 0.4614482 0.40225166 0.024718504 -0.30752417 0.4039991 0.3912536 0.61887115 0.15016986 0.085885726 -0.35148188 0.006936046 0.025738098 0.20517704 0.3129394 0.31455943 -0.3561059 -0.25648612 -0.55952185 0.44919586 0.50097764 -0.32209322 0.1377777 0.14580068 0.6217344 0.058098532 -0.010610179 0.9462908 0.43704453 0.22978339
221 0.33823848 0.13968435 -0.0866826 0.09028655 -0.4815292 0.37550622 0.46989736 -0.45229715 -0.12133553 -0.37822792 0.31881663 -0.40686738 0.06772999 -0.10340595 -0.056257587 -0.29140952 0.19552468 0.13627443 0.14154041 -0.7458215 -0.08992156 0.45108068 -0.056507695 0.49025708 -0.45895126 -0.08510481 -0.012715718 0.39275724 -0.43615347 0.24559988 -0.22764108 -0.3552471 -0.13162735 0.22034541 -1.0274739 -0.05347894 0.045839652 -0.04366498 -0.034283478 0.12689604 0.1713367 0.46074563 0.49917227 0.021013636 -0.48680395 -0.033358816 0.43299043 0.19667447 0.3755468 0.18773845 -0.63156885 -0.50898725 -0.19152325 0.08912977 0.33116496 0.10512898 0.078094654 -0.08633948 0.42404786 -0.008833169 0.1555653 0.77387774 0.34760562 0.002044678
164 0.3316132 0.13688943 -0.021147164 0.28791478 -0.15288529 0.3237554 0.22843091 -0.2121646 -0.021471782 -0.14194015 0.2301029 -0.42075935 0.39420727 -0.07434797 -0.18477072 -0.41297734 0.27220246 0.11909126 0.46746585 -0.7038901 0.23816948 0.5904001 -0.26748034 0.41356114 -0.19835201 -0.005679013 0.24232292 0.36735094 -0.047698222 0.12072455 -0.4616613 -0.46079367 0.08951616 0.2680649 -0.7455406 0.26493818 -0.0031432314 0.13186899 0.017536933 0.03512411 0.41199616 0.6368027 0.7593371 -0.0025443884 -0.5877624 -0.15350121 0.3431186 0.107677646 0.2663921 0.37196416 -0.35557556 -0.43688637 -0.63873905 0.1795894 0.41291463 -0.025130218 0.106997065 -0.14914498 0.37204665 -0.20212083 0.24584359 0.9272331 0.44667128 0.019276923
180 0.38673162 -0.28416613 -0.20729351 -0.13900252 -0.6690951 0.8576237 -0.20542811 -0.30083033 0.24716201 -0.64484817 0.14913392 -0.31967482 0.21683164 -0.39909858 0.03068537 -0.81057984 0.06850289 -0.23362873 0.22049662 -0.3642294 0.0024698006 0.6433802 -0.26112795 0.074834995 -0.40294585 0.2191336 -0.10983608 1.0836766 -0.20380403 0.597853 -0.6764592 -0.6508034 0.20289014 0.5016851 0.017283935 0.1861705 -0.15196046 0.4698966 0.15113729 0.55568004 0.13862455 0.29270455 1.0386797 0.26637548 -0.39112893 0.46693972 0.68230754 0.33851168 0.08441128 0.1963388 -0.65641403 -0.20364738 0.36546665 0.59002316 0.12692897 -0.11127162 -0.57357883 -0.06731604 -0.26580068 -0.085799836 0.42214313 0.22403237 -0.10505333 0.16706975
98 -0.044312634 0.21589398 -0.22609538 0.08272041 -0.5765609 0.49227774 0.25830328 -0.33949777 -0.14178304 -0.10104979 0.32727814 -0.38897315 0.3403322 -0.22596785 -0.2824447 -0.4374025 0.31028217 0.24957237 -0.11231154 -0.7583083 -0.10299676 0.5199285 -0.13122427 0.39901423 -0.48308298 -0.23445277 0.12553465 0.2909247 -0.38215965 0.29344475 -0.3871591 -0.5476716 0.015295415 0.2793504 -0.5441603 0.13949935 0.10548605 0.08166535 -0.2911591 0.32239875 0.06798187 0.26553237 0.61714554 0.36618283 -0.343539 -0.2500559 0.34729174 0.17492834 0.4952488 0.18579988 -0.888469 -0.4585906 -0.08556959 0.41475397 0.48699751 -0.12336735 0.17657033 -0.08238123 0.18944424 -0.13691169 0.069474004 0.5772404 0.17404485 0.21800905
1 0.29370874 -0.01895233 -0.08862119 0.2786556 -0.3689446 0.90766066 0.16770028 0.18669352 -0.17911445 -0.53286624 0.24005139 0.3669269 -0.888114 -0.77078927 -0.17790973 -0.09645928 -0.010701476 0.123840794 -0.23112817 -0.76562005 0.010847409 0.48251098 -0.26619366 -0.09575419 -0.24192111 -0.3208162 0.5543068 0.49179652 0.03208806 0.33110383 -0.40646002 -0.24479476 0.013302383 0.10069963 -0.0098669855 0.12353404 0.3087166 0.54162747 0.036163077 0.34668756 0.10712897 0.095458485 0.694377 -0.40281925 -0.70837724 0.30064195 -0.619691 -0.18904069 0.14899711 0.16984357 -0.16379818 -0.14714287 -0.53176254 0.13696462 -0.67124784 0.003630014 -0.16102535 0.19662827 -0.9535408 0.020386256 -0.5885084 0.09489776 0.79916954 -0.20299013
202 0.21452028 0.06063614 -0.30127165 0.44223732 -0.2732909 0.8623424 0.2633893 0.17678408 -0.26530427 -0.5480917 0.049826376 0.35579085 -0.7933782 -0.90954787 -0.23148729 0.026233826 -0.22893973 0.16786405 -0.16076514 -0.5856661 -0.10092333 0.55989397 -0.26582408 0.0160054 -0.12217818 -0.23764738 0.5390533 0.43480775 0.26185933 0.29765847 -0.45411575 -0.2979455 0.049948275 0.10881917 -0.008690094 0.19992813 0.45461795 0.83024645 0.04730528 0.41156986 -0.0026598333 0.14366126 0.74261737 -0.37169516 -0.52424175 0.2871767 -0.6109251 -0.18302922 0.12203805 0.45020884 -0.11667085 -0.27777988 -0.6778878 0.21730061 -0.53781754 0.14654098 -0.20475605 0.15942118 -0.8063781 -0.10718155 -0.3785264 -0.073347814 0.69106656 -0.0464135
48 0.2578211 0.04211454 -0.26683533 0.26593456 -0.48524112 0.6456483 0.12410349 0.1410725 -0.33191466 -0.60143 0.42156819 0.32357404 -0.9385069 -0.86558795 -0.07943689 -0.068081856 -0.18752734 0.11632224 -0.29233384 -0.71020234 -0.14217113 0.3262166 -0.15328194 -0.14801697 -0.18060613 -0.25284165 0.61569446 0.5795905 0.08071764 0.34187987 -0.4291349 -0.26516083 -0.113144524 0.17537709 -0.085573204 0.13705434 0.22640203 0.6307505 0.11034782 0.45563284 -0.039216645 -0.16697061 0.70733696 -0.36080787 -0.6555971 0.39769408 -0.52557296 -0.16194788 0.18645577 0.38808572 -0.21148318 -0.37123248 -0.72173667 0.14560147 -0.5601861 0.19333962 -0.042338416 0.096224025 -0.6644498 -0.01826369 -0.5441304 -0.17015399 0.65898556 -0.15496366
222 0.67773396 0.29627845 -0.28594765 -0.06594446 -0.41303423 0.4257017 0.1463994 -0.102121994 -0.18126734 -0.38213372 0.30443522 -0.47122502 0.37533087 0.038708683 0.008164821 -0.421895 0.21751368 -0.2945667 0.23862159 -0.7424403 0.23144765 0.3464172 -0.31146574 0.33360237 -0.26324916 -0.18844934 0.26171878 0.53012526 -0.37558037 0.22822922 -0.31688353 -0.45317933 -0.12787783 0.3065987 -0.53742725 0.25017717 -0.1723241 0.19098395 -0.012061427 0.09048235 0.18498369 0.51230747 0.61008966 -0.063364014 -0.65817356 -0.23037334 0.56662 0.06855038 0.52640057 0.34186584 -0.21675916 -0.40783143 -0.07024281 0.20404673 0.47552174 0.0724695 0.071382165 -0.137868 0.18144001 -0.21362509 0.07269168 0.70319384 0.32118043 0.15627211
216 0.46328053 0.30418733 -0.53433317 -0.2930393 -0.43000916 0.6238957 0.09593965 -0.09352984 -0.311189 -0.09678356 0.05363342 -0.2965179 0.31886563 -0.3142546 -0.27990374 -0.5379658 0.56742406 0.027910687 -0.191061 -0.4346721 -0.0102062505 0.3028007 -0.33722252 0.31607607 -0.36165908 -0.11770143 0.052919246 0.55238813 -0.28285703 0.39336792 -0.36957818 -0.33807993 -0.05393121 0.33674002 -0.4434827 0.09660774 0.020165585 0.13092525 0.0013425533 0.2896063 -0.19533178 0.43900475 0.73171574 0.16856949 -0.39400956 -0.07053375 0.68353295 -0.07761849 0.3853684 0.20108426 -0.5627664 -0.31040987 -0.043566745 0.246702 0.76112205 -0.1012949 0.12314396 -0.048688907 0.27724808 -0.29199025 0.09652477 0.50800234 0.5142294 -0.0905474
55 0.6475521 -0.3739117 -0.33608893 0.517624 -0.20285651 -0.3144691 -0.054174174 -0.013583655 -0.21338466 -0.46563593 0.16208728 0.30729434 -0.12728901 0.15870823 0.20220855 -0.6399435 0.08012482 0.21207021 -0.0018419875 -0.42368987 -0.3090683 0.49978945 -0.14415488 0.27260593 0.4829894 -0.5099987 0.5987778 1.2364362 -0.2808625 -0.32509682 -0.5093821 -0.53246474 -0.13881496 -0.10463604 0.30039343 -0.052604385 0.80907667 0.88750446 -0.07556484 0.45248455 -0.04703031 0.3682436 0.8371868 0.086007245 -0.7042634 0.059319384 -0.5035589 0.60255295 -0.61826926 -0.16411118 -0.6693698 -0.2634548 0.47180054 0.4257314 0.08888015 0.66247636 0.06713678 0.48805532 0.2271277 0.72694725 0.38527298 0.38867602 1.012725 -0.33736995
76 0.61816627 -0.13801047 -0.098151155 0.36512223 -0.014584317 0.04213528 -0.095594406 -0.4113051 -0.19571573 -0.8573104 0.07198324 0.38448185 -0.33534822 -0.5335482 0.12716718 -0.46951497 -0.15660186 -0.39590725 -0.26648736 -0.23420545 0.2725162 0.41133133 0.24072593 0.60122424 0.4561681 0.50015473 0.59014297 0.6620912 0.2542924 0.7189069 -0.05433572 -0.47462603 0.7903466 0.28986853 0.14452706 -0.051453345 -0.34305894 0.2699663 0.44252938 0.31204256 0.16873004 0.6492629 0.45579362 0.835411 -0.18117975 0.09494229 -0.46836385 0.32500985 0.86080486 -0.54298764 -0.310203 -0.5667351 -0.17610258 1.111582 -0.121535115 0.06627825 0.8671124 0.4217441 -0.337984 0.24962956 0.12427706 0.26835704 1.111291 -0.12783605
11 0.5752999 -0.06878854 -0.60872775 0.16993842 -0.21841471 0.36685485 0.14915583 -0.12620795 -0.3375546 -0.68315655 0.65601057 0.34712178 -0.82423294 -0.67133987 -0.001695195 -0.4432357 -0.18100955 0.314965 0.19334587 -0.40651825 0.21938671 0.24800603 0.118445255 -0.5029718 -0.3484934 -0.47820312 0.29040897 0.66238827 0.46067238 0.21650232 -0.5053119 -0.014570285 0.1699695 0.59257704 -0.1426859 0.14863478 0.070938915 0.35560486 0.34197444 0.23390046 0.027943404 -0.36227864 0.8268328 -0.14872365 -0.45011714 -0.00086336734 -0.32023528 -0.32780764 0.22505967 0.4533071 -0.4394898 -0.30605727 -0.6965152 -0.1849999 -0.4195177 0.1814032 -0.046547722 0.826439 -0.6261951 0.30036876 0.09607617 -0.011469029 0.73978925 0.12539457
3 0.3249351 -0.037678577 0.21772307 0.3846198 -0.8243306 0.4509571 -0.360501 -0.41412327 -0.28253937 -0.4930043 0.49791503 0.15612026 -0.18476863 -0.9122303 -0.35928056 -1.0794034 0.15804343 -0.7424682 -0.14531359 -0.33832464 -0.03823451 0.29129082 -0.078577556 0.21156202 0.14304161 0.4090783 0.0719644 -0.123101 -0.40728572 -0.3214425 0.068145804 -0.6491974 0.50572187 0.7238132 0.008647197 -0.28369716 0.94794244 0.6794401 0.23785955 0.0052001355 0.1114727 0.42392257 0.74594545 0.21456344 -0.7021511 0.44321582 -0.47907555 -0.039406974 -0.3910334 -0.25597262 0.12878409 -0.9598447 -0.21186832 -0.13165838 0.0071080504 -0.19035564 0.23792705 1.0174301 0.10669134 0.38643003 0.38416883 0.06942876 0.15272595 0.24424021
41 0.39880297 -0.060727924 -0.26716122 0.58323884 -0.4589879 0.43452755 -0.25540683 -0.5042352 -0.6173768 -0.50001436 -0.21843189 0.6657032 -0.09202538 0.12346911 0.059369158 -0.22190996 -0.14912422 -0.63637584 -0.34935668 -0.23965247 0.08281291 0.52421325 0.19781628 0.08589081 0.21780123 0.35473785 -0.14880681 1.1053982 0.08247396 0.45837697 -0.4865096 -0.19267024 0.5302149 0.118001916 -0.13588108 -0.16500065 -0.15914796 0.5206818 0.3216523 0.024492756 0.6660984 0.5307677 0.74785644 0.8874348 0.017619366 0.54702884 -0.75374955 0.3318108 0.639669 -0.4594096 -0.4261444 -0.44884518 -0.6558865 1.0063355 -0.20736933 -0.05388086 0.78046954 0.46049678 -0.39067867 0.6339492 0.106982075 0.5892711 0.67942023 0.020047616
191 0.2298171 0.34976786 -0.8966807 -0.058393426 -0.31868893 0.6129874 -0.4064207 -0.2923532 0.18939407 -0.43235004 0.86659825 0.29438838 -0.045026038 -0.6334204 -0.12402209 -0.9967897 0.25605038 -0.14360052 0.13498205 -0.044687297 -0.08533319 0.71333176 0.11968152 0.04441427 0.47810835 0.66562486 0.16780068 0.018883223 -0.29393464 -0.30530027 0.17434168 -0.4693386 -0.13581027 0.1725189 -0.17945483 -0.1783462 0.7857404 0.56144637 0.11690414 0.31011507 -0.22439843 0.3682273 0.83224547 0.15838045 -1.0387354 0.35703507 -0.31375092 -0.10917824 -0.2842166 -0.036835622 0.3077266 -0.54276705 -0.39033508 0.9680268 -0.22892065 -0.49984398 0.35987547 0.83039963 -0.1220381 0.881871 0.14846267 0.5130477 -0.052675683 0.22148186
17 0.14721636 0.3464349 -0.2288935 0.25937897 -0.8138711 0.37502363 -0.48451853 -0.43114257 0.07932303 -0.44133353 0.641482 0.2562188 -0.3483811 -0.9606654 -0.3491684 -1.1075302 0.088855684 -0.56195337 0.11022756 -0.1239745 -0.15833916 0.53661114 0.010313438 0.028201817 0.49216813 0.13932846 -0.046951424 -0.07392442 -0.5336425 -0.41082132 0.15834431 -0.69944805 0.563338 0.47447613 -0.35830286 -0.120709546 0.7915148 0.5334239 0.28347424 0.22859724 -0.025544183 0.23506448 0.5534166 -0.099998616 -0.77755207 0.5427068 -0.3439455 -0.034325983 -0.14896329 -0.4868162 0.20278633 -0.4023201 -0.30422202 0.28023884 -0.0133668715 -0.21963327 0.2381396 1.117892 0.48211914 0.3355262 0.12339177 0.28874582 0.18277304 0.05896605
181 0.8584671 0.2308198 0.32307252 0.8119324 -0.26121524 -0.006622044 0.7554312 -0.08258581 -0.3640681 -0.63520724 0.5902049 -0.46914276 -0.24986199 -0.018593268 -0.038181588 -0.88842005 -0.1429061 -0.62319964 -0.15055603 -0.49922538 -0.0449084 1.2443218 0.43943334 0.28745353 -0.2685653 0.4305604 -0.28574896 0.67195064 -0.11197993 0.115040585 -0.9132035 -0.35098222 -0.7721293 -0.13099521 0.7552233 0.20412113 0.2927084 0.7790833 0.12377882 -0.14666587 -0.44594416 0.06601509 0.7631268 -0.07204831 -0.71318936 0.5316567 -0.20297574 -0.8948617 0.15283075 -0.5742281 -0.4642413 -0.21776412 -0.33767325 1.0262363 -0.16282234 -0.43376896 0.28387317 1.0547557 0.25728884 -0.33161512 0.19757476 0.108745076 1.1196855 0.22039936
67 0.031748418 -0.22290331 -0.13483804 0.4112854 -0.41413835 0.512906 0.26869667 -0.42127013 -0.05755009 0.27329016 0.44551027 -0.28976017 -0.2952223 -0.32749808 -0.22860566 -0.68171245 -0.25901237 0.2025535 0.5096099 -0.7976768 0.18965097 0.56360626 0.21708663 -0.12293398 0.32131433 -0.08233186 0.25575075 0.4764244 -0.26386186 0.543316 0.17508096 -1.1860564 0.12138594 0.30552304 -0.34358588 0.3192509 0.24978971 0.2840984 -0.33250764 0.52128863 0.47173026 0.49775332 -0.30621442 0.14197561 -0.630914 0.19739813 -0.046797138 0.12184841 -0.023947416 0.46009675 -0.4397677 0.11575427 -0.46634233 0.07269524 0.7819845 -0.4886316 0.35681647 0.6715198 0.31135473 -0.21511367 0.023676127 0.78134745 0.7434188 0.3325611
86 -0.005937469 0.039102912 -0.46278867 -0.032959282 -0.60382074 -0.018294225 0.5592197 -0.15809977 -0.059851836 -0.31872633 0.5522028 -0.22611204 -0.90483105 -0.25777602 -0.22887382 -0.5769078 0.09269218 -0.23964623 0.21059845 -0.12381887 0.17892468 0.40891317 -0.12057177 0.6300931 0.9427519 0.28475192 0.37648782 1.3058436 -1.0581528 0.38070533 -0.4075524 -0.35242596 0.9902293 -0.3646092 0.092142805 -0.1584157 0.49125382 0.7793229 0.30647254 -0.1371367 0.32933202 0.21734136 0.73034453 -0.35937995 -0.14166386 -0.10424581 -0.3561264 -0.81685436 0.30906475 0.3503628 -0.46201047 0.1909505 0.003393137 0.308907 -0.32311642 0.14208445 0.4560335 0.6686091 -0.06417658 -0.14178301 0.28597143 0.27355167 -0.1911532 -0.00689601
104 0.5410065 -0.10772161 -0.37663195 -0.26038972 -0.3014141 -0.30383334 0.3465793 -0.20840567 -0.048242085 -0.6595481 0.4052476 0.08865598 -0.42020622 -0.45607114 -0.061469 -0.3879263 -0.07725071 -0.52193594 -0.3073888 0.26085156 0.4324514 0.35570163 0.08038 0.50491416 0.34624055 0.3859258 1.0317974 0.43641382 -0.62846017 -0.060568664 -0.22839758 -0.55062866 0.45938405 0.026106762 0.11018863 0.10273572 0.009207224 -0.2765777 0.27364472 0.015290984 -0.16948755 0.76455903 0.75178146 -0.15988472 -0.016727006 -0.25642413 -0.07053672 -0.22742195 0.77338046 0.1674055 -0.2593454 -0.4002548 0.24355301 0.47595987 -0.4487317 0.27747846 0.68439513 0.25457993 -0.2182214 -0.3528178 0.3396004 0.6025296 0.9309354 0.060971297
116 0.009284058 0.33949426 0.07913145 0.3882505 -0.8183457 0.35503343 0.041546833 -0.14367937 -0.05078707 0.014912962 0.49323115 0.12400794 -0.5341118 -0.5940574 -0.6333925 -0.97275305 -0.12425667 -0.58070934 0.31984213 -0.113239944 0.17990194 0.6101193 0.21617658 0.014409222 0.85047287 -0.30254167 0.31333727 0.77678084 -0.67711425 0.008693607 0.32644773 -0.62774456 0.8418956 0.5942232 -0.48080036 0.23205167 0.608006 0.69856954 -0.110082895 0.04264734 0.20823708 0.2373183 0.18017155 -0.20094918 -0.44651186 0.28491536 -0.3919001 -0.4347195 -0.43507197 -0.017615123 -0.20869674 -0.08158116 -0.49650636 0.78795123 0.24967392 -0.18899092 0.24484362 0.96832365 0.3627566 0.11934747 0.22996436 0.15116815 -0.04984389 0.15631257
194 0.7236538 -0.0073895035 -0.15432426 -0.462554 -0.18364953 -0.042441867 0.4415966 -0.21103805 -0.020054836 -0.4855988 0.18068048 -0.23475356 -0.43194675 -0.32315505 -0.042356562 -0.019236147 0.10101159 -0.520611 -0.50768656 0.24837278 0.60453284 0.43585083 0.30865863 0.38710564 0.052238148 0.11474322 0.59959114 0.39864784 -0.5629065 -0.011934897 -0.22719704 -0.75282574 0.030216295 0.46781334 -0.1615966 0.15272784 0.10753637 -0.1741651 0.0985084 0.035411436 -0.38971034 0.49951938 0.90702426 -0.2738799 -0.21801475 -0.03642883 0.075673915 0.22104797 0.26675737 0.40218657 -0.20746629 -0.5959381 0.1746764 0.2305553 0.061648235 0.3993693 1.0166911 0.342678 -0.3675888 -0.3931096 0.29356232 0.87540704 0.599125 0.20610827
111 0.4020504 -0.054044113 -0.4819422 0.074925825 -0.49133092 0.27749223 0.7807318 0.24550584 -0.6904603 -0.5078525 0.37487942 -0.42790604 -0.38292652 0.281152 -0.7637794 -0.46367577 0.7078812 0.2265188 -0.08476883 -0.5699074 -0.86196923 0.26746368 0.283095 0.72230935 -0.21947947 0.07357967 0.20118338 0.73067707 0.20688562 0.11695489 -0.29730982 -0.54563344 0.314279 0.19753186 -0.71596766 -0.42997158 0.12010778 0.08292421 -0.5458139 0.038288552 -0.07070536 0.756145 0.2949399 0.37687084 -0.4527973 0.29304653 0.35997826 0.3960786 0.15175834 -0.023258029 -0.201642 -0.22694169 -0.57845384 0.3896001 -0.3185002 -0.3417387 -0.02957281 0.6455813 -0.20503235 0.24445099 0.6711146 0.022412129 0.5404233 -0.23981436
39 0.1187108 0.26407468 -0.36532325 -0.08353879 -0.68322307 -0.22731848 0.54445976 -0.14714351 -0.33177987 -0.4812735 0.41284078 -0.14243557 -0.5743528 -0.25021362 0.079712 -0.11471899 -0.01816773 -0.51264316 -0.21061635 0.1090897 0.41602823 0.13970459 0.14216514 0.37916383 0.59971666 0.3300941 1.0209464 0.68956673 -0.7684057 0.13576473 -0.1389594 -0.52726674 0.5573902 -0.06456295 0.07208003 -0.4554903 0.16803773 -0.037736632 0.004276253 0.0847667 0.1559674 0.49275246 1.1292895 -0.4848646 -0.17188017 -0.27050254 0.06795649 -0.67552656 0.54742396 -0.08250141 -0.03833869 -0.15189557 0.44916004 0.49040645 -0.41043672 0.2524738 0.49727544 0.16854534 -0.08626332 -0.11849405 0.49090362 0.27735838 0.7767599 0.35717294
143 0.45786583 -0.08482737 -0.2828596 0.19959754 -0.57259905 0.35243416 0.8818105 0.21875057 -0.46198168 -0.3946544 0.2734472 -0.25917572 -0.18219498 0.27247846 -0.71169627 -0.4754324 0.5942473 0.34071365 -0.023926752 -0.9299662 -0.54002845 0.25367504 0.0024382414 0.4815437 -0.5541015 0.16817477 0.24921879 0.7392134 0.21538389 -0.0808658 -0.20751351 -0.670208 0.36889455 0.23562957 -0.726763 -0.48256996 0.23518176 0.2218436 -0.27560163 0.16555128 -0.21860233 0.8543849 0.057313297 0.36538488 -0.26621708 0.21037357 0.5276921 0.20899521 0.46747798 -0.06443134 -0.28969514 -0.13699453 -0.3170949 0.41397226 -0.066810675 -0.28938767 -0.061224718 0.48852858 -0.0846618 0.20093948 0.5028781 0.1229383 0.4163676 -0.03320313
53 0.67599326 0.14807084 -0.046841435 -0.4075931 -0.32305574 0.30466053 0.49508682 -0.0402574 -0.06062287 -0.44096118 0.12451043 -0.2302877 0.11141785 -0.16844337 0.020335535 0.11830604 0.006324626 -0.4397084 -0.36069638 0.010003406 0.34738004 0.4174867 0.07739741 0.1974882 -0.23972392 0.08257891 0.78177553 0.36132193 -0.36097375 0.027471881 -0.09311121 -0.5069857 -0.06862637 0.332075 -0.18343568 -0.09105211 0.13574728 0.17689276 0.11245678 -0.005113017 -0.181848 0.4134119 0.9625428 -0.41227934 -0.06935588 -0.09468283 0.34911713 0.23081693 0.12267311 0.4048654 -0.26979914 -0.70009744 0.30904558 0.29097453 0.052119732 0.16796188 0.8229423 0.31661993 -0.24151659 -0.41868296 0.40610757 1.1356256 0.5871488 0.23772821
129 0.3459468 0.422588 -0.23218115 -0.5290067 -0.43406275 -0.16111864 -0.05898659 -0.10688521 -0.6207442 -0.5226204 -0.29701868 -0.4219218 -0.12928468 0.085876785 -0.13635024 0.080421284 -0.5713382 -0.5825187 -0.22777382 -0.023425726 -0.5491447 0.37895557 0.2123047 0.23043495 -0.42557317 -0.27791205 0.5905017 0.010926442 -0.3376155 0.22682631 -0.3682936 -0.35823542 0.059088286 -0.06934598 -0.25989112 -0.27092865 0.50258374 0.70973617 0.30370387 0.3433413 -0.25511476 0.53309476 1.0731272 -0.39564502 -0.85158706 0.10925929 -0.57346576 -0.31300107 0.24161021 0.45020452 0.13928758 -0.19128841 0.18712258 0.15228729 0.12316643 -0.18576959 0.33451554 0.6405151 0.007588821 -0.06524209 0.37608787 1.2327871 0.6144776 0.53266793
136 0.16639942 -0.19463256 -0.31911272 -0.07474001 -0.5950847 0.61335975 0.65689945 0.23498502 -0.48965415 -0.35961273 0.19823419 -0.33070117 0.1953342 0.0061487937 -0.5568187 -0.7103187 0.96251076 0.12976767 -0.33591732 -0.53538233 -0.24195427 0.42298678 -0.40403682 0.36955884 -0.204335 -0.09628967 0.07655547 0.761198 0.08896755 0.011267794 -0.51461786 -0.42662612 0.29033718 0.3854536 -0.6152195 -0.49251175 0.103742346 0.5455062 -0.17185241 0.46699375 -0.3840157 0.36815265 0.28891736 0.53691614 -0.051433593 0.24484177 0.49879616 0.16415381 0.69786996 0.18976219 -0.37732586 -0.19786985 0.025323177 0.16784441 0.1477511 -0.37073106 -0.020831335 0.4380425 -0.12957577 0.15382864 0.37955183 0.10652482 0.4586725 0.0851158
138 0.7873561 0.26134682 0.05056746 -0.11727259 -0.5485115 0.31633723 0.53590745 -0.1839362 -0.26760584 -0.49401388 -0.011498368 -0.21151713 -0.05636869 -0.10009583 0.11820861 0.0457533 -0.24189547 -0.33214515 -0.22416069 -0.111226775 0.21103482 0.43825203 0.18442638 0.3068925 -0.5419635 -0.011593138 0.54049563 0.40722317 -0.42216432 -0.12823732 -0.2579967 -0.4767937 -0.07098799 0.18593566 -0.4274783 -0.16865908 0.19872701 0.1473825 -0.022923108 0.06676272 0.114983425 0.48163718 0.80702275 -0.19984372 -0.1798601 -0.30126187 0.5470205 0.060715444 0.24622706 0.6279253 -0.2338539 -0.58622116 0.36845538 0.1096707 0.2798192 -0.13179925 0.44171926 0.06764798 -0.07158773 -0.056576714 0.23692177 1.2135625 0.3474057 0.10896336
19 0.34350047 0.3794933 0.1336426 -0.42327917 -0.14237687 0.19436869 -0.050137874 -0.124736495 -0.40899524 -0.61659825 -0.6011564 -0.04810672 -0.2958324 -0.1375009 -0.41348562 -0.11041627 -0.75931454 -0.08390807 -0.44800213 -0.01371005 -0.6488074 0.58081096 0.3098445 0.4458514 0.02597557 -0.38461694 0.58855 0.2561291 -0.13943791 0.5401862 -0.30084857 -0.26776117 0.06627754 -0.046415813 -0.42086655 -0.45524022 0.933317 1.4487379 0.22173822 0.21416116 -0.20071587 0.20685066 0.8664095 -0.13316803 -0.55102557 0.53885347 -0.7755098 0.06406473 0.37843227 0.4185889 0.088219315 -0.24646915 -0.1932606 0.5057628 -0.01348982 -0.24074933 -0.19314586 0.5582796 -0.018459558 -0.031324826 0.3344402 0.888919 0.6564495 0.76434916
169 0.43860766 0.538071 -0.07445359 -0.3370819 -0.34821782 0.12810616 -0.022128837 -0.16374123 -0.40629458 -0.6552655 -0.6070332 -0.13658834 -0.060357094 0.0019640415 -0.17037942 -0.03378494 -0.8792337 -0.20545939 -0.41518033 0.14639089 -0.6060351 0.49372354 0.3064625 0.3651954 -0.10943127 -0.2711691 0.54560745 0.10638606 0.008987107 0.6662705 -0.43030137 -0.26820013 0.10481403 -0.018741569 -0.42780477 -0.39311188 0.911743 1.1559045 0.10048467 0.4159228 -0.30705202 0.25776163 0.7803352 -0.3040844 -0.6568647 0.34929258 -0.75923157 -0.058572624 0.37640303 0.4818975 -0.02393903 -0.41631272 -0.03687954 0.5177141 -0.018474516 -0.081466876 -0.09421392 0.85567707 0.16551104 0.038114175 0.4903682 0.9952383 0.5059178 0.7189702
112 0.4593239 0.31857428 -0.24783875 -0.326892 -0.7844887 0.2718113 0.30972946 -0.016742574 -0.5002798 -0.2387505 0.010008518 -0.2780682 -0.08230619 0.04411897 0.029765893 0.018128421 0.0729364 -0.43820706 -0.48469624 0.10118981 0.21208215 0.29958516 0.14888218 0.11881796 -0.2041026 0.09807574 0.59253 0.5815426 -0.520927 -0.12854975 -0.49086833 -0.4571134 -0.12377702 0.13816798 -0.21869962 -0.2382607 0.3585392 0.25397125 0.19041468 -0.06699425 0.26817515 0.2989997 0.9414055 -0.6596654 -0.09488578 -0.20241004 0.25637367 0.21608369 0.16086213 0.37477648 -0.0666199 -0.5016442 0.25159472 0.098718345 0.18197873 -0.26125392 0.48595908 -0.0046703136 -0.13895932 -0.43884215 0.2802292 1.1216363 0.58354735 0.37875718
190 0.43009293 0.4048059 0.14999153 -0.2829505 -0.17174678 -0.07056503 0.0019257092 -0.22174978 -0.30529124 -0.5453308 -0.5335153 -0.3298222 -0.088400096 -0.13494267 -0.41471583 -0.023036322 -0.7345288 -0.14991239 -0.5049013 0.12750185 -0.59036964 0.5501551 0.31710306 0.28102157 -0.18207158 -0.1748528 0.7190701 0.3126461 0.068926 0.59981 -0.19295548 -0.312957 0.21068709 0.064586625 -0.2783645 -0.41744748 0.96990025 1.4014981 0.26496735 0.3440082 -0.2380998 0.13198555 0.8352013 -0.22769032 -0.6324631 0.529829 -0.75613844 0.12598766 0.46968466 0.27190316 -0.10161199 -0.16435754 -0.23091319 0.6910226 0.08182102 -0.13807617 -0.17076732 0.80418026 0.032848034 0.08934313 0.54140055 0.9707082 0.4216762 0.7387314
200 -0.2622587 0.24709235 -0.85819 0.41786137 -0.8682158 -0.17281303 -0.14461371 -0.7019399 -0.014932168 -0.47533825 0.3234241 0.2820415 -0.40070698 0.24096327 -0.27458113 -0.2944007 0.07054383 0.111503646 -0.07490361 -0.5522457 0.31176582 0.16304712 0.06228334 0.3482803 -0.29374617 0.54402894 0.7167692 0.94388384 -0.11194501 0.4962477 -0.55399245 -0.45240757 -0.15461248 1.0491124 0.071791306 -0.31287238 0.19432165 0.63692504 0.2950843 -0.08117679 0.47992274 -0.5696579 0.9631507 -0.33999127 -0.23737885 -0.36956763 -0.31050816 -0.30916134 0.03420437 -0.26061904 0.2926097 -0.19878465 0.073103204 0.31326792 -0.07540263 -0.8075949 -0.22336203 0.6173155 0.16456822 0.487837 0.8396983 0.34700117 1.1870667 -0.07348799
175 -0.06449765 0.15197772 -0.3535734 -0.18491393 -0.7105549 -0.009901844 0.54030263 -0.17066921 -0.4989624 -0.6290552 -0.08358293 -0.10401792 -0.5491911 0.21796402 0.039885797 -0.33301994 0.10355818 -0.4941722 -0.102557264 0.10737717 0.18985565 0.013460918 0.26758704 0.17243391 0.23420653 0.27346942 0.927465 0.5955551 -0.525916 0.04369115 -0.40903455 -0.3506235 0.00569456 0.33024445 0.2198887 -0.36469507 0.34581497 -0.09524583 0.15887266 -0.0014853709 0.5086913 0.16893283 1.3495432 -0.7003653 -0.20143297 -0.2349067 0.03361336 -0.3233638 0.5798835 0.20740518 0.12728105 -0.15243678 0.50175637 0.31823406 -0.059346903 -0.44279668 0.40087125 0.10116565 -0.0023343563 -0.04419159 0.5111873 0.82316154 0.56497985 0.38479954
34 0.35017055 0.24368416 0.15250587 -0.44299772 -0.29143298 -0.09335539 0.118513584 -0.18403295 -0.47869998 -0.61306727 -0.027381027 -0.055958886 -0.37968245 0.05552759 -0.23250979 0.13062981 -0.33380485 -0.47562838 -0.18810362 0.055548728 -0.31818235 0.45315877 0.21518634 0.15673195 -0.27246827 -0.005069891 0.37095037 0.35006022 -0.5445033 0.15160938 -0.026983762 -0.12957506 0.00571963 0.27715907 -0.113699324 -0.28570244 0.30214238 0.43743658 0.24022847 0.19491711 -0.3645754 0.583886 1.0410249 -0.34592047 -0.46687487 -0.1403855 0.074890606 0.33096945 0.11242669 0.760384 -0.09696815 -0.6688479 0.11892198 0.19673155 0.24048758 -0.10879436 0.34445822 0.43151215 -0.20704795 -0.44539115 0.21800771 1.5797038 0.649546 0.22744271
35 0.16635492 0.25356925 -0.5167941 -0.41651946 -0.7079528 0.30787197 0.4966641 0.09193393 -0.34353852 -0.49646935 -0.246923 -0.043788206 -0.33151978 0.18237542 -0.02163826 0.03521733 0.15968908 -0.47178984 -0.53255916 0.010337082 0.22774515 0.13639024 0.31044573 0.21024169 -0.08152089 0.13386194 0.7099893 0.64103585 -0.65156734 0.01610406 -0.20902073 -0.4611729 -0.07067286 0.16845302 -0.025744919 -0.22753158 0.31998777 0.23231144 0.0358046 0.08723733 0.44114864 0.48047796 1.2318246 -0.74504566 -0.14177598 -0.25349656 -0.07334078 0.08400567 0.23706046 0.31729817 0.14877927 -0.03033566 0.3320094 0.00016764482 0.08413764 -0.36480722 0.30851912 0.1379951 0.12929846 -0.23835061 0.4453555 1.0703411 0.52479124 0.53458834
20 0.07026002 0.08853191 -0.26037937 0.07330484 -0.42432314 0.44429228 0.37601128 -0.4370696 -0.13083145 0.020696754 0.50597966 -0.5082348 0.3010441 -0.24692073 -0.40622675 -0.5392896 0.36645988 0.3847474 -0.019996928 -0.7504805 -0.10728403 0.5261105 0.0059300005 0.26153627 -0.46935025 -0.28921556 0.15308836 0.32016414 -0.19922897 0.4627805 -0.17693977 -0.5730031 -0.073392734 0.18691729 -0.66041785 0.2530992 0.4403262 -0.1071508 0.0009765895 0.2725157 0.37572244 0.5740884 0.16728196 0.3323928 -0.20579956 0.18299116 0.16210859 0.039348714 0.17563722 0.20678172 -0.77190423 -0.46129483 -0.28798908 0.40709147 0.3073529 -0.17227374 0.019438274 -0.10719721 0.3585591 0.07108977 0.13067055 0.928987 0.3888443 0.117158495
183 0.068519846 0.1810613 -0.22977442 0.25566852 -0.3479839 0.23678185 0.47689584 -0.339785 -0.22116439 -0.34049797 0.31398916 -0.3610354 0.12062552 -0.029116243 -0.26301733 -0.53860223 0.1387534 0.32095623 0.10119396 -0.93928003 -0.24005601 0.24433142 -0.12089316 0.55331624 -0.7243551 -0.10248779 0.05624285 0.4106831 -0.2045289 0.13141231 -0.12502156 -0.5009665 0.122486554 0.065869175 -0.95148027 0.3485993 0.44111088 -0.12770729 -0.20811448 0.270335 0.11149786 0.64235693 0.29397 0.22973897 -0.2301164 0.07482032 0.35778436 0.1570644 0.22919433 0.17263941 -0.6869011 -0.62075454 -0.37165353 0.33847487 0.2612649 -0.2856291 0.20724335 -0.026801903 0.11500532 -0.07474083 0.37860942 0.60999805 0.369279 0.15432498
6 0.21248718 -0.056499925 -0.45462933 0.4673729 -0.3557215 0.81994605 0.53850913 -0.020680271 -0.1393309 -0.47002032 0.38222554 0.1318636 -0.93479836 -0.9284758 0.082797214 -0.032305308 -0.06833816 -0.10862946 -0.23520899 -0.6199327 -0.079291396 0.12406305 0.032285556 -0.113850065 -0.27497905 -0.21661727 0.4383758 0.5050562 0.13229237 0.13984244 -0.4199239 -0.17256123 0.2162981 0.21288458 0.07384872 0.6183302 -0.013797883 0.7474842 0.1538214 0.39894202 -0.2731132 0.29863504 0.82875586 -0.24181116 -0.6164108 0.19424136 -0.46814504 -0.26580054 0.047978837 0.25288653 -0.2441539 -0.06930347 -0.7133991 -0.023163972 -0.43494633 0.20267433 -0.38726166 0.35384387 -0.79687494 0.5103718 -0.39923856 0.24324356 0.77732396 -0.004893288
59 -0.48040754 0.18907782 -0.9035663 0.47555736 -1.0679176 -0.11711952 0.02351248 -0.45906878 -0.12313817 -0.31038925 0.14900434 0.26825574 -0.3850717 0.11763562 -0.00050062995 -0.2700444 0.010448619 0.088360175 -0.15265849 -0.5554278 0.20950082 0.21419753 -0.11134172 0.40388057 -0.1898858 0.52149993 0.6101295 0.7971664 -0.34938473 0.46244162 -0.5776178 -0.56069744 -0.16945343 0.9843703 0.031003976 -0.26481625 0.2806213 0.5507759 0.43849736 -0.079087704 0.37937188 -0.3664296 0.8852703 -0.31077364 -0.12816752 -0.54576015 -0.30263183 -0.5377331 0.0070433556 -0.20302854 0.38208067 -0.27742994 0.13917513 0.4215991 -0.14318709 -0.78479457 -0.1342296 0.5320206 0.103680275 0.5018647 0.9726886 0.36767757 1.3385172 0.20799422
155 0.5947502 0.2229337 -0.09747694 0.044093378 -0.5313249 0.3500938 0.16137268 -0.36235055 -0.05932904 -0.5979593 0.17500718 -0.42262563 0.005450083 -0.018733244 -0.08737311 0.11365198 0.22422515 -0.11695971 0.35302716 -0.54791903 0.056856904 0.34979412 0.017270647 0.45702803 -0.5207935 0.0326077 0.12402354 0.35112292 -0.31369576 -0.026555376 -0.2975356 -0.5032362 0.12367072 -0.009766706 -0.7268217 0.07659173 0.048530426 0.02764969 -0.02020946 0.19517948 0.1574504 0.5962203 0.66334826 -0.038249657 -0.6248743 -0.3109708 0.6010304 -0.08899338 0.3720772 0.42059228 -0.54835314 -0.5722217 0.05566343 0.014602483 0.5488109 -0.117221214 0.13567351 -0.12143996 0.23707834 -0.019212987 0.18962495 0.797446 0.44331214 0.10738753
13 0.3076428 0.0074452255 -0.34134495 -0.19514124 -0.5801172 0.49192756 0.38429418 0.16874276 -0.13770047 -0.26338738 0.18624566 -0.2045684 0.43061894 -0.20184527 -0.4639777 -0.6361281 0.86555004 0.14685313 -0.2544081 -0.29342604 -0.08642475 0.41460073 -0.29514915 0.35530236 -0.3097322 -0.19081381 -0.15391657 0.5129747 -0.29990458 0.18873754 -0.5888665 -0.4723706 0.070665866 0.46414575 -0.5626352 -0.26678398 -0.045553107 0.22010356 -0.22386181 0.3414457 -0.24977271 0.16899532 0.5840405 0.46849376 -0.28251415 -0.17808639 0.41000855 0.01602624 0.53211045 0.21159704 -0.7854685 -0.2754467 -0.10789086 0.46139306 0.6452118 -0.08697591 -0.22333746 0.17994037 0.008047498 -0.13764167 0.03060935 0.52581096 0.42773026 0.20310062
68 0.05127359 0.07129194 -0.6092408 0.10623262 -0.61962867 -0.2673438 -0.30121663 -0.27774486 -0.106142335 -0.7753901 1.0268574 0.29573882 -0.38744834 0.059261538 -0.088004336 0.001740079 -0.15875667 0.22864082 -0.070729345 -0.5409884 0.42489767 0.35535327 0.23770466 -0.35321125 -0.6316504 -0.083168514 0.4991205 0.8673584 0.26225057 0.417436 -0.29498592 -0.3546333 0.020669581 1.2853339 -0.09960297 0.01698386 0.06539956 0.68035364 0.3721527 0.14707032 0.08755804 -0.29239187 0.8056571 0.035253227 -0.2326361 -0.030433146 -0.2407042 -0.41996187 -0.055691004 0.26152062 -0.092147425 -0.18942231 -0.48610604 0.1716237 -0.0007037028 -0.19565265 -0.019105563 0.97814566 -0.28091133 0.3966873 0.72280705 -0.08287623 1.0249367 -0.22321177
165 0.41050395 -0.005434358 -0.4795552 0.15934697 -0.42039874 0.41993594 0.03263351 0.198499 -0.3301942 -0.47981268 0.43922132 0.47982427 -0.8117397 -0.7666838 -0.09223516 -0.23186864 -0.29350978 0.23815103 -0.013479314 -0.9628043 0.11337073 0.54299533 -0.13641213 -0.34932306 -0.4304861 -0.22560687 0.7461523 0.6355047 0.31372854 0.30849683 -0.46549362 0.07616833 0.009913151 0.2548952 -0.10078351 -0.066469625 0.20786393 0.37442103 0.29978067 0.35253125 0.0026486742 -0.17766811 0.75850374 -0.13439001 -0.6454464 0.33017737 -0.4764712 -0.31760186 0.14400324 0.5954539 -0.27066925 -0.36555773 -0.5956431 0.11856121 -0.5389253 0.25551367 0.0911127 0.5937699 -0.5498505 -0.11520897 -0.32318938 -0.20896335 0.48451832 -0.21210952
72 0.19449176 0.053055845 -0.3863918 0.010282533 -0.6135105 0.6208177 0.3818621 -0.35257876 -0.103419736 -0.06900302 0.08211814 -0.25747657 0.5192187 -0.36091083 -0.2648489 -0.45984364 0.51146984 0.21404675 -0.06471484 -0.5371598 -0.09574844 0.8201497 -0.072876714 0.39292073 -0.40938753 -0.1162612 -0.05507666 0.5008322 -0.28950235 0.26799378 -0.45345467 -0.28366864 0.03021538 0.68696964 -0.67831266 -0.13570735 0.13301666 0.20555678 -0.13196209 0.43103573 -0.112827554 0.36555153 0.5996933 0.38969573 -0.26525262 -0.07088685 0.26970956 -0.021929454 0.4680233 0.116542645 -1.0432346 -0.25560755 0.15538943 0.47035778 0.5555685 -0.012672928 -0.150463 -0.041608185 -0.06736474 -0.20147152 0.1155079 0.3156092 0.22115879 0.13856539
137 0.19605263 -0.14079255 -0.12915683 -0.21724981 -0.71827066 0.5498045 0.25615972 -0.45935935 0.10263654 -0.34189543 0.066659056 -0.14228281 0.4877643 -0.63606405 -0.10132939 -0.67725873 0.36083987 0.0805888 0.18958353 -0.49948806 -0.051755127 0.5780923 -0.07310686 0.17639242 -0.6381643 3.6281905e-05 -0.058210004 0.7006006 -0.37333003 0.4147604 -0.5213615 -0.6959544 0.098409444 0.64790714 -0.5888157 -0.036851693 -0.0068415026 0.6186939 -0.07895124 0.61585826 -0.02861828 0.24274333 0.7736377 0.46605137 -0.28198436 -0.068665445 0.32412088 0.084886126 0.41178513 -0.18214174 -0.9649686 -0.11495673 0.33158967 0.576827 0.27228892 -0.016276626 -0.31709933 -0.105241455 -0.31830105 -0.17532445 0.23942591 0.30406106 0.039500754 -0.17370974
100 0.18218297 -0.16148934 -0.15401389 -0.2630162 -0.65352523 0.3893464 -0.024772542 -0.85626847 0.14153911 -0.64258933 0.12045215 -0.08952443 0.11364184 -0.8683917 -0.25631824 -0.8223597 0.4219182 -0.37291834 0.13420802 -0.6725116 0.04193913 0.9004309 -0.09678657 0.25403923 -0.5592265 -0.00558014 -0.16228577 1.1676954 -0.09939108 0.42842218 -0.63730174 -0.760026 -0.23568542 0.40475023 0.08720161 -0.1779497 -0.24380568 0.61693805 0.120910935 0.5520457 0.011964976 0.41105366 0.96844506 0.27146938 -0.13045141 0.2575834 0.09853302 0.24132073 0.11185859 -0.13844073 -0.85726655 -0.01073593 0.282482 0.48618245 0.27733558 -0.0040714215 -0.5459138 -0.19186652 -0.43044698 -0.11192326 0.5270262 0.09647436 -0.26596144 0.3578589
217 0.25783765 -0.2499086 -0.3534377 0.335486 -0.1045058 0.6537676 0.29991683 -0.05787291 -0.37270355 -0.63352424 0.50069237 0.2995437 -0.90823394 -0.9374631 -0.037827652 0.027492352 -0.013841542 0.15890409 -0.06068414 -0.57411224 0.02675205 0.1177729 0.11080062 -0.18926841 -0.37890142 -0.28371117 0.18314439 0.4435168 0.18558724 0.19210438 -0.4490697 -0.14320558 0.43260297 0.3382479 0.043794524 0.46906927 0.14200824 0.80377966 0.075864814 0.29933602 -0.19952825 0.09312975 0.8191888 -0.30434775 -0.4719051 0.20203936 -0.39611635 -0.38091078 -0.060803883 0.3647973 -0.35090342 -0.19082983 -0.5907387 0.10290138 -0.46281037 0.13280737 -0.29986235 0.44810656 -0.78111166 0.3412304 -0.44228008 0.34013548 0.9542285 -0.06153392
52 0.59121555 0.41616973 -0.34252167 -0.14492778 -0.31806973 0.5528544 -0.17910405 0.14671144 -0.057526667 -0.40867764 0.2337886 -0.6423227 0.21575637 -0.21351404 -0.24307057 -0.40724757 0.34133127 -0.19801821 0.14432098 -0.58771694 0.19695762 0.25954172 -0.4886672 0.2759228 -0.39922804 -0.03978212 0.091171995 0.63266385 -0.5032764 0.12562965 -0.51054627 -0.36231065 0.09269389 0.31492236 -0.4109127 0.13221522 -0.1265958 0.3062548 0.09790347 0.18015592 0.14919892 0.49237427 0.8472383 0.100345306 -0.36633575 0.12455362 0.69191927 0.24976093 0.36529666 0.3640723 -0.53654194 -0.27557054 0.005839978 0.4727869 0.6197584 -0.14225636 -0.10033066 -0.16771653 0.26491874 -0.0665495 -0.09107946 0.4873798 0.46751827 0.17174824
46 0.22771609 -0.034370616 -0.6670582 0.1639901 -0.41357538 0.0015395128 -0.17928182 -0.2667976 -0.04117276 -0.7756741 1.1124741 0.12499666 -0.643124 0.0028724356 -0.069726735 0.042509735 -0.328766 0.339275 -0.10689461 -0.47186646 0.3596952 0.54803646 -0.07651641 -0.45831972 -0.6100893 -0.09416416 0.4534362 0.8099471 0.16173336 0.33728278 -0.25011957 -0.30376688 0.16353601 1.1400517 -0.1459851 -0.0701445 0.1003406 0.46491453 0.3504282 0.04257075 -0.009289045 -0.43052736 0.8877615 0.040660907 -0.056574237 -0.049407583 -0.4319691 -0.26538095 -0.05255931 0.1298616 -0.2462062 -0.18179277 -0.6468476 0.13784342 -0.028619796 -0.13595492 -0.23665427 0.92819166 -0.34385902 0.41155136 0.5506829 0.0016938957 1.0416695 0.0016049355
87 0.57419604 0.14943597 -0.4303176 0.2799082 -0.5756798 0.1492601 -0.12310004 0.15518753 -0.30394846 -0.8492963 0.60159403 0.19894812 -0.64463866 -0.6816436 0.1392503 -0.2690561 0.007053437 0.3226332 -0.060785174 -0.7397472 0.3298314 0.46889687 0.121882804 -0.61348474 -0.388854 -0.25706536 0.70588714 0.606236 0.3893489 0.30178756 -0.41546777 -0.05662439 0.060386717 0.2811645 -0.2594296 -0.0024621803 0.19649658 0.4193524 0.09351752 0.32970434 0.10623398 -0.16460022 0.83177835 -0.13545099 -0.47392905 0.4591517 -0.59819853 -0.15131709 0.24290419 0.7272351 -0.4821418 -0.21128385 -0.6226085 0.0053915847 -0.42595938 0.20751545 0.15960896 0.7506825 -0.4392262 -0.01574013 -0.2731612 -0.31682327 0.40068954 -0.1561193
135 0.5159505 0.081563815 -0.48086724 0.23803711 -0.29857177 0.21813342 0.05347218 0.071673244 -0.3694158 -0.5140846 0.6446868 0.28881168 -0.6748055 -0.694797 -0.16404814 -0.38107705 -0.15962532 0.30737382 0.07519781 -0.6394564 0.10978404 0.4123988 0.1533544 -0.5786691 -0.48229143 -0.4241217 0.46991333 0.70717597 0.43771517 0.050743084 -0.35690764 -0.074922234 0.10782096 0.37291157 -0.1722626 -0.0026205166 0.057079155 0.42677182 0.5098767 0.4800811 0.19216312 -0.24828984 0.9670029 -0.34151524 -0.3559902 0.21675088 -0.42218977 -0.16689478 0.24315396 0.5297882 -0.4422108 -0.36885038 -0.66627336 -0.019900836 -0.51075155 0.27091375 0.1726949 0.7893589 -0.5577204 0.011885993 -0.27750972 -0.20887706 0.5921934 0.06761638
193 0.2535359 -0.0160818 -0.728919 -0.017775008 -0.66395855 -0.46662554 -0.2515457 -0.12483378 0.18523532 -0.87273514 1.042093 0.321012 -0.5091555 -0.021548547 -0.07246197 0.031760193 -0.16723154 0.20676143 -0.25304058 -0.6020296 0.49037287 0.5602498 0.00390283 -0.45582488 -0.6480419 0.023382464 0.43448952 0.81563705 0.28573254 0.41939473 -0.33046466 -0.2535278 0.016815808 1.1777263 -0.24373254 -0.006032741 0.1632669 0.62453115 0.21789858 0.058211125 0.07138878 -0.1294761 0.71630704 0.0010703873 -0.24400927 0.120227955 -0.47025213 -0.3152674 0.026231203 0.1698341 -0.17293777 -0.075257845 -0.6552409 0.124785304 -0.019623138 -0.08498171 -0.12325282 0.84551424 -0.13502719 0.27544135 0.62209135 -0.052975938 0.98828083 -0.18878251
24 0.44055575 0.056283228 -0.58763707 0.116098866 -0.400138 0.16005251 0.048370272 0.21750994 -0.23773535 -0.5408622 0.5759501 0.34208563 -0.7910859 -0.69608414 -0.053003773 -0.37777779 -0.18198174 0.32271853 0.10061618 -0.67738354 0.25664854 0.4376032 0.16016123 -0.5756047 -0.56060636 -0.4454186 0.51751524 0.61075455 0.5143546 0.054450635 -0.56465614 -0.037675533 0.25474337 0.5063303 -0.018168753 -0.103563696 0.1568986 0.3605667 0.30477154 0.31740686 0.1163032 -0.2228253 0.83071816 -0.19258636 -0.51723284 0.24676292 -0.381998 -0.29330447 0.25500822 0.57223076 -0.6322323 -0.37365597 -0.7442157 -0.012753306 -0.4616409 0.3431859 0.23322566 0.79430926 -0.4113093 0.16579774 -0.18376394 -0.07798719 0.49380678 0.033679847
162 0.41135275 0.2338567 -0.32398328 -0.22061509 -0.38304144 0.68179786 0.046440616 -0.03936333 -0.38749367 -0.2755644 0.20660065 -0.42911044 0.36779195 -0.18544486 -0.096571065 -0.33378044 0.3422314 -0.29076412 0.101819396 -0.51785105 0.49441028 0.09738908 -0.21192336 0.36999092 -0.3041547 -0.1435305 0.42327958 0.32326242 -0.49621633 0.21993376 -0.7116921 -0.3675324 -0.098326884 0.304557 -0.5079314 -0.15978846 -0.070154585 0.12137876 -0.05958405 -0.0020796736 -0.32270157 0.6126002 0.77805257 0.023719495 -0.3400477 -0.19289827 0.54718 0.06678413 0.24837188 0.23244011 -0.49722606 -0.18366261 0.16209911 0.19802164 0.4279041 -0.05804053 0.11102659 0.11856353 0.20659511 -0.45619643 0.065112196 0.7937222 0.4949497 0.015319773
10 0.58896124 -0.30980098 -0.45505375 0.10508746 -0.7488507 -0.5414879 0.4171977 -0.4218226 -0.12623073 -0.91142595 -0.41893643 -0.20980449 0.17271097 -0.17329209 -0.2910786 -0.06053816 -0.11946511 1.0060762 0.16797201 -0.4414469 0.11383618 0.3607387 -0.33786947 0.09877322 0.6146441 -0.48199478 0.3938853 0.9604199 -0.7980137 -0.27127406 -0.3769191 -0.35496756 -0.056878634 0.3769575 0.64929944 -0.03434272 -0.12445726 0.84109527 0.05518295 0.45588118 0.04611002 0.75937307 0.7153573 0.19663216 -0.7245681 0.65673 -0.34325457 -0.10063588 -0.2538605 -0.5096631 -0.27994722 -0.9932492 -0.2709178 0.40652862 -0.2698536 -0.36724794 0.14535782 0.8764505 -0.118313394 0.31195128 0.038219113 0.36344087 0.5105695 0.3120978
199 0.4181698 -0.1981947 -0.21722972 -0.36226708 -0.969833 -0.05005744 0.30908212 -0.6678576 -0.073367424 -1.1675942 -0.6820464 -0.45494363 0.16605072 -0.3292283 -0.28211325 0.03277004 -0.09265906 1.0743386 0.063775174 -0.58777565 0.24532396 0.35042018 -0.14891018 -0.027353195 0.7690503 -0.27384692 0.23298016 1.0657964 -0.65598387 -0.10537229 -0.29123485 -0.22497082 0.061971176 0.34782982 0.72672933 0.084006034 -0.12681164 0.5886035 -0.027738897 0.29146433 -0.061888378 0.63481164 0.6208383 0.10778083 -0.78677213 0.6210844 -0.27644292 -0.23711243 -0.044920772 -0.52196 -0.24491614 -0.90953135 -0.48855832 0.32895803 -0.37026605 -0.4361674 0.14113893 1.072733 0.07020072 0.35169002 0.13585351 0.3418411 0.6722366 0.30969813
93 0.537764 -0.4505458 -0.4231961 0.22576241 -0.57779306 -0.44513792 0.29882097 -0.45091885 -0.17644814 -0.6619357 -0.40281865 -0.13380343 -0.016088603 -0.09318188 -0.29081494 0.013753058 -0.28311718 0.924856 0.14736632 -0.33807322 0.10582327 0.34126666 -0.26544294 0.37837377 0.54994434 -0.5298675 0.5415628 1.0531502 -0.8800135 -0.38960996 -0.56950384 -0.3454151 -0.16304661 0.4317954 0.5546734 -0.08632485 -0.13149413 0.74300754 0.17404698 0.6693316 -0.03094266 0.69562507 0.80081165 0.29663923 -0.8796397 0.52891016 -0.3090994 -0.011676432 -0.35659385 -0.4514773 -0.30828705 -0.9384455 -0.24417888 0.4576098 -0.3233579 -0.26013944 0.09817862 0.95496595 0.09001957 0.29525346 0.054126266 0.32928997 0.35569918 0.03608303
22 0.3904091 -0.21324216 -0.46438769 -0.07917998 -0.90697944 -0.38962793 0.33935365 -0.56333596 -0.15281835 -0.9559889 -0.56873643 -0.42376882 0.24422915 -0.28693864 -0.4102252 -0.066785656 -0.21803454 1.0351323 0.043767605 -0.4419714 0.21504074 0.42043498 -0.18671153 0.12341216 0.6678392 -0.26358417 0.33994856 1.1469077 -0.6625401 -0.25390527 -0.3676622 -0.23613386 0.03527572 0.32915267 0.70432425 0.07359024 -0.17739658 0.64489394 0.057757508 0.45264468 -0.082447946 0.72206986 0.6577976 0.095779695 -0.92807657 0.5908912 -0.3410505 -0.10648102 -0.22233152 -0.43263382 -0.15946761 -1.0265355 -0.52369046 0.35715625 -0.2274913 -0.27735198 0.12576813 0.8815972 -0.055974193 0.25068977 0.091380626 0.26717433 0.5528552 0.25069433
205 0.69947755 -0.48198527 -0.34966233 0.32246262 -0.5651932 -0.47827956 0.08001283 -0.51472515 -0.36120233 -0.7011978 -0.302516 -0.1328582 0.044521436 0.10028323 -0.033608764 -0.108498864 -0.1647423 0.79518634 0.13473387 -0.2730262 -0.0029277704 0.31267408 -0.41457054 0.26298967 0.66193694 -0.66334605 0.6173803 0.93511814 -0.78188556 -0.4669897 -0.64048463 -0.45045948 -0.2879893 0.41147047 0.42970213 0.018229 0.04240044 0.73536116 0.040709373 0.75207865 0.10458269 0.81802285 0.7768944 0.11727062 -0.6904001 0.3696907 -0.4062868 0.029630734 -0.35453334 -0.45468408 -0.442895 -0.8110766 -0.17417286 0.5521517 -0.27150586 -0.29473147 0.010793047 1.0125246 -0.18870716 0.26439774 0.13295428 0.27508166 0.3687669 -0.023096334
51 0.5069914 -0.6200576 0.029519206 0.4048427 -0.1429073 0.03563656 -0.5824226 0.070085675 -0.06952261 -0.38066432 0.058234114 0.29855686 -0.33221036 0.24285215 0.069188885 -0.5345872 0.29033262 -0.283486 0.057644285 -0.9659145 -0.7221441 0.5004653 0.044374924 0.12011026 0.6483895 -0.11614752 0.50012916 1.1934303 -0.07481052 -0.11078945 -0.40784195 -0.5890471 -0.31152546 0.1299753 0.0053715305 0.13848847 1.158314 0.60410815 -0.022096675 0.6113893 -0.264154 0.2206955 1.1132474 0.09200432 -0.45485282 -0.32797572 -0.36685348 0.22547215 -0.2613165 -0.0924662 -0.84646404 0.12513725 0.42474186 0.40316838 -0.24297906 0.70914584 0.26955056 0.6412517 0.35682935 0.69435257 0.40973517 0.4119145 1.1448768 0.0070774416
187 0.53397125 -0.7893472 -0.21224506 0.65795994 -0.12258029 -0.21741821 -0.40625632 0.13889334 -0.066711746 -0.37685332 0.099213794 0.3011877 -0.27145597 0.29738358 -0.019174961 -0.6220726 0.33640346 -0.18524425 0.14942935 -0.7527079 -0.64392036 0.50651693 -0.038072195 0.18882236 0.4698655 -0.16494486 0.6871288 1.1079054 -0.27711934 -0.18700543 -0.4367676 -0.5899623 -0.3251942 0.01822537 -0.016412256 0.19824581 1.0020491 0.81134564 0.09425346 0.54687387 -0.19242522 0.21712932 1.0555029 0.18104959 -0.5205515 -0.15973656 -0.47181773 0.36277327 -0.3976993 -0.05188115 -0.7232499 -0.003019512 0.41318485 0.43203676 -0.05368912 0.7703443 0.2960745 0.52441865 0.18221232 0.6164288 0.42479396 0.352653 1.0474991 0.11901569
179 0.6056988 -0.5552898 -0.23897271 0.6562854 -0.06574128 -0.38058668 -0.2765555 0.091011524 -0.22736473 -0.36328867 0.11383811 0.4081216 -0.28009054 0.24201025 -0.01372604 -0.55421805 0.24686882 -0.019977335 0.08249523 -0.6098295 -0.46223775 0.52130353 -0.057119813 0.28053325 0.5831669 -0.44178322 0.5428546 1.1500586 -0.27230957 -0.19160451 -0.64779615 -0.63440675 -0.21031536 0.15498364 0.23767638 0.11925702 1.0432656 0.64939535 0.010243026 0.61941946 -0.19379239 0.257817 0.9113259 0.19256772 -0.77142894 -0.055649333 -0.47508687 0.38227436 -0.38595438 -0.055408526 -0.69788724 -0.1669151 0.45585778 0.37788776 -0.010731181 0.69043875 0.21230038 0.40706927 0.17987823 0.69260454 0.5325248 0.40306225 0.92511654 -0.0597293
156 0.72031856 -0.2730686 -0.20209439 0.48424 -0.3496886 -0.23726253 -0.07368182 -0.17258982 -0.2729967 -0.32428655 -0.12260179 0.055085808 -0.34881938 0.13643111 0.18243982 -0.62623405 0.0588843 0.5392622 0.1424668 -0.33162352 -0.13546143 0.56912494 -0.28277004 0.161135 0.5137101 -0.55743587 0.7042099 1.143369 -0.3596982 -0.2560461 -0.5848932 -0.41567877 -0.17887023 -0.03742316 0.4292175 0.06979128 0.79287773 0.70871955 -0.049266525 0.5451313 -0.15227196 0.5190015 0.9173679 0.2526257 -0.7455488 0.18547256 -0.4671932 0.50140166 -0.584796 -0.2606926 -0.56657815 -0.24204661 0.38753623 0.31871104 0.13086589 0.42116386 0.1892942 0.49754965 0.03879828 0.8299125 0.5860395 0.31011397 0.91904056 -0.30100316
219 0.7684763 -0.24341692 -0.390467 0.26460317 0.026723495 0.00017794543 -0.021693472 -0.19692579 -0.12320983 -0.46315125 0.027302133 0.119214825 -0.68535525 -0.58064437 0.34024715 -0.58130825 -0.06780946 -0.15719591 -0.68249273 -0.16699891 0.5907683 0.509205 0.19196424 0.7295045 0.5298987 0.7684124 0.7372636 0.38046694 0.061062064 0.54163337 -0.033579152 -0.6416682 0.6508015 0.24503726 0.13671471 -0.16715284 -0.30141133 0.013774001 0.3111612 0.18113673 0.091189414 0.62113106 0.60563433 0.5543366 0.056892287 0.07381214 -0.4311118 0.07496613 0.61072004 -0.2848878 -0.55751425 -0.79468477 -0.01194901 1.057229 -0.54687715 0.21175691 0.69392455 0.41293296 -0.21230961 0.14258666 0.24362814 0.49156007 0.9712916 0.18229672
73 0.48065045 0.020993892 0.43251017 0.34293622 -0.8721473 0.52833605 -0.42180926 -0.16560611 -0.3683556 -0.28483275 0.55445373 0.4466772 -0.11498317 -0.97381765 -0.525257 -0.9481321 -0.016946334 -0.6295108 -0.20592868 -0.39822912 -0.059661802 0.2965211 0.16226256 0.1863072 -0.013817682 0.66196394 0.10930511 0.13857998 -0.5136534 -0.39093745 0.033723194 -0.5363325 0.41418195 0.70072216 0.086933 -0.14463417 0.637827 0.7893596 -0.098305166 -0.08407257 0.110442154 0.69738567 0.8325562 0.057817284 -0.7115291 0.353262 -0.5373349 0.19822127 -0.14597014 -0.29542488 0.096189015 -1.0375378 -0.05010622 -0.2402811 -0.107449345 -0.116233885 -0.00860179 1.1813092 0.12237931 0.33111417 0.59566665 -0.021075448 0.14413427 0.14564364
125 0.3958621 0.24814126 -0.4418997 0.63834983 -0.5043692 0.20973694 -0.27785873 -0.6294607 -0.45859948 -0.3423612 -0.53711504 0.5924598 -0.110794894 0.17742282 0.20482366 0.00038965343 -0.052584607 -0.6775403 0.019518802 -0.2875361 -0.0959996 0.2192144 -0.010334631 -0.123749584 -0.075767025 0.4045768 -0.5190972 1.0600387 -0.20679453 0.38044387 -0.45911694 -0.63247406 0.51574624 -0.07417814 -0.17367896 -0.40343267 0.0095794555 0.49353528 0.24571551 0.096682325 0.44277015 0.44336382 0.9163697 0.774851 -0.26451227 0.651609 -0.63571256 0.12716153 0.6866167 -0.25959858 -0.28248996 -0.31423408 -0.7318162 0.94982135 0.050178103 0.06690162 0.7420472 0.62049925 -0.49063337 0.55451876 0.074639596 0.3486778 0.90523756 -0.05074157
94 0.61280125 -0.30265963 0.18084136 0.30325112 -0.6297971 0.5001093 0.07817021 -0.47965676 -0.124360494 -0.5941853 -0.0038351254 -0.076489106 -0.2545815 -0.603831 -0.31998935 -1.2597398 0.2682501 -0.8905408 -0.13971837 -0.35622492 -0.26102796 0.21571946 -0.020581057 -0.04228411 -0.04136063 0.56017804 0.09009083 -0.05854249 -0.41372904 -0.12812287 -0.015053461 -0.5312417 0.5205059 1.2472361 0.035871204 -0.6295816 0.86408865 0.52495706 0.37686163 -0.0046436903 0.2272819 0.6287442 0.9138989 0.090899974 -0.7287919 0.3332261 -0.7010606 0.10816574 -0.5529132 0.006030279 0.1533117 -1.1035266 -0.21438332 0.047356144 -0.00022071035 -0.054783147 -0.02148148 0.9998375 0.22672299 0.24712777 0.08938877 -0.15921548 0.41880932 -0.20339201
214 0.77502185 -0.5130345 -0.18587503 0.31521377 -0.7378111 -0.4109057 0.05701929 -0.53646773 -0.19916493 -0.6549242 -0.2891761 0.05801313 -0.24907379 0.13190958 -0.014841489 -0.34276223 -0.22631608 0.8855749 -0.03179518 -0.16775046 -0.047276285 0.16319576 -0.44553348 0.3598923 0.6322235 -0.70729566 0.6038143 1.0643414 -0.650211 -0.51444143 -0.61552 -0.5320371 -0.44879243 0.29968014 0.4375476 0.04211582 0.209877 0.66436666 0.21249029 0.69684047 0.00683119 0.7851815 0.8317201 0.17793117 -0.76539254 0.1643363 -0.3056746 0.21713713 -0.27356 -0.36401188 -0.44167084 -0.50096077 -0.15618567 0.57822174 -0.0892908 -0.12389932 0.057143237 0.98539186 0.014562171 0.40883836 0.056424893 0.24485275 0.38122252 -0.024078686
126 0.20133486 0.041441556 -0.47548062 0.43078968 -0.56860775 0.2587803 -0.20783351 -0.58731556 -0.4959712 -0.30223513 -0.3865271 0.50710785 -0.12433099 0.14685899 0.20951518 0.001963869 -0.21862 -0.6518515 0.15134637 -0.22120653 -0.07761717 0.19819269 0.051754996 -0.2076879 -0.0094824815 0.44056058 -0.63685495 1.1726626 -0.32408592 0.2578557 -0.59878385 -0.6367245 0.34434494 -0.017057281 -0.104532905 -0.5096713 0.20881242 0.32390273 0.19374959 -0.02959925 0.32430276 0.47713286 0.9018653 0.78438944 -0.37502545 0.80109113 -0.61018467 0.26703557 0.8871462 -0.1122229 -0.15638617 -0.14504254 -0.63267094 0.8477636 0.073749006 0.1442095 0.51045144 0.77512145 -0.48916554 0.4609287 -0.060551148 0.36450663 1.007828 -0.119350195
103 0.60441756 0.056309976 -0.19854751 0.5608712 -0.20409328 0.31377184 -0.24084444 -0.47052255 -0.41675237 -0.8084943 -0.17939156 0.5922117 -0.24227054 -0.09442676 -0.09306817 -0.47724396 -0.15357345 -0.57576007 -0.14168271 -0.1903782 0.24169469 0.53365 0.27054414 0.35715815 0.38898045 0.36196747 0.20332815 0.9711272 0.10220466 0.65036 -0.15215093 -0.3210282 0.5729135 0.31910366 0.11177621 0.07186997 -0.19687985 0.397269 0.52756166 0.20586064 0.13354696 0.79237425 0.55971843 0.9422864 0.23181225 0.29735968 -0.7005907 0.40994617 0.9488681 -0.4109894 -0.42112762 -0.45237115 -0.59898585 1.03437 -0.32683104 0.061927896 0.70631975 0.48235872 -0.2393492 0.42657906 0.09081792 0.5015978 0.74302626 -0.29650435
115 0.74560386 -0.040289547 -0.3164632 0.2518963 -0.02822577 0.04388829 -0.23852113 -0.3428198 -0.13478662 -0.55987835 0.05194889 0.25960952 -0.5168955 -0.56311417 0.43032286 -0.5574638 -0.096680015 -0.2643499 -0.58684766 -0.26315185 0.37762317 0.45104474 0.2710831 0.69489264 0.63703275 0.5982814 0.6388409 0.6332353 0.20401457 0.6238338 -0.015506194 -0.6201248 0.6535498 0.22405818 0.037215933 -0.23084287 -0.3951386 0.113180555 0.506598 0.18165399 0.025607878 0.86288047 0.42947945 0.6599056 -0.087598525 0.052960668 -0.5450849 0.11350846 0.6869891 -0.34470624 -0.5115852 -0.8135281 -0.12442716 0.9723468 -0.3636077 0.174162 0.66468394 0.3464098 -0.40947452 0.13595122 0.2990751 0.2834713 1.0374312 0.16495025
37 0.63620514 -0.3762483 -0.04946835 0.3237045 -0.6683704 -0.4390967 -0.16947484 -0.43290594 -0.15941995 -0.5472003 -0.30231008 -0.10514845 -0.31838349 0.17856061 0.10195285 -0.44672078 -0.07420187 0.77673084 0.07296523 -0.17031105 0.09606933 0.2068891 -0.20105498 0.3033947 0.5865179 -0.6550783 0.68274283 1.0429349 -0.5578195 -0.5631056 -0.9015066 -0.4028276 -0.3574872 0.20482816 0.29441473 0.008843214 0.49841106 0.7360631 0.1436097 0.74258703 -0.0145803 0.8783811 0.7356084 0.124401346 -0.7065925 0.20380874 -0.3251241 0.24264951 -0.4363322 -0.42350084 -0.6207804 -0.48890764 -0.025766747 0.51454926 -0.02700817 -0.047331125 0.051343806 0.87835515 -0.16930091 0.54035723 0.114685945 0.27707908 0.6467016 -0.16175497
50 0.497653 -0.008855191 -0.28316778 0.5494557 -0.063411035 0.20109467 -0.23952125 -0.49663714 -0.19976045 -0.84766597 -0.03871596 0.3445854 -0.33282116 -0.35619727 -0.104957364 -0.5704135 -0.26003355 -0.603299 -0.16023839 -0.06725754 0.1427366 0.494293 0.29273406 0.43812492 0.44357836 0.42198658 0.41759473 0.947453 0.26694635 0.62630755 -0.15186748 -0.27418938 0.55235857 0.28583845 0.15068617 -0.1382876 -0.29419714 0.3457826 0.5162686 0.26984608 0.12488174 0.7962382 0.41707638 1.0006661 0.08976376 0.32678053 -0.46371314 0.3430159 0.78744924 -0.3802098 -0.3696162 -0.67089653 -0.4874942 0.98185307 -0.23551024 0.20365667 0.87205464 0.3714776 -0.27806157 0.28001776 0.11317781 0.44625118 0.97749084 -0.23607484
120 0.51696736 -0.19686916 -0.027587337 0.5688344 -0.44685754 -0.38131896 -0.019229598 -0.13783166 -0.080154285 -0.5480253 -0.18831103 -0.061981145 -0.25882706 0.05710369 0.07702201 -0.6134559 -0.05641967 0.6721968 -0.030640977 -0.23009445 0.07181396 0.3848412 -0.37037915 0.15479738 0.6052335 -0.63947743 0.56613964 1.1015071 -0.3726546 -0.32703775 -0.7028088 -0.36862418 -0.22017282 -0.04738542 0.3447534 -0.098784044 0.7362697 0.6089218 -0.04453844 0.6850262 -0.11111681 0.71798235 0.99643433 0.23393571 -0.6557998 0.098855436 -0.36367798 0.48242974 -0.66363823 -0.29680967 -0.65232307 -0.28246954 0.22026092 0.40937877 0.11109174 0.28092897 0.19643846 0.7110074 -0.042548187 0.85375136 0.41806853 0.30739397 0.92906266 -0.18462469
168 0.802119 -0.21335278 -0.36595783 0.010852624 -0.20094274 -0.07454441 0.05624408 -0.16731362 -0.16414036 -0.45350224 0.031268615 0.20962358 -0.5233325 -0.6060126 0.27299264 -0.61005545 0.08969111 -0.26823732 -0.6520753 -0.024356311 0.68755496 0.5984602 0.2624743 0.7386212 0.7111312 0.65803033 0.9899073 0.4732053 0.03500549 0.47257295 -0.027805703 -0.53532547 0.5446669 -0.018920735 0.08645774 -0.011583802 -0.1408986 0.025512235 0.32591054 0.17285398 0.110295445 0.5997732 0.47375768 0.35425887 0.1527614 -0.16803958 -0.43397197 0.030407786 0.61817175 -0.06349046 -0.51793945 -1.0258003 0.019180385 0.82026845 -0.5440425 0.11197589 0.59740883 0.32738084 -0.40176237 0.11977605 0.34335065 0.48190823 0.8986544 0.17666936
213 0.8115087 -0.3761669 -0.11918457 0.43892345 -0.6169997 -0.4739886 -0.052379232 -0.41863903 -0.14528102 -0.44027874 -0.37429443 0.001775598 -0.3348625 0.123609714 0.16476278 -0.6351914 -0.1015043 0.77816325 -0.10455811 -0.24126436 0.052225277 0.40544745 -0.33793083 0.22339194 0.47090596 -0.57812965 0.607085 1.0989186 -0.4108523 -0.32114494 -0.6214293 -0.30833256 -0.30556998 0.08299074 0.32637712 0.09877034 0.678592 0.6534055 0.00959403 0.81066716 -0.059278633 0.84571326 0.8978274 0.067491405 -0.6913168 0.17502123 -0.24649887 0.2972165 -0.48672736 -0.477188 -0.46272567 -0.26934648 0.11992522 0.3586131 0.117475964 0.09654799 0.17228934 0.79998124 -0.097469665 0.72051376 0.22914273 0.26530632 0.7137631 -0.24826883
209 -0.0006640343 -0.21626504 -0.5647464 0.31474337 -0.63946563 -0.034827504 -0.025651155 -0.67219454 -0.5360669 -0.0844029 -0.35311207 0.567651 0.036825746 0.14574268 0.09493647 -0.20121054 -0.22090413 -0.840469 0.23893552 -0.17945907 0.022250235 0.30400229 -0.015064073 -0.12450237 -0.07040223 0.403648 -0.617258 1.1226591 -0.48409674 0.31122917 -0.45705736 -0.72042745 0.0030665407 -0.312353 -0.04592711 -0.46009785 0.36768875 0.49230355 0.09208998 -0.02263144 0.22767465 0.43792555 1.1518054 0.66097546 -0.33452109 0.89692056 -0.3893083 0.2500629 0.7941654 0.20018873 -0.21964437 -0.16683109 -0.85293293 0.22908142 -0.08897666 -0.064637676 0.28447187 0.8644778 -0.5149232 0.50188065 -0.06562661 0.37457213 0.9656862 -0.22011058
42 0.3561932 0.16601333 -0.268127 0.49038386 -0.6239315 0.2767521 -0.20626195 -0.40019047 -0.5174582 -0.30609456 -0.52024466 0.7258351 -0.1842987 0.17124921 0.09470271 -0.15922248 -0.07266493 -0.6000144 -0.07825621 -0.2323039 0.15572447 0.3259065 0.21674442 -0.03133195 0.042353097 0.47298315 -0.40756047 1.1164097 -0.16477156 0.36686954 -0.50084233 -0.328249 0.44991833 0.119003706 -0.2547969 -0.3069684 -0.104777716 0.4409018 0.29006258 0.11355081 0.531281 0.47343013 0.7245165 0.9203556 -0.32736254 0.57769877 -0.77798116 0.2692303 0.6700676 -0.26936862 -0.25778684 -0.38893613 -0.7574649 1.1115869 -0.07987305 0.23873276 0.62989724 0.49942565 -0.43243778 0.58032465 0.12891981 0.48020157 0.8577624 -0.0035378395
113 0.072470896 -0.27218762 -0.10916203 0.417421 -0.35380936 -0.23851827 0.34226605 -0.78583217 -0.2648174 0.58766294 0.06765766 0.27104086 0.07343831 -0.36078337 -0.5037531 -0.38010618 -0.50515187 -0.34465158 0.21477067 -0.49089384 0.3739832 0.42672455 0.441256 0.15660803 0.40239152 -0.17445485 0.74485946 0.8489417 -0.37249652 0.7005407 0.17434248 -0.97153616 -0.23250948 -0.05857203 -0.1011951 0.06544188 0.23762088 0.43425107 -0.34324515 -0.052083023 0.36621016 0.31306913 0.29338494 -0.07800253 -0.69769317 0.5688433 -0.124664664 0.16534843 0.2061539 0.70932466 -1.339564 -0.11555169 -0.61840284 0.17632134 -0.080314554 -0.7139588 -0.277984 0.76556176 0.07499421 0.12254157 0.122898586 0.1911084 1.4869274 0.34684974
160 0.2083504 -0.04919254 0.0071778204 0.35878348 -0.29027557 -0.05202173 0.41756982 -0.74087715 0.00652402 0.64694405 0.04952168 0.16809899 -0.082142204 -0.11940331 -0.39444593 -0.6817241 -0.48612353 -0.15816225 0.17433842 -0.8065252 0.28733432 0.33017614 0.4789686 0.008251774 0.37675473 -0.021483969 0.65565526 0.69297826 -0.43754643 0.7497712 0.18001099 -0.9345051 -0.10007531 0.18146522 -0.16078578 0.1997847 0.17573723 0.258753 -0.43023524 0.21787396 0.39111355 0.5497991 0.19299641 -0.17069767 -0.76037115 0.45838496 -0.33352393 0.14123867 0.096635535 0.78663296 -1.1211951 -0.070726186 -0.5501073 0.13433856 0.1547793 -0.7499078 -0.12849876 0.7326431 0.06343589 0.16839828 0.094338834 0.12799256 1.3256787 0.3586857
97 0.3609422 -0.024540864 0.24489853 0.11137862 -0.7886363 0.4195135 -0.06385952 -0.29025206 -0.10157445 -0.5746063 0.3018515 -0.015205289 -0.22218078 -0.7492831 -0.30983528 -1.2113059 0.10961162 -0.8568087 -0.082269356 -0.43969557 -0.17596671 0.22116373 -0.02855341 0.042312294 0.0009778036 0.48843512 0.008157987 -0.052647665 -0.49532104 -0.3862024 -0.05874509 -0.6055568 0.5762658 1.0011997 0.042737916 -0.44794145 0.920169 0.5838386 0.2875912 -0.0040284777 0.15799856 0.55223465 0.75527877 0.16097206 -0.7335608 0.31477386 -0.83096164 0.14296688 -0.33842334 -0.105456114 0.12595053 -1.1156535 -0.15845679 0.047431897 -0.016146153 -0.13661535 0.0089125065 0.9221043 0.18408042 0.42206088 0.16998018 -0.13853966 0.3923725 -0.0008012505
142 -0.015094862 -0.062398415 -0.4614399 0.076993026 -0.3657146 0.63204706 0.51338726 -0.17630026 -0.65032107 -0.40474203 0.2087855 -0.17807736 -0.07617111 0.2747979 -0.79024285 -0.87809247 0.8590859 0.03498707 -0.81512535 -0.5996622 -0.20136143 0.4422387 -0.7705055 -0.048586998 0.07438308 0.3046509 0.2786484 0.577219 -0.07681994 -0.30031973 -0.5261581 -0.2532914 0.38805562 0.47033584 -0.30662748 -0.5471054 -0.12104067 1.1131883 -0.072037876 0.7418592 -0.6547216 0.29259133 0.25470382 0.30969208 -0.5693351 0.29876682 0.108131506 -0.11889738 0.9574268 -0.020034349 -0.6299698 -0.08447045 0.022474868 0.11440436 0.038083453 -0.29179958 0.41046548 0.6343851 -0.08427076 0.15539525 0.44533083 0.046977542 0.76974595 -0.31524655
146 0.014308263 0.026441311 -0.3959933 0.21408838 -0.24464883 0.656804 0.33469704 -0.34949416 -0.5007707 -0.4211009 0.14553602 -0.015848938 -0.25305045 0.2878334 -0.6516125 -0.80385137 1.0356073 0.20579155 -0.97178984 -0.3821504 -0.13556542 0.33264393 -0.70282483 -0.007677132 0.044245865 0.3327271 0.38265547 0.5856364 -0.1968716 -0.46674496 -0.39352265 -0.3256103 0.49232832 0.4826572 -0.22970754 -0.6131759 -0.07656232 1.2963865 -0.07482406 0.8144007 -0.543825 0.2828814 0.09226983 0.297304 -0.6087535 0.3479853 0.018652985 -0.21570402 0.93713063 0.20418392 -0.55654824 -0.029593522 -0.0033945392 0.22920509 0.029630933 -0.18253969 0.39697492 0.798086 0.024722893 0.061462972 0.41856 0.0958223 0.9300442 -0.017027639
78 1.2575489 0.004233777 -0.5240286 -0.46418393 -0.5144383 0.025521176 0.52264583 -0.30370647 0.19788648 -0.2781785 0.3804573 -0.27245256 -0.4486475 -0.26055646 -0.023349244 0.26874363 0.050231982 -0.80210245 -0.15805708 -0.03262118 0.724881 0.52196217 -0.28339893 0.44202036 0.2462493 -0.03317063 0.49017572 0.39902237 -0.5074129 -0.340046 -0.16845827 -0.9158454 -0.13625933 0.10267257 -0.2984716 0.3320625 0.78708994 -0.0064695072 -0.32725114 0.094702125 -0.895109 0.21079582 1.0451689 0.16988847 -0.24881555 0.031818427 -0.07621045 0.11367275 0.11858428 0.32249177 0.108009495 -0.88625073 -0.2238178 0.07316481 -0.43633556 0.3086489 0.7873565 1.0689371 -0.12785387 -0.31484568 -0.1863804 0.673183 1.2233409 -0.018092308
80 0.05944879 0.04752866 -0.57140064 0.5016825 -0.6317931 0.094725914 -0.17658506 -0.7288939 -0.6082051 -0.25195277 -0.3251598 0.5821187 0.111653894 0.21054031 0.06818788 0.0440248 -0.2631331 -0.8723276 0.16636902 -0.21888274 -0.017620565 0.27133486 -0.032830402 -0.11609057 -0.055518925 0.36650887 -0.575873 1.1515782 -0.36004594 0.35231486 -0.5953031 -0.8374021 0.32947257 -0.21264489 0.059767857 -0.53662854 0.22834925 0.44450668 0.14893053 -0.026023652 0.14266065 0.40244365 0.984436 0.7333455 -0.46539178 0.68432236 -0.40466565 0.26957357 0.73037475 0.113965064 -0.14193885 -0.19901262 -0.8176183 0.53164446 -0.13309127 0.13619778 0.4448123 0.77747947 -0.39832607 0.4872176 -0.09119414 0.33596662 0.8589069 -0.17743526
118 0.121816866 -0.08067582 0.05523702 0.38468948 -0.16229235 0.43519142 0.40238371 -0.44104272 -0.40559322 -0.21439087 0.12463677 0.09503606 -0.20421526 0.19364855 -0.31316632 -0.75953484 0.93694234 0.069789946 -0.7915821 -0.30316183 0.11467075 0.6421167 -0.64257187 -0.18639658 0.25453296 0.3656086 0.4367708 0.92156506 -0.08834245 -0.5434243 -0.39190102 -0.37203127 0.51159656 0.4069524 -0.22974356 -0.64327997 0.038156036 1.3643316 -0.026102964 1.0519167 -0.8681733 0.115592234 0.17129242 0.18193233 -0.5328532 0.26530978 -0.31580198 -0.41175523 1.0644953 0.4227053 -0.15632735 -0.27410585 -0.11955881 0.24042709 -0.16789678 -0.5163529 0.3346916 0.82401246 0.14551085 0.27985415 0.3527096 0.19180049 1.0149515 0.16497703
89 0.10233508 -0.25945875 0.037804496 0.56333613 -0.19858307 0.28855366 0.36940637 -0.4041389 -0.41402993 -0.27653477 0.17648308 0.13214338 -0.17733821 0.31490913 -0.32260174 -0.8603633 0.60594994 -0.05243228 -0.9051476 -0.39719957 0.3667676 0.77965415 -0.5198689 -0.20508768 0.54857427 0.33478492 0.5056077 1.031248 -0.08551637 -0.58908314 -0.28048348 -0.14364587 0.56448835 0.3928994 -0.33553466 -0.72456163 -0.010304137 1.4712825 0.024184693 0.729612 -0.9833558 0.17952083 0.32845768 0.106532946 -0.6703788 0.29736587 -0.24682988 -0.38531068 1.0308014 0.5580154 -0.017031088 -0.28240117 -0.17353913 0.17926891 -0.2757072 -0.49973315 0.13493209 0.65127605 0.30641517 0.39126092 0.1266482 0.30202872 1.0847555 0.23600525
29 0.12563772 0.2795909 -0.91138595 -0.09567121 -0.329916 0.45478263 -0.36395565 -0.23184967 0.08489237 -0.7681399 0.6598917 0.49189034 0.08198663 -0.6514949 -0.013234575 -0.86363536 0.3132896 -0.17260565 -0.051500775 -0.07212673 -0.046045378 0.98450136 0.20691414 0.3878055 0.47533575 0.56159574 0.025368113 -0.00022392295 -0.33428618 -0.6231819 0.2140528 -0.3801507 -0.04214533 0.22848171 -0.24811883 0.074932136 0.7823885 0.5267831 0.21446332 0.38742927 -0.1536379 0.09838457 0.91017115 -0.037095666 -1.1139549 0.48192373 -0.12143613 -0.043213744 -0.13743448 0.04270107 0.11761231 -0.26071304 -0.36089098 1.0162237 -0.24352883 -0.6508295 0.4628136 0.88521683 -0.3094204 0.94414485 0.22316328 0.4553155 0.047350336 0.13690388
198 0.2454 0.07236927 -0.23869354 0.24206842 -0.26624364 0.5580894 0.55158585 -0.42299023 -0.51556545 -0.39942253 0.1786371 0.06984555 -0.06716298 0.17734674 -0.53486437 -0.81711715 0.87832385 0.13451874 -0.89536834 -0.40270454 0.0017782664 0.6387951 -0.82429105 -0.1864458 0.16011131 0.43218985 0.3894274 0.7407582 -0.22217046 -0.5088797 -0.4231483 -0.3479108 0.5615523 0.38622105 -0.18808162 -0.61067307 -0.08093026 1.2769318 -0.012571037 0.844435 -0.7213477 0.003864759 0.018178105 0.24133089 -0.6684759 0.2083133 -0.3255938 -0.17026968 1.0444756 0.27232978 -0.36605075 -0.022099255 0.019220242 0.2384388 -0.18389879 -0.29395872 0.27280724 0.75175023 0.19865236 0.22460498 0.43364516 0.17147414 0.96258086 0.03947369
174 0.44258484 0.021925787 -0.22662099 0.5584545 -0.4789696 0.24539466 -0.21338563 -0.38280913 -0.46086407 -0.66010785 -0.2819561 0.66084975 -0.32403868 0.007075108 -0.05114819 -0.53643024 -0.20371576 -0.54227144 -0.12541021 -0.15456359 0.19817294 0.43575785 0.23903255 0.24833938 0.25822896 0.55229527 0.03217468 1.0462309 0.19434457 0.6124694 -0.29811183 -0.19872038 0.51765907 0.26964682 0.10726881 -0.15428442 -0.07292804 0.5455275 0.53314835 0.124174215 0.2744973 0.7318599 0.559996 0.9172428 0.07794843 0.46691215 -0.61756146 0.29815254 0.7638655 -0.41849065 -0.5160096 -0.48438084 -0.7683075 1.0243043 -0.19030452 0.03629956 0.8324002 0.23054539 -0.28984243 0.6066925 0.044706374 0.5924894 0.7564224 -0.08860769
2 -0.073116966 0.10135571 -0.57243043 0.044838358 -0.5154146 -0.075970106 0.38498634 -0.25195074 -0.054927424 -0.37176162 0.51801085 -0.2548648 -1.147505 -0.23525317 -0.21027723 -0.79548 0.039237875 -0.3299298 0.23161295 -0.2046743 0.06560414 0.5535754 -0.1481068 0.36834782 0.9557427 0.23852211 0.17610927 1.2791239 -0.8016881 0.22338417 -0.2973276 -0.46935147 1.1384978 -0.3593038 -0.013364404 -0.043148603 0.4793428 0.71535414 -0.020726817 0.270894 0.35817876 0.29239443 0.7880746 -0.29845697 -0.120778285 0.20936903 -0.29489583 -0.7710017 0.15250774 -0.05764212 -0.2432327 0.25942832 -0.18464528 0.16652182 -0.12808023 0.17387705 0.31105897 0.78837144 -0.07789707 -0.4807134 0.43399522 0.4414266 -0.23377025 -0.09489843
45 0.031682577 0.36886126 -0.18365179 0.36870578 -0.94480544 0.37458044 -0.23231028 -0.28877366 0.10340786 -0.3476289 0.45829192 0.3857201 -0.33420494 -0.8498276 -0.43725643 -1.0808306 -0.026723107 -0.70213056 0.30419666 0.0067953374 -0.11319491 0.7353762 -0.09976131 -0.070500076 0.55991364 -0.21380849 0.089017 0.12227846 -0.45116097 -0.16899443 0.1578122 -0.66409916 0.8611675 0.60074294 -0.21514869 0.13420139 0.8663698 0.43350884 0.006149559 0.13725415 -0.051494688 0.34155852 0.28829786 -0.20926951 -0.652258 0.5223711 -0.26820758 -0.23312098 -0.1204936 -0.2746964 0.11620094 -0.31397265 -0.26668558 0.446827 0.1865191 -0.25910485 0.30024067 1.201475 0.4350816 0.34844676 0.26491493 0.24731211 0.073290095 0.025613775
210 0.9565879 -0.0336171 -0.559591 -0.5527964 -0.5022382 -0.06484403 0.43414935 -0.27376932 0.29290554 -0.50574535 0.26154873 -0.2299467 -0.46083114 -0.29210868 0.03865387 0.25297213 0.10440937 -0.8082198 -0.34988144 -0.004596357 0.67398334 0.62933785 -0.18656172 0.2949903 0.25687125 0.0964479 0.4222618 0.29474282 -0.36353922 -0.20401406 -0.3040433 -0.94355404 -0.1842219 0.17188944 -0.18498646 0.22143988 0.54729986 -0.03250667 -0.33660814 -0.047692224 -0.6366984 0.5271385 1.0341649 -0.10124632 -0.23901623 -0.0017211221 0.052582018 0.19339986 0.11216935 0.41195422 -0.11062282 -0.9527367 0.058420695 0.12669037 -0.24741107 0.45248726 0.81750804 0.91553843 -0.30959433 -0.2801481 -0.12112627 0.66620386 1.0107116 0.27553278
196 0.073486485 -0.14557347 -0.507941 0.22379291 -0.582269 0.012694181 -0.045162488 -0.78841007 -0.49395743 -0.04826082 -0.33456537 0.58278894 0.06114414 0.22578713 -0.10392617 -0.13378417 -0.12102751 -0.85889506 0.23816414 -0.24715526 0.16551583 0.27404383 0.052627806 -0.12827165 -0.05102411 0.4936257 -0.48917633 0.9234682 -0.6932087 0.4017449 -0.6873992 -0.7854208 -0.0004140595 -0.3448304 0.035926208 -0.55810463 0.35990563 0.45911437 0.06911176 0.053354952 0.21538337 0.27942362 1.0014137 0.43829915 -0.44947582 0.97988075 -0.31435454 0.35154873 0.60281485 0.3087493 -0.55133235 -0.07741654 -0.8986838 0.10599259 -0.29296172 -0.069763094 0.22150157 0.91304094 -0.4510071 0.6079124 0.06396807 0.31549123 0.92479116 -0.10188404
90 -0.1272932 0.14245442 -0.37772316 0.0057914536 -0.65818 0.020209726 0.4464397 -0.16990177 -0.02583125 -0.38668287 0.7582986 -0.2603524 -1.0917244 -0.20390886 -0.22190504 -0.89959973 -0.03388728 -0.39038846 0.23452409 -0.40052313 0.14454277 0.48879725 -0.07115963 0.046441216 1.0874139 -0.08597074 0.043158397 1.1837158 -0.84810746 0.29415753 -0.2432583 -0.70095724 1.0466182 -0.2516205 -0.23665857 -0.10227853 0.4297563 0.68733543 0.08783384 0.21441858 0.30483678 0.36317864 0.6039257 -0.12828575 -0.25763357 0.22765811 -0.4185062 -0.66661054 0.12180656 -0.30295655 -0.09083206 0.315705 -0.053988796 0.17555855 -0.10286421 0.16594468 0.22099169 0.9379145 -0.15231527 -0.41748667 0.39264166 0.43983024 -0.20058973 -0.12892699
54 0.107280895 -0.0045634666 -0.28876266 -0.08930371 -0.14136416 -0.0058412226 0.5872532 -0.52888376 0.23836577 -0.4370036 0.92563343 -0.44155848 -0.5265273 -0.13777778 -0.19756979 -0.5425708 0.14598162 -0.028944774 0.07715509 -0.3511719 -0.20602944 0.28053248 -0.0008087256 0.36613306 0.722331 0.31924814 0.34498015 1.5952842 -0.9844116 0.33709306 -0.665254 -0.26535466 0.9039957 -0.19322899 0.319398 -0.325347 0.8084499 0.8730521 -0.1836312 -0.07480568 0.5472444 0.66213095 0.95354414 -0.28303507 -0.32124275 -0.06271553 -0.25053138 -0.973063 0.5268969 0.3546887 -0.36345327 0.32731885 -0.2469777 0.36005735 -0.26071027 0.17598303 0.40628874 0.57013834 -0.29346496 0.08152861 0.17194569 -0.09178731 -0.1273333 0.11470745
101 0.8636804 -0.17352656 -0.26651248 -0.19607836 -0.23770498 -0.23104315 0.12459772 -0.13013649 -0.10722412 -0.51110864 0.045389142 0.26273876 -0.6430331 -0.71865815 0.26698416 -0.59585047 0.057384834 -0.35851216 -0.49661952 0.07040612 0.5468047 0.53764695 0.24498515 0.75259686 0.64455205 0.5171868 0.90398633 0.44793552 -0.14431044 0.2528989 0.022991968 -0.45057273 0.56128263 0.1674783 0.15320076 -0.10759623 -0.046223186 0.007025441 0.21422596 0.15585814 0.142382 0.7297735 0.6217639 0.19995557 0.2831601 -0.253722 -0.21473145 -0.07947121 0.6869935 0.08775472 -0.5315691 -0.78504926 0.043827128 0.7227209 -0.7453985 0.047638092 0.6459034 0.33378202 -0.11326337 0.04564692 0.10030274 0.6430379 1.024917 0.10789767
204 0.095471315 0.034098044 0.015504706 0.28196803 -0.83340746 0.44812483 -0.35049668 -0.25110394 -0.18050607 -0.4452275 0.60638535 0.24210213 -0.102218024 -0.88182205 -0.2539978 -1.0286556 0.057785977 -0.7773435 0.112238 -0.32967278 -0.045211196 0.70494 -0.09891287 0.091812 0.29485166 0.28394324 0.10649582 -0.13213705 -0.48010167 -0.37202054 0.013190117 -0.6059784 0.679674 0.59216267 -0.2595409 -0.14445013 0.8776374 0.49693176 0.2680683 0.1198721 -0.01779377 0.35655406 0.5787767 -0.020764805 -0.74448496 0.5171884 -0.59661174 0.021057189 -0.2592188 -0.4866428 0.23153836 -0.8462301 -0.19653985 0.1127787 0.03811064 -0.25696194 0.07828815 1.1558021 0.17832468 0.4023578 0.33534846 0.21670677 0.104899734 0.00970378
28 0.22723778 -0.15807332 -0.11238393 0.3949298 -0.25278962 0.11576279 0.45252275 -0.60203224 0.11047802 0.5170405 0.26325375 0.0275042 -0.21675718 -0.15761907 -0.3757385 -0.65156186 -0.5140319 -0.021228593 0.1789272 -0.8373416 0.12671995 0.24799652 0.2621993 0.034037933 0.35797653 -0.012468786 0.49340612 0.596373 -0.29674527 0.6205285 0.24512926 -1.0596051 -0.020601772 0.31005734 -0.0921456 0.19669074 0.09321896 0.43323606 -0.44968322 0.21526937 0.67582184 0.37625688 0.008915415 -0.13951659 -0.9111135 0.48898393 -0.13616055 0.15691371 -0.07168729 0.6899919 -1.0645584 0.095818624 -0.5722173 0.24832329 0.46137285 -0.70637566 0.26764777 0.61853904 0.1887136 0.053201895 0.06718109 0.37476656 1.145343 0.4298854
122 0.17698541 -0.025427055 -0.8840717 -0.07831028 0.04459471 0.61357754 -0.40534896 -0.26023987 0.20373258 -0.4340155 0.6364064 0.37696776 0.025525227 -0.7047735 -0.075822935 -0.891129 0.4506284 0.022632 0.100647636 -0.15393911 0.113756664 0.7139931 0.57498336 -0.06320219 0.15016925 0.5312565 0.3008138 0.1789737 -0.4254126 -0.24554367 0.08251877 -0.63952523 -0.20266433 -0.0010701419 -0.031544205 -0.25656778 1.0042918 0.61760503 -0.00582775 0.25852177 -0.18800914 0.6000542 0.7632505 0.09198299 -0.8463589 0.030791702 -0.23756608 -0.20435877 -0.14821708 0.0030835085 0.40781564 -0.48938414 -0.69635123 1.1071471 -0.19569555 -0.7206944 0.31662694 0.8343173 -0.030745476 0.9466103 0.07410695 0.51054454 -0.0037904386 0.11716722
88 0.09363108 0.43634573 -0.46648043 -0.101802506 -0.46290827 -0.16389346 0.699118 -0.02819535 -0.9642124 -0.65336454 0.250979 -0.24613361 -0.5526677 0.04235324 -0.6254884 -0.4456583 0.8716411 0.26199007 -0.13541305 -0.34729034 -0.81991917 0.38739264 -0.058501866 1.078229 -0.36590165 0.28260538 0.41443655 0.98965704 0.22864473 0.45487183 -0.26989287 -0.8633549 0.13752387 0.034603205 -0.6893766 0.083910234 0.65885675 0.17326857 0.18591443 -0.32950115 0.114142045 0.6247663 0.27432004 0.42275977 -0.41099676 0.3767122 0.084265284 0.33990866 -0.12113049 -0.2730238 -0.32476935 -0.3507916 -0.35273105 0.29294345 -0.6867368 -0.16383976 -0.00038316642 1.2377056 -0.22941831 0.45141557 0.104882665 -0.112582445 0.6038606 0.23347607
8 0.24535677 -0.39580518 -0.30007094 0.29140818 -0.5552114 -0.25690055 0.14535904 -0.8128728 -0.2225563 0.4853144 -0.22645868 0.13492143 0.024310948 -0.27151543 -0.13637711 -0.23290284 -0.4766943 -0.61065495 0.22630946 -0.33669817 0.05993203 0.4520762 -0.013832322 0.04486172 0.050203875 0.0262253 0.31126362 0.80618775 -0.5532896 0.52702326 -0.17285416 -1.2711146 0.14388497 -0.1616459 0.27676934 -0.37073538 0.2646698 0.16487946 -0.29196864 0.29649377 0.18260108 0.23528464 0.6032352 0.11865895 -0.7352746 0.8414911 -0.045208782 -0.013422966 0.58855635 0.78848743 -0.7499089 0.17683248 -0.5570908 0.049308706 -0.12098606 -0.39071324 -0.33497745 1.05866 0.018602714 0.34735268 0.04934953 -0.13129124 1.7078174 0.31781715
21 -0.03546313 -0.28745338 -0.60764796 0.054873385 -0.31597573 0.6236965 0.511491 -0.16820194 -0.53763616 -0.45747936 0.28330275 -0.17710157 -0.11751866 0.17752726 -0.8663364 -0.7731953 0.9496828 0.07368706 -0.70129204 -0.4901822 -0.15019038 0.31696132 -0.6316488 0.14032502 -0.07059864 0.082698 0.27718762 0.7203532 0.016492149 -0.17322674 -0.46594864 -0.26956218 0.5163642 0.5230354 -0.43901563 -0.602765 -0.08694095 1.0000501 -0.24117662 0.7650617 -0.4752234 0.3686415 0.2778536 0.42769226 -0.47731948 0.46807534 0.29612353 0.16416802 0.9910635 0.06351433 -0.4533107 -0.2460881 0.16148746 0.019180926 0.1645675 -0.14363335 0.20049489 0.61970085 -0.112441465 0.1579883 0.3536577 0.11903904 0.5429339 -0.3345521
74 0.22649044 0.4071746 -0.6598466 -0.103802346 -0.41523087 0.563536 -0.42233056 -0.36502448 0.26577076 -0.47613743 0.7336601 0.5175584 -0.20365301 -0.6672336 -0.27966577 -1.0032717 0.47790504 -0.30386597 0.17746566 -0.2216024 0.015792103 0.60275984 0.20874937 0.1003194 0.47541144 0.36584836 0.035995018 -0.21278104 -0.3980526 -0.2894413 0.059049446 -0.47152984 0.35321268 0.26068863 -0.29640606 -0.02478371 0.7497523 0.49268943 0.15996289 0.5399829 -0.117179446 0.22002423 0.8552815 0.13584323 -1.0697701 0.45498434 -0.39182943 -0.07582459 -0.3238539 -0.3524033 0.4394003 -0.49674895 -0.22867648 0.7581161 -0.0857003 -0.43821397 0.32793415 1.0107175 0.13473973 0.6200489 0.16241479 0.4259131 0.07376839 0.14007758
106 0.22773467 -0.024326928 -0.9416405 0.12258743 0.20619972 0.46491522 -0.28248015 -0.35188589 0.17150612 -0.3626062 0.6776559 0.29771554 0.03561921 -0.8395981 -0.17178462 -0.7188493 0.37008774 0.19260018 0.033199456 -0.26131478 -0.11408925 0.8198602 0.6826321 -0.4059092 0.2663502 0.30998084 0.25664243 0.4016476 -0.4063622 -0.007382253 0.12892303 -0.79531395 -0.35394964 -0.022070678 -0.08672776 -0.4811271 1.0378449 0.312293 0.09875703 0.074362226 -0.30558178 0.7515794 0.79432595 0.013786257 -0.91409254 -0.21324994 -0.2189273 -0.046197813 0.09172268 0.042725585 0.44578856 -0.5931908 -0.64478445 1.1172104 -0.15090081 -0.87312835 0.33086476 0.5770486 -0.0599526 0.9935448 0.091901 0.39963686 -0.023583958 0.13387208
60 0.14470825 0.26435363 -0.63273627 0.123022705 -0.5985573 0.50306034 -0.4461497 -0.35467333 0.16346373 -0.3497416 0.6799566 0.3855535 -0.26347917 -0.65172625 -0.24814641 -1.1218517 0.19817469 -0.44702137 0.1313912 -0.26749605 -0.04877722 0.6118063 -0.040201526 -0.06199428 0.47253358 0.33703405 0.08016151 -0.2902776 -0.43404454 -0.2778665 0.0843269 -0.48851967 0.49133292 0.5190429 -0.2899612 -0.0065670596 0.83378917 0.45783553 -0.024930524 0.2853483 -0.15046038 0.32076022 0.739597 0.029595843 -1.0649846 0.526398 -0.46614003 -0.10071851 -0.192122 -0.55427325 0.3346869 -0.47624037 -0.24238092 0.640294 -0.10732587 -0.2476684 0.31210175 1.103917 0.21663474 0.41279465 0.1872934 0.39161447 0.048259977 0.32934508
170 0.9492354 -0.40384594 -0.5513596 0.40540448 -1.393488 0.22478504 0.38262585 0.23808135 -0.13011503 -0.28650454 0.47600323 -0.55189615 -0.15267764 0.10297615 -0.33613557 -0.39059186 0.35804373 -0.059702512 0.093140505 -0.7105352 -0.58880025 -0.056416303 0.46531403 1.2369654 -0.048645124 -0.21318875 0.15118815 0.74120605 0.21126087 0.39904845 -0.17719181 -0.21230546 0.6035275 -0.10238505 -0.17679262 -0.52291375 0.6632013 0.19935493 -0.026920805 0.31855583 -0.36885074 0.2009098 0.4431867 -0.1867765 -0.14424248 0.71141857 0.034517806 0.42326972 0.044435028 0.09705496 0.1138126 -0.36878556 -0.7126657 0.85067505 -0.8017977 -0.39097634 0.08994436 0.91006345 -0.33987796 0.32067743 0.8944405 0.13105106 0.8112096 -0.023227006
211 0.07262942 0.019929105 -0.047487456 0.2717277 -0.32777864 0.44264278 0.30725896 -0.4965737 0.12518717 0.510818 0.38381654 0.043609325 -0.13935643 -0.25520676 -0.28433707 -0.63655925 -0.4943937 0.15207733 0.266317 -0.83890235 -0.0041398006 0.4097256 0.18444535 -0.09454711 0.4006934 0.021589192 0.4751215 0.60119474 -0.30849504 0.5159093 0.06671049 -1.1349365 0.18852468 0.32194048 -0.19715331 0.15278916 -0.02179195 0.24320291 -0.36303467 0.5436613 0.5768757 0.5250052 -0.21544038 -0.0628421 -0.8194107 0.2987505 -0.07784355 0.19780633 -0.20017944 0.6982786 -0.7523344 0.056135606 -0.5184661 0.19196628 0.600428 -0.63085324 0.27109727 0.6983985 0.28823796 -0.10574189 0.079918034 0.50196683 1.0494137 0.14667048
91 0.01616005 0.2808255 -0.408502 -0.13127558 -0.51458704 0.07300134 0.6742204 0.05841754 -0.7230851 -0.5294148 0.23848759 -0.2682524 -0.59671605 0.26935562 -0.53731704 -0.38908783 0.92615116 0.3031735 -0.18848217 -0.4114839 -0.9542197 0.3257446 0.07314464 0.9104576 -0.39277458 0.3441686 0.5147463 0.9008691 0.22946016 0.4280896 -0.3584586 -0.7280273 0.40198737 -0.0026358287 -0.7576806 -0.03674635 0.4587104 0.19710664 -0.0763123 -0.16227841 0.068653256 0.5891333 0.28325152 0.2326138 -0.49240217 0.4779944 0.29800177 0.4340975 -0.09007705 -0.3302206 -0.37821883 -0.550224 -0.45173854 0.36726573 -0.56381375 -0.19400798 0.0025841636 1.1800835 -0.19095834 0.3967425 0.2659226 -0.08464193 0.6013315 0.013748797
85 -0.046410482 -0.17027579 -0.9275543 0.06109035 0.26849064 0.45471534 -0.27523115 -0.5371991 0.39714736 -0.30394354 0.6499844 0.38582343 -0.0433835 -0.7814774 0.051909566 -0.64458734 0.45615643 0.33480304 0.08794328 -0.30773142 -0.11330889 0.7494271 0.8332937 -0.334764 0.12783971 0.14328887 0.4265711 0.41145012 -0.34792754 0.002009156 0.031269517 -0.77243114 -0.41565725 -0.047403555 -0.31692207 -0.4647137 0.9196161 0.42938724 0.03570645 -0.05193928 -0.15750341 0.86783814 0.6977865 -0.14464359 -1.0361154 -0.14113487 -0.14622955 0.07077789 0.257717 -0.106347874 0.2972915 -0.66269076 -0.7832631 1.1634188 0.03724483 -0.75541663 0.3130211 0.462256 0.0360763 0.8523652 0.05289028 0.47632125 0.13511431 0.07924191
70 0.6368945 -0.13893484 -0.29318428 -0.108946845 -0.28877917 -0.2619035 0.20549805 -0.098946035 -0.30119106 -0.6735291 0.24669726 -0.13061006 -0.43206877 -0.5460343 0.15611085 -0.43514264 0.026811002 -0.52161705 -0.3309434 0.25449955 0.6531963 0.5361896 0.13945602 0.6730526 0.59719247 0.4801988 1.120076 0.4162964 -0.3154048 0.12541255 0.09845067 -0.48289123 0.48330957 0.10327121 0.24008815 0.04184919 0.10180079 -0.09182323 0.31031522 0.09836607 0.0058657136 0.6908381 0.72167975 0.084800795 0.21169873 -0.29358515 -0.18692566 -0.20768842 0.7107031 0.27229944 -0.3743278 -0.6938787 0.10234535 0.63515866 -0.5349589 0.19264327 0.5574142 0.28081372 -0.23651838 -0.03943059 0.16640486 0.5347949 0.9816532 -0.017549705
208 -0.010963165 0.07132857 -0.30004907 0.44469404 -0.44026506 0.34544653 0.27054515 -0.38137066 0.03354659 0.14085959 0.4892614 0.046547785 -0.4952801 -0.3468953 -0.41633373 -0.8037608 -0.45740286 -0.1800935 0.3684529 -0.9384637 0.25017715 0.61378556 0.1504496 -0.10125894 0.6682445 -0.30381352 0.28992158 0.5423887 -0.13779901 0.44975355 0.17243488 -1.1551663 0.26028815 0.24168888 -0.51899534 0.08739122 -0.0073846863 0.38454524 -0.39307123 0.39652073 0.33265087 0.5296878 -0.21225749 0.15803741 -0.61822575 0.08909875 -0.24935602 0.14322558 -0.39975926 0.13430901 -0.46335068 -0.0064652534 -0.4379836 0.0030659242 0.770711 -0.54841334 0.20798083 0.7280393 0.37917703 -0.37153724 -0.029740464 0.79098123 0.51673174 0.33291447
108 0.1551257 -0.38051054 -0.21531689 0.49192643 -0.43143845 -0.34264362 0.2889183 -0.7196742 -0.3044461 0.60831404 -0.04668251 0.1443565 0.003024057 -0.12246205 -0.43885964 -0.4688552 -0.5933718 -0.5013618 0.17123845 -0.3834218 0.30050105 0.4758748 0.29391837 0.010212963 0.23294042 -0.13066186 0.73327655 0.89249945 -0.46482483 0.83228666 0.024764156 -1.112327 -0.03834355 -0.08010882 0.13265367 -0.06992431 0.28249624 0.3315591 -0.4540057 0.05596145 0.1334192 0.37175453 0.4077904 -0.03811955 -0.59510124 0.5675476 -0.041057855 0.11407078 0.33539903 0.7701439 -1.0514486 -0.12762739 -0.69666016 0.15068139 -0.19294363 -0.58778626 -0.46718183 0.83428323 0.16281667 0.17961402 -0.08360513 0.07559047 1.5352846 0.4001144
167 -0.1029116 -0.05236143 -0.27209312 0.032612402 -0.774513 0.09002921 0.3466531 -0.13601327 -0.010751997 -0.24277787 0.7486108 -0.13462947 -1.0258735 -0.40022358 -0.41434506 -0.7426017 -0.19403227 -0.4870529 0.3869831 -0.39966723 0.08023298 0.41669762 -0.018258635 0.016332837 0.8922135 0.015753102 0.20733897 1.1991955 -0.66670513 -0.096985064 -0.17050728 -0.7607863 1.1062282 -0.14021814 -0.4074341 -0.08126609 0.48809648 0.80531764 -0.07641743 0.17038356 0.30527878 0.33087596 0.4797415 -0.084610894 -0.29292572 0.3276518 -0.39455587 -0.83198947 -0.07578928 -0.5015935 -0.10346602 0.26344347 -0.16140075 0.366636 0.18079679 0.0748729 0.28501105 0.85359013 -0.04434764 -0.38694027 0.31212425 0.31389132 -0.071855694 0.07353002
12 0.11816585 -0.23535879 -0.3682269 0.27416223 -0.6514013 -0.33329484 0.17484863 -0.8282726 -0.12465919 0.37860242 -0.19012648 0.29682326 0.2108973 -0.06639309 0.024670107 -0.32300547 -0.35730267 -0.60205114 0.15967487 -0.36883643 -0.063004926 0.34447372 -0.11077906 -0.04802015 0.031231761 0.23440611 0.1026396 0.664062 -0.57395536 0.49099967 -0.2552952 -1.1172417 0.108989246 -0.17149946 0.2551273 -0.51817834 0.348754 0.30249342 -0.28595442 0.13072677 0.3549782 0.2970619 0.56497 0.083894715 -0.92056936 0.8533999 -0.01667656 0.091067456 0.5825248 0.8110851 -0.77688026 0.0009850058 -0.51124877 0.14653124 -0.14209001 -0.13085483 -0.23535891 1.1942904 -0.407393 0.28799582 0.020513065 -0.06988284 1.6485994 0.3187702
176 0.085034184 0.19626589 -0.13159311 0.3832252 -0.8365041 0.39035594 -0.23251422 -0.2532428 0.1020596 -0.21325938 0.46072546 0.061796717 -0.47302994 -0.81576854 -0.5724686 -1.024561 -0.09466467 -0.7319568 0.31574446 0.039961953 -0.16803753 0.7130908 0.14238189 -0.12825935 0.71967095 -0.26894274 0.16707167 0.42501235 -0.7315959 -0.11732321 0.09860085 -0.59451234 0.8493044 0.58771306 -0.512658 0.21328151 0.6357324 0.66580397 -0.13731134 0.043625236 0.1764363 0.17859706 0.16174397 -0.24477844 -0.54615635 0.37828267 -0.32839137 -0.26915148 -0.22040652 -0.115890965 -0.09473265 -0.21960197 -0.2911132 0.54122317 0.048929293 -0.39294443 0.40115973 1.1536218 0.45569757 0.31374565 0.19391733 0.21141689 0.024750741 -0.016707748
44 0.12722054 0.25830463 -0.08200186 0.42313614 -0.490348 0.35684234 0.26126337 -0.23514192 -0.173935 0.012886852 0.41777766 0.33591297 -0.62942624 -0.36283824 -0.8180034 -0.9531803 -0.44621846 -0.41253343 0.48538882 -0.78910697 0.44658363 0.42440477 0.39367142 -0.10342932 0.90991354 -0.22444426 0.35931864 0.729069 -0.39860547 0.32323572 0.5332812 -0.57042843 0.42147195 0.38207126 -0.66931236 0.36521697 0.37031838 0.74016774 -0.30942103 0.02899191 0.27958605 0.3937755 0.13166581 -0.04218133 -0.49255118 0.1805964 -0.3923101 0.035533685 -0.5148857 -0.15585776 -0.6234677 -0.07717546 -0.35761115 0.3351184 0.38339755 -0.67918205 0.105443634 0.8607991 0.40762225 -0.27614048 0.055767156 0.5904681 0.20293559 0.1142465
77 0.104632184 0.023345798 -0.31081733 -0.18476291 -0.7292398 -0.11508507 0.6726952 -0.1661597 -0.26684442 -0.23328741 0.31975365 -0.18493578 -0.77800465 -0.5329447 -0.029030336 -0.6706773 0.15380122 -0.25227126 -0.09673492 0.08971125 0.28696898 0.19623142 -0.09925513 0.5273677 0.6529284 0.34365353 0.542732 1.2377262 -0.93595695 0.3831961 -0.35225788 -0.4769611 0.93821186 -0.4796186 0.0919038 -0.26473507 0.4548298 0.54469603 0.15455844 0.16297644 0.42033094 0.2415124 0.84774274 -0.5992258 -0.036524206 -0.16992447 -0.21418025 -0.942723 0.15770362 0.23474275 -0.43246675 0.13046576 -0.017629541 0.37964422 -0.53257394 0.20279059 0.64385265 0.5594335 0.087905265 -0.019714382 0.45671257 0.29441515 0.022545246 -0.008357049
123 0.176077 -0.1257456 -0.5036652 0.1244262 -0.658096 -0.13645977 0.077856414 -0.76225555 -0.24962865 0.37078324 -0.26578686 0.5138374 0.06655589 0.21560888 -0.063838206 -0.20056605 -0.19831412 -0.585624 0.079482496 -0.2997962 -0.068626784 0.43338418 -0.12196063 -0.060202558 -0.054953255 0.6078892 -0.2555164 0.7058851 -0.80875266 0.3288588 -0.34564534 -0.96148616 0.022763522 -0.13167045 0.24661456 -0.40186363 0.35453257 0.36453414 -0.0050801546 0.0146577675 0.30469823 0.22584799 0.89613026 0.17612621 -0.72688824 1.1198639 -0.22681311 0.31185433 0.5864441 0.6845548 -0.8141805 0.07809957 -0.76154095 0.15080371 -0.34218502 -0.08321318 -0.007811279 1.0109578 -0.44882527 0.5645839 0.06197376 0.18571492 1.1910968 0.16169374
173 0.0641206 -0.32185158 -0.29194137 0.30814794 -0.55942905 -0.32255015 0.12170571 -0.6497055 -0.13717102 0.51297694 -0.060228005 0.092090406 0.13538405 -0.27038684 -0.23602998 -0.31051302 -0.47736377 -0.56655616 0.33239976 -0.38617566 0.30117187 0.39019567 0.0054161833 0.03732722 0.2452414 -0.14705253 0.5335654 0.84858966 -0.48561913 0.64998686 -0.10946178 -1.1657934 -0.03249796 -0.23187254 0.22032444 -0.19050106 0.4289616 0.3246338 -0.23526633 0.2210567 0.11440526 0.3055109 0.2925075 -0.010394509 -0.6478543 0.6922693 -0.039843455 0.03183347 0.6420834 0.803235 -0.95977527 0.08163716 -0.5824043 0.16364026 -0.21616082 -0.55016947 -0.40062404 1.0525211 -0.05698708 0.26430607 0.056919318 0.078600585 1.7382412 0.37424546
95 0.8004637 -0.23125286 -0.48943573 0.2209034 -1.2692374 0.09045979 0.4931678 0.008702303 -0.11971289 -0.3522374 0.5647151 -0.4094738 -0.24876103 -0.018562242 -0.5781562 -0.36032566 0.51879466 0.11285072 -0.12667032 -0.93095964 -0.7612369 0.03864208 0.3495291 1.2212117 -0.05355502 -0.17402968 -0.038777538 0.67155176 0.3423276 0.25889975 -0.35053313 -0.3444874 0.64592326 -0.14070672 -0.17831884 -0.62474054 0.56802356 0.08603255 -0.066979095 0.2262872 -0.2922493 0.31354555 0.47455582 -0.10974863 -0.11545808 0.5700244 -0.08921726 0.5491681 0.10400481 0.035168145 -0.07483935 -0.25107095 -0.57253283 0.69047755 -0.6639824 -0.47602046 0.08760937 0.85588276 -0.40944213 0.31346476 0.8465585 0.16637231 0.6973261 -0.114814684
66 0.4592327 0.17457446 0.11532787 -0.05991597 0.14574404 0.6857094 0.3189158 0.1329098 -0.339553 -0.70343935 -0.4135109 0.15104957 -0.43914002 -0.6665704 -0.72603315 -0.21620503 -0.85635406 0.09314585 -0.37860152 -0.5265153 -0.4845416 0.3772671 -0.021403495 0.22325265 0.24395218 -0.28086826 0.3851859 0.035921272 0.2747729 0.80892146 -0.5372338 -0.6221451 0.031940322 -0.24881747 -0.29459375 -0.16575667 0.6124844 1.2944565 0.19062617 0.6782603 -0.110431395 0.43168747 0.9533662 -0.2840273 -0.68744206 0.76527715 -0.5977716 -0.25426993 0.30620322 0.38060653 -0.048061993 -0.1557767 -0.3343539 0.4843356 -0.2362266 0.16495761 -0.17915612 0.29556507 -0.4431064 0.12504171 -0.03355664 0.14274216 0.43806058 0.119005606
49 0.1544565 -0.09278477 -0.28838822 -0.18406206 -0.81854206 -0.26173 0.67062885 -0.05405385 -0.35023797 -0.14259878 0.30555665 -0.099487334 -0.79436487 -0.48354414 -0.0034558286 -0.24952847 0.15094742 -0.2884455 -0.1694756 0.031428758 0.4409085 0.36516717 0.07644202 0.47788683 0.6774134 0.44657302 0.655657 1.121415 -0.8409044 0.2960932 -0.30225474 -0.4500565 0.7208067 -0.3730867 -0.07415341 -0.37518293 0.42242154 0.39810398 0.20609534 0.0994868 0.25148067 0.43883866 0.8248183 -0.7317395 -0.070653476 -0.030930236 -0.081164114 -1.0073663 0.27208382 0.122326106 -0.3574843 0.12075256 0.27427667 0.4211006 -0.45592713 0.218552 0.68328184 0.46157464 -0.0688132 0.1177905 0.4043438 0.3382655 0.16471979 0.19984746
31 0.91997874 -0.050284125 -0.4079738 -0.65867734 -0.39901844 0.10039712 0.44527116 -0.22677526 0.19587973 -0.3800298 0.16639626 -0.0695612 -0.41183487 -0.36834207 0.07414792 0.27296418 0.20510891 -0.6868732 -0.20766623 0.13186042 0.49577624 0.5576184 0.12270863 0.29610226 0.073074095 0.17024484 0.67302287 0.38788888 -0.5300448 -0.13960356 -0.2268807 -0.8495215 -0.089189 0.18836613 -0.16813909 0.18229978 0.16199325 -0.159049 -0.1584182 -0.15530257 -0.49143326 0.4834295 1.1067489 -0.2425241 -0.21019241 0.04987214 0.06154755 0.27110282 0.124348916 0.28616863 -0.18238552 -0.9317797 0.09187271 0.23358054 -0.09570085 0.49197838 0.76871186 0.66132385 -0.29533798 -0.36079076 0.19225504 0.67775804 0.90450394 0.085831545
195 0.04977925 -0.08736354 -0.3278725 0.1761215 -0.51960015 -0.17557904 0.086431436 -0.75098157 -0.30724016 0.33302394 -0.26157287 0.38343513 0.11577547 0.023077743 0.05108081 -0.14994821 -0.31415275 -0.5945412 0.08835812 -0.2725472 -0.0070525636 0.3099247 -0.102527365 0.094280384 0.051946327 0.47302103 -0.21122165 0.6682466 -0.6267655 0.32085854 -0.28424698 -1.0797682 0.15286498 -0.104037054 0.2745703 -0.4942446 0.43861905 0.23815794 -0.26490718 0.25714627 0.35278493 0.21163845 0.9314106 0.22439161 -0.80626005 0.9737288 -0.06724517 0.09111484 0.4456586 0.81895673 -0.9388448 -0.017579598 -0.66080844 0.13711472 -0.2215827 -0.26213464 -0.11583672 1.1536736 -0.41352493 0.44017836 0.08755332 -0.02257514 1.4567425 0.17890368
163 0.20632271 0.08243471 -0.38512132 0.026804116 -0.61688197 0.13904059 0.77563554 0.16233373 -0.8032118 -0.49503762 0.34932002 -0.34261683 -0.5510675 0.40994403 -0.72488713 -0.36853963 1.0253978 0.39335695 -0.003460862 -0.36711302 -0.8278457 0.32964423 0.17597471 0.8534905 -0.30523798 0.22225565 0.400915 0.6387347 0.21539661 0.2998582 -0.25930563 -0.6830435 0.32802108 0.17223382 -0.6073305 -0.044749472 0.40725338 0.21551533 -0.058085807 -0.18800429 -0.016715225 0.7295005 0.28249544 0.26658136 -0.53403795 0.43486938 0.25864512 0.4634975 0.22584721 -0.1388554 -0.3201808 -0.32434216 -0.5910749 0.44344574 -0.3327292 -0.2174737 0.00044225447 0.8301669 -0.20977809 0.35020995 0.44536942 -0.0768827 0.52642477 -0.04384645
79 0.100436985 -0.20418839 -0.56253046 0.08576712 -0.58494085 0.068346694 0.12463209 -0.7274744 -0.33066708 0.18200308 -0.34325275 0.7130898 0.07903595 0.27492502 -0.054719504 -0.25510904 -0.28710824 -0.789833 0.058868844 -0.21073836 0.052116796 0.22606216 -0.22051263 -0.08172236 -0.056551103 0.5464075 -0.4158882 0.88262665 -0.59752816 0.3374294 -0.38597733 -0.76830953 -0.07419094 -0.2751356 0.19841588 -0.5362529 0.42067528 0.3566125 -0.060521577 0.03490448 0.24830839 0.33567017 1.0565726 0.41832846 -0.5505113 1.0231308 -0.20590587 0.13190173 0.46775165 0.5115198 -0.78431296 -0.08842508 -0.9121495 0.17471941 -0.28813934 -0.12712991 0.08654665 1.0157022 -0.4981165 0.51747113 0.20185235 0.31529287 1.0413889 -0.03305295
27 0.13948806 0.112609744 -0.37694505 -0.1339868 -0.34683785 0.10419123 0.57533854 -0.43122327 0.054017387 -0.33827084 0.7570692 -0.40281716 -0.622105 -0.24156666 -0.22049221 -0.5887033 0.12665136 -0.06966043 0.10141081 -0.056243517 -0.041609414 0.38504037 -0.055559475 0.5613921 0.8902428 0.36290622 0.38330397 1.5701622 -0.90543765 0.329613 -0.4835449 -0.12914175 0.8535367 -0.3697348 0.16833222 -0.13330671 0.67212564 0.709532 -0.020225594 0.083570875 0.59242475 0.3789786 1.018506 -0.25996912 -0.2598368 0.017000526 -0.3243669 -1.0117041 0.4765504 0.30215767 -0.36559674 0.3568692 -0.14458077 0.242034 -0.16885023 0.17560129 0.39609298 0.6776314 -0.23946452 -0.060914855 0.3340073 0.10903903 -0.04119907 -0.10269634
147 0.2228525 0.0803318 0.021246837 0.1726609 0.086226396 0.849171 0.2936669 0.10659002 -0.2057406 -0.6683819 -0.36659312 0.08607311 -0.42519587 -0.65811515 -0.5841971 -0.3207468 -0.8299678 0.30528572 -0.4697469 -0.53091836 -0.40927488 0.47682694 0.035251122 0.22294746 0.2808736 -0.27589804 0.43502373 0.051261872 0.32902253 0.51440215 -0.7765979 -0.71267384 0.053984296 -0.10520814 -0.30716512 -0.058956273 0.5691643 1.0763274 0.12680507 0.46603435 -0.02702126 0.20526822 0.8702084 -0.35236523 -0.6026821 0.7238441 -0.642849 -0.12949009 0.34609708 0.46323958 0.050333865 -0.18785928 -0.4401454 0.4781413 -0.27069706 0.40759426 -0.25778666 0.41658935 -0.6822069 -0.018621335 -0.12371843 0.17885919 0.47256228 0.1376756
43 0.10238727 -0.3254076 -0.60185134 -0.04723289 -0.49344724 0.5232938 0.41780668 0.12978303 -0.5785339 -0.252524 0.24555305 -0.40220466 -0.1753965 0.14183904 -0.8243322 -0.7784894 0.80129176 0.023934307 -0.5311732 -0.4792494 -0.18039194 0.33944035 -0.43520144 0.24644877 -0.20117314 0.25596532 0.105610035 0.7841536 0.14119416 -0.17191899 -0.5682011 -0.446371 0.24892768 0.42763925 -0.48154005 -0.50204545 -0.04153862 0.85349643 -0.2119336 0.669668 -0.59167 0.45980775 0.19102673 0.34800726 -0.31429017 0.3170207 0.41684186 0.08674108 0.86069053 0.08869366 -0.5334299 -0.27443686 0.10250233 0.120102786 0.21027207 -0.3650539 0.06401746 0.5043892 -0.15319662 0.21717766 0.22567615 0.16345243 0.3728312 -0.30575266
83 0.15649351 -0.046941914 -0.23518232 -0.38878283 -0.77442646 -0.30330262 0.73024404 -0.19654267 -0.35682952 -0.26513848 0.30937853 -0.04315192 -0.6144088 -0.24749473 0.13543141 -0.31119016 0.17175274 -0.44550708 -0.22507699 0.040740654 0.48441133 0.33490887 0.029069249 0.40496182 0.5208526 0.30114132 0.9039645 0.83956116 -0.7947097 0.20223361 -0.36215132 -0.49399766 0.8633782 -0.23644768 0.00034281157 -0.4733504 0.27642086 0.17303084 0.18070519 0.1291481 0.33070895 0.3462421 0.970097 -0.56858313 -0.10782517 -0.25493625 -0.05422358 -0.9328469 0.1949723 0.043733418 -0.08084487 -0.020010509 0.23649907 0.61087877 -0.4450477 0.31044838 0.4681844 0.30318987 -0.15999638 -0.029476728 0.38824213 0.36773536 0.49303815 0.16174953
64 0.035737664 0.24626854 -0.20741482 0.5763902 -0.546817 0.29688278 0.229608 -0.33021772 -0.05628599 0.25036556 0.4405934 0.014967612 -0.68621504 -0.22900487 -0.6764481 -0.9123754 -0.39123338 -0.30004373 0.4724319 -0.8450564 0.3984495 0.4281377 0.50122386 -0.093150735 0.7902964 -0.1774802 0.4398645 0.5756326 -0.1494042 0.43411204 0.29714373 -0.92118907 0.22848555 0.27659896 -0.5640322 0.2573318 0.116466604 0.64594245 -0.23516616 0.30073977 0.25809968 0.3506997 -0.08340806 -0.06267674 -0.6884972 0.28385127 -0.33325645 0.02873104 -0.3467374 -0.11607388 -0.550759 -0.21705657 -0.32393736 0.149393 0.839876 -0.5814015 0.24129772 0.7653312 0.21596244 -0.4043214 0.019608935 0.7049548 0.34724084 0.1053437
