223 64
202 -0.6218519 -0.4619442 -0.0070484905 -0.42885453 -0.7635894 0.32647339 0.14414063 -0.22800407 -0.26581538 0.6947176 -0.059615146 -0.58811677 -0.036002874 0.44758335 1.1404825 0.35374764 0.0866194 0.4713942 -0.3159022 -1.0253841 0.030179031 -0.24548542 0.3240057 -0.3919018 0.58669037 -0.501805 0.15973958 0.55249166 -0.6383476 -0.3744572 0.028634962 -0.1906881 0.32327288 -0.078359894 -0.40088147 -0.19837528 -0.29784942 0.72280157 -0.5488491 -0.14567026 0.45180827 0.70765585 0.11319251 -0.5122111 0.29485515 0.21039428 0.515874 0.09591044 0.92268336 1.0306276 -0.06601282 0.3372112 0.108153455 0.015415607 -0.45017567 0.58948475 0.112663664 -0.30158398 0.17559353 1.2896633 0.24824415 0.55846596 0.8989589 0.012890065
175 0.45994636 0.567107 0.21451704 -0.30138165 0.4525418 -0.122234896 0.2769197 0.0120695615 -0.35554442 0.021148732 -0.18754758 -0.55831915 0.31161973 0.23473567 0.43099087 0.79319185 0.6845582 -0.086156934 1.2034912 -0.72062486 0.80679154 0.23223542 0.26598635 -0.23020199 -0.02520501 0.23507115 -0.1196787 1.2828598 -0.3812486 -0.26330775 -0.58096176 0.6033401 -0.39013377 -0.3748189 -0.26590663 0.10081026 -0.081165776 0.57823974 -0.8355147 -0.03143633 0.5546136 0.86995125 0.359981 -0.8810528 1.1862159 -0.7620452 -0.29537567 -0.59983635 -0.02291594 -0.083480984 -0.6942842 -0.5291006 0.09910324 -0.77798426 -0.59402966 0.61437804 0.17660157 -0.4521055 -0.17705554 0.6804555 -0.6288844 -0.113216646 0.14287223 0.36745414
217 0.1720709 0.11737189 0.19090433 0.70949894 0.17493242 0.48157626 -0.04379762 0.11262473 0.054879483 1.0383246 -0.5381715 0.3369865 0.0037943504 -0.25017682 0.57618976 0.39420488 0.36120182 0.1576789 0.26251328 0.25711504 0.52320457 0.9577115 -0.12074517 -0.35449123 0.21126965 0.26783076 -0.8359741 0.16534404 0.7613316 -0.006016879 0.05604699 0.8173441 -0.28928715 0.5881997 -0.47183204 -0.7855533 -0.44572574 0.36639628 -1.4575279 0.43974245 0.21736051 1.4982713 0.11758147 -0.038574982 0.69033504 -0.32301378 0.15550713 -0.020922383 0.72060335 -0.44894993 -0.08584826 -0.45996898 0.5057857 -0.33666745 -0.53209525 0.92777425 -0.18267679 -0.754127 -0.099139 -0.46313536 -0.08600331 -0.62808824 0.33387172 0.20824039
222 -0.3916849 -0.28598005 0.21450432 -0.24315463 -0.29922166 -0.22100867 0.03724079 -0.20849341 -0.2697664 -0.11634037 -0.52784246 0.2524682 -0.34254637 -0.24928872 0.92935234 0.017563423 -0.027434323 0.6702363 0.1786271 -0.23146544 -0.056710783 -0.14768042 0.389815 0.31482852 0.728545 -0.12433389 -0.069354035 -0.3438343 -0.2455375 0.10907763 -0.3186818 0.032116998 1.0013856 0.21367933 -0.16418196 -0.9821291 -0.0388065 0.28611422 -0.5530483 0.28621265 -0.48527753 -0.2517353 -0.77634484 -0.40810695 0.9636629 0.26189175 0.2775175 -0.31804308 -0.21994951 -0.56719863 -0.324771 -0.04161337 -0.10878004 0.19822507 0.6216651 0.19087571 0.16153854 -0.6287849 -1.0131097 0.22361219 -0.012437355 0.3150891 -0.7404624 0.36035317
183 0.6919718 -0.29590955 0.68058634 0.36913744 -0.05092006 0.4121646 0.36695784 0.9210221 -0.2634657 -0.3717131 0.5640006 -1.181929 -0.4358139 -0.056322362 0.71453077 0.20196286 -0.17069064 -0.11897816 0.55349565 -0.633408 0.36090773 -0.060390968 -0.58894897 -0.83287257 0.37556994 -0.1851782 -0.7228769 0.08928232 -0.15713327 -0.3282981 -0.6178989 -0.36700353 -0.35986376 -0.5615306 0.4753056 0.28203171 -0.6962005 -0.24977551 -0.50595576 0.663345 -0.7118074 0.35995373 0.3725666 -0.3671753 0.37037277 0.16959575 0.4488358 -0.25938857 1.4652852 -0.53173006 -0.90878946 -0.24028388 -0.40182617 0.049216274 0.36023974 -0.19687964 -0.31980845 0.7643806 -0.7026138 1.0921667 0.3372605 0.42248732 -0.41725615 0.07959723
135 0.49365503 -0.7088462 1.1325234 0.090975575 -0.65264505 0.36153194 -1.2772397 0.18435733 -0.057149515 0.60207653 0.33971575 -0.38744128 -0.414172 0.2797193 0.38401657 0.60017943 -0.5095846 -0.42460227 0.86023027 -0.22299334 0.4448923 -0.19872335 -0.82375413 -0.3982226 0.64793754 0.122545645 0.060527127 0.48280022 -0.2828201 -0.14214441 0.6792922 0.68362266 -0.111653864 -0.16721888 0.50529265 0.29745275 -0.5911687 0.28805614 -0.9918828 0.7312424 -0.15517013 1.1259679 -0.18831867 0.14075999 -0.4378631 0.044961046 -0.44926226 0.21378624 0.33891037 -0.0065256837 -0.12091888 -0.24908267 -0.24699558 0.8064639 0.20123868 0.47773063 0.04767982 0.3726799 -1.0048047 0.74236387 0.5167056 -0.27180323 -0.72547305 1.0057038
180 -0.66095865 -0.78030366 1.1294236 -0.29918492 -0.29105172 0.55263597 0.8854194 -0.2998549 -0.3487821 0.6410515 -0.5261079 -0.21248679 -0.3501643 -0.1965865 0.6882792 0.48342597 0.088020034 0.18901536 0.39433125 -0.30656278 -0.83229786 -0.57781214 0.1104725 0.06468992 0.5200831 -0.22351536 -0.2929617 0.13993669 -0.33918163 0.23905009 -0.77253497 -0.27726194 -0.16701755 -0.6644289 0.19533052 0.07514148 0.30152622 -0.23171999 -0.33458456 0.14811131 0.2803841 0.5737826 0.0707766 -0.094334655 0.19888493 -0.16851927 0.015129047 -0.29631686 0.038216215 0.14402328 -0.33007458 -0.6013223 1.253177 0.31976932 0.123174466 -0.74948907 0.44576916 -0.54232997 -0.6031736 -0.50085264 -0.0823505 -0.0027062523 -0.44474968 0.13769111
191 -0.90439683 -0.7626476 0.82672983 0.05079893 -0.16546564 -0.52628976 -0.2649812 -0.41986027 -0.7375814 0.25192556 0.06433375 -0.07720114 0.12999903 -0.6094186 0.10388441 0.6697164 0.13112168 0.005269091 -0.12575184 -0.29144168 -0.6321725 0.9170995 -0.5370451 -0.86358297 0.8005014 0.063319355 -0.35187253 -0.5558071 -0.58678675 -0.54461265 -0.66619176 0.3281039 0.3359863 -0.29210332 -0.23414727 -0.1792391 -0.09563096 -0.39436704 -0.35031027 0.74464846 0.10386347 0.5416617 0.6991064 -0.120192945 0.40700075 -0.2723154 -0.6391334 -0.17253493 0.12548432 -0.06362826 -0.09988817 -0.36581007 0.29255918 0.33444217 -0.47752342 -0.028307077 0.6743244 0.34816974 0.08394666 -0.17228843 -0.5566088 0.46055046 -0.28131416 0.1546349
137 -0.6814706 -0.99721754 0.7941324 -0.5447206 0.00062607584 0.53554535 0.94506735 -0.5072851 -0.3526423 0.67438936 -0.550106 -0.16742744 -0.1190872 -0.2832251 0.81322575 0.3559118 -0.084479146 0.10094166 0.32409748 -0.36510116 -0.8005815 -0.32185858 -0.00046484589 0.20429488 0.57977355 -0.13363092 -0.3218582 -0.025647005 -0.21870324 0.32735473 -0.5379938 -0.12391513 -0.07498918 -0.55424255 0.18651804 0.0492327 0.32623115 -0.19744758 -0.20251971 0.08527644 0.33565742 0.4763759 0.07743945 -0.26105294 0.4848656 -0.30364674 0.16012077 -0.37733406 0.13689351 0.28597358 -0.3233572 -0.472551 1.1023325 0.46543625 0.00031241722 -0.663374 0.6782462 -0.5275296 -0.4667255 -0.5940074 -0.16962275 -0.052878715 -0.74855435 0.020360572
164 -0.21615829 -0.16171202 0.25114593 -0.2526503 -0.3598428 -0.35451263 0.049285203 -0.18750784 -0.2618061 -0.10523666 -0.4565327 0.12535928 -0.32187042 -0.18712746 0.8712336 0.14114514 -0.05451672 0.49209252 0.38980278 -0.21067858 -0.21419448 0.07141382 0.5104808 0.3468958 0.6467386 -0.098578654 -0.1161084 -0.4382351 -0.18962714 0.03406818 -0.4900869 0.11933168 1.0591244 0.20593809 0.0024448005 -1.0471796 -0.05163766 0.11512009 -0.64866674 0.36959633 -0.47907057 -0.033457838 -0.61935073 -0.34119624 1.1021211 0.25638664 0.0830179 -0.48250297 -0.35461393 -0.59595525 -0.40249434 -0.038563173 -0.2296857 0.048784174 0.6056963 0.011848373 0.1997758 -0.52715075 -1.0652583 0.11963812 -0.22277007 0.32641706 -0.7992751 0.50404537
193 0.19103968 -0.99110717 1.5314779 -0.107370265 -0.055758264 0.47310784 0.07113801 -0.9357293 -0.29546243 -0.3564351 0.012066054 -0.474221 -0.21886614 0.2725261 0.5573581 -0.55953246 0.07579083 0.26688915 -0.11442008 0.8914291 -0.14849734 0.8372296 -0.6120203 -0.78717715 0.60395306 0.26207379 0.10310427 -0.3374895 -1.1710153 0.18161426 -0.7460572 0.08240557 0.7782375 0.05470201 -0.06648087 0.074238636 0.10042373 0.6055049 -0.3648743 -0.0152213285 -0.5062501 0.09537014 -0.49715653 0.44768113 0.2923957 -0.04656823 0.43098885 0.30155033 0.7055441 0.5382394 -0.56051993 0.1212846 0.33708912 0.83786094 0.42084485 -0.47024068 0.6966831 -0.48297134 -1.119443 -0.04981793 0.09207124 -0.8543372 -1.3352944 -0.6355353
163 -0.6266807 -0.5616296 0.74522865 0.12223593 -0.18347205 0.70717627 0.663877 0.40961847 -0.43833342 -0.09532241 0.45071062 0.14398263 -0.7036791 -0.22283451 -0.5463961 -0.19601627 -0.051754583 -0.024068223 0.26647052 0.13517593 -1.1501567 0.51060736 -0.7018789 -0.5861865 0.60564595 0.27036706 1.3255273 0.66746265 -1.1641194 0.65244156 -0.5662195 0.7651905 0.6272129 0.12464736 -0.6621785 0.18887216 0.56778973 0.43826878 -0.4347663 -0.05538756 -0.44594273 0.38797638 0.8320725 0.17444237 0.5598042 -0.36920413 -0.44977468 -0.41458976 -0.5154256 -0.555334 -0.23142096 -0.64610195 -0.12362442 0.29873812 -0.04234966 -0.82941425 0.6917609 -0.33969423 -0.26926407 -0.34268245 -0.44636595 -0.31373134 -0.72119856 -0.18219686
170 -0.37738866 -0.7393457 1.2830749 0.3467759 0.95190597 0.14773796 0.33730492 0.58360064 -0.88647115 0.59799254 -0.21769114 0.5796908 -0.5516937 -0.5306106 -0.13549688 -0.27813244 -0.29942036 0.25563198 0.20043807 0.1866216 0.3157086 -0.09483557 -0.22402905 -0.34954587 0.13914017 -0.118977666 -0.37211257 0.09039984 -0.26673833 -0.032023635 -0.06744274 1.0075386 0.453791 -0.0908039 -0.22552752 0.048907615 -0.7134598 0.48438188 -0.2619026 0.25686887 -0.7910077 0.48788214 1.2160525 -0.5655463 0.8196801 -0.57042134 -0.18985127 -0.7759252 -0.06337314 -0.41791746 -0.16542114 0.26843318 0.5194796 0.24287184 1.293354 -0.3500206 -0.5569904 0.24677727 0.19144516 -0.31674019 -0.80452365 -0.17268486 -1.184565 0.81937337
199 0.1546006 -0.6485726 0.32781255 -0.28705233 0.3051827 0.14317642 0.040325634 0.8838439 -0.93374836 -0.6996644 -0.029280685 0.37741664 0.10408882 0.013559919 0.47307935 -0.24464491 -0.02740645 0.35830608 -0.27530882 0.30786917 -0.6099338 0.294822 0.008809347 -0.7951798 0.30190343 0.7455217 -0.33856547 0.965321 -0.24484916 0.4371019 -0.04996021 0.6325831 0.7700347 0.41725272 -0.36648038 0.24510229 0.86432254 0.5432779 0.150476 0.26663655 -0.61506003 -0.08444362 -0.019980775 -0.26305458 0.68461937 0.36612603 0.2413763 -0.091780305 0.09106536 0.19868799 0.4704312 -0.6654321 0.29777977 0.24676707 0.8026093 -0.4433923 0.11225246 -0.66306365 -1.0711764 -0.18559575 0.2629378 0.17082117 -1.3925701 -0.17629595
211 -0.55784994 -0.29661283 0.88491637 0.5732074 1.1344228 -0.21656908 -0.08176833 0.12628819 -1.0750645 0.083773114 -0.014273902 0.032085482 -1.0030414 -0.28760198 0.11447299 -0.47894654 -0.46485034 0.36781004 0.44678563 -0.29561272 0.39385012 -0.037230216 -0.23674785 -0.12674287 -0.09761041 -0.23340452 -0.3071053 -0.114540644 -0.0725273 0.05436726 0.10111602 1.6559517 -0.2714256 -0.5025679 0.12807316 0.11515042 -0.92046756 0.31436473 -0.5862482 0.062375303 -0.7403606 -0.036240183 1.07434 -0.33701283 0.61778927 -0.3179805 -0.43250754 -1.2357839 0.1505258 -1.1210026 -0.61070573 -0.25524235 0.5472581 0.06610271 0.68745816 -0.3473139 0.012645346 0.005537536 -0.17515625 -0.46018627 -0.7762139 0.38235927 -0.9617637 0.30895552
152 -0.63374436 -0.4255875 0.22921027 0.17618726 0.38786495 0.55990297 0.23497415 0.66914266 -1.1326271 -0.89487225 0.56726044 -0.16204877 -0.10002697 0.11595196 0.7144314 -0.3717726 0.16452235 0.07255582 0.10810546 -0.04690849 -0.81725043 0.4371289 -0.072162874 0.08992035 -0.3635087 -0.39663708 0.08052307 0.04997795 -0.33966705 0.6065701 -0.07892697 1.1281265 0.3942964 0.91622555 -0.3620632 -0.36204618 0.80219644 0.39161322 -0.6189324 0.45314205 -0.08719384 -0.23476653 -0.31965977 -0.48426658 0.61800724 0.14532778 0.32771248 -0.57201195 0.4958421 -0.39594358 -0.067605816 -0.6170449 -0.0680336 -0.0016759395 0.54982394 -0.818877 0.652039 -0.75929654 -0.5440702 0.03301999 0.576489 0.16099115 -1.0062532 -0.55397415
204 -0.570404 -0.62196666 0.12696989 -0.49613753 0.24823195 0.15233375 -0.41834494 0.8806439 -1.3815634 -0.65860933 0.16308098 0.07370677 0.19989225 0.19114687 0.14995158 -0.42735377 -0.57368505 -0.0032432282 -0.22961257 -0.15049653 -0.36634016 0.25470853 -0.04506392 -0.31127515 0.09811075 -0.38059542 0.65567255 0.7980092 -0.7862618 0.1267803 0.03272667 0.73440075 0.47746044 -0.42077088 -0.071676165 -0.19365758 0.24468516 0.30129293 -0.20974843 -0.030056525 -0.790641 0.17598706 0.03474443 -0.13925353 0.9296857 0.8534942 0.074288346 -0.63941354 0.21414739 -0.27130705 0.2480544 -0.49576285 0.5255718 0.5016854 0.47386864 -0.44971323 1.234005 -0.90606713 -0.6572022 0.6174786 0.37756523 0.4341045 -0.6724015 -0.38715222
207 -0.22628261 -0.452251 0.12655263 -0.54677737 0.6076231 0.3327365 -0.5437584 0.3993228 -1.1226546 -0.86768484 -0.12149359 -0.6829531 -0.41892007 0.74643993 1.1793717 -0.2532633 0.14410168 0.75381696 0.3931777 0.57070637 0.13355196 0.15805185 0.036814153 -0.664162 -0.2149524 0.39673594 -0.45583358 0.37628785 -0.23808676 -0.13797976 0.1923894 0.6278632 -0.028916802 0.8447601 -0.7080963 -0.41760007 0.26705405 1.4274771 0.042480446 0.24300373 -0.75135845 -0.22242513 -0.68465424 -0.11207847 1.0156655 0.14447889 0.7341556 -0.63237345 0.70684713 0.23086634 0.38148448 0.24832885 0.5786817 -0.28631356 0.15739495 0.02490316 1.0527886 -1.2414885 -0.45185658 0.15584008 0.86799645 -0.78739816 -0.33119133 -0.8371859
201 0.14517373 -0.12609027 -0.029749146 0.040393874 0.46268833 0.6770945 0.27439055 0.4703424 -1.427922 -0.43140012 0.35367212 -0.118212126 -0.1433711 -0.08025585 0.9780454 -0.27365404 0.036713995 0.2706943 0.27179414 -0.17164661 -0.14323534 0.22591765 0.56058884 -0.4768754 0.15997002 -0.404316 -0.24620105 0.58543813 -0.542511 0.30424556 -0.31925437 0.7567029 0.27344093 -0.07819262 -0.54724735 -1.0475563 -0.098185636 0.7590786 -0.2692409 0.6609629 -0.7924869 -0.71532184 0.9015042 0.4993546 0.16856772 0.1344451 0.0757124 -0.28929567 0.39277193 -1.1144006 0.83987385 -0.81207615 0.39175946 -0.08348661 0.5786642 -0.49811408 0.10292221 -0.45187092 -0.1803179 -0.032476213 0.020827577 -0.5135832 -1.0061494 -0.10358579
125 -0.00017320707 -0.29482132 0.85478747 -0.081101924 1.2449392 0.77635306 0.35743555 -0.0940932 -0.86660343 0.41736084 0.23485129 0.30095768 -0.707337 0.69539106 -0.14229941 -0.46177867 -0.07683871 0.61435455 0.6342668 0.46122137 -0.371026 0.12875934 -0.2975572 -0.28419423 0.2845704 0.1451868 -0.011391469 -0.07024207 -0.42859015 0.5464799 -0.91141593 -0.09990287 0.7605912 -0.12004863 -0.78608054 -0.21600845 -0.5243989 0.35205224 0.08537788 1.142491 -1.268076 0.061862934 0.25291264 0.077656515 0.33644986 -0.1815057 -0.117619425 -0.38436347 0.4724333 0.3056151 0.6979869 -0.03667868 0.11195958 0.5440414 0.73228925 -0.17206979 0.35319868 0.3201531 0.36237168 -0.08837944 0.4041293 -1.1378452 -0.6962351 0.06412117
194 0.23045203 -0.55055696 0.8845806 -0.30200586 0.6445405 0.0070268977 0.46390316 0.7704143 -0.7001917 -0.09229426 0.4712659 0.022384392 -0.25103962 -0.22891034 -0.08736812 -1.019008 0.17994502 0.19586676 0.46663478 0.025489239 -0.79108465 -0.2705771 0.7802999 -0.2541911 -0.18685693 -1.113033 0.1592546 0.9692559 -0.6362638 0.1926571 0.27088732 0.03207877 0.28994796 0.20344812 -1.1885943 -0.45747846 0.07784752 0.090936475 -0.17183909 0.3251372 -0.53992265 -0.17407352 0.29612097 0.020109156 0.768687 -0.026949817 -0.35592335 -0.20031543 0.6909649 -0.5601951 -0.11615491 -0.4395754 0.01964682 0.40332684 1.0934135 -0.07909043 0.44830325 0.31183195 -0.044994537 -0.028108884 0.1083064 -0.885801 -0.83933043 0.7295688
138 0.037353415 -0.20048274 0.9844783 0.2695536 0.7435883 0.262446 -0.17088003 -0.0375169 -0.71860707 0.025949309 -0.48867783 -0.11322009 -1.1492134 0.44933715 -0.22822382 -0.51873827 0.57419527 0.69781995 0.44368085 0.18890788 -0.59679806 0.3429731 0.052150827 -0.8694324 -0.19655247 -0.105272286 0.22376385 0.13881113 -0.40534547 0.36014774 -0.46144626 0.6153266 0.17927276 -0.6053937 -0.5670889 -0.6247482 -0.41112778 -0.31350008 -0.27577028 0.9321145 -1.0310289 -0.048407894 0.46995923 0.274814 0.4259448 0.63479835 0.016884668 -0.48582658 1.2947773 -0.19208546 0.22959438 0.35663098 0.6162524 0.08109768 0.5315104 -0.33203563 0.7283451 -0.009067975 -0.07641473 -0.2977529 0.48312983 -0.7941621 -0.37147835 -0.46790528
143 -0.2338184 -0.273633 0.5841206 0.17461632 -0.059897166 0.6923449 0.275873 0.45462424 0.23226993 -0.6395828 0.61497885 -0.5102822 -0.639573 0.24604768 0.2277992 -1.054753 0.00044066994 0.21832433 0.33605397 0.40271133 -0.41106722 0.09316659 0.40764108 -1.3736278 0.5908332 0.70745766 0.51714706 0.36922055 -1.407438 0.5753894 0.17825527 0.4646011 0.052165117 1.36665 -0.55997735 -0.326783 0.2982557 -0.2517083 -0.35001725 -0.3763621 -0.57553774 -0.4398057 -0.066130735 0.029263029 0.5999845 -0.4373619 -0.19528587 -0.41012707 0.57554656 -0.47314006 -0.661887 0.077357456 -0.4665981 0.010240248 0.12669696 0.29541436 0.801174 -0.60962594 -0.7817684 -0.10479895 -0.7925472 -0.41208604 -0.2677843 0.4424915
105 -0.9270503 -0.13004872 0.5435425 -0.09955921 -0.6190011 0.28213185 -0.12338856 0.75641865 -0.50053596 0.21574906 0.44267184 -0.27686268 -0.24385816 0.4980148 0.47873825 -0.09151633 0.91669387 0.26488346 0.5251178 0.12727709 -1.3479649 0.6300841 0.52072394 -0.52315205 0.028219562 -0.1671322 0.6071755 0.90096605 -1.2106116 0.106766656 -0.8245319 1.0900265 0.80331916 0.58084106 -0.28883338 -0.2550797 -0.007663141 0.7893921 0.4897076 -0.16091174 -0.019972451 -0.1828097 -0.30964234 0.24765624 -0.04754092 -0.12028632 0.34053084 -0.43655333 0.1817953 -0.014720353 -0.19500484 -0.27346966 0.017577525 0.17905241 0.30866697 0.26866642 0.09374267 -0.6150024 0.46963984 0.042084422 -0.42007643 -1.1238376 -0.52865463 -0.45989248
195 -1.0752445 -0.6225167 0.90434057 0.13310431 0.41421846 0.28769094 -0.23969364 0.24618128 -0.9380358 0.28016156 0.35788992 0.32655108 -0.4814381 0.32568106 0.11530888 -0.005205587 -0.14440347 -0.26572314 0.041857213 0.53799856 -0.2348415 0.6780411 -0.5647366 -0.13269123 -0.2373206 -0.23066233 0.93209034 0.3577831 -0.36811665 -0.08900378 -0.2996208 1.8437843 0.46965283 0.3670359 -0.08895842 0.42496225 0.113066584 1.0106195 -0.22162096 -0.45863897 0.38001692 0.7153684 -0.060053013 -0.37435484 0.6475726 -0.07333635 0.25691336 -0.75194514 -0.44601935 0.77356666 -0.41518265 0.2419451 0.24364765 0.3439976 0.4795635 0.03370898 0.24826115 -1.0869663 0.20331354 0.15550046 -0.48601225 -0.24246636 -0.99114144 0.021600941
173 -0.14841701 -0.48871598 0.800206 -0.45047605 0.95160025 0.4557596 -0.36310825 0.22887804 -0.50419724 -0.2878139 -0.0032925932 -0.2654773 0.03915241 0.9212247 0.51838535 -0.6136117 0.4094985 0.15132369 0.3495324 0.99527776 -0.079261005 0.021016954 0.15394427 -0.36126322 -0.7329339 0.113349326 0.17361724 0.57755744 -1.0586792 0.12370667 -0.23426577 0.7566942 0.57382 0.7366356 -0.26435873 -0.6153167 0.32429668 0.56804335 -0.3233893 0.71410847 -0.07345231 0.37325126 -0.64211625 -0.4190644 0.76723367 0.4432183 0.5017533 -0.46315935 0.6904414 1.1260667 0.44117668 0.530796 0.5788112 0.31030867 0.8791347 0.29887798 -0.030498417 -1.3299489 -0.4056561 0.6867327 0.66413254 -1.2148187 -0.50086546 0.002524222
181 -0.28768274 -1.3153975 0.5618519 -0.33899242 1.077837 0.21179882 0.337883 0.3988192 -1.0684329 -0.7901889 0.37998736 -0.1881891 -0.4915985 0.061436843 0.14673631 -0.6584192 -0.8459085 0.66689503 0.19135074 0.4876567 -0.10906536 -0.341364 0.17613316 -0.8644828 -0.3427624 -0.10395319 -0.20976873 -0.24255502 -0.30804643 0.62828207 0.15336701 0.31752726 0.28608114 0.51071686 -0.4356855 -0.28090948 0.39897388 -0.11510579 -0.44104397 0.56766593 -0.7224678 -0.12998396 0.2858253 -0.5586173 0.7976774 0.7269836 -0.06389567 -0.24757753 0.7392432 0.13894255 0.42509547 0.013290656 0.29813704 0.29693362 0.715413 0.22473575 0.82965 -0.54480267 -0.48271194 -0.0046764305 0.40328872 -0.046298746 -0.92313516 0.4694145
136 -0.2896227 -0.7587674 -0.08683111 0.02132075 0.020570796 0.577581 0.9129295 0.46000066 -0.09813783 -0.1121679 0.7346552 -0.3832882 -0.15994264 0.6030184 0.6288854 -0.99430364 -0.15593998 -0.09860459 0.5478978 0.18886992 -0.3338921 -0.2841021 0.09761541 -0.21406004 0.2999183 0.24438852 0.3456073 1.0489691 -0.8494753 0.31985825 -0.28266335 0.19945614 1.2181479 1.4244658 -0.88124883 0.5187655 0.009517092 0.6728149 -0.0031790363 -0.613672 -0.23916799 -0.065673426 0.13243963 0.08806644 0.9050608 0.004084593 -0.20897661 0.0068355626 0.07794271 -0.21535002 -0.3761475 -0.49357152 -0.22893514 0.66638714 0.6210888 -0.08101313 0.28008223 -0.4332416 -0.45676062 -0.12293584 -0.42944482 -0.79051846 -0.34576723 0.17508514
200 0.029237662 0.26685065 0.1444244 0.07578584 0.5753726 0.0801115 0.7947053 0.9475725 -0.68454653 0.17499214 -0.103393815 -0.13053839 -0.91967314 0.15575199 0.15033667 -0.43080115 0.27613652 0.79747885 0.9442542 -0.12363669 -0.32791898 -0.058908645 0.341219 -0.8453436 0.17780425 0.4506069 -0.37386614 0.6147902 -0.34268945 0.51288813 -0.46598148 0.22265652 0.58132535 0.34579453 -0.8627295 -0.15199691 -0.7377173 0.52101743 0.4252903 0.17470334 -1.1482328 -0.42696744 1.0007342 0.04156045 0.79408175 -0.25088438 -0.12994169 -0.6247641 0.67754483 -1.1368704 -0.0010057078 -0.20064609 0.34134656 -0.2656224 0.59553844 -0.08366723 0.2620129 0.75861 0.22543545 -0.7304601 -0.46793464 -0.8816382 -0.47216308 0.08299782
197 -0.5022427 0.30748343 0.1788988 0.34887147 0.063611954 0.35860658 -0.22080542 0.7094483 -0.5344202 0.036079153 0.42632878 0.11861384 0.14229466 -0.107799985 0.2656434 -0.7843186 0.5228745 -0.43198982 0.04927558 -0.1611265 0.004776826 0.61702585 -0.15870741 0.0886658 0.35839146 -0.23463093 0.6472007 1.05863 -0.9409579 0.17380594 0.124831714 1.5606039 0.40476173 0.8369101 -0.5101762 0.06923456 -0.6837677 0.6955251 -0.6394002 -0.6172641 -0.1995006 -0.020125635 0.41878363 0.36189526 1.109685 -0.42552882 0.20798045 -0.40016875 0.30104303 -1.3396629 -0.71215194 -0.6666073 0.24443005 0.15471141 0.53789896 -0.462988 0.19991177 -0.26672482 0.2359865 -0.21145232 -0.84166497 -0.3073469 -0.39509603 -0.48663968
212 -0.15021297 -0.30070207 0.7428642 0.46878606 0.5826289 0.29214004 0.22696099 -0.0023725885 0.25259432 0.53787285 0.045965865 0.16643219 -0.70461 0.10644185 -0.102585904 -0.99218315 0.41300294 -0.31626943 -0.18348823 0.668219 -0.0010980254 0.31412554 -0.08168899 -1.176642 0.48602414 0.7862614 0.7675646 0.7863123 -1.2081572 0.22677624 -0.61231226 1.1641957 0.46456546 0.28680152 -0.53966224 0.107247345 -0.3410479 0.47775134 -0.12368586 -0.06285707 0.10039024 0.28728855 1.2788149 0.0388407 0.61191213 -0.12131799 -0.022455737 -0.08477055 0.3247372 0.23409826 -0.34024116 0.43606076 0.84435517 0.38201904 0.6221677 0.04970496 -0.49133894 -0.281997 0.0019469594 -0.5353312 -0.81867874 -0.6827614 -0.25497493 -0.024400545
86 -0.365116 0.3003661 0.14365645 0.55103594 0.35404173 0.4017651 -0.10883242 -0.0766476 -0.4122421 0.21680762 -0.28144225 -0.098884515 -0.80409 0.8301927 0.15033963 -0.50735605 0.10334284 0.39772707 0.16214898 0.20841706 -0.17113613 0.6166698 -0.51553786 -0.38913888 0.7407698 0.7584023 0.66987014 0.8630297 -0.42152137 -0.030530725 -0.7990747 1.3501407 0.7806751 -0.13319737 -0.16826752 0.5042653 -0.8138573 1.1335479 -0.0472091 -0.4328821 -0.52826416 0.4496333 0.91508126 0.42895937 0.88526714 0.091809146 0.22233403 -0.5857386 -0.044229407 -0.25112143 -0.20847529 0.33734214 0.49991292 0.11539069 0.13447851 -0.13801058 0.34086975 -0.23821382 0.067982405 -0.39465463 -1.0230565 -0.5084641 -0.2886046 -0.58291465
219 0.35122025 0.14204746 0.5348961 0.91809905 0.93300766 0.66257757 -0.27441195 0.97716576 -1.1414937 0.26147845 0.066349134 -0.31191218 -0.36157286 0.01766298 0.31597418 -0.13907638 0.029913696 -0.75448614 0.46100459 0.5487135 1.0088692 0.4494133 -0.5392082 -0.70208794 -0.8856986 0.10736014 -0.42915145 0.37693626 -0.0400304 -0.34542176 0.15851586 0.70913833 0.17300647 0.87850666 -0.9262272 -0.21101184 -1.1617767 -0.27044335 -0.69440216 -0.35099047 -0.3711344 0.775271 0.53218293 -0.26356575 0.3259172 -0.23906144 0.32201454 -0.86545134 0.38785055 -0.35971227 -0.45723838 0.30670393 0.31233692 -0.22266777 1.024527 0.5808556 -0.48079997 -0.2081242 -0.12860581 0.42268047 -0.077359945 -0.4328146 -0.20091793 0.56373096
134 -0.2580487 0.24010202 0.7091585 0.31207857 0.96198654 1.000643 -0.26083133 0.677772 0.14988348 0.17304413 -0.22250144 0.24603996 -0.2273988 0.42444035 0.10633326 -0.36678416 -0.3308908 -0.12075548 -0.04871939 0.3284713 0.6452018 0.11063632 -0.10595125 -0.56016 0.25338462 -0.9669016 0.2266899 0.444649 -0.48518255 0.059244365 0.6534626 1.1073443 -0.5396837 0.5606666 0.243076 0.045876674 -0.64828837 1.3965037 -0.25915772 -0.027896993 -0.6095119 0.3234763 1.0383332 -0.13249604 0.6688199 -0.4048509 0.5325599 -0.48501313 1.2962598 0.31552473 -0.089787096 0.78598374 0.43445638 -0.46622133 0.073591724 0.44524214 0.2652925 -0.0426934 0.37399325 0.9121557 -0.6013027 0.011094667 -0.25714847 0.42701313
196 0.4604337 0.7879508 -0.07944618 -0.31528124 0.33827633 0.21921685 -0.17093146 0.3035593 -0.92929375 0.6171885 0.28907287 -0.69487655 0.43200108 0.91392994 1.4646703 0.2556569 0.5526271 -0.20645744 0.47799647 -0.19113481 -0.00031333225 -0.6460494 0.4605608 -0.78868145 0.67951775 -0.22279723 0.17367028 0.9255637 -1.2329801 -0.45372832 0.053452194 0.013003619 -0.3174035 0.14488932 -0.76776296 0.25839183 -0.9293448 1.1289015 -0.5263504 -0.8130264 -0.16294366 -0.08346327 0.22861457 0.43124762 -0.14049475 -0.18366228 0.16011779 -0.70135343 1.1302011 0.66219586 -0.2709798 0.08340692 -0.32413664 -0.015763044 -0.24637407 0.9379509 -0.047686208 -0.10372466 -0.08413199 0.511727 -0.34203205 0.19008581 0.7568319 0.82591444
210 -0.29069686 -0.023616914 -0.47761393 -0.4632233 0.80181587 0.48077753 -0.5811342 0.92146367 -0.67841166 -0.23355274 1.251888 -0.26203 -0.17953072 0.38217163 0.8607902 -0.1493174 -0.21617082 0.34811547 0.32490736 -1.0053011 0.58721054 -0.12727684 -0.25260708 -0.5968776 0.46650985 -0.4347947 -0.5545846 0.2755528 -0.4275885 -0.5023211 0.4046951 0.7279835 -0.6089304 0.7447269 0.19053437 0.114054225 -0.47978836 0.85942173 -0.85848254 0.05840346 -0.72478014 -0.01717937 -0.22884832 -0.09318052 -0.34293264 -0.27091658 0.27545908 0.041749675 1.620596 0.7481671 0.4562604 -0.07259885 0.057764754 -0.21980199 0.43672597 0.24452783 0.40993795 0.4529074 0.58382314 1.0337547 -0.61049026 0.14126569 -0.371803 0.46538892
159 -0.038398415 -0.63613355 -0.042531602 0.29538012 -0.084736556 0.5911264 -0.33636627 0.46108654 -0.5608507 0.4682329 0.123369075 -0.16369335 -0.037850372 0.40156716 1.4276844 -0.31913745 -0.20889564 -0.10878277 -0.46482915 -0.058168326 0.055493347 -0.31753457 -0.15695222 -0.90802133 0.60576993 -0.3400273 -0.4364313 -0.20144062 0.0043025007 -0.5505287 0.57635057 0.06961452 0.05388021 0.9661446 -0.35940036 -0.11309974 -0.7760403 0.50704354 -0.40593955 0.027009644 -0.56146497 0.29803234 -0.44291633 0.46038973 -0.21908924 0.71570694 1.0725337 -0.07469688 1.7428607 0.8212396 0.0035854923 0.45947358 0.13776231 0.49663842 0.4266174 0.6400726 -0.50817525 -0.2424145 -0.050894447 0.41244143 0.62905884 -0.2696819 -0.025286883 0.22712302
104 -0.12495762 -0.6410975 -0.06294268 0.41330332 -0.16402923 0.6693234 -0.17630966 0.3890972 -0.43876302 0.52882975 0.30760077 -0.3643506 -0.15052633 0.59975636 1.3061463 -0.4191138 -0.11719306 0.06945336 -0.27237174 0.014714913 0.016847331 -0.2781177 0.018562138 -0.91334146 0.5758449 -0.51094955 -0.48993197 -0.2463182 0.09372967 -0.44082227 0.62520635 0.107675046 0.0058143944 0.99809325 -0.5632836 -0.17976098 -0.9443059 0.5167633 -0.41271013 0.12731594 -0.53308487 0.25948453 -0.27343145 0.52369875 -0.199666 0.58390033 0.9241034 0.035235684 1.6495105 0.7978857 -0.038684618 0.36770597 0.23330447 0.19452247 0.56427115 0.5885801 -0.64638144 -0.0994723 -0.0012456805 0.4881332 0.61878073 -0.1593938 0.12286394 0.27751827
209 0.5041586 0.81657374 -0.15339628 -0.27167267 0.2492974 0.095002726 -0.1599215 0.30980968 -0.9730352 0.55317914 0.3933131 -0.6517059 0.4854081 1.0272322 1.4834313 0.23557721 0.53704816 -0.16042683 0.53431946 -0.18014197 -0.089063354 -0.5116122 0.52376974 -0.78055257 0.71552396 -0.19965875 0.09253106 0.91771 -1.1752816 -0.5058119 0.09473929 0.095597215 -0.2985766 0.16318017 -0.81362015 0.24323405 -0.8415999 1.0610156 -0.50250995 -0.78804284 -0.1661382 -0.087699264 0.22985624 0.41825962 -0.1337208 -0.13085431 0.13718162 -0.6947165 1.0468163 0.716133 -0.20685719 0.035725158 -0.3428292 -0.042879265 -0.21518208 0.91784877 -0.061592072 -0.08750354 -0.1034588 0.50053537 -0.34562936 0.21448955 0.77648586 0.85608965
174 0.7766556 0.62266207 -0.6926176 0.06436787 -0.31684518 -0.23728888 0.01230817 0.59071434 -0.24858461 -0.1446214 0.4463075 0.33615246 -0.2687721 0.63821465 1.2293497 0.15694694 0.33016828 -0.4452059 0.73123825 -0.11960778 0.20017752 1.2836015 -0.23389934 -0.8947251 0.15427835 0.22310695 -0.22418211 0.70808107 -0.037148613 -0.8257734 0.50877905 0.9963299 0.11118151 0.9728312 -0.24279498 -0.3606484 -0.49482983 0.42898494 -0.5799738 0.26868695 0.24523997 0.16053712 0.40154764 -0.2237734 0.60435903 0.43094876 0.24793418 -0.2556638 1.6808109 0.77451664 0.008179485 -0.0012630712 0.18972015 -0.38182452 0.15401663 0.8541718 -0.43830496 0.10802463 0.3019251 0.46831623 0.3127056 -0.3992057 0.19705829 0.24460398
190 -0.5161209 -0.10110486 0.5243632 -0.26915753 -0.39371857 -0.56457025 -0.11493204 0.01840418 -0.58132607 0.38294873 -0.42397293 -0.594094 0.2255837 0.9003093 1.1296134 -0.12923048 0.09663401 -0.25576678 0.26082578 -0.3480706 0.5007024 -0.50969154 -0.18034674 -0.508352 0.43439728 -0.023636186 -0.6791897 1.1200795 -0.5165598 -0.8201819 -0.13926986 0.18953423 -0.024084127 -0.1476557 -0.30373564 0.165922 -1.5371149 0.3262864 0.32418525 0.000117644726 0.047117624 0.12562837 -0.53933513 -0.2552467 0.59812737 0.3897313 0.220536 0.22355548 1.0987915 1.2326815 0.14984913 0.71528983 0.7456249 0.37310794 0.6045776 0.44587708 -0.22068386 0.21735835 0.7673734 1.2633839 -0.24652533 -0.7631712 0.11206102 0.5435245
187 -0.4284264 0.43724367 0.50371534 -0.42942137 0.14451379 -0.46827367 0.3628808 -0.017615495 -0.7729977 0.62563586 -0.39741313 0.36374122 0.079082616 0.77878606 0.8581778 0.07709177 0.8286176 0.31545106 0.7222259 -0.39956138 0.89761305 -0.38639417 0.21295612 -0.30169752 -0.3033964 0.8590623 -0.5583241 0.46406806 -0.72620934 -0.6747146 0.16220178 0.52935404 0.15529168 0.13346452 -0.6985371 -0.14562291 -0.839423 1.0893883 -0.040922686 -0.52172625 0.36556116 0.18493357 -0.040937103 -0.37886962 0.84038115 -1.0544302 -0.06507662 -0.55093855 0.8264446 0.83601147 0.035490602 0.38626748 0.3106366 -0.10222078 0.4372085 0.33530656 -0.8585542 -0.91732275 0.9320413 0.1928079 -0.3724575 -0.93599665 0.45268205 0.3683056
179 -0.36197522 0.35916197 0.6258447 -0.3128797 0.095965296 -0.5276039 0.31080663 -0.0910818 -0.87164336 0.69279677 -0.593623 0.51979274 0.23875564 0.7264728 0.7057884 -0.03082932 0.8362376 0.409031 0.6072515 -0.30181566 0.9118282 -0.28790238 0.09731008 -0.3820571 -0.23902449 0.6756496 -0.45634335 0.72533804 -0.5854579 -0.74442446 0.04981378 0.25507417 0.18151228 0.08784097 -0.6952138 -0.15469584 -0.7495362 1.2384105 -0.06605336 -0.62976605 0.24747904 0.1487331 -0.050790418 -0.47837856 0.829811 -0.84283394 -0.18592907 -0.67331076 0.98239857 0.89718413 -0.13838375 0.36674702 0.29416624 -0.2142688 0.18564093 0.2888103 -0.84917295 -0.88335025 0.98905134 0.18424794 -0.38063246 -1.043191 0.3320339 0.36096942
169 -0.50357264 -0.11127167 0.41935286 -0.26197612 -0.372241 -0.6102462 -0.20649496 0.053136673 -0.64335424 0.44146994 -0.39085293 -0.58376265 0.31813297 0.93167657 1.1414518 -0.09907412 0.1655885 -0.3218687 0.20946619 -0.34552863 0.44923347 -0.44578776 -0.12734327 -0.46867743 0.50521123 0.0064194286 -0.6361868 1.2395562 -0.46717373 -0.84456104 -0.30642053 0.086272135 -0.04274861 -0.10934951 -0.2656221 0.2037096 -1.5534425 0.44052643 0.33244187 0.033872362 0.0830084 0.14008589 -0.6232499 -0.36503366 0.60382247 0.5116576 0.25043505 0.0999116 1.0267438 1.2755976 0.029492809 0.62943673 0.7194976 0.29612947 0.5801783 0.45767477 -0.37002596 0.26660627 0.7486948 1.2394826 -0.24122976 -0.7910083 0.035464544 0.60222393
168 0.34108037 0.09181266 0.5909688 0.8805925 0.9096952 0.59438753 -0.2518608 0.98218995 -1.129857 0.2306984 0.10327016 -0.29675037 -0.33888236 0.068291456 0.2817881 -0.15354647 0.031995364 -0.8590129 0.58015305 0.49446025 1.0522008 0.43333665 -0.5095195 -0.7734155 -0.9412762 0.13606606 -0.37428173 0.35940835 -0.05798668 -0.38157764 0.23526233 0.6208473 0.13758372 0.8526497 -0.9464306 -0.17379734 -1.0843376 -0.3184944 -0.6712017 -0.30337042 -0.3016214 0.8393246 0.5650199 -0.27662036 0.38411087 -0.28413036 0.21544358 -0.9340816 0.4652787 -0.28005973 -0.5524175 0.27327493 0.26248968 -0.24943888 0.9936066 0.5607846 -0.4607563 -0.24863644 -0.11066487 0.47264805 -0.018184861 -0.44881895 -0.20316346 0.5974398
103 0.8747371 0.6903079 -0.6556013 0.13231678 -0.42912957 -0.19432482 0.027400734 0.63806826 -0.27262214 -0.11034571 0.43357652 0.30998135 -0.21608335 0.7111876 1.213007 0.234162 0.3822605 -0.38315815 0.8186737 -0.04248654 0.2215933 1.3760312 -0.26212382 -0.85727084 0.18949226 0.21543825 -0.36919624 0.69675016 -0.021495571 -0.7523496 0.4507327 0.91017586 0.13175668 0.9542055 -0.26338354 -0.42585906 -0.48145118 0.37061918 -0.54382175 0.29937223 0.20540503 0.22453101 0.35897833 -0.19694893 0.55529714 0.4231745 0.22706449 -0.27865985 1.5802869 0.7966264 0.033535454 0.018482607 0.17700702 -0.43792865 0.1879121 0.8429497 -0.36890736 0.19494705 0.25222307 0.4932571 0.23563586 -0.52814156 0.18752559 0.2760024
78 -0.29275087 -0.04903821 -0.47590384 -0.45860347 0.84846336 0.5494866 -0.5541883 0.9792179 -0.75545603 -0.207426 1.2062219 -0.32671154 -0.14087857 0.3691049 0.88856477 -0.103483215 -0.1884117 0.29345345 0.3931803 -1.0397218 0.58016825 -0.2034714 -0.21984218 -0.60724735 0.4877829 -0.512414 -0.5867556 0.25999317 -0.3838494 -0.5151869 0.4267591 0.6431563 -0.6160075 0.7773842 0.20185152 0.12526268 -0.43509886 0.7988927 -0.86050713 0.09290723 -0.73760384 0.001056656 -0.22705548 -0.037915673 -0.41027144 -0.31401837 0.28865218 -0.01668987 1.5536898 0.65829325 0.3907957 -0.055617366 0.052546345 -0.2934641 0.4889869 0.20430636 0.45141798 0.4471554 0.5544213 1.0293881 -0.6942474 0.14202724 -0.42521015 0.56092525
184 0.6185136 -0.6600587 -0.104432486 0.6465345 0.58479387 0.04358007 -0.17264001 0.35480422 -0.84388375 0.07674823 0.4650482 0.1508016 -0.16704719 0.42420864 0.3413897 -0.56820774 0.11913513 0.7997952 0.67352134 -0.6972338 1.0669123 0.17880936 -0.2440629 -0.9565712 -0.040300924 0.18653594 -0.90518975 0.29750472 0.42678133 -0.6642298 0.4591756 1.1782811 -0.56296325 0.5564138 -0.14292243 -0.21442674 0.061153796 0.61581516 -0.65398556 0.51832676 -0.3863618 0.685026 0.19316605 0.092871584 0.34782153 -0.3413156 0.4677626 -0.405333 0.69346875 -0.33229834 -0.46098015 0.24117497 -0.023155332 -0.3791822 0.3003589 0.4924376 -0.54887044 -0.4969808 0.41193697 -0.20905602 -0.6734081 -1.3215781 -0.39365306 0.19389991
206 0.6495625 -0.6943729 -0.024831316 0.68304944 0.5101068 0.13015726 -0.2568395 0.3953387 -0.8894244 0.15884426 0.44048083 0.14991435 -0.16890316 0.3460792 0.29975984 -0.47790885 0.13979565 0.8362614 0.65696985 -0.5919662 1.0634062 0.16417615 -0.3017445 -1.0036541 -0.046130423 0.116982386 -0.92688656 0.24598856 0.41487432 -0.62856436 0.61979496 1.1831315 -0.5378213 0.62957233 -0.19741483 -0.2803352 0.015122342 0.5995477 -0.63599575 0.50206566 -0.4334943 0.7398625 0.21172214 0.14385527 0.22684473 -0.36650288 0.48331928 -0.40030017 0.58475214 -0.33966535 -0.38690737 0.30588314 -0.014577406 -0.34813556 0.3207302 0.5158212 -0.504484 -0.4173127 0.37634218 -0.23229654 -0.64955837 -1.390078 -0.3872635 0.24832219
218 -0.23104346 0.2588863 0.7337724 0.3767808 0.87719303 0.979292 -0.23037958 0.6487555 0.13845183 0.1650508 -0.11796623 0.30301625 -0.22477141 0.4633205 0.06485104 -0.37232053 -0.3368156 -0.17029525 -0.11949111 0.35638973 0.5773204 0.25557268 -0.15846151 -0.6159931 0.38140476 -0.96104866 0.23199558 0.47223085 -0.43056786 0.03315075 0.6037334 1.1801845 -0.68195206 0.49501574 0.23737624 0.06132591 -0.61522365 1.4366195 -0.20296809 -0.010347494 -0.6069494 0.32653305 1.0136526 -0.09860971 0.7003638 -0.32929042 0.49351865 -0.47741622 1.4036937 0.39381316 -0.17905298 0.78774047 0.39231002 -0.3831652 0.03402209 0.44512486 0.22434779 -0.07887526 0.415394 0.9009679 -0.6069031 -0.009658194 -0.25823572 0.3837303
93 0.54719675 -0.45037362 0.49642667 -0.0025296195 0.3260725 0.73295355 0.15426682 0.033178136 0.032159675 0.28384963 0.06078343 -0.086180516 -0.35508406 -0.2116985 -0.18393755 1.0558468 0.0359681 -0.22304182 0.45717728 -0.46971408 1.3212521 0.08629397 -1.0527647 -0.31678048 0.81690717 -0.2181937 -0.084009215 -0.20846371 0.0031957172 0.016924117 -0.2951751 0.30106848 -0.4072673 0.28216377 -0.20251754 0.52754045 -0.35386708 -0.19690078 -1.2097145 0.31408307 0.32353598 1.5231874 -0.02178305 -0.85867953 0.88598764 -0.13230282 0.22453481 0.24785548 0.60324633 0.4662548 -0.5766718 -0.2868931 -0.2890944 -0.030652858 0.052501794 1.391145 -0.3983662 0.5212566 -0.13831216 0.48718858 -0.21214797 -0.09319512 -0.09728424 1.0455313
221 0.7266304 -0.4425555 0.5858214 0.5640873 0.058557574 0.4176125 0.33224624 0.73521346 -0.22283183 -0.31477022 0.6294608 -1.149217 -0.648272 -0.005427721 0.6674112 0.2120018 -0.14475879 -0.26648873 0.4987732 -0.75175655 0.32552823 0.060922023 -0.51309335 -0.84438705 0.26606783 -0.28821778 -0.6107401 0.14023566 -0.17936823 -0.41478303 -0.5102986 -0.40963435 -0.23373364 -0.42812297 0.32037267 0.32864594 -0.6044693 -0.24618296 -0.5013843 0.43207234 -0.8380894 0.41009897 0.44510528 -0.2989936 0.174727 0.090130225 0.49058607 -0.16053545 1.4399 -0.38960782 -0.89702517 -0.19759938 -0.48064902 0.16238715 0.3512091 -0.14933719 -0.32770222 0.77424186 -0.7460041 1.2036268 0.19136374 0.60477036 -0.5792975 0.08566217
165 0.44867256 -0.80420667 1.0216595 0.37023512 -0.5208439 0.4443561 -1.1911806 0.17174672 -0.09644955 0.6457438 0.39681432 -0.2603117 -0.3710622 0.31552804 0.3911742 0.60633963 -0.437997 -0.7731468 0.91152346 -0.18331294 0.4530231 -0.16160923 -0.7453366 -0.37115636 0.52726686 -0.10193925 0.15236121 0.4734351 -0.35094044 -0.178648 0.56454283 0.4732222 -0.034199085 -0.15241368 0.53482634 0.10280906 -0.74824005 0.23787105 -1.0078248 0.60178745 -0.1206675 0.86216486 -0.19385643 0.2844669 -0.34063724 0.104516484 -0.4611693 0.17477384 0.5839399 0.11627954 -0.11287982 -0.4203904 -0.30509773 0.9137164 0.2285242 0.65842205 0.08571764 0.44110927 -1.0106308 0.5787357 0.36379367 -0.2009633 -0.8889175 1.1734262
205 0.5496073 -0.5142224 0.6610071 0.05929546 0.2519715 0.6079614 0.22773892 -0.027827278 0.14825036 0.31443408 0.07037361 0.012571984 -0.3732895 -0.30492127 -0.13283823 0.93024343 0.09445058 -0.18934277 0.48086172 -0.49077657 1.3545285 0.017602976 -1.15691 -0.3728109 0.73932326 -0.10429043 -0.066125385 -0.21226014 -0.054576762 -0.03256677 -0.3234322 0.15772536 -0.40071335 0.14380807 -0.12245996 0.53713614 -0.35774964 -0.19694793 -1.1288452 0.4371222 0.36778238 1.5252547 0.014222935 -0.9059378 0.93005645 -0.16655576 0.2028286 0.22319356 0.7390036 0.49631083 -0.63932 -0.30595067 -0.4477205 0.025918089 -0.03825578 1.2502687 -0.41433796 0.49863908 -0.10562293 0.5059308 -0.12915981 -0.08144107 -0.098919 1.0039389
142 0.62102306 -0.5179812 -0.0023068343 -0.08025527 -0.47579086 0.94350106 1.0213954 0.45329627 -0.09683654 0.493599 -0.38567963 0.32839653 -0.35257217 -0.80372965 -0.111723974 1.0271846 -0.008284224 0.4700427 0.5052032 -0.46403155 -0.4720711 -0.0008860775 0.019777391 -0.51835907 0.83658683 -0.4371 -0.1183827 0.6177115 0.68856066 0.25260133 0.19014364 0.29576808 -0.044664294 -0.21765538 -0.4665469 -0.4792695 -0.22402322 -0.6442483 -1.490389 0.67989147 -0.46039015 0.97227764 0.2160048 -0.7970623 0.23806253 -0.23421605 -0.43569276 0.05549531 0.039481275 -0.37816158 -0.48699945 -0.57305384 -0.14111823 -0.006604887 -0.3038523 0.24503298 0.032641515 0.15780033 -0.54652804 0.012116023 0.33475322 0.5305148 0.28239945 0.4565652
214 0.45379627 -0.5297505 0.6315855 0.009154688 0.28497326 0.49756968 0.2157627 0.029710898 0.18955031 0.38242614 0.09979204 0.08874041 -0.3390614 -0.30221844 -0.21223542 0.9747974 -0.060060557 -0.3140081 0.4660147 -0.6926703 1.2686605 -0.0019485067 -1.041696 -0.3126525 0.757651 -0.023159692 -0.085675836 -0.2298414 -0.11347347 0.119847775 -0.28206068 0.12040878 -0.336736 0.1583374 -0.1636119 0.507616 -0.3128644 -0.14683178 -1.2031087 0.39168644 0.354828 1.516399 0.040102 -0.99954075 0.78418773 -0.2349202 0.20824383 0.2334665 0.6651937 0.48969513 -0.67582256 -0.35804164 -0.45754877 0.027920194 -0.05054142 1.219711 -0.37313983 0.5109508 -0.070635885 0.42766422 -0.16590823 0.053088743 -0.1875155 1.0484475
90 -0.130028 0.032796662 0.51238734 0.4714647 -0.776392 -0.6563459 0.5328278 0.18180716 -0.009307736 0.8188257 0.117482826 0.109328374 -0.58557874 -0.6495609 0.5752516 0.036332607 -0.2774408 0.7621733 0.073593795 -0.40406725 -0.29791206 -0.07631294 -0.37466398 -0.31238958 0.5957028 0.20895445 -0.105787806 0.19869973 -0.8069826 0.56761944 -0.2461109 -0.3185513 -0.034713782 -0.6348961 -0.5866907 -0.17217368 -0.5979628 -0.28059623 -1.2837718 0.16202997 0.36046147 1.2667742 -0.059585683 -0.5590516 0.19316052 -0.0026127917 0.31921625 0.32611153 0.30224577 -0.18564813 0.29789612 -1.1290935 -0.5544408 0.33513096 -0.54678184 0.034768194 0.13195902 0.46153578 -0.20112078 0.25187233 0.30678266 0.5968568 0.043773204 0.6152147
146 0.5870182 -0.507458 0.0070470897 -0.035034526 -0.44325417 0.9538919 1.0775387 0.37765285 -0.23495792 0.4925726 -0.36982492 0.4867093 -0.4259693 -0.8415245 -0.2270294 1.1002046 0.00855806 0.47355938 0.50638795 -0.5036207 -0.52508235 -0.007988677 0.05278257 -0.5778442 0.8715167 -0.45427713 -0.09991154 0.5510928 0.63816226 0.24693444 0.10066507 0.3546583 -0.06172671 -0.17914636 -0.5876522 -0.40868858 -0.22108875 -0.647358 -1.421406 0.6259609 -0.35002223 0.9397759 0.2997229 -0.8046142 0.26237497 -0.25564393 -0.49013907 0.0017986918 -0.07860063 -0.3808206 -0.38863724 -0.5522847 -0.026416382 -0.11042742 -0.3416314 0.25034955 0.06298971 0.18454012 -0.4227459 -0.06636014 0.24112275 0.43378088 0.3507297 0.56959844
167 -0.110852875 0.011680885 0.40976188 0.47580427 -0.8901401 -0.66565806 0.6097309 0.12397154 -0.21694003 0.75837797 0.04315633 -0.011886088 -0.45143044 -0.6408866 0.6376914 -0.024908615 -0.3207106 0.72349125 0.13288586 -0.350651 -0.38062757 0.08823204 -0.48379493 -0.2985883 0.600573 0.3107111 -0.2495139 0.15865341 -0.7926797 0.55165434 -0.23575552 -0.3164826 -0.10080642 -0.7440268 -0.505904 -0.09373404 -0.48191527 -0.5007206 -1.3726339 0.13872547 0.28889608 1.2192382 0.10675072 -0.6548031 0.24053502 -0.1627224 0.3263264 0.2914074 0.18228279 -0.2599484 0.37257656 -1.0699455 -0.5906801 0.27365282 -0.46779945 -0.06407423 -0.015652582 0.27941525 -0.3030811 0.30040956 0.22585708 0.4762682 0.0073870546 0.46608126
171 -0.16212665 0.017237695 0.41443178 0.5400279 -0.82339805 -0.7354669 0.5896167 0.2206221 -0.251004 0.67040694 0.021407895 0.07672752 -0.28987068 -0.822198 0.6067719 0.16688946 -0.50286025 0.7809048 0.06700405 -0.35168725 -0.4312924 0.19024482 -0.57255906 -0.3339104 0.5279139 0.24590288 -0.26589268 0.068800874 -0.93787664 0.4352469 -0.49492428 -0.23192456 -0.21717775 -0.57806003 -0.47162727 -0.15198135 -0.40511218 -0.41553205 -1.1336927 0.091768876 0.42650643 1.2900851 0.19170728 -0.548323 0.20915957 -0.09926066 0.38750347 0.21283947 0.26207164 -0.25258437 0.21599324 -0.9940849 -0.43134388 0.2527547 -0.40111616 0.027667949 0.14125688 0.47270617 -0.18740658 0.2540689 0.30765578 0.43675268 0.12487398 0.5692422
188 -0.15437266 0.08406993 0.35116002 0.5584802 -0.73899996 -0.6646492 0.69153625 0.17954169 -0.25351384 0.6315667 0.04313251 -0.036633544 -0.29202682 -0.76585394 0.5623403 0.08050093 -0.451985 0.69159424 0.083928004 -0.3215895 -0.42647845 0.40099502 -0.7108507 -0.30680627 0.62904406 0.26595402 -0.3637752 -0.10017774 -0.91072226 0.44679165 -0.5025575 -0.20264693 -0.26900157 -0.62033874 -0.398571 -0.07349025 -0.34419483 -0.54465425 -1.3498676 0.106243595 0.3456373 1.3384999 0.2932618 -0.6261138 0.34803066 -0.37023076 0.48372218 0.36234432 0.24275254 -0.17208917 0.40037337 -0.9278658 -0.4587816 0.1842732 -0.36379343 -0.09138027 -0.04239984 0.37665612 -0.1416528 0.27312398 -0.01135479 0.29163367 0.054245062 0.45211598
198 0.5496258 -0.35359922 -0.06897161 -0.16684003 -0.41772866 0.8923178 1.1446196 0.43671322 -0.20314065 0.48640946 -0.42666486 0.2050495 -0.1707532 -0.8606594 -0.18760371 1.0563416 -0.012201279 0.5553506 0.3422844 -0.3898544 -0.6436567 0.07576046 0.014633895 -0.6154949 0.85641634 -0.4266612 -0.044235874 0.547696 0.48334292 0.22012338 -0.03826682 0.3921698 -0.035949964 -0.18135387 -0.5739325 -0.4903741 -0.070211664 -0.7323874 -1.3414758 0.53742826 -0.3899606 0.9284295 0.4068853 -0.8220219 0.1945737 -0.40850267 -0.44996598 0.059154026 0.0055996436 -0.3573167 -0.3345138 -0.5813252 0.01628863 0.07397758 -0.33894578 0.31759143 0.10836064 0.2107416 -0.43132162 -0.05369833 0.15366048 0.57834554 0.4632755 0.49762475
118 0.42285424 -0.3821367 0.06538657 -0.0040306686 -0.4963896 0.81709284 1.0890396 0.36440906 -0.32470775 0.4301026 -0.3673132 0.4670284 -0.30483413 -0.89728385 -0.22102673 1.0903802 0.0477474 0.57472056 0.330314 -0.42745072 -0.72323817 0.082582325 0.10770548 -0.6957631 0.84933835 -0.47964147 -0.20901112 0.46120614 0.45251983 0.1708394 -0.09466724 0.30357438 -0.07708506 -0.117041744 -0.6700934 -0.42506477 -0.19472875 -0.65255797 -1.3267596 0.56107897 -0.2947928 0.8239904 0.39319322 -0.73411995 0.23756431 -0.2696388 -0.47108513 -0.01846503 -0.07378711 -0.4440429 -0.23337732 -0.58139867 0.11375385 -0.15780698 -0.42926058 0.2420857 0.20090005 0.21617705 -0.26274335 -0.10801128 0.114618875 0.5146 0.5090718 0.5371394
153 -0.40102312 -0.9473509 0.99768305 -0.30722544 -0.47388235 0.6428536 1.2164148 -0.11092122 -0.28013384 0.7581203 -0.50784874 -0.12696777 -0.19240236 -0.23355474 0.58907086 0.3627988 -0.0005505445 0.2776275 0.55734086 -0.25558826 -0.85562676 -0.38212362 0.12658936 0.16102372 0.5408012 -0.24125038 -0.23840979 -0.011440447 -0.4519264 0.1625272 -0.6118144 -0.24871962 -0.012365788 -0.5354313 0.29068854 0.18314603 0.28631786 -0.17825007 -0.2768506 0.12473764 0.30131525 0.6918274 0.2537717 -0.07613001 0.22242315 -0.13193776 -0.061426044 -0.40684924 0.12983656 0.32594007 -0.3665751 -0.42351502 1.1974528 0.18194087 0.15906213 -0.8652807 0.6199682 -0.39573735 -0.55737615 -0.4478659 -0.2342838 0.1502296 -0.4366605 0.32775941
122 -0.9353348 -0.7952804 1.123133 -0.072863616 -0.20023076 -0.4807955 -0.26499778 -0.20259304 -0.74494183 0.15814959 -0.015736941 -0.21588072 0.273103 -0.57061696 -0.048197247 0.7766871 0.20268202 0.24792536 -0.16232109 -0.49457458 -0.59892684 0.8224484 -0.3970488 -0.8141059 0.7285689 0.32233977 -0.3953478 -0.637589 -0.69235563 -0.51677656 -0.78671616 0.5197676 0.21126033 -0.3705515 -0.1615042 0.043353826 0.04849333 -0.33141196 -0.38512328 0.66001236 0.14256285 0.657993 0.5400798 -0.1630819 0.5140468 -0.44025522 -0.6276898 -0.10568912 -0.008307332 -0.033389844 -0.08100665 -0.36919695 0.34837487 0.23628959 -0.2333962 -0.089345045 0.48311856 0.24247919 0.09187516 -0.08890488 -0.51978886 0.46444207 -0.26934126 0.1363094
74 -0.8675872 -0.80627495 0.6551436 0.107407585 -0.34277004 -0.61484504 -0.34614176 -0.36683843 -0.84966576 0.23596285 -0.021869978 -0.099698335 0.13737178 -0.7197895 0.24611005 0.64772063 0.06549771 -0.029360516 -0.122200094 -0.29444206 -0.65894043 0.9547629 -0.5463721 -0.9182933 0.7644628 0.09088183 -0.25424987 -0.56987315 -0.63801163 -0.5761979 -0.62900484 0.26982442 0.50062567 -0.18572867 -0.3075536 -0.31571397 -0.082193255 -0.40426075 -0.3014031 0.8205304 0.106037185 0.47646782 0.702221 -0.14441955 0.46671805 -0.14382154 -0.7013608 -0.19942968 0.13894303 -0.24603665 -0.20184025 -0.33677208 0.16784509 0.31085527 -0.40996915 0.034905687 0.8055971 0.3707588 -0.03147576 -0.06493628 -0.51342964 0.54203916 -0.32360342 0.28866574
106 -1.0875286 -0.8732358 1.2193352 -0.18735585 -0.2905428 -0.3936409 -0.15416211 -0.16840461 -0.57767296 0.022067675 -0.053247068 -0.25216845 0.17301404 -0.39745936 -0.07724882 0.77265114 0.13132457 0.31133857 -0.17023708 -0.32036036 -0.60138494 0.8230313 -0.53737944 -0.73835975 0.8444691 0.21295641 -0.45563325 -0.4502288 -0.7060184 -0.717062 -1.0402205 0.2396181 0.4014475 -0.35905138 -0.037433922 -0.033788633 0.21494518 -0.18771191 -0.46338928 0.58570373 -0.0027272415 0.8063472 0.72611755 -0.32111037 0.5466929 -0.3880722 -0.45257834 -0.020929726 -0.1055287 0.132767 -0.19501226 -0.33245257 0.41916308 0.08427545 -0.35882193 0.07271281 0.35281697 -0.045455907 0.07859662 -0.1065142 -0.4670394 0.48469663 0.049434133 -0.17846589
215 -0.6410438 -0.9079284 0.948392 -0.41896507 -0.1558095 0.5503422 0.9752339 -0.36498907 -0.32317314 0.64904565 -0.5049886 -0.19617496 -0.18332338 -0.27015868 0.7128448 0.40112224 -0.038222484 0.045898404 0.30986893 -0.30628118 -0.8129783 -0.37967864 0.050930463 0.14705195 0.5941194 -0.24199903 -0.30794877 -0.0026335432 -0.34406304 0.32986188 -0.5714928 -0.17903613 -0.15884948 -0.6065201 0.19252263 0.108860284 0.29239702 -0.21282211 -0.21107206 0.062828444 0.3481222 0.54712504 0.15218267 -0.1651914 0.37227502 -0.23913015 0.11184979 -0.409989 0.15969668 0.20319246 -0.3967981 -0.46079838 1.1589421 0.38930815 0.05077555 -0.83261734 0.6007303 -0.4631054 -0.53941184 -0.53263086 -0.15110111 0.0037026876 -0.62852925 0.09330268
85 -1.0596964 -0.7661393 1.2450714 -0.31858212 -0.1154947 -0.44174272 -0.03386729 -0.12608397 -0.46084425 0.0012340528 -0.048894238 -0.32190728 0.36914656 -0.26708165 -0.03446756 0.8717666 0.11398266 0.37429783 -0.06907914 -0.4557952 -0.6497934 0.9231592 -0.36205387 -0.5126928 0.9242031 0.3566547 -0.713673 -0.5428963 -0.5767993 -0.7003118 -1.0364343 0.39939564 0.28619844 -0.42259407 0.04585911 -0.013004164 0.22521892 -0.16148014 -0.5426716 0.4981569 0.033280294 0.87149906 0.47061318 -0.4130721 0.71713895 -0.5399671 -0.33015627 -0.06309347 -0.09839816 0.29693395 -0.09922966 -0.35118628 0.44762838 0.06946569 -0.31735653 -0.045413014 0.29789108 -0.054322228 0.09871542 -0.09438335 -0.46745917 0.48595825 -0.08296383 -0.22914006
155 -0.3403457 -0.2925769 0.11855138 -0.5134593 -0.4860648 -0.11622173 0.14072731 -0.21924901 -0.26694655 -0.02144991 -0.5618555 0.25627327 -0.119969405 -0.27132213 0.8776579 0.0033120918 -0.015828466 0.7002976 -0.048030723 -0.094102144 -0.11116774 -0.19118421 0.5158099 0.20609717 0.63834715 0.10747114 0.018183047 -0.35009766 -0.3208588 0.12790953 -0.40310857 0.08966408 0.88796437 0.19612193 0.11254151 -0.83915114 -0.08220228 0.24918742 -0.6797948 0.2991101 -0.59690404 -0.11375268 -0.851289 -0.7740291 1.0275658 0.23910971 0.19420846 -0.34453303 -0.21374649 -0.63066715 -0.2725382 0.14261457 -0.18446909 0.089469 0.53529584 -0.0027465017 0.15848362 -0.49186411 -0.7975961 0.23870128 -0.10388873 0.20026968 -0.7071238 0.3232637
44 -1.1220528 -0.8357038 0.13668118 -0.6629297 -0.3708979 -0.24262969 0.8615559 -0.21161164 -0.67458254 0.46983713 -0.4454605 0.61647856 0.10329827 -0.6083884 0.5252859 0.7885766 0.56533444 1.1584542 -0.6100016 -0.651533 -0.28052798 0.23954391 0.13569753 -0.42399138 1.091145 0.60225916 -0.078081936 0.09431342 -0.22291371 0.077922694 -0.32377604 0.4786743 1.0181735 0.17921455 -0.81843203 -0.41911906 -0.110189795 0.4054584 -1.0758511 0.62955993 0.08537843 0.31102723 -0.23190722 -1.7603914 1.2184119 -0.34447554 0.035878174 0.28528953 0.105501644 0.107218124 0.41786668 -0.47551718 0.031757716 0.35548013 -0.42211133 0.32456896 -0.4079467 -0.6047361 0.09260595 -0.18124428 0.2482691 0.8207369 0.15319929 0.030676272
132 -0.9693551 -0.7319471 0.17821896 -0.6478979 -0.25264847 -0.33273587 0.756993 -0.13390024 -0.6299379 0.2982914 -0.340734 0.61518335 0.065778576 -0.7380502 0.66401464 0.818635 0.60666794 1.0352677 -0.64806587 -0.8081265 -0.2680582 0.27571145 0.21961722 -0.49931848 1.1094153 0.65064925 -0.31701958 0.10194505 -0.3498407 0.17868946 -0.2676781 0.5731928 1.0088198 0.08882874 -0.80354327 -0.5045927 -0.099284805 0.38889453 -0.95208174 0.50494766 -0.029342964 0.37761262 -0.30881694 -1.8383541 1.2144525 -0.13113494 -0.051285602 0.14810245 -0.010888143 0.18937984 0.33160633 -0.6662594 -0.16456702 0.42606455 -0.5708339 0.49755698 -0.25389588 -0.43959022 0.16924316 -0.30453247 0.19961599 0.75911844 0.059932288 0.00019032633
54 -1.0089091 -0.90881985 -0.2721087 -0.9720541 -0.18321827 -0.028649135 1.1841515 -0.7549515 -1.2589831 -0.17683583 -0.41855827 -0.08224148 0.11570776 -0.64001477 0.64575326 0.52366394 0.6868805 0.8539865 -0.5394579 -1.0077343 -0.30992076 -0.078806855 -0.1522354 -0.6615292 0.65500057 0.46170485 -0.004468971 0.23826143 -0.84436595 -0.08642413 -0.65580094 -0.05236654 0.7737379 0.0288798 -1.222658 -0.22967795 -0.06011257 -0.49391907 -0.59358126 -0.27650973 -0.0030548053 0.20876206 -0.14768623 -1.8930521 1.2508597 -0.6921864 0.032332107 0.15824026 0.33499005 0.02264226 0.07213242 -1.0167538 -0.3395335 0.09972752 -0.3862299 0.31060556 -0.07332313 -0.16956334 0.4274169 -0.08256333 -0.10851401 0.70683795 0.17662871 -0.57699543
151 -0.9793778 -1.0023841 -0.20771304 -0.9423724 -0.12405957 -0.0863942 1.2936201 -0.7827844 -1.1473287 -0.15238367 -0.23746184 0.1390996 0.108897164 -0.7913119 0.6303159 0.56343526 0.5362291 0.97392464 -0.6255844 -0.8731323 -0.17264023 0.007006774 -0.041912626 -0.79097366 0.4846442 0.44513705 0.056593813 0.12643024 -0.9366927 -0.018007394 -0.6530105 -0.17141587 0.6362211 0.07150167 -1.1181042 -0.25749108 -0.17988862 -0.25951004 -0.79206836 -0.24653481 -0.033010066 0.1027288 -0.268616 -1.8393731 1.2878555 -0.76180387 -0.15935123 0.27960518 0.36551604 -0.0036518672 -0.09799692 -0.90784854 -0.20757197 0.23561788 -0.5668995 0.41212842 0.012461409 -0.31413725 0.38869524 -0.071500205 -0.11734372 0.6944858 0.14232644 -0.66691905
147 -1.6011033 -1.0733953 -0.32984883 -0.7806952 -0.2406008 -0.4560507 0.7963399 -0.25531745 -0.93988216 0.44369692 -0.5649886 0.69081634 -0.018783482 -0.65576005 0.47752976 0.53557914 0.1145259 1.0857489 -0.5854525 -1.1933933 -0.25983754 0.14270367 -0.4594116 -0.435942 1.2580276 0.19879559 0.127017 -0.17384124 -0.8250978 -0.13043448 -0.30776817 0.42295378 0.66397864 -0.04554915 -0.64026207 -0.22465397 -0.29131263 0.09775158 -0.9397617 0.06499752 -0.11062696 0.26918778 0.07315339 -1.6612881 1.2657986 -0.2698739 -0.08462197 0.097418934 0.39866114 -0.079731666 -0.25389278 -0.4712096 -0.20058523 0.047269624 -0.17732468 0.5883802 -0.20527504 -0.44334576 0.5754152 0.22107309 -0.12310148 1.0747936 0.39868367 0.17410785
192 -1.3653404 -0.96621066 -0.39179024 -0.7968845 -0.22243503 -0.57428396 0.91760343 -0.114849105 -1.0050529 0.44336593 -0.62339854 0.62322366 0.11517592 -0.72825783 0.443982 0.50545454 -0.008262561 1.177616 -0.56486344 -1.0999233 -0.3200663 0.18581642 -0.5058207 -0.3790836 1.0944104 0.49062586 0.02614491 0.012817321 -0.79418796 -0.16752511 -0.40393868 0.46652836 0.75115424 -0.22329634 -0.59100115 -0.3103591 -0.34120864 0.2510567 -0.9993346 -0.018984728 -0.17208493 0.2795462 0.16129838 -1.5847406 1.2719796 -0.40012434 -0.06720482 -0.1604894 0.11004412 0.12601037 -0.31620678 -0.5267605 -0.3232433 0.11520088 -0.13130106 0.62899095 -0.15910585 -0.4275984 0.6042589 0.103629865 -0.06764935 1.0721084 0.4243272 0.21151234
157 -0.17239842 -0.59016275 -0.06539654 -0.34446344 -0.98413384 -0.12792139 0.39618826 0.27798027 -0.14668277 0.30113852 -0.80336696 0.15174256 -0.22627829 -0.63893616 0.8672452 1.344173 0.091507226 -0.035955474 0.093246184 -0.9212555 -0.25386664 0.14701895 -1.4564009 -0.3557547 0.67260045 0.08468922 0.08751686 -0.12279207 -0.23279288 -0.41959417 -0.22870134 0.25173873 0.52861404 -0.38944173 1.1015306 0.05205825 -0.5680268 -0.67240065 -1.2442814 0.50755066 0.06667881 0.79800147 -0.44998917 -0.9018968 0.6166528 0.14904428 0.28701055 0.030309016 0.52621585 0.26643735 -0.35208973 -0.60808706 0.20833218 0.77978486 -0.24367982 0.10853218 -0.043424424 -0.21141987 -0.96384805 0.03355118 0.06567614 1.2078837 0.07208893 0.14480844
203 -0.11348751 -0.612933 -0.05411798 -0.40601438 -0.9682145 -0.124524675 0.44232464 0.2362523 -0.22744384 0.3539018 -0.8559804 0.13457641 -0.16877607 -0.6373659 0.9045916 1.3285135 0.17725343 -0.08476382 0.15503106 -0.8744254 -0.2975488 0.13365068 -1.3702227 -0.43364528 0.65864354 0.088045776 0.13730136 -0.08039864 -0.2597514 -0.4323738 -0.3303794 0.1335465 0.5811296 -0.38012913 1.0812248 0.100404575 -0.52824503 -0.7031367 -1.2181259 0.5099162 0.06576636 0.76698303 -0.42648524 -0.8561315 0.60313404 0.24198155 0.32058835 0.11173633 0.52415824 0.2768152 -0.38334692 -0.6078333 0.18122487 0.82355994 -0.21783455 0.16610728 -0.05702599 -0.1912202 -0.927941 0.020149674 0.10440753 1.1840923 0.04430693 0.18954448
140 0.017534755 -0.78301984 -0.7333502 0.08347885 -0.7638488 -0.42098334 0.31583974 0.4396641 -0.08019753 0.68214804 -0.5160456 0.01637061 -0.2363278 -0.22855335 0.67938733 1.1339734 -0.12935945 -0.04483116 0.65578794 -1.3625195 -0.33417332 0.007931311 -0.6465336 -0.18104464 1.8807518 0.25705883 -0.9725411 -0.0865372 -0.1254638 -0.48793286 -0.2626652 -0.06819132 0.49122187 -0.42463532 0.32514688 -0.059992414 -0.7103289 -0.33929485 -0.90199965 0.5917982 -0.33729765 0.9154217 0.3361937 -0.42240146 0.07422054 0.3486018 -0.46176937 0.15737477 0.70202 -0.7805973 -0.38945413 -0.95351017 -0.07050202 0.247588 -0.32492107 0.07850328 0.11902025 0.32449397 -0.5440305 0.077555396 -0.27676594 0.87102956 -0.1370713 0.3490999
189 -0.08761694 -0.5739129 -0.8013421 0.15187828 -0.7508122 -0.3996896 0.3767833 0.13946387 -0.10742067 0.4702547 -0.5774109 -0.0694364 -0.1748284 -0.1710872 0.64637095 1.0594289 -0.2099603 -0.0025897727 0.74704516 -1.3772429 -0.46305898 -0.012097435 -0.6093778 -0.35986847 1.6831803 0.24406168 -1.0562654 0.005616552 -0.1636738 -0.39661983 -0.27376875 0.012074173 0.53977096 -0.45571253 0.35416123 -0.049608715 -0.63674563 -0.3416054 -0.9655348 0.5846811 -0.27682033 1.0807505 0.26098368 -0.42945498 -0.013878688 0.33106893 -0.38715085 0.037041932 0.824041 -0.71193314 -0.24772125 -1.0901537 -0.17594889 0.2383709 -0.2571951 0.09543642 0.22265662 0.37149495 -0.6237751 0.061492827 -0.37129876 0.96729773 -0.16286485 0.17834365
23 -0.49354336 -0.7804143 -0.26104498 -0.46272862 -0.71048164 0.014426372 0.2208712 0.13478309 -0.6743306 0.33906865 -0.63368154 0.050479062 -0.27677602 -0.46174374 0.4593936 1.0283402 0.15805633 -0.14046484 0.3553156 -1.6978794 -0.23007661 0.13885643 -0.76840675 -0.5955077 0.9203435 -0.06317271 -0.30054376 0.2422691 -0.41911218 0.40724045 -0.28226665 -0.33704257 -0.18710802 -0.3780935 0.36369526 -0.41500008 0.17073847 -0.9733921 -0.96789545 0.5702342 0.2889835 0.27194694 0.03918215 -0.27581477 0.7607493 0.35160077 0.1973572 0.14951724 0.9806316 -0.9889149 -1.1654952 -0.74914664 -0.005419469 0.28594086 -0.4032425 0.8060894 0.6247969 0.044235718 -0.38002005 -0.14489047 -0.14527893 0.565419 -0.10891405 0.2399015
73 -0.56261784 -0.68842846 -0.18421364 -0.41368517 -0.6141852 -0.019036887 0.19175951 0.2790232 -0.50227535 0.44530335 -0.57518137 -0.034488212 -0.5230438 -0.52214295 0.2882415 0.86499125 0.30698112 -0.18214802 0.46637955 -1.6116422 -0.14541785 0.17652258 -0.85211235 -0.66248596 0.8618431 -0.09205905 -0.35133407 0.2735171 -0.33971435 0.49196047 -0.14943667 -0.3330974 -0.21742788 -0.45049328 0.38395515 -0.47423562 0.04445518 -0.9462445 -1.118219 0.67816615 0.37908542 0.41931772 0.12739798 -0.34459475 0.71675855 0.42367834 0.050018836 0.086894915 0.97335786 -0.80890155 -1.1814132 -0.7331119 -0.14630741 0.37816718 -0.53935856 0.7832698 0.77019495 0.15583855 -0.4095636 -0.20754077 -0.19160803 0.6183192 0.016268935 0.17210704
113 -0.40862188 -0.14379232 0.11188788 -0.06423301 -1.1021322 0.38210392 1.1464887 -0.48850477 -0.2675834 1.0528545 0.18910827 0.35214937 0.28319556 -1.1054668 0.7534469 0.92129046 -0.069825344 0.6377021 -0.14707083 -1.0036141 -0.5248931 0.07255517 0.027232694 -0.50232774 1.010164 0.34179398 0.54759055 0.26513803 -0.2017395 0.16321187 -0.28127334 0.99308276 0.06883114 0.0033230484 -0.81176823 0.27766436 0.021587938 0.27765667 -0.9656358 -0.44219354 0.21425578 0.32851443 0.7545487 -0.8633064 0.51629 -0.672066 0.034156222 -0.2395014 -0.19066353 0.12285945 0.25769377 -0.9931441 0.24153405 0.22006825 -0.7760669 0.43634126 -0.58878773 -0.14482203 0.32966793 0.089357555 -0.040323805 0.23320796 0.022160295 0.6306384
160 -0.44983825 -0.16461666 0.080143146 -0.09115792 -1.1265057 0.3505841 1.1557674 -0.46601883 -0.27780324 1.0742146 0.179169 0.37848738 0.26079 -1.12709 0.7434475 0.9476434 -0.025415055 0.660582 -0.17630664 -1.0403161 -0.52534896 0.046365593 -0.012351513 -0.49836272 1.0591217 0.32270333 0.53979117 0.26062843 -0.22823384 0.1367792 -0.27792174 1.0161723 0.12294488 0.037292987 -0.76095086 0.28622738 -0.05670384 0.26634884 -0.9418944 -0.4265901 0.19406866 0.29994178 0.7240091 -0.8692708 0.4753447 -0.697861 0.033914197 -0.21103251 -0.18978655 0.12037802 0.2632943 -0.928901 0.21318722 0.26125386 -0.7140941 0.40719837 -0.677239 -0.1351658 0.376672 0.11914554 -0.0932864 0.22544815 0.04974452 0.65538484
182 -0.11921894 -0.091214836 -0.026062086 -0.3382271 -0.3941548 -0.09023485 1.4828544 0.10802249 -0.82211614 0.65124035 -0.19273321 0.36833242 -0.6051584 -0.6270622 0.5817163 0.43760148 0.66639775 0.7194 -0.311762 -0.7068368 -0.1625037 0.050619222 -0.03716626 -0.08799939 1.0483742 -0.32805946 0.59185237 0.53972524 -0.78924185 0.09401149 -0.7916493 0.55125403 0.262105 -0.2598426 -0.60944176 0.031552613 0.03988575 0.45645368 -0.99849796 0.077572905 0.64406717 1.1087497 0.2649813 -0.739096 0.5951554 -0.8727716 -0.3463861 0.1737118 -0.3470193 -0.21159734 -0.26844066 -0.43110767 -0.38610825 -0.22053228 -0.3758213 -0.33669725 -0.20227656 -0.5588102 0.016324004 -0.14714855 -1.2793472 0.49292424 0.957978 0.6166855
38 -0.095030904 -0.07848051 0.0022464937 -0.32537353 -0.34339076 -0.08052853 1.481522 0.10340459 -0.8121901 0.63700306 -0.16939546 0.3979598 -0.59475356 -0.6402261 0.6171897 0.40255606 0.6574837 0.67838955 -0.35382876 -0.68252504 -0.1867151 0.080306426 0.040610325 -0.102062896 1.0501026 -0.27283922 0.59387165 0.5658316 -0.7334989 0.11625946 -0.7972566 0.52165604 0.23130974 -0.27611807 -0.6532332 0.0059629222 0.09411105 0.4808425 -0.9955772 0.11279387 0.66836786 1.0920914 0.26227883 -0.7090005 0.6042943 -0.8500443 -0.34540737 0.21837974 -0.32695803 -0.21826717 -0.2786347 -0.44852793 -0.43924776 -0.23427853 -0.41177332 -0.30605412 -0.19223318 -0.5912917 0.017151898 -0.19612035 -1.2395682 0.5387666 0.91628265 0.6136372
110 -0.7850645 -0.36002663 0.19363967 0.068120606 -0.64962816 0.5347784 1.2055317 0.18887383 -0.33821452 0.8465849 0.028027046 0.06648264 -0.36280334 -0.38097268 0.49339315 0.18960407 -0.15871912 -0.20482221 -0.15903316 -1.1380651 -0.49554595 0.30899426 -0.27346498 -0.38291228 1.2147454 -0.311412 0.68355453 0.43817517 -0.4149398 -0.43803006 -0.38875538 0.0188544 0.16034324 -0.63601375 -1.3379673 -0.036143944 -0.5179194 -0.4000002 -0.7542099 -0.18252538 0.37755364 1.2791648 0.94846344 -0.5224105 0.6662953 -0.05905008 -0.46247965 0.02004397 0.5274485 0.4314081 -0.6196575 -0.89801186 0.036856536 -0.26249373 -0.43234807 0.057149924 0.29475206 0.51129097 0.896925 0.14612989 -0.31366262 1.061617 0.7097729 0.08654247
61 -0.85888356 -0.33834285 0.10851441 0.14296255 -0.65353197 0.5166926 1.199593 0.11439851 -0.28354836 0.83576965 0.024003124 0.12962097 -0.43016317 -0.3571422 0.5096762 0.16381148 -0.1833043 0.0128865205 -0.18220721 -1.2273967 -0.40996242 0.27278683 -0.31818035 -0.4583657 1.2175156 -0.24076754 0.6120017 0.35545623 -0.38847002 -0.43895456 -0.3571108 0.10304286 0.19213498 -0.6002786 -1.335696 -0.028756365 -0.4577302 -0.36800125 -0.7438461 -0.14304224 0.308279 1.2850939 1.006364 -0.46746892 0.66993594 -0.06275723 -0.39981994 -0.03424154 0.5818621 0.3841277 -0.5679892 -0.8942453 0.0201885 -0.37891817 -0.5025918 0.0980726 0.32273048 0.52632564 0.9562332 0.059203606 -0.35849878 1.0950317 0.6447134 0.056979313
34 -0.21156776 -0.66111183 -0.62829226 0.055103034 -1.2998626 0.48392698 0.6628433 -0.44726866 -0.66086274 0.5798743 -0.30501303 0.17425689 -1.0927291 -0.52904963 0.5323347 0.76025885 -0.45651123 0.7132206 0.22767998 -0.9146599 -0.15837497 0.277865 -1.4046391 -0.29616264 0.96315193 -0.3166387 0.18829782 -0.6889238 -0.3374038 0.07425329 -0.14099026 0.81275684 -0.086741455 -0.010359956 -0.15159579 -0.16456722 0.36044994 -0.62992024 -1.0694876 -0.29085642 0.11377662 0.9374076 0.47824866 -0.91262007 0.35219887 -0.5670751 -0.1001156 -0.08714601 0.33676744 -0.26602706 0.037919264 -0.87536174 0.5270055 0.10743197 -0.48243666 0.8006388 0.5467648 0.08625457 -0.49811968 -0.25163063 -0.60237914 -0.2579556 0.5436849 0.16102286
158 -0.2690372 -0.6378562 -0.5545784 0.014733887 -1.313341 0.47114536 0.6561143 -0.41891766 -0.7117294 0.60669845 -0.3222195 0.15122564 -1.1041737 -0.5600939 0.53690284 0.74670345 -0.39227736 0.6950287 0.1606679 -0.9114582 -0.20273422 0.2785189 -1.3846716 -0.25528285 0.908212 -0.3866646 0.2276452 -0.66784936 -0.38301903 0.10799941 -0.1383102 0.7904497 -0.12935764 0.03043346 -0.13018855 -0.21744885 0.3649031 -0.6333483 -1.0676427 -0.2799075 0.14065333 0.90851873 0.5200217 -0.89564216 0.39334175 -0.6457639 -0.06072968 -0.0723903 0.32324204 -0.24875237 0.041726984 -0.76991296 0.56334776 0.1702846 -0.45004705 0.8206087 0.5243063 0.099839814 -0.48666492 -0.30763853 -0.63134235 -0.2708935 0.6755658 0.17971064
150 -0.5203357 -0.7866447 0.060266946 -0.5368927 -0.9622806 0.23822333 0.5597965 0.14927924 0.29583916 0.7120229 -0.54397714 -0.07408881 -0.18587945 -0.101158045 0.4163538 0.9268747 0.34992766 0.1528109 0.07930373 -0.04403056 -1.3651909 0.053268533 -0.7967985 -0.71125233 1.5496422 -0.25971383 -0.028804222 0.23569487 -0.6943445 -0.24399127 -0.77591527 -0.8343019 0.81959754 -0.18844669 -0.57826716 -0.49407744 -0.8083003 -0.15604442 -0.9128221 0.9255206 0.06761414 1.2870835 -0.3439728 0.1585846 0.1167244 0.33329603 -0.34468174 0.48297936 0.9042289 0.72200114 -0.3574319 -0.45360154 -0.2376367 0.2618793 -0.6547278 -0.29288507 0.30609274 0.07171106 0.11805999 0.48494735 0.3617394 0.48057476 0.5922742 -0.20027293
124 -0.5624221 -0.7928641 0.02557428 -0.54981047 -0.9734466 0.22910222 0.54676837 0.17771085 0.28787932 0.68827283 -0.55474085 -0.08699555 -0.22948673 -0.07521445 0.40036538 0.9090637 0.35970774 0.17924984 0.11075149 -0.12746327 -1.362996 0.019498132 -0.7526678 -0.730378 1.5452169 -0.26503834 -0.083111346 0.26233953 -0.72083825 -0.1382575 -0.7812498 -0.8500534 0.7642666 -0.19464187 -0.58333963 -0.55801183 -0.77077943 -0.1753285 -0.8830797 0.9972129 0.057574153 1.2310942 -0.3575062 0.1555383 0.12161801 0.39433917 -0.35028005 0.46934167 0.95077866 0.6206278 -0.4013953 -0.49727228 -0.25860527 0.21536864 -0.6611651 -0.22763331 0.32107198 0.05714747 0.11127137 0.4999442 0.40032795 0.46491596 0.5383597 -0.22733833
176 -1.247116 -0.62638557 0.95433676 0.58296996 -0.323654 0.46008557 0.3358545 0.65179944 0.48122177 0.5060891 0.20631664 0.31864047 -0.59352434 -0.5370923 0.27594686 -0.34917378 -0.44722205 0.15152353 0.020645725 0.04032759 -0.8965281 0.10120405 0.037310943 0.58571976 1.130806 0.4210343 0.8628892 0.24474946 -1.1738807 0.03850239 -0.44504508 1.3978044 0.87594116 -0.38326225 0.8543416 -0.0343334 -0.71703666 0.35236424 -0.57198405 0.15502371 -0.6522674 0.3473356 0.52456224 -0.6982882 0.31463388 0.26573837 -0.09020235 -0.21474734 0.09812693 0.35362932 -0.28460002 -0.257585 0.25038 0.7581815 0.59778047 -1.4717238 -0.4012869 0.05388018 -0.22551392 0.015541258 -0.36687115 0.698649 -1.1674099 -0.011809027
45 -1.2889061 -0.67304444 0.87397194 0.6260329 -0.3535974 0.4815082 0.3255519 0.64363986 0.42782995 0.49433064 0.28460467 0.33343285 -0.64343405 -0.52918094 0.3355253 -0.4171642 -0.48007628 0.08190197 0.0140053835 -0.07996426 -0.90707505 0.09109086 0.037666086 0.6023802 1.1200259 0.4409671 0.9096831 0.2126972 -1.2155074 0.029473381 -0.4471681 1.3486131 0.8587783 -0.37205648 0.8287922 0.00080790144 -0.6311386 0.32811284 -0.65191656 0.06873779 -0.60536575 0.31439608 0.5600718 -0.6731271 0.27867645 0.29292467 -0.11540407 -0.2313836 0.198721 0.3001942 -0.3568091 -0.29459026 0.20274659 0.75246054 0.63777494 -1.455597 -0.44109342 0.0065980908 -0.314649 0.021286434 -0.3298281 0.73765373 -1.1488773 -0.0535141
114 0.026668325 -0.32519913 0.41832313 -0.19716065 -0.41500008 -0.22595358 0.78138906 -0.34261784 -0.17302175 0.4487693 -0.043822635 -0.4592705 -0.14927876 -0.22424987 0.92655325 0.7244107 0.66030294 0.6017928 0.23926938 -0.4252176 -0.7365152 0.78449 0.69849646 -0.5385847 1.0205564 0.7625523 -0.43603027 0.3558531 0.28478992 0.09006412 -1.0231425 0.05077937 0.5496623 -0.6300195 -0.7858346 -0.3363174 0.5502066 0.3671327 -0.9036456 0.47999033 0.4844987 0.6573957 -0.0048239036 -0.55282533 1.162338 0.102646515 0.108159445 0.11074986 0.079493836 -0.6023495 -0.34887314 -0.9868286 0.1778868 0.03130405 -0.8788794 0.25770214 0.31662002 -0.5113094 -0.4970505 -0.5366635 0.2027347 -0.18551855 0.22335553 -0.14704445
94 0.038132798 -0.24618745 0.41606408 -0.23259328 -0.48015743 -0.23822059 0.853119 -0.31073433 -0.1236654 0.37521473 -0.13440467 -0.41239357 -0.11637696 -0.21926734 0.83090615 0.7644664 0.6853044 0.5645303 0.30651805 -0.23163953 -0.8383528 0.61610806 0.857242 -0.59297454 0.89138526 0.75999165 -0.36912498 0.26407406 0.2722808 -0.06332921 -1.1913152 0.12526414 0.40057638 -0.56943923 -0.6428378 -0.22391543 0.45989433 0.4636001 -1.0236952 0.54243106 0.48887858 0.7784755 -0.13315633 -0.7223343 1.059516 0.046736747 0.146895 0.06256963 0.09535063 -0.6753323 -0.18169913 -0.84933746 0.11503728 0.27627927 -0.8982712 0.24034066 0.36601916 -0.3723705 -0.63303024 -0.42563036 0.4647209 -0.11717188 0.17591506 -0.119832486
76 -1.3224062 -1.2649823 1.1960821 -0.5474093 -0.66647005 0.33718422 0.39948037 0.64197004 -0.004205117 0.441652 0.32194683 0.4009443 -0.7686897 -0.62640244 0.11575979 0.09529894 -0.020461716 -0.071626626 -0.75875986 -0.08558685 -1.1890187 -0.018999476 -0.6858733 -0.13203903 1.0201368 0.16377923 0.49599326 -0.010993553 -1.1546947 0.91224164 -0.5036449 0.9965553 0.7551838 0.59539944 0.63204384 0.13515629 -0.051013954 0.14281467 -0.030576978 0.42011625 -0.50971264 -0.18920672 -0.17212097 -0.7185981 0.50786924 -0.12114369 0.5287155 -0.025626704 0.21542685 -0.29884368 -0.12997653 -0.06428466 0.08872721 1.1301439 1.0681019 -0.7322631 -0.5916314 0.22414097 -0.19004786 0.09817183 0.22717826 0.5041663 -0.9463995 0.05803726
148 -1.4802334 -1.1463382 1.2186815 -0.54404765 -0.57759225 0.68034357 0.25125363 0.65955 0.05994637 0.3401717 0.24136946 0.55951416 -0.7102494 -0.5407449 0.11784881 0.102566935 0.09626888 -0.019675514 -0.70977014 -0.2828016 -1.3021785 -0.05881883 -0.76102704 -0.16100764 0.9533051 0.10199333 0.34203064 -0.11026726 -1.2070167 0.71351314 -0.39905226 0.95579135 0.7496711 0.5498452 0.5383063 0.13026181 -0.18506971 0.048071414 0.0094315335 0.3640701 -0.46696958 -0.28444377 -0.04748078 -0.7113183 0.68474805 0.10534446 0.39205188 0.06621867 0.14707488 -0.26052263 -0.1932747 -0.1902201 -0.08629878 1.2198843 1.1401982 -0.7094314 -0.532027 0.14000231 -0.12542069 0.0025292833 0.06197543 0.5547518 -0.899234 0.11611212
154 -1.058433 -0.07202915 0.5247175 0.49791992 -1.1182755 0.28783098 0.110649586 0.32944354 0.61121845 0.48061273 -0.06803683 -0.050556026 -0.14891428 -0.2774233 1.1270574 0.6326322 0.21707343 -0.77785146 0.5347288 -0.30390573 -0.69479764 0.5368494 0.2472214 0.44000635 1.3541163 0.9123924 0.65985227 0.4639448 -0.40741685 0.5484722 -1.1225219 0.7137578 0.4005218 0.074430324 0.38788137 -0.48554468 0.39379677 0.548966 -0.44870418 0.3877604 0.29900426 0.59756184 0.40092823 -0.0241769 1.312823 0.6745342 0.18541688 -0.28345266 0.10120061 -0.19397809 -0.27099898 -0.9089174 0.5009181 0.4714372 -0.095342234 -0.13241975 -0.018622968 -0.25507292 -0.36849806 -0.29998162 -0.17489462 0.16778396 -0.8446732 -0.5506984
33 -0.97771 -0.14572002 0.5295738 0.48965716 -1.0528991 0.3274148 0.12654878 0.3571498 0.6936713 0.4876542 -0.07700514 -0.12376397 -0.16985962 -0.27717185 1.1070545 0.6184253 0.22104743 -0.87620115 0.5250484 -0.32264966 -0.71807826 0.59196275 0.2914255 0.39956474 1.3051873 0.859499 0.64935017 0.45919135 -0.32364535 0.49135864 -1.087746 0.6979681 0.5299278 0.06193385 0.45560446 -0.45420995 0.41654593 0.5506824 -0.47590396 0.34638003 0.27515465 0.58025295 0.4515914 -0.0056689368 1.3594774 0.7289759 0.19822405 -0.27100202 0.12520371 -0.23576249 -0.32793686 -0.87609696 0.5577377 0.52590764 -0.05013009 -0.17853379 -0.041332804 -0.29223296 -0.4917867 -0.29661748 -0.16828288 0.19473714 -0.84814394 -0.5644451
100 -0.8403922 -0.33164376 0.86358047 -0.8437303 -0.23893258 -0.5457492 0.22390689 -0.13583556 0.39521655 0.17760926 -0.23247361 -0.23336028 -0.2211618 0.04886761 0.20528468 0.6049439 0.659648 0.18127657 -0.50589603 -0.61538124 -1.1201764 0.14396983 -0.019430432 0.33426926 1.3131137 0.5360667 0.17739938 0.3592458 -1.0756218 0.93107975 -0.60180694 1.1447964 0.47149822 -0.31304434 -0.12487014 0.07125743 -0.35821176 0.61093575 -0.5567004 0.46773863 0.035471514 -0.19750573 0.06528028 -0.35191137 1.2812064 -0.16543406 0.13196269 -0.24841031 -0.157796 -0.16014399 -0.6601983 -0.45312116 0.10506438 0.38135996 -0.3948202 -0.36874813 -0.8954508 -0.766526 -0.32656208 -0.4292341 0.46500903 0.3240502 -0.47936144 -0.21516462
220 -0.8336587 -0.34005827 0.8397821 -0.8209578 -0.2395409 -0.59156394 0.28158805 -0.15239517 0.36802536 0.09960528 -0.15741916 -0.28066176 -0.18548301 0.039326962 0.2711526 0.6103913 0.65914834 0.15215725 -0.4648912 -0.62906027 -1.09143 0.15620278 -0.0072774896 0.31570312 1.2482376 0.5589348 0.17395334 0.32317233 -1.0903331 0.8873275 -0.62206554 1.087938 0.55785316 -0.30075577 -0.10395462 0.08605511 -0.33682713 0.621859 -0.5054669 0.4758379 0.013732277 -0.28727105 0.16560484 -0.34922627 1.3207296 -0.13599084 0.093331955 -0.24890251 -0.1186729 -0.17908004 -0.6483812 -0.48973352 0.102290116 0.39825144 -0.34122884 -0.44695473 -0.92326474 -0.70346004 -0.3619918 -0.39931872 0.48763415 0.3517025 -0.51759094 -0.2791153
120 -1.3436649 -1.057836 0.84434295 0.0015001964 -0.25385058 0.20341228 0.5425457 0.6090207 0.39667842 0.19854724 0.25610432 -0.5075359 -0.54317373 -0.2261492 0.5230611 -0.44704914 -0.015474432 0.6284242 -0.077879965 -0.18287234 -1.3533001 -0.24205308 -0.030814484 -0.5917948 1.1594834 0.32440832 -0.009686552 -0.20372851 -0.7670591 0.40387225 -0.29241788 0.5514942 1.2674427 0.04573272 0.23368596 -0.13127787 -0.3707567 0.64603335 -0.37597325 0.3321929 -1.2065965 -0.7856313 0.04748417 -0.51336753 0.52916867 0.24655616 0.6302925 0.15857664 0.10719598 -0.1703322 -0.26495177 -0.69579834 0.3525924 1.0749931 -0.07648457 -1.0634353 0.09055001 0.5040087 -0.32571092 -0.25520092 -0.1424807 0.74312496 -1.0588858 -0.7766146
213 -1.2019151 -1.0491295 0.8087111 0.08448916 -0.43236616 0.30495468 0.50627816 0.55420107 0.36259192 -0.02854326 0.3827029 -0.6323161 -0.5719857 -0.3616454 0.41295776 -0.24595936 -0.006826081 0.6381342 -0.19122672 -0.21928348 -1.502654 -0.3476836 -0.026681488 -0.51429296 1.0748638 0.24972194 -0.17498289 -0.15273756 -0.83676094 0.5660744 -0.11114116 0.5832293 1.1038381 0.08422426 0.4482086 -0.14760904 -0.40200248 0.7242599 -0.42922038 0.18133645 -1.2883604 -0.5936031 0.022719862 -0.54446095 0.5314334 0.43922767 0.6219851 0.06965664 0.11589944 -0.22492984 -0.20866802 -0.6704544 0.38988885 1.1064118 -0.041272644 -0.9313451 0.21420011 0.27465928 -0.30404663 -0.24452041 -0.20484945 0.759254 -1.0847055 -0.69916135
216 -0.38577935 -0.04929616 0.55565995 0.039366867 -0.90594304 -0.35710338 0.17545442 0.3080257 0.31765682 0.5132229 0.12056389 0.56472886 -0.315557 -0.36318925 0.63996214 0.30702418 0.56126285 0.7875405 0.008949974 -0.13426769 -1.3535509 1.014161 -0.0077428967 -0.22120476 0.890186 0.3386757 -0.24554434 0.42631513 -0.466722 -0.014720367 -0.41598922 1.7183311 0.6700946 -0.2442591 0.34880945 -0.52372116 -0.4196741 0.9208812 -1.2571607 0.7913342 -0.4558837 0.3753822 -0.21278079 -0.100593865 0.42563942 -0.079273224 -0.35824442 0.18072265 -0.30165625 -0.47248292 -0.080431625 -0.6328942 0.468339 0.17436709 -0.4195727 -1.1368053 -0.5576833 -0.3906826 -0.6480978 -0.006470034 0.092454895 0.30012167 -0.14299242 -0.3254377
13 -0.3640791 -0.07352038 0.60617536 0.040150512 -0.8761501 -0.3772288 0.23731771 0.32267204 0.3422165 0.49764028 0.13473573 0.48894897 -0.35677433 -0.32871822 0.6686474 0.30624208 0.52985436 0.7790038 0.039563976 -0.08338101 -1.38612 1.0063097 -0.06225929 -0.2071942 0.88876015 0.3063812 -0.29088 0.33114323 -0.4725939 0.011403167 -0.40615025 1.674155 0.7040678 -0.18513297 0.3633078 -0.5129379 -0.40740353 0.9542113 -1.2406236 0.8089405 -0.47343162 0.3816757 -0.19147845 -0.063703075 0.44229183 -0.0561719 -0.32928076 0.14725389 -0.30126145 -0.49157968 -0.11770576 -0.6238596 0.45650765 0.20816846 -0.3867699 -1.2047008 -0.5076287 -0.39124787 -0.704951 -0.029659977 0.101969704 0.2817876 -0.15503041 -0.3253191
25 -1.3387498 -0.6774373 0.6538387 0.29602024 -1.0297318 0.28272945 0.28979313 0.50105757 0.07874437 0.38332632 0.5905821 0.10988432 -1.2048815 -0.37216067 1.0378671 0.02417659 -0.5346812 -0.28152117 -0.15782163 -0.8244861 -0.8417685 0.05618375 -0.34173527 0.070265226 1.4653925 0.085417405 0.7401865 0.12853906 -0.49930283 0.6032448 -0.62747836 0.9215448 0.71796745 0.07980786 0.38148427 0.13741842 -0.2830466 0.5048209 0.278889 0.47634256 -0.60414803 -0.4903057 1.2846574 0.26902866 0.6830597 0.47295713 0.033557963 -0.20014976 0.62995905 -0.9889171 -0.20793521 -0.57790923 0.16712293 1.0340692 0.60629183 -0.09725861 0.2856562 0.67879057 -0.19029655 -0.49661592 -0.28886512 0.5824747 -1.0258718 -0.039081126
186 -1.4364318 -0.65519315 0.5761229 0.26920718 -0.88903624 0.36558673 0.22623447 0.5444063 0.08338408 0.51574993 0.3499685 0.099668935 -1.2579916 -0.36389357 0.9097409 -0.03975695 -0.45585534 -0.30236903 -0.14493045 -0.66715854 -0.924843 0.08163819 -0.31000915 0.00034728163 1.5896671 0.14991938 0.75999385 0.0628684 -0.559841 0.6066355 -0.5592175 0.7877864 0.60922843 0.05448925 0.34888098 0.10909247 -0.3583759 0.39996588 0.20809653 0.6496157 -0.5756755 -0.35922104 1.3900332 0.1432139 0.51357627 0.7211308 0.2326352 -0.30073586 0.638416 -1.1513449 -0.11641418 -0.49208182 0.26941645 0.9437547 0.5529349 -0.082449794 0.1543254 0.8315715 -0.2957947 -0.4391522 -0.08038816 0.43432543 -1.1057354 -0.12346528
177 0.15344062 0.055732198 0.20263009 -0.20216745 -0.48561683 -0.28641132 1.1012312 -0.023744611 -0.25019276 0.2869578 -0.696787 -0.022993691 0.24652225 -0.16107766 0.23203933 1.3044665 0.801962 0.87094504 0.81303245 -0.08234892 -0.32420605 0.34714365 -0.35951108 -0.23134528 0.6228382 0.26782635 -0.29582334 0.02153349 -0.6161821 0.74348396 -0.771642 0.5212912 0.27425185 -0.090458035 -0.6315601 -0.6498994 -0.41310778 -0.16192016 -1.0673039 0.8906124 0.30494326 0.9607544 -0.26080272 -0.3094109 0.7861095 -0.41128764 -0.3406616 -0.22090739 -0.218296 0.21089545 -0.2543743 -1.3877176 0.27737045 -0.3231442 -0.71349686 -0.19842105 -0.07981052 -0.58319503 -0.26921818 -0.6592371 0.0036713036 -0.21602535 -0.26523104 -0.15121385
88 0.12973106 0.1136715 0.20521843 -0.38494933 -0.6509341 -0.09974203 1.2444345 -0.28120732 -0.30792594 0.36464155 -0.6552344 0.099650435 0.24804328 -0.079298936 0.2036565 1.0920107 0.85536027 1.0026664 0.8009091 -0.06273833 -0.34267834 0.50307906 -0.5060027 -0.22851206 0.59018296 0.2215492 -0.4556509 -0.021727532 -0.6805466 0.77028906 -0.73329836 0.55428624 0.3895262 0.0468007 -0.6252076 -0.60167956 -0.1440287 -0.09778341 -1.0822017 0.71741134 0.27726412 0.96828437 -0.27154037 -0.42267403 0.8046852 -0.5207421 -0.16600773 -0.30635953 -0.38819522 0.17736289 -0.35553217 -1.2848355 0.22149462 -0.18531805 -0.72511214 -0.09837508 -0.060711432 -0.52816826 -0.21612135 -0.58726424 -0.02310038 -0.25819832 -0.22487293 -0.19923124
208 -0.31083405 -0.7264381 0.67966473 -0.015251736 -0.39393994 -0.1855161 0.26937214 0.8533316 0.079258636 0.09312646 0.5998722 0.14693354 -0.481586 -0.43421662 -0.07692743 0.08531915 0.5997565 0.17830965 0.07592395 -0.16553031 -1.5426209 0.32737714 0.003521446 -0.5443103 1.3899902 0.010417568 -0.3094389 0.023737943 -1.0004908 0.4297638 -0.118164755 1.1723247 1.0648111 0.13609816 0.36699203 0.12161193 -0.97175723 -0.2971834 -0.91591126 0.4866484 -1.2550392 -0.33562693 0.091405034 0.09244519 0.10038298 -0.22472054 -0.44663933 -0.5217179 0.1452451 -0.6894711 -0.07061324 -0.4020551 0.19911887 0.6174609 0.6840792 -1.2849776 -0.98329264 0.5880109 -0.5147514 -0.6260654 -0.4726439 0.34518602 -0.98727536 0.32777786
64 -0.27321813 -0.69902766 0.74499047 -0.061708182 -0.35709482 -0.13358532 0.22353725 0.81377494 0.0686786 0.23597433 0.4763377 0.10773635 -0.6640752 -0.3525334 -0.14286317 0.07140714 0.6376376 0.13929833 0.004022127 -0.23507829 -1.6244173 0.29058272 -0.060198598 -0.6538616 1.3792632 -0.02842001 -0.17656866 -0.100328736 -0.9202861 0.24391541 -0.24049412 1.1602787 1.2112578 -0.079580806 0.2422145 0.103533365 -1.1564599 -0.1057731 -0.79276067 0.69663274 -0.98551875 -0.55381453 0.23794566 0.054750375 0.08909174 -0.22792576 -0.31669194 -0.47402593 0.11917991 -0.6605739 0.12298747 -0.48609778 0.1821403 0.4539518 0.7016096 -1.3426983 -1.0197575 0.43335107 -0.3961133 -0.52180135 -0.4691763 0.40529844 -1.0545038 0.4417594
129 0.06791608 -0.11034918 0.74836266 -0.06055472 -0.6090209 -0.06463357 0.7997513 0.007541034 0.24732435 0.74841964 -0.10621128 0.1680498 0.21338718 -0.39457467 0.57902455 1.1457022 0.82632816 0.14512967 0.7683498 0.11524573 -0.58890074 0.59829557 0.21076801 0.07972145 1.3383788 0.58861285 -0.11175373 0.52490926 0.15892172 -0.26395878 -0.5536975 0.33504194 0.6630023 -0.0359424 -0.21110141 0.049629178 -0.3612668 0.15142848 -1.3108476 0.40669033 0.3795587 1.3309692 0.058586877 -0.65141624 0.9469386 -0.30413043 -0.12620649 -0.30492464 -0.7880926 0.2405659 0.04283657 -0.71479875 -0.12132671 0.15649246 -0.27011213 -0.16105402 -0.57506615 0.13724935 -0.14984228 -0.6831477 -0.2434207 0.1493472 0.11943463 0.8289302
128 0.1579189 -0.12192739 0.8839486 0.0055432227 -0.7103295 -0.103544444 0.85735846 -0.012617422 0.22729838 0.7372467 -0.07389949 0.046030384 0.011217249 -0.3184544 0.5259458 1.1179134 0.95797753 0.31895489 0.6513168 -0.051350378 -0.68160266 0.6244584 0.13461635 0.21669346 1.3429258 0.7090129 -0.04809937 0.5976528 0.1448769 -0.19734168 -0.44088224 0.43097126 0.59190446 0.16362976 -0.31962016 0.1124025 -0.25254878 -0.057799157 -1.1739478 0.4396951 0.43298808 1.3644346 -0.032743674 -0.69931406 0.8557178 -0.21370044 -0.24543385 -0.3790821 -0.8022591 0.03920911 -0.04516849 -0.5779786 -0.15411565 -0.01941729 -0.20477416 0.027067516 -0.5733654 0.03807622 -0.28525 -0.5679624 -0.054351818 0.16713102 0.1264659 0.87732655
83 -0.5444987 -0.7695374 0.5631131 -0.22347602 -0.41111913 0.76703066 0.87608325 0.017648263 0.29157054 0.4646137 0.09042505 0.2581015 -0.63280946 -0.43717495 0.55110437 0.92629313 0.958975 -0.07484289 0.36060512 -0.19265896 -0.71921116 0.20439823 0.01147916 -0.007738689 1.0960418 0.80052334 -0.1485374 0.0569409 0.14908773 0.995145 -0.39144212 0.73581135 0.692387 0.5453344 0.31547496 -0.34703133 -0.26463228 0.3047858 -0.42087606 0.6974568 0.092265055 -0.39811367 0.21070342 -0.6132372 1.0198514 -0.22626768 0.29887766 0.18437952 0.40760943 -0.5495297 -0.3879113 -0.8971588 -0.13565592 0.5262731 -0.013892264 0.098564684 -0.74968904 -0.101049006 -0.11269743 -1.0930334 0.037217796 -0.0068458454 -0.99154764 -0.4319047
49 -0.59084415 -0.8499082 0.5235295 -0.24487059 -0.46757433 0.6906502 0.90356976 0.03748417 0.2609823 0.5102297 0.13065301 0.30681857 -0.6150403 -0.39769354 0.60876733 0.87383235 0.9408228 -0.03283181 0.3357365 -0.19919807 -0.7568582 0.19195387 0.039206993 -0.03500337 1.1176401 0.88124025 -0.19821905 0.10637487 0.11180844 0.97501105 -0.40334746 0.6846614 0.7146811 0.5798002 0.24775948 -0.37549424 -0.23470198 0.32284346 -0.41761294 0.78043795 0.14755471 -0.3350688 0.1438823 -0.6144959 0.99167126 -0.203449 0.26474845 0.24834956 0.41327772 -0.5028459 -0.31001776 -0.9056402 -0.16943151 0.5643162 -0.021233674 0.088720806 -0.7484787 -0.13253649 -0.053820368 -1.1016885 0.085503526 -0.02428494 -0.920531 -0.42912707
162 -0.3505566 -0.2776568 0.37379572 -0.34224913 -0.162461 -0.14240596 -0.084138915 -0.12786277 -0.20394476 -0.09323123 -0.48709926 0.0742158 -0.0012832418 -0.24233046 0.9759025 -0.0711941 0.0043711043 0.59532773 0.030327111 -0.14221105 0.1302157 -0.25520658 0.6050409 0.30030987 0.60261625 -0.0005456474 -0.16421863 -0.27997383 -0.33796322 0.074718066 -0.33402365 0.12568279 0.96160144 0.2876566 0.00934915 -0.8879894 -0.11592857 0.42229772 -0.5567938 0.15872405 -0.51090217 -0.14137799 -0.90539604 -0.5318086 1.0842582 0.1584006 0.48156035 -0.22784637 -0.20308606 -0.45380613 -0.20895654 0.07270341 -0.10045135 0.28782395 0.6792482 0.04520628 -0.0048902594 -0.6934152 -1.0218565 0.30249456 -0.08038231 0.338323 -0.76231784 0.3375411
32 0.18536986 -0.99536234 1.5565569 -0.12545304 -0.09241651 0.4923819 0.07916642 -0.92923254 -0.350897 -0.3748117 0.004673468 -0.47573295 -0.21112205 0.22579849 0.5422928 -0.5280641 0.059721425 0.29431492 -0.1167631 0.9123123 -0.13929833 0.82998747 -0.60555655 -0.7943686 0.55311537 0.22734426 0.16596028 -0.33523843 -1.2165657 0.18981332 -0.7514432 0.074983835 0.7623919 0.06515059 -0.11320104 0.08807366 0.14531752 0.6169659 -0.3542905 -0.021370456 -0.45161507 0.12655793 -0.48092976 0.4261756 0.27640328 -0.08969577 0.4329 0.29737616 0.6818614 0.4994337 -0.52616996 0.09621972 0.3388593 0.8094698 0.42006058 -0.4408988 0.73824483 -0.48623896 -1.1035764 -0.07176007 0.14037882 -0.8745157 -1.2933613 -0.62338716
161 -0.34275794 -0.73302996 1.2753093 0.38045916 0.9442382 0.17186473 0.35136744 0.6178339 -0.93186975 0.59441066 -0.22871241 0.6088408 -0.5872167 -0.5371008 -0.14264953 -0.24475124 -0.3172843 0.26566827 0.20337273 0.17573728 0.30597168 -0.099290885 -0.25639465 -0.3723343 0.14584173 -0.114967324 -0.33710387 0.1356653 -0.25393936 -0.0064903903 -0.05261646 1.0286573 0.45019946 -0.11572699 -0.26006386 0.044961866 -0.6737504 0.46774757 -0.28917485 0.25251898 -0.7845841 0.52877975 1.2614406 -0.5463231 0.8071795 -0.5389361 -0.1738599 -0.7780671 -0.10493871 -0.3938856 -0.11566961 0.2568523 0.5177561 0.23727864 1.3064145 -0.36774576 -0.56707835 0.2302403 0.1521063 -0.32605058 -0.7919301 -0.15502585 -1.196464 0.849671
28 -0.5530089 -0.27030435 0.83632356 0.61435205 1.1279342 -0.19478789 -0.009583848 0.16413969 -1.099894 0.051688377 0.013059755 0.09051953 -1.0865178 -0.32406124 0.10844284 -0.5386783 -0.47839177 0.41817242 0.39075357 -0.30108333 0.35373753 -0.007904892 -0.22335236 -0.14479312 -0.086514845 -0.29936317 -0.26207525 -0.13991079 -0.055742018 0.06222769 0.060190596 1.6458026 -0.28752643 -0.5226541 0.085774906 0.08656035 -0.80523515 0.26869583 -0.60473573 -0.0057105566 -0.7111939 -0.0104015935 1.1219422 -0.33706525 0.56829923 -0.2777696 -0.40090176 -1.2180634 0.14593449 -1.1085694 -0.579849 -0.24962987 0.52536047 -0.00046209362 0.75939214 -0.34188092 0.015558422 -0.026379768 -0.13891023 -0.45402774 -0.8266072 0.40983078 -0.9629908 0.33646294
127 -0.106844395 -0.25106645 0.75865513 0.479729 0.6015479 0.30508497 0.19032814 -0.027167581 0.30593577 0.5545248 0.058770318 0.081725016 -0.6731582 0.101613395 -0.053013377 -1.0106913 0.44404718 -0.3500595 -0.17302826 0.6934883 -0.00953191 0.2803815 -0.11320325 -1.1305639 0.4776528 0.8250759 0.75268286 0.81694 -1.2044605 0.2204409 -0.62879634 1.1170504 0.4502935 0.2743338 -0.5577222 0.08861401 -0.40792003 0.5166827 -0.17916432 -0.02534174 0.08393512 0.2652608 1.2850995 0.12508906 0.6414449 -0.11557551 0.01577939 -0.07685784 0.33731338 0.18645269 -0.2873777 0.4396893 0.85477436 0.36461267 0.60135794 -0.06554871 -0.54532415 -0.30587223 -0.010513632 -0.4776138 -0.72730136 -0.7216801 -0.22868863 -0.06599822
12 -1.1580806 -0.65714383 0.8804102 0.09505316 0.4100529 0.29421467 -0.31967345 0.21735768 -0.946833 0.2463735 0.4125456 0.23950589 -0.48456943 0.32137504 0.21960028 -0.012306996 -0.21166888 -0.26668435 0.041865617 0.48886317 -0.18494046 0.6693794 -0.5945038 -0.09536291 -0.17739621 -0.1449164 0.8756409 0.32029915 -0.42790666 -0.1321617 -0.2663956 1.8236582 0.39945436 0.45826116 -0.13075921 0.4302649 0.1238018 1.0633857 -0.2597836 -0.50365114 0.34002274 0.6832435 -0.07259557 -0.31603098 0.6561556 -0.09850017 0.28814453 -0.71928847 -0.40973267 0.8206847 -0.36263627 0.2518822 0.31583977 0.31935817 0.4570792 0.013589988 0.3042758 -1.1137769 0.1857276 0.19174744 -0.46488094 -0.26577353 -0.9770928 0.017027678
40 -0.95302624 -0.052625213 0.5326119 -0.1353296 -0.5784076 0.14873476 -0.1947347 0.7099496 -0.5560058 0.15637724 0.45473725 -0.23324245 -0.22810452 0.58288807 0.49568358 -0.14165549 0.8641579 0.28368133 0.5144257 0.069821596 -1.3937275 0.60314524 0.5100212 -0.5645932 0.05845281 -0.13157588 0.6240833 0.8923468 -1.2423875 0.07849937 -0.82578003 1.1059793 0.76589346 0.5150091 -0.28255147 -0.24904987 -0.0022312377 0.8006988 0.44115362 -0.20942189 -0.04902769 -0.25366578 -0.38560238 0.31642446 -0.009096347 -0.06396946 0.2994508 -0.482186 0.2751607 0.07291243 -0.23289281 -0.2608109 0.02408009 0.19394238 0.29872218 0.2585059 0.12592158 -0.69802356 0.42398065 0.08982918 -0.41804495 -1.0790347 -0.55519396 -0.4409545
27 -0.38202852 0.37919345 0.20284173 0.5568729 0.39222106 0.32445675 -0.084316745 -0.14664796 -0.33129096 0.21484186 -0.28463298 -0.10418457 -0.77765685 0.9070238 0.17767815 -0.5669333 0.09892029 0.36711025 0.18397376 0.18958382 -0.20506345 0.62047786 -0.5106838 -0.32042792 0.7679871 0.7261504 0.6531683 0.8539016 -0.42010438 -0.009207161 -0.81575155 1.2988517 0.7930488 -0.12272431 -0.19457252 0.50841105 -0.80640143 1.1461257 -0.07707675 -0.40039298 -0.5003427 0.41859204 0.8863851 0.48380154 0.97675365 0.08136286 0.1739173 -0.5543219 0.008037403 -0.27621466 -0.21824676 0.31509376 0.47424293 0.12852193 0.11413766 -0.15602975 0.38397452 -0.23035875 0.010666684 -0.36270502 -1.0286428 -0.53065413 -0.2798173 -0.5171421
130 -0.2666475 -0.75281024 -0.10330567 -0.0551931 0.015326176 0.5392728 0.899327 0.42780155 -0.11166895 -0.12377906 0.7489703 -0.37188566 -0.17351681 0.60109895 0.6553843 -1.0082074 -0.19095322 -0.101941064 0.5987343 0.22542965 -0.30810714 -0.34722972 0.07128417 -0.2045839 0.27869081 0.28469566 0.38070443 1.0570431 -0.85515714 0.302299 -0.2106059 0.14706025 1.1537611 1.4067203 -0.8921915 0.4959393 0.014012593 0.6881773 -0.03638808 -0.6191305 -0.25078064 -0.08128863 0.08569217 0.08904107 0.9145733 0.019126497 -0.23016776 -0.020109482 0.07441214 -0.18663521 -0.3258256 -0.45845598 -0.23667014 0.6490903 0.59471226 -0.12078231 0.3381099 -0.49833813 -0.43898264 -0.0901074 -0.37551236 -0.800597 -0.31909043 0.20473163
57 0.15013601 -0.6845019 0.34469497 -0.30219173 0.2709438 0.07682044 0.04731844 0.89498353 -0.9185659 -0.70305145 -0.041866943 0.3966451 0.07752806 -0.013556924 0.46596915 -0.22166622 -0.04477779 0.39336354 -0.22322693 0.29635453 -0.60647935 0.3217161 -0.0072879 -0.7476875 0.27781293 0.741852 -0.36685422 0.9439139 -0.2377514 0.39062923 -0.037580185 0.63588417 0.75733584 0.41437674 -0.39788678 0.23505157 0.93146145 0.564893 0.18636127 0.2942436 -0.60446554 -0.04870168 0.0066622593 -0.29508644 0.73741776 0.35986307 0.23578766 -0.10787597 0.035213612 0.18289609 0.49640366 -0.7137451 0.32674977 0.24108163 0.80332154 -0.46122143 0.11990905 -0.65094805 -1.042945 -0.2290493 0.31806067 0.11688368 -1.3780595 -0.19341514
14 -0.66846985 -0.39477602 0.2548769 0.15018055 0.4288094 0.527824 0.20889503 0.72611487 -1.0998012 -0.8687632 0.5969122 -0.15971154 -0.12921502 0.107987285 0.71989006 -0.3629185 0.14142704 0.0737182 0.14619316 -0.03427031 -0.82573617 0.4363615 -0.062437933 0.14342791 -0.32733247 -0.37034518 0.071590416 -0.014741761 -0.3824139 0.6197462 -0.08509922 1.0901096 0.3589331 0.9119064 -0.38904923 -0.38881874 0.82329243 0.41452196 -0.59927136 0.50363594 -0.11282351 -0.21933195 -0.30974475 -0.4935997 0.67980444 0.11187549 0.32308608 -0.6394128 0.46154943 -0.43617582 -0.0041748816 -0.66036355 -0.04731868 -0.011443473 0.5545466 -0.81635714 0.67080146 -0.7259554 -0.5355796 0.004480285 0.6315267 0.12087212 -0.9845239 -0.5067876
17 -0.60889536 -0.6221565 0.15625797 -0.52972734 0.24427353 0.18230753 -0.4039429 0.90297586 -1.3827229 -0.63593954 0.1528459 0.12198528 0.18053071 0.14325063 0.13889605 -0.38888854 -0.5654844 0.015837627 -0.23333277 -0.14416257 -0.40899634 0.25082967 -0.016348118 -0.30295122 0.12132893 -0.41418558 0.6741338 0.8125961 -0.7775099 0.12908748 0.04732731 0.7722486 0.44976476 -0.4327527 -0.087450676 -0.2468642 0.24697997 0.30770797 -0.18652461 0.008060172 -0.8065028 0.1534623 0.02478832 -0.1970277 0.93259853 0.8016525 0.049531087 -0.6596654 0.1861109 -0.2677204 0.27116796 -0.48039088 0.5026487 0.4822433 0.4729872 -0.45434675 1.241155 -0.8936368 -0.6041672 0.63126963 0.38919565 0.4364607 -0.692433 -0.35886338
91 -0.57874644 -0.59560424 0.7220751 0.09331987 -0.18978828 0.64123017 0.6863636 0.44301388 -0.48295304 -0.00756164 0.43969843 0.22459757 -0.7011625 -0.121383406 -0.6225758 -0.14042164 -0.043925073 0.030404102 0.2617471 0.19516712 -1.152556 0.6086902 -0.68028635 -0.5923847 0.66904867 0.3059354 1.2847037 0.70371866 -1.1518649 0.67408293 -0.5976141 0.81688267 0.6710906 0.007572516 -0.59429204 0.35104942 0.50865936 0.37592274 -0.34667268 -0.07912132 -0.43754676 0.46848652 0.9200119 0.12979354 0.55705076 -0.23333979 -0.48546544 -0.3929132 -0.49090698 -0.43046403 -0.25155932 -0.60818285 -0.09118164 0.37298092 -0.053258315 -0.752648 0.69735307 -0.3284743 -0.23432921 -0.36590517 -0.46926725 -0.3322751 -0.66204643 -0.12897776
121 -0.49688318 0.37690085 0.19582655 0.337633 0.082661346 0.43775988 -0.21251142 0.6961722 -0.5196472 0.08451332 0.41440302 0.10783381 0.1009969 -0.10418721 0.30340895 -0.7934991 0.53509605 -0.4664116 0.05136593 -0.1567312 0.028043728 0.6346044 -0.16425462 0.08412225 0.35987797 -0.24256329 0.6724114 1.0051967 -0.9569135 0.1859458 0.10430196 1.498494 0.38479853 0.86902297 -0.554615 0.01097342 -0.7371995 0.70043856 -0.62002796 -0.5902678 -0.28338146 -0.05303586 0.35556912 0.40761665 1.0809143 -0.50000614 0.2111691 -0.4008785 0.32186428 -1.3526659 -0.68255836 -0.6269788 0.24034163 0.120873705 0.5148729 -0.50344145 0.23680985 -0.28107664 0.24035169 -0.14188138 -0.82813615 -0.34478793 -0.36778644 -0.49402484
111 -0.5689651 -0.6047304 0.7216375 0.09343981 -0.19518892 0.6384274 0.66814095 0.44843563 -0.49083078 0.0030998546 0.44536868 0.2370998 -0.69841444 -0.1158445 -0.6309546 -0.12758735 -0.036978606 0.019531207 0.25396302 0.19361918 -1.1348779 0.6227941 -0.6963369 -0.5970038 0.68287104 0.30254 1.2895486 0.7055477 -1.1686447 0.6727318 -0.5896864 0.83185893 0.6722435 -0.011242851 -0.5689877 0.35940015 0.49748716 0.38663623 -0.35399258 -0.07114668 -0.44286636 0.47953728 0.9333848 0.12665926 0.54432815 -0.22608109 -0.49026904 -0.39081317 -0.47574237 -0.42265925 -0.25163963 -0.6022196 -0.08070279 0.39035836 -0.05330935 -0.7513843 0.68413544 -0.32573834 -0.23986886 -0.3551736 -0.4656883 -0.332098 -0.65652966 -0.12718251
117 -0.21246813 -0.29189453 0.5755685 0.09421835 -0.042243004 0.7463792 0.19806987 0.49149215 0.20514245 -0.5928629 0.6130093 -0.49845707 -0.5875762 0.24974978 0.19393541 -1.067881 -0.025128782 0.21089143 0.3089637 0.37289995 -0.40525168 0.023669524 0.37233308 -1.3877591 0.6111878 0.6847172 0.5424079 0.41489285 -1.4716516 0.55904967 0.23139904 0.39636704 0.03258544 1.3402408 -0.5578999 -0.39065826 0.3455647 -0.21618456 -0.3556655 -0.34130102 -0.6246935 -0.40755633 -0.11444424 0.040183406 0.5684844 -0.46898103 -0.1405797 -0.42311093 0.5136715 -0.42261732 -0.6362278 0.13017127 -0.4568648 0.037720002 0.12662385 0.27730358 0.8047671 -0.6435624 -0.8025773 -0.010910466 -0.77570593 -0.44570422 -0.2577752 0.4809565
15 0.2953405 -0.53163886 0.8815324 -0.36634657 0.6424458 0.046474412 0.49207625 0.7337685 -0.7328994 -0.0797762 0.4359552 0.018380187 -0.22915713 -0.19759172 -0.049948864 -0.97896004 0.17698212 0.22136249 0.45182168 0.07413654 -0.785611 -0.25249428 0.7468745 -0.28287172 -0.17568384 -1.127056 0.118894696 0.9476317 -0.61960673 0.20343968 0.30226222 -0.020876432 0.27388892 0.21431194 -1.2328044 -0.44953632 0.060395375 0.09587502 -0.17242761 0.24779075 -0.60198194 -0.2036737 0.20987533 0.0065304996 0.77171445 -0.08089805 -0.28207967 -0.23023985 0.6705081 -0.55943644 -0.1414401 -0.4104538 0.010648341 0.4219724 1.0694268 -0.11805769 0.51478946 0.30631974 -0.09375528 -0.001116094 0.12414265 -0.91470796 -0.82352716 0.7414529
62 0.21905547 -0.15547732 -0.094971426 -0.033359054 0.49133983 0.6075454 0.27204904 0.3815163 -1.4561055 -0.45640397 0.4028652 -0.12824614 -0.074701555 -0.022886267 1.0123973 -0.2988971 0.0060118483 0.29455253 0.29971075 -0.18526004 -0.16219945 0.24606992 0.6042842 -0.5166138 0.16108052 -0.39013958 -0.27539885 0.5863892 -0.5471716 0.27279225 -0.31364608 0.8037168 0.26370674 -0.079794325 -0.47930032 -1.0625321 -0.08706236 0.6768174 -0.3074434 0.6844806 -0.79515445 -0.7798151 0.86625147 0.5252053 0.15317526 0.19911636 0.07553788 -0.28051677 0.41410527 -1.0909423 0.79586846 -0.77987736 0.42512628 -0.028453082 0.5558263 -0.43799317 0.14541128 -0.48290303 -0.21555951 -0.06499329 -0.0032615545 -0.53811127 -0.9941875 -0.119292475
59 0.06932484 0.23932669 0.12908894 0.099697374 0.6210066 0.102555625 0.79899675 0.899972 -0.64466256 0.16610774 -0.10699855 -0.1868148 -0.9231589 0.18193494 0.18143359 -0.45884442 0.23492678 0.7796861 0.91992325 -0.06615719 -0.32548323 -0.04373019 0.3678168 -0.8827224 0.18552585 0.4782795 -0.42676425 0.6140622 -0.2826718 0.5075104 -0.43407696 0.22361888 0.5715379 0.38063258 -0.8660443 -0.14706041 -0.763225 0.4996515 0.36897367 0.1898873 -1.1506535 -0.4189881 1.0037045 0.051440082 0.7826602 -0.23560849 -0.12336448 -0.6007791 0.7086582 -1.0992181 -0.00071439805 -0.1503222 0.39223185 -0.25803363 0.564541 -0.08154525 0.3053791 0.7451112 0.15978305 -0.744538 -0.45056966 -0.8517564 -0.44121903 0.070210874
126 -0.005356734 -0.28226623 0.8230447 -0.10786288 1.2197793 0.7665665 0.3102393 -0.0629416 -0.86237234 0.41346076 0.20101696 0.31196377 -0.70285636 0.72954047 -0.12628266 -0.45278054 -0.09179382 0.6318314 0.6067625 0.42472902 -0.34365934 0.10292777 -0.30377135 -0.34124917 0.30459276 0.21940641 -0.08117708 -0.08272288 -0.44174567 0.5321829 -0.8854787 -0.1366125 0.76360273 -0.11422812 -0.74767834 -0.23941337 -0.50803125 0.395224 0.16210599 1.1172664 -1.2821275 0.04040677 0.21612163 0.0842463 0.3292024 -0.1979254 -0.0669607 -0.42015997 0.47512713 0.3433189 0.7173763 0.0053269295 0.15719189 0.531947 0.73651284 -0.19978611 0.34905738 0.27318743 0.30309603 -0.053742196 0.41179997 -1.1293813 -0.7113272 0.03925405
82 0.051126603 -0.16445965 0.9874004 0.2564008 0.81438893 0.23106648 -0.20057945 -0.08228891 -0.6906597 -0.03958006 -0.5232249 -0.13863033 -1.0834513 0.5115828 -0.21881542 -0.5316511 0.55190164 0.69739085 0.42820176 0.15231062 -0.6387195 0.34851065 0.10496135 -0.9277467 -0.1350573 -0.13779111 0.1455689 0.16956607 -0.42481428 0.34742808 -0.48411623 0.6205015 0.17548236 -0.60609 -0.510142 -0.6356963 -0.37814003 -0.3500344 -0.25964645 0.9288577 -1.0305378 -0.10840547 0.42521426 0.2856925 0.40563568 0.6383681 0.010606649 -0.4778767 1.2767551 -0.08647375 0.21646108 0.4209807 0.656774 0.066518895 0.547349 -0.31314695 0.7477273 -0.005037298 -0.18929702 -0.21979277 0.38637888 -0.7705552 -0.44484144 -0.40261194
131 -0.34485194 -1.3366498 0.55046874 -0.33703515 1.0853109 0.120512255 0.31251296 0.3991623 -1.0669891 -0.7279652 0.3336606 -0.1811506 -0.4592122 0.14235213 0.18063226 -0.6987341 -0.86173373 0.6885455 0.23138541 0.43853095 -0.13292408 -0.3991213 0.16733885 -0.87850726 -0.38299018 -0.067549154 -0.29883146 -0.16143836 -0.29335994 0.6062085 0.173448 0.30202907 0.2775816 0.5495221 -0.43080226 -0.20573363 0.3848739 -0.14523806 -0.38596004 0.5060197 -0.7338638 -0.11239853 0.21114136 -0.58114964 0.81571543 0.7142684 -0.08163764 -0.27638757 0.75369287 0.1724993 0.35980463 0.05377273 0.29034394 0.33061942 0.71520114 0.18883726 0.92719513 -0.5811765 -0.5051024 0.000820936 0.378059 -0.010644056 -0.8689397 0.451984
