223 64
0 -0.07582124848157556 0.07341315704248089 0.009096411690242799 -0.09015215323107431 -0.05813003704690058 -0.13364477537668362 6.858320199835004e-16 -0.06406548895565543 0.1152968226499247 0.15427707193799697 -0.1742004675389847 -0.11577674388262593 2.660950397014448e-16 0.1489398763690228 0.008939521339143537 -0.18639710871075496 -0.08871991121834302 0.18669493768047507 -0.06615092749550341 -0.06502645994340525 -0.05877490798639308 -0.07040812858946521 -0.02598292173481982 0.3524326379518978 0.03472539139264069 0.11991028876798358 -0.002298505362030516 0.0579840152849271 -3.333419976522328e-05 -0.5748882775600724 -0.4677043768747913 -9.845577832613977e-08 -0.07582124848157552 0.07341315704248093 0.009096411690242848 -0.09015215323107434 -0.05813003704690039 -0.13364477537668346 5.886792828133625e-16 -0.06406548895565561 0.11529682264992466 0.15427707193799703 -0.1742004675389846 -0.11577674388262582 2.577183656150861e-16 0.14893987636902267 0.008939521339143363 -0.18639710871075496 -0.08871991121834301 0.18669493768047507 -0.06615092749550336 -0.06502645994340535 -0.05877490798639314 -0.07040812858946512 -0.025982921734819888 0.35243263795189783 0.03472539139264079 0.1199102887679835 -0.0022985053620305667 0.05798401528492725 -3.3334199765170487e-05 -0.5748882775600734 -0.46770437687479155 -9.845577848454616e-08
1 -0.10816965208210609 -0.0015613798847804367 0.0051334954804070874 -0.012077940811525313 -0.16587318017964017 0.0015016925346737317 4.866381612382925e-16 -0.01053729427196808 0.003164475120185414 -0.01772064215306674 0.03989222921175571 0.006102660769038881 1.0734523133226728e-15 -0.017547307589775588 0.5421904547919411 -0.003275839183021597 0.001908895648848029 0.000430607585321269 -0.0011489792084297817 4.7189061282407444e-05 9.918623135628243e-05 0.0006419859602758622 -0.00011127258282108725 -0.0010047903311305268 0.017000744642558827 -8.035172633494002e-05 0.08724649474124348 0.002038176035994539 -0.4437043513954057 1.9396422419380893e-05 1.0200931805156572e-06 -1.9029886233630697 -0.10816965208210609 -0.0015613798847806117 0.005133495480407072 -0.012077940811525259 -0.1658731801796403 0.0015016925346738785 3.4081039573926176e-16 -0.010537294271968117 0.0031644751201855047 -0.017720642153066818 0.03989222921175571 0.006102660769038861 1.1572548476583829e-15 -0.017547307589775726 0.5421904547919413 -0.003275839183021479 0.0019088956488478234 0.0004306075853215556 -0.0011489792084295642 4.718906128237822e-05 9.918623135628532e-05 0.0006419859602758021 -0.00011127258282116789 -0.0010047903311306893 0.017000744642558695 -8.03517263347236e-05 0.08724649474124385 0.0020381760359942606 -0.4437043513954062 1.93964224195392e-05 1.0200931804524772e-06 -1.9029886233630693
2 0.029493031027397528 -0.04101221153383046 -0.22214950833849473 0.16505871845287556 -0.008499193498388713 -0.044667335042584834 -4.976596173268946e-16 0.044379402048067194 0.035492479611669486 0.06351542202306491 0.06791157935326543 -0.23580898863569436 2.687580870385172e-16 0.40559572267129446 0.015944199982589374 0.7332348816172982 0.2966660438912 0.6735228990323465 -0.03121094977858992 0.08757984255628312 -0.08352201509411294 0.296534791129792 -0.008380755863097769 -0.02336668255291239 -0.008479582891176455 -0.00033303842400857295 0.0003994854130643955 0.00038916957987206505 1.997173037986126e-06 -0.0012783895813689825 -8.681842370238903e-05 -7.948221727014526e-11 0.02949303102739733 -0.04101221153383041 -0.2221495083384946 0.16505871845287576 -0.008499193498388926 -0.044667335042584626 -6.422141232717899e-16 0.04437940204806704 0.03549247961166942 0.063515422023065 0.06791157935326562 -0.23580898863569444 2.4472839415049204e-16 0.40559572267129446 0.015944199982589304 0.7332348816172979 0.2966660438912008 0.6735228990323464 -0.031210949778590014 0.0875798425562832 -0.08352201509411313 0.2965347911297923 -0.008380755863097757 -0.023366682552912365 -0.00847958289117636 -0.0003330384240084057 0.0003994854130643922 0.00038916957987203594 1.9971730380606475e-06 -0.0012783895813689942 -8.681842370236134e-05 -7.948235523550537e-11
3 0.16798109202370445 -0.011740528691169155 0.12387956811833332 0.07770772129294837 -0.0018296241263217798 -0.11440750548366421 8.45628359198406e-16 -0.08236371489597813 0.047383435760414205 0.11649238587105762 0.1351203096470185 -1.1160034423741207 -1.4158929483381348e-15 -0.36472787024277264 -0.006225532991230744 0.015695670147190487 0.0675445986234604 -0.4334049026042129 0.035778742358341414 0.07856707033622003 -0.9716212986876123 0.1039493744949761 0.014510934829564124 -0.01799995213426875 -0.0006270069581338243 -0.002132459875273545 3.898381569196233e-06 -4.5233130775378745e-05 3.833762075427977e-09 1.290380756848094e-05 -5.9474955081615855e-06 -1.445942038760856e-14 0.16798109202370462 -0.01174052869116873 0.12387956811833331 0.07770772129294867 -0.001829624126322087 -0.11440750548366442 8.174013612955786e-16 -0.08236371489597791 0.047383435760413775 0.1164923858710577 0.1351203096470182 -1.1160034423741212 -1.4290023783265536e-15 -0.3647278702427726 -0.006225532991230728 0.01569567014719057 0.06754459862346057 -0.43340490260421305 0.035778742358341706 0.07856707033622017 -0.971621298687614 0.10394937449497607 0.014510934829564226 -0.017999952134268807 -0.000627006958133755 -0.002132459875273498 3.898381569190544e-06 -4.523313077556988e-05 3.833762079636775e-09 1.2903807568349083e-05 -5.947495508175122e-06 -1.4422015047764013e-14
4 0.02778749473803717 -0.049670206735312694 -0.3581343642678016 0.2932676677288763 0.05133529855285141 -0.07931512560771353 2.420583599941766e-16 -0.009681969310042197 0.02609324546852658 -0.029622096942534634 0.16865743504804814 0.08857000282127403 -5.041688939743318e-16 -0.08311511046610434 0.0002675530272208874 -0.056937839886241966 -0.22917865184364672 -0.09827744811462226 0.7093390842412172 0.013103326384409534 0.06764872512614015 0.36702889970814256 -0.040732947132861214 -0.13121632192237903 -0.06241781619498274 0.009419367780893828 0.005353746883679064 -0.055098721428000846 4.256559532741107e-05 -0.29455021622174943 -0.050749700912269304 -3.962724328670388e-07 0.02778749473803719 -0.049670206735312604 -0.35813436426780154 0.29326766772887664 0.051335298552851204 -0.0793151256077135 2.0050302992933584e-16 -0.009681969310042334 0.026093245468526646 -0.029622096942534485 0.16865743504804803 0.08857000282127403 -4.928099402877878e-16 -0.08311511046610481 0.0002675530272210669 -0.05693783988624191 -0.22917865184364714 -0.0982774481146221 0.7093390842412184 0.013103326384409869 0.06764872512614042 0.3670288997081429 -0.040732947132861255 -0.1312163219223786 -0.06241781619498301 0.009419367780893738 0.005353746883679096 -0.055098721428000784 4.2565595327438615e-05 -0.29455021622174987 -0.05074970091226928 -3.9627243274632435e-07
5 -0.050663746803594506 0.008871760964057744 0.03697776757329097 -0.030636518866619323 0.013512494858996707 0.0034440498540971353 -6.051458999854415e-17 -0.004582702699148186 0.0015806605394498275 -0.00802718350352516 0.016149743925464637 -0.0020186585255550513 4.744209736501932e-16 0.002653845367399166 0.02389127877576749 0.00639269667584778 0.007463183938863313 0.0038708313486322055 -0.020812651894619456 -0.002403974486698738 -0.0028207838693058308 -0.016582649143728617 0.0012424178727109306 0.0027356507422185605 0.02132018445500895 -0.0006083007317458398 0.8851299901430763 -0.0035486456781675243 0.1494286348580468 -0.0002856731184304672 -1.251611754258132e-05 -0.0021317419960672082 -0.05066374680359447 0.008871760964057741 0.036977767573291034 -0.030636518866619295 0.013512494858996717 0.0034440498540970915 4.773881664984187e-17 -0.004582702699148179 0.0015806605394498448 -0.008027183503525014 0.016149743925464456 -0.0020186585255551246 3.8251742258516554e-16 0.002653845367398992 0.0238912787757675 0.006392696675847886 0.007463183938863272 0.0038708313486321903 -0.02081265189461944 -0.002403974486698763 -0.00282078386930577 -0.016582649143728617 0.0012424178727107756 0.0027356507422186226 0.021320184455009 -0.0006083007317457907 0.885129990143077 -0.003548645678167293 0.14942863485804703 -0.0002856731184305159 -1.251611754256663e-05 -0.0021317419960673297
6 0.15427525426738029 -0.0037329241077120033 -0.0056865368008339285 0.0017879250137649329 0.020368881254195028 -0.0009971481307876275 1.2607206249696698e-18 0.010260998056983217 -0.003719347290066308 0.023378021850284703 -0.05845864457822863 -0.010706853961616782 -3.113453922564962e-15 0.041545841903108297 -1.3389412370008613 0.0104519889985529 -0.007094154278986664 -0.002238501540763064 0.009774272287406703 -0.0002548797780504614 0.00031450760628228463 0.0014047584656889324 -0.0002082525913025808 -0.0013168151890613922 0.0154369179639689 -5.724541196009333e-05 0.05355258865764495 0.0032734413486128623 -0.1905183254337889 1.6577545981614568e-05 7.17943118101836e-07 -1.0250530806095288 0.1542752542673802 -0.003732924107712161 -0.005686536800833902 0.0017879250137648375 0.020368881254195222 -0.0009971481307879623 1.1766872385175867e-16 0.010260998056983418 -0.003719347290066398 0.023378021850284713 -0.058458644578228296 -0.010706853961616872 -3.1237655032840357e-15 0.041545841903108664 -1.3389412370008607 0.01045198899855245 -0.007094154278986497 -0.0022385015407628763 0.009774272287406653 -0.0002548797780505704 0.00031450760628235196 0.0014047584656888823 -0.00020825259130254355 -0.001316815189061661 0.01543691796396897 -5.724541195980072e-05 0.053552588657645096 0.0032734413486127305 -0.1905183254337891 1.6577545981717455e-05 7.179431179837424e-07 -1.0250530806095288
7 0.045948512142572014 0.007959047277575737 0.27285865355427324 -0.21639271723223102 -0.02083669977140165 0.17505090700963044 -1.210291799970883e-16 0.18550279004890902 -0.09129238643812507 0.023575069360101335 -0.10169535114994072 0.01571056349738583 5.907835363796707e-16 -0.021511445673281056 0.0035094300321400077 0.11335784503310373 0.0447417953551206 0.00861526856340583 -0.01747514047095807 0.26571061373378635 -0.011877053049407464 -0.178909378402377 0.14494039419418897 0.19877628171769057 0.02954768975972286 -0.17385724170377825 -0.0024351863315622605 0.0373494146503385 -3.383013586698688e-05 -0.4396575543061936 -0.4574885235602118 -9.865137508472758e-08 0.04594851214257212 0.007959047277575454 0.27285865355427324 -0.21639271723223122 -0.02083669977140168 0.17505090700963027 -2.5868471272133064e-16 0.18550279004890918 -0.09129238643812507 0.023575069360101376 -0.10169535114994066 0.01571056349738584 4.37402683875249e-16 -0.021511445673281004 0.0035094300321399483 0.11335784503310362 0.0447417953551206 0.008615268563405562 -0.017475140470958158 0.2657106137337865 -0.011877053049407522 -0.178909378402377 0.14494039419418903 0.19877628171769052 0.029547689759722794 -0.17385724170377834 -0.002435186331562252 0.03734941465033866 -3.383013586699664e-05 -0.4396575543061941 -0.4574885235602118 -9.865137535703958e-08
8 -0.1370940449357852 0.10078827611814774 0.272676439956698 0.4166013151276526 -0.03873574220390645 -0.2674711248265868 -1.19711726943995e-14 0.705177258446189 0.07521398703591567 -0.6320611958966788 -0.11401313969693207 -0.15658211109433093 3.9030995779360124e-16 0.06656827323488215 0.0014732524894255756 -0.07827638015323056 -0.09342853236155847 0.0646138034340066 -0.011661919889456574 -0.012935260905429916 -0.004610083137896449 -0.002264086852269399 0.004816504135571604 -0.011895951103500902 -0.00047955147636232225 -0.003214182394220252 4.635917643117168e-06 -9.644256386325712e-05 1.1954154124778324e-08 9.288391201615441e-05 -7.141332601939554e-05 -2.8259526694530715e-13 -0.13709404493578525 0.10078827611814767 0.272676439956698 0.4166013151276524 -0.03873574220390644 -0.26747112482658647 -1.2256829286995376e-14 0.7051772584461887 0.07521398703591524 -0.6320611958966791 -0.11401313969693173 -0.15658211109433104 5.762858681065682e-16 0.06656827323488218 0.0014732524894253115 -0.0782763801532307 -0.09342853236155858 0.06461380343400666 -0.011661919889456637 -0.012935260905430105 -0.004610083137896366 -0.002264086852269419 0.004816504135571772 -0.011895951103500975 -0.00047955147636237244 -0.0032141823942201386 4.63591764295085e-06 -9.644256386330785e-05 1.1954154384150249e-08 9.28839120162453e-05 -7.141332601940582e-05 -2.82522944650798e-13
9 -0.11430374953608916 0.005356363913849537 0.0010455648171486325 0.010748284916036924 0.172099875469082 -0.001355535251365557 -6.328817537347742e-16 0.010645472737447089 -0.003391438852758535 0.019887315072168194 -0.046946353343680386 -0.007916248344031653 -1.7344006135541547e-15 0.02723888753573852 -0.8643040828421916 0.006333937796743719 -0.0039911851662092195 -0.0011477962924424 0.004546343264197432 -0.0002078129139338259 -1.6653386952340143e-05 -0.00041558274430632844 6.267060186446457e-05 0.0008023736471576613 -0.01918413684507976 9.972730109364076e-05 -0.11563951652738431 0.0007588614314232256 0.6498805619005453 2.291075825109675e-06 2.637482515974755e-07 -0.39730883971246134 -0.11430374953608936 0.00535636391384953 0.0010455648171485814 0.010748284916036865 0.1720998754690822 -0.0013555352513659289 -4.812669453512183e-16 0.010645472737447296 -0.003391438852758563 0.01988731507216823 -0.04694635334367994 -0.007916248344031785 -1.802086122151395e-15 0.02723888753573882 -0.8643040828421915 0.006333937796743411 -0.003991185166209092 -0.001147796292442342 0.004546343264197452 -0.00020781291393392256 -1.665338695225186e-05 -0.00041558274430638015 6.267060186442522e-05 0.000802373647157473 -0.019184136845079896 9.972730109371675e-05 -0.11563951652738447 0.0007588614314232079 0.6498805619005461 2.291075825087029e-06 2.6374825154526134e-07 -0.3973088397124611
10 -7.618959435208421e-16 -9.568510660087673e-16 2.5257285328898294e-16 8.686688175652216e-16 -4.404375439247906e-15 5.469280788728392e-15 -1.115691688489443 -1.141229212748756e-14 7.602281501310617e-16 6.208267905108138e-15 -1.1982177133420646e-15 1.0587325751039364e-15 0.22861549133225914 -7.013968590400544e-16 -1.860057183514145e-15 2.7869427510307766e-16 4.069349638676863e-16 -9.090479641180752e-16 5.849677255688291e-16 9.342761580095843e-17 -6.670071081598228e-17 2.0380048010376611e-16 6.910296322667828e-17 -6.396186715144372e-17 2.0668674972990609e-16 -4.292294771405172e-16 2.1467021489228423e-16 1.983677185574408e-17 1.737006814682727e-17 3.1898769734986596e-18 4.5416152396266267e-17 2.9952520441948365e-17 -7.327127291899894e-16 -1.0111531990804078e-15 2.963184945722524e-16 9.421937539345703e-16 -4.502949555087401e-15 5.4329404988426134e-15 -1.115691688489443 -1.1044133345390118e-14 7.967366406428871e-16 6.011075098859061e-15 -1.236283948446523e-15 9.089865939952646e-16 0.2286154913322588 -7.286825483705447e-16 -1.7229297175618554e-15 3.2067054629549444e-16 3.0709508385503417e-16 -7.977877130482111e-16 4.614219954845487e-16 5.651022203965985e-17 -2.046972549759039e-17 1.3367849990323904e-16 2.4780203580526564e-17 -6.199107301869561e-17 1.0080091658764203e-16 -1.168946193716954e-16 5.403012418464928e-17 2.1453773382813744e-17 -2.5469288753463194e-18 2.2323201614589794e-18 3.351501378590081e-17 2.3635246869892976e-17
11 -0.2481115169590709 0.010009967934117339 0.004856705120402305 0.014817686189368141 0.24511068291139448 -0.0014356774311359887 -6.454889599844709e-16 0.009848322451682432 -0.0028558682995429817 0.01575970345759902 -0.03512977055404846 -0.005389378141723398 -8.77475795322574e-16 0.015496433575899107 -0.47798349722130923 0.003103942743895864 -0.0015822459538468885 -0.0003134254485765814 0.0005801208659862025 -0.0001859315815996166 -0.00028590857104049893 -0.0019381960014940565 0.00029491294530231156 0.002731801953921267 -0.052789015481651734 0.0002633876370264011 -0.3003738780277503 -0.0011250727600435639 1.7580396279490602 -8.843924613814767e-06 1.0938399650402919e-07 -0.35052474324661187 -0.2481115169590711 0.010009967934117332 0.004856705120402251 0.014817686189367905 0.24511068291139468 -0.001435677431136142 -6.949727417602761e-16 0.009848322451682722 -0.0028558682995429613 0.015759703457599014 -0.03512977055404845 -0.005389378141723379 -8.443569054000714e-16 0.015496433575899117 -0.4779834972213092 0.0031039427438956995 -0.0015822459538469172 -0.00031342544857626217 0.0005801208659861273 -0.0001859315815995282 -0.0002859085710404856 -0.0019381960014940257 0.0002949129453023886 0.0027318019539214074 -0.05278901548165149 0.00026338763702649407 -0.3003738780277502 -0.0011250727600431861 1.7580396279490607 -8.843924613854822e-06 1.0938399633935232e-07 -0.3505247432466118
12 -0.09905024932704379 0.046472224716633925 0.10469568149420112 0.20241479723506658 -0.02687257188784236 -0.4166079325390843 -1.2630371991180516e-14 0.6511478885754709 0.0415195337243628 -0.681714343041537 -0.14853625254203584 -0.14386434256555342 1.022755418575655e-15 0.05764038248322768 0.0018797001026105114 -0.04473954156852909 -0.09354246880725274 0.043871160019084005 -0.011088800216476338 -0.00832114789880397 -0.0028659078750849364 -0.0012681023267072213 0.002848133475279549 -0.006705769130056398 -0.00026301867366669985 -0.0016705605916144473 2.340011985772392e-06 -4.804696933216632e-05 5.252222013719227e-09 3.748840165127679e-05 -2.5662655491919217e-05 -8.851873634680766e-14 -0.09905024932704391 0.04647222471663376 0.10469568149420101 0.20241479723506642 -0.026872571887842436 -0.41660793253908407 -1.2698753666554796e-14 0.6511478885754707 0.04151953372436224 -0.6817143430415377 -0.14853625254203545 -0.14386434256555355 1.1949567946884743e-15 0.057640382483227774 0.001879700102610208 -0.04473954156852933 -0.09354246880725277 0.04387116001908404 -0.011088800216476445 -0.008321147898804108 -0.002865907875084784 -0.001268102326707313 0.0028481334752794413 -0.0067057691300563835 -0.00026301867366654487 -0.0016705605916144785 2.340011985832882e-06 -4.8046969332139946e-05 5.252221987586796e-09 3.74884016512441e-05 -2.566265549172746e-05 -8.853884626648316e-14
13 0.20328261292545768 -0.14367555475890698 0.02724226704102635 0.013812326823793577 0.01898140671355037 -0.030084066968097258 -8.068611999805887e-17 -0.046192938265521746 0.027004153767654172 0.007256599248869242 0.0434228252696413 -0.03324881474928188 -1.9950445556846618e-16 0.05495527913368992 0.0005455031559168041 -0.05401133750784963 -0.03346645802352468 0.06024423686383868 -0.018393406676753578 -0.8120490101644208 -0.0712079581244256 0.13260802205471903 -0.6605025893354448 0.07071144124182746 -0.0028133759145755172 0.7891719320696831 0.000972122349099402 -0.010785399015859617 1.1343643619850901e-05 0.23652451597083474 -0.75413672131254 -1.4455656526524139e-08 0.20328261292545774 -0.1436755547589067 0.02724226704102634 0.013812326823793294 0.018981406713550492 -0.030084066968097272 -2.3392020158422516e-16 -0.046192938265521656 0.02700415376765412 0.007256599248869198 0.04342282526964134 -0.033248814749281895 -2.595748000513187e-18 0.054955279133690145 0.0005455031559166427 -0.05401133750784977 -0.033466458023524576 0.06024423686383908 -0.018393406676753262 -0.8120490101644208 -0.07120795812442535 0.13260802205471892 -0.6605025893354445 0.0707114412418277 -0.00281337591457508 0.7891719320696833 0.0009721223490993702 -0.0107853990158597 1.1343643619800266e-05 0.23652451597083507 -0.754136721312541 -1.4455656415029702e-08
14 -0.000308113232666664 0.008308433058563946 -0.17185809375140101 0.18571435075676812 0.17834313740377938 -0.015376239996553244 -7.715610224814379e-16 -0.19793234253796826 0.07620187345617749 -0.39956586967558555 0.9267356326816556 0.13742390905644986 1.1894161752373716e-15 -0.07524021034350416 -0.03274499624149071 0.09947765666502709 -0.13975102701711356 -0.0653033704801292 0.43752449862901976 -0.025143596989670843 0.021246789447348716 0.07868154573323909 -0.015321592603823764 -0.06959310920516068 -0.015711538747418784 0.0018172457772611815 -0.00029836804368618425 -0.3028467510663587 -0.00013160198426976467 -0.11495118909469479 -0.015365652435959037 -3.52947760242239e-06 -0.00030811323266667135 0.008308433058563843 -0.17185809375140101 0.1857143507567684 0.17834313740377922 -0.015376239996553178 -8.285668364788179e-16 -0.19793234253796818 0.0762018734561776 -0.39956586967558566 0.9267356326816554 0.13742390905644997 1.0043042055406951e-15 -0.07524021034350442 -0.03274499624149073 0.09947765666502718 -0.13975102701711364 -0.06530337048012923 0.4375244986290204 -0.025143596989670672 0.021246789447348924 0.07868154573323909 -0.015321592603823755 -0.06959310920516049 -0.0157115387474188 0.0018172457772611032 -0.0002983680436860538 -0.30284675106635883 -0.0001316019842697342 -0.11495118909469482 -0.015365652435958934 -3.5294776023868977e-06
15 0.014209546733556202 -0.025885912757645943 -0.20837052341359016 0.285306182248008 0.007843883164749998 0.020637667079223217 1.4145285412159695e-15 -0.18744098595013728 -0.03869083378862297 -0.23333815620990841 0.13801977433573095 0.10101688748563226 -2.6785976447107233e-16 -0.1439115976816252 -0.023837069518016948 -0.25111627130678094 0.22337696568444032 -0.18151830110749909 -0.9072046191429602 0.07366274222955897 0.08365617012492212 0.5125962254858579 -0.045715708858747345 -0.13222175227372227 -0.010575455458890793 0.009985871133033177 -0.0002144788176931672 0.03145965746170641 -1.164113762890056e-05 -0.28559275696656233 -0.049824169972481666 -3.3478497554039996e-08 0.014209546733556256 -0.025885912757645915 -0.20837052341359005 0.28530618224800797 0.007843883164749776 0.020637667079223293 1.2101790020734914e-15 -0.18744098595013728 -0.03869083378862286 -0.23333815620990866 0.13801977433573073 0.10101688748563238 -8.825762662799244e-17 -0.14391159768162484 -0.023837069518016858 -0.251116271306781 0.2233769656844404 -0.18151830110749922 -0.9072046191429608 0.07366274222955965 0.08365617012492156 0.512596225485858 -0.045715708858747005 -0.1322217522737226 -0.0105754554588906 0.009985871133033139 -0.00021447881769332675 0.03145965746170631 -1.1641137629035624e-05 -0.28559275696656256 -0.04982416997248168 -3.347849766490762e-08
16 0.03704448588732117 -0.0021141526996553413 -0.0007354679846985932 -0.003619642290142306 -0.057392285598175 0.0002070083349542731 3.5300177499150756e-16 2.623113216765338e-05 -0.00033529388480997666 0.0032423091316156507 -0.010498889215623928 -0.0026008421201226327 -9.100167150439058e-16 0.01372902550419006 -0.45671032692053487 0.00416788418001638 -0.0030230366244092186 -0.001064721269120009 0.005132227575787431 -0.00012661718906318108 0.00025491045400595995 0.0012665690395387208 -0.00020104345311080103 -0.0014863735235650002 0.020972477607529925 -9.057497995925025e-05 0.0936367386805598 0.0035458821048678763 -0.44068331999179594 2.563019128574766e-05 1.278590113199449e-06 -2.2294720063553384 0.03704448588732101 -0.002114152699655524 -0.0007354679846986058 -0.003619642290142371 -0.057392285598175045 0.0002070083349542553 3.06125161767111e-16 2.6231132167742808e-05 -0.00033529388481003857 0.003242309131615683 -0.010498889215623905 -0.002600842120122765 -9.385358020162875e-16 0.013729025504190265 -0.4567103269205347 0.00416788418001619 -0.003023036624409205 -0.0010647212691197035 0.00513222757578759 -0.00012661718906313674 0.00025491045400606707 0.0012665690395386752 -0.000201043453110895 -0.001486373523565192 0.02097247760752982 -9.05749799590022e-05 0.09363673868055997 0.0035458821048676087 -0.44068331999179644 2.5630191285782987e-05 1.2785901129751658e-06 -2.229472006355338
17 -0.17538340184253556 0.010474931743799206 -0.10883450353744364 -0.06281708946886962 0.0012822958490076026 0.04871290952984409 -1.877843370892323e-15 0.014008641247355073 -0.002147422332619992 0.004077526574637814 0.014658426069662306 -0.2635752726866233 -1.3513227760807607e-15 -0.1552457186462171 -0.0027978974301489526 0.009378038453600194 0.04338962165539464 -0.3281825258041499 0.031391879515894526 0.09220979386920708 -1.2974876991830588 0.14538095263005682 0.02399853176124013 -0.03518481223250435 -0.0013429564772203914 -0.0053715770864770735 1.0751455006489965e-05 -0.0001288837130628417 1.5459438789234718e-08 6.458763537998724e-05 -3.945126841017484e-05 -1.3054604243553387e-13 -0.1753834018425357 0.010474931743799263 -0.10883450353744367 -0.06281708946886957 0.0012822958490080378 0.04871290952984431 -1.5922760150247647e-15 0.014008641247355257 -0.002147422332620094 0.0040775265746376375 0.014658426069662386 -0.2635752726866234 -1.164504446231933e-15 -0.1552457186462172 -0.002797897430148831 0.00937803845360013 0.043389621655394596 -0.32818252580414997 0.03139187951589381 0.09220979386920783 -1.2974876991830606 0.14538095263005696 0.023998531761240102 -0.03518481223250424 -0.0013429564772205573 -0.005371577086477376 1.075145500640244e-05 -0.00012888371306280874 1.5459438686646e-08 6.458763538012861e-05 -3.945126841006225e-05 -1.306607568361028e-13
18 -0.017276208659639292 0.018432652726525754 -0.009765059477101035 0.033255265344917656 -0.028028061633260336 0.011809525834844467 2.0171529999514716e-16 -0.14147698364970965 0.04798062783080306 -0.2760708051858318 0.6115634579998467 0.07511715444609285 8.473989274220684e-16 -0.03296657859315897 -0.036438053743827914 0.07743807989232332 -0.04722968655101561 -0.023831714872222506 0.15016812027794227 -0.016680230007760425 0.0022073672509505416 -0.0071268867531597575 -0.0024697297521436047 -0.009677831606531276 -0.00020360022001324253 0.00020825930287297545 -0.0040678639191807225 -0.9449441552402814 -0.0005873154478412583 -0.084846829804224 -0.010288484563862025 -3.2314724941917974e-05 -0.017276208659639258 0.018432652726525674 -0.00976505947710111 0.033255265344917705 -0.028028061633260524 0.011809525834844539 5.10208602945185e-17 -0.14147698364970973 0.04798062783080333 -0.2760708051858321 0.6115634579998463 0.07511715444609293 7.518642800333631e-16 -0.03296657859315919 -0.03643805374382782 0.07743807989232346 -0.04722968655101563 -0.02383171487222249 0.1501681202779424 -0.01668023000776053 0.002207367250950627 -0.007126886753159658 -0.0024697297521435947 -0.00967783160653127 -0.00020360022001332406 0.00020825930287319443 -0.004067863919180879 -0.944944155240283 -0.0005873154478415511 -0.08484682980422409 -0.01028848456386214 -3.231472494186051e-05
19 0.0026874468811759695 -0.011217729120903408 0.00668956219664559 -0.025084945058398117 -0.1094160863673905 -0.005500323440591223 6.253174299849562e-16 0.07972905876754821 -0.028974832146136106 0.17403524043879687 -0.4009522506912441 -0.05281513563622408 -5.972929478629342e-16 0.026505100663971035 0.002904412752209344 -0.0668685663521283 0.042010391364491834 0.02297271239490491 -0.15845680398158693 0.022924506424524625 -0.0036397100306346845 0.012702717278724539 0.00670696078370747 0.06869870697030876 0.004775230017127062 0.0007131619364635848 -0.0070431112074620375 -1.727127822101691 -0.0016063984879277997 -0.037427646746041286 -0.002852025079378729 -0.00022333905679645523 0.0026874468811759 -0.011217729120903394 0.0066895621966456065 -0.025084945058398166 -0.10941608636739054 -0.005500323440591256 6.016582735900383e-16 0.0797290587675481 -0.02897483214613624 0.17403524043879712 -0.40095225069124385 -0.05281513563622416 -5.327473010298387e-16 0.02650510066397105 0.0029044127522093784 -0.06686856635212836 0.04201039136449178 0.022972712394905066 -0.15845680398158715 0.022924506424524618 -0.003639710030634769 0.01270271727872453 0.006706960783707735 0.06869870697030869 0.00477523001712709 0.0007131619364638957 -0.0070431112074617885 -1.727127822101693 -0.0016063984879281805 -0.037427646746041314 -0.002852025079378695 -0.00022333905679635969
20 -0.39447078328911905 0.17723953701182857 -0.09298140793596496 -0.02899244075071556 -0.019754198992671442 -0.09201162751509379 2.0171529999514716e-16 -0.011245236001788268 0.09733270998298964 0.026000876657388507 -0.13055834466371322 0.04077111117780164 -5.276971157879791e-16 -0.11230083760511336 0.002978147351325203 0.2882960461400395 0.17308595237548546 -0.24273692575978112 -0.00040254030561270854 -0.3820928604768175 0.06348689822465538 -0.04753558052219994 -0.06350647958227 -0.9361230594686334 -0.05530371972721872 -0.43452193197089256 0.0016500120933049447 -0.035950960500263085 1.85051060511605e-05 0.351022931337918 -0.9051821092707026 -1.4568244948789146e-08 -0.3944707832891193 0.1772395370118288 -0.09298140793596497 -0.028992440750715765 -0.019754198992671373 -0.09201162751509402 3.6281500653879824e-16 -0.011245236001788542 0.09733270998298993 0.026000876657388417 -0.13055834466371313 0.0407711111778016 -5.375710122930514e-16 -0.11230083760511322 0.002978147351325319 0.2882960461400394 0.17308595237548574 -0.2427369257597812 -0.0004025403056128325 -0.38209286047681773 0.06348689822465552 -0.0475355805222006 -0.06350647958226974 -0.9361230594686342 -0.055303719727218405 -0.43452193197089295 0.0016500120933048952 -0.035950960500263064 1.850510605144287e-05 0.3510229313379182 -0.9051821092707041 -1.4568244990979182e-08
21 -0.003256109786993216 0.15248335601534052 -0.03385410677269038 -0.01034179131408454 -0.01197708528811432 0.021111778799388584 -2.7836711399330308e-15 0.1635796517324081 -0.9680517940122665 0.09190364056238112 0.16172293778060595 -0.08204820775776342 4.430294831477117e-17 0.08630305127394654 0.0004974452236051766 -0.10402245168574731 -0.05714825309312675 0.07944678872643504 -0.009372079698770679 0.018503719753620248 -0.020607890347901763 -0.03786196705774601 -0.3428934915952555 -0.03986509914008584 -0.002660822115482188 0.08160585690258738 0.00012074332323551723 -0.0015153497795542949 6.380715090974514e-07 0.008619866974577674 -0.015673227794731244 -1.6214459860802012e-10 -0.0032561097869933347 0.15248335601534063 -0.033854106772690455 -0.010341791314084357 -0.011977085288114383 0.021111778799388452 -2.8586600145133436e-15 0.16357965173240854 -0.9680517940122675 0.09190364056238101 0.16172293778060595 -0.0820482077577638 -1.3839753160415123e-17 0.08630305127394627 0.000497445223604814 -0.1040224516857471 -0.05714825309312698 0.07944678872643517 -0.009372079698770814 0.01850371975362014 -0.020607890347901812 -0.03786196705774608 -0.3428934915952553 -0.0398650991400857 -0.002660822115482396 0.08160585690258745 0.00012074332323545687 -0.001515349779554309 6.38071509122525e-07 0.00861986697457767 -0.01567322779473117 -1.6214466172998298e-10
22 -6.285020160736046e-16 -7.093440736143007e-16 2.716738681535626e-16 5.962590330125462e-16 -4.056033778068524e-15 4.428872535849898e-15 -0.942487707359865 -9.792419510945609e-15 6.942300948477992e-16 4.903648994273444e-15 -1.2790433266723153e-15 5.831228850331932e-16 0.16296802543243138 -6.136848003498043e-16 -1.495611223318679e-15 1.4368569208169444e-16 2.82392652459919e-16 -6.042521548995434e-16 4.3128983789830226e-16 4.45281072029654e-17 9.067224333796574e-17 -9.232605037275285e-18 2.0411718507037602e-17 -1.0116366708899153e-16 -6.10622124081371e-19 2.6015740537226385e-16 -1.8129613405395068e-16 7.752682941033612e-17 7.117174857232748e-17 -1.8520869987184447e-17 3.410651068745932e-17 -3.841814988262486e-17 -6.83604259018802e-16 -8.377883090283865e-16 3.154501183082365e-16 7.057044401836514e-16 -4.106385259481512e-15 4.482508897733556e-15 -0.9424877073598653 -9.525513744289903e-15 7.067671427159483e-16 4.8217112895628004e-15 -1.1684136985599312e-15 6.441828092829068e-16 0.16296802543243133 -5.830636297168855e-16 -1.3441873850957678e-15 1.5647051337886958e-16 2.829381881461638e-16 -5.83993238354834e-16 3.7501660113921987e-16 4.980306841238895e-17 5.1908297332756225e-17 5.319090623308191e-17 -6.243141733351768e-18 -6.212682675594239e-17 4.0815967522809724e-17 -7.53366772646038e-18 -1.3400800365120462e-17 3.634949316758166e-17 2.378129331386179e-17 -1.1384616193563731e-17 2.3298559981079145e-17 -7.823702483770639e-18
23 0.0755570911152245 -0.005089870934799687 0.05352648273520039 0.03300292524057779 -0.0007566812250970208 -0.04418109719867266 7.035215062526061e-16 -0.029838817893638903 0.016641861055074883 0.04010885924307997 0.045687752178113814 -0.36573772114353437 -2.0954062551843828e-18 -0.11417723276176849 -0.0019378236142760172 0.004716773889895075 0.020084960078965607 -0.12547225005641952 0.010075673673921608 0.020703101236461147 -0.2471714998804329 0.026087814606974628 0.003451837659434949 -0.004029527630416605 -0.00013533627869409634 -0.0004289057566985183 7.51229887952108e-07 -8.578262374168654e-06 6.013428438303033e-10 1.7674054115688161e-06 -6.702932107934117e-07 -1.5394006894638215e-15 0.07555709111522453 -0.005089870934799752 0.05352648273520035 0.03300292524057789 -0.0007566812250970851 -0.0441810971986726 5.112249175965195e-16 -0.029838817893638802 0.01664186105507473 0.040108859243080046 0.0456877521781137 -0.3657377211435342 -2.692594300549584e-16 -0.11417723276176837 -0.0019378236142759083 0.004716773889895115 0.02008496007896565 -0.12547225005641952 0.010075673673921714 0.020703101236461203 -0.24717149988043324 0.02608781460697466 0.003451837659435154 -0.004029527630416636 -0.00013533627869413386 -0.00042890575669865164 7.512298879905118e-07 -8.578262374156437e-06 6.013428079777011e-10 1.767405411597107e-06 -6.702932108572251e-07 -1.309397828624126e-15
24 -0.014917692405634331 0.0015747126264452286 0.0035029120603867203 -0.0011962698527872928 0.027584716961046543 0.00017496333326977374 -2.8240141999320604e-16 0.00032282926582324445 1.109686456980818e-05 -0.0003469709206373697 0.0014590990337588925 -1.2547883876235385e-05 3.199747974130223e-16 -0.002078040515407781 0.08697188415861405 -5.305976860215962e-05 0.0017679214696601129 0.0008652186967328649 -0.004897762350428119 -0.00048189793211623203 -0.0008382619541026922 -0.005269715934285349 0.0006644542362015815 0.005128575632868817 -0.09079157986966302 0.0003867031127070281 -0.4050715927356073 -0.0009650568180042776 1.6803071252579478 -4.245875769822699e-06 1.838655373794385e-07 -0.31298477517732654 -0.014917692405634295 0.0015747126264452455 0.0035029120603867468 -0.0011962698527874154 0.027584716961046432 0.00017496333326971284 -3.192533363458175e-16 0.00032282926582324786 1.1096864569693822e-05 -0.00034697092063743244 0.001459099033758889 -1.2547883876265487e-05 2.970139867421899e-16 -0.002078040515407877 0.08697188415861415 -5.305976860208651e-05 0.0017679214696600723 0.0008652186967329313 -0.004897762350428007 -0.00048189793211626044 -0.0008382619541026653 -0.0052697159342853005 0.0006644542362015405 0.005128575632868848 -0.09079157986966284 0.00038670311270703117 -0.4050715927356081 -0.0009650568180042419 1.680307125257949 -4.245875769917216e-06 1.8386553733075385e-07 -0.3129847751773266
25 0.2273910612893459 0.05937673072034301 0.6271014846615923 0.3036571808169536 -0.018064611852406494 -0.6983505864691798 9.531047924770703e-16 -0.23351217858233198 -0.04801510964128093 0.09845477572200746 0.0074359795324506015 0.13984245629869854 2.4511542217810857e-16 0.4154663335106267 0.01122011703313239 -0.08948701315296075 -0.009348603320369561 -0.06517862636513208 -0.006640389798313655 -0.04103451975205688 -0.062230176962728014 -0.00978738433793198 0.03524164574070457 -0.12197678685368094 -0.005925976101927417 -0.05567341394746286 9.686477291460898e-05 -0.0021622163896719937 5.624800732926666e-07 0.007027523391126622 -0.01017945169956382 -8.345966401039395e-11 0.2273910612893461 0.059376730720342864 0.627101484661592 0.30365718081695353 -0.018064611852406938 -0.6983505864691796 1.0598017296264894e-15 -0.23351217858233225 -0.04801510964128124 0.09845477572200738 0.007435979532450484 0.1398424562986985 3.7426772442289597e-16 0.4154663335106265 0.011220117033132283 -0.0894870131529607 -0.00934860332036956 -0.06517862636513225 -0.006640389798313532 -0.041034519752056776 -0.06223017696272812 -0.00978738433793184 0.03524164574070466 -0.12197678685368094 -0.005925976101927382 -0.05567341394746296 9.686477291453276e-05 -0.0021622163896720453 5.62480073354164e-07 0.007027523391126538 -0.010179451699563987 -8.345978491481018e-11
26 0.0454337401310237 -0.06251370740466107 -0.2905370713005838 0.27017657835117476 -0.07432498276275402 -0.043124325014073386 8.232505681051944e-16 0.06571770814708838 -0.025219656704717642 0.13441389472628476 -0.28111809329516335 0.04973904901338803 -1.3319480930395689e-15 -0.08400791056066709 0.011544174568915566 -0.175261149165366 -0.2033160040121226 -0.11236762685893681 0.6392742726875303 0.08190368685116456 0.10022172816537903 0.5958415649389239 -0.04602864517640384 -0.11050505563784599 -0.21385116553249986 0.0077083636134861805 0.031079529594027402 0.002576180294201291 0.0007026069034637984 -0.14028159752388414 -0.020731927198008048 -3.7352637416774044e-07 0.04543374013102374 -0.06251370740466126 -0.2905370713005838 0.270176578351175 -0.07432498276275433 -0.043124325014073206 9.68725018486713e-16 0.06571770814708837 -0.025219656704717576 0.13441389472628484 -0.2811180932951631 0.04973904901338787 -1.2469162647666717e-15 -0.0840079105606672 0.011544174568915747 -0.17526114916536603 -0.20331600401212302 -0.11236762685893656 0.6392742726875308 0.08190368685116427 0.10022172816537957 0.5958415649389243 -0.046028645176404065 -0.11050505563784613 -0.21385116553249967 0.007708363613486161 0.031079529594027412 0.002576180294201393 0.0007026069034636659 -0.14028159752388444 -0.02073192719800804 -3.73526374117312e-07
27 0.02282060933663321 -0.04650065884358214 -0.23405947115087458 0.07875084885925036 -0.0032264755413141397 0.03042756555232134 -2.3023910413508594e-16 0.04627749291350156 0.05206535622381783 0.06678975093023176 0.08544555713073519 -0.33765500718356495 -3.3825147086676955e-16 0.4590771064506224 0.017513521858373793 0.6784904889261483 0.2923288988080438 0.5682300936559166 -0.026518969114306942 0.0832710463957469 -0.03287914104361127 0.28038426385698045 -0.009817170975141848 -0.019893627472468815 -0.008205865724500471 0.00020282794143552813 0.00039373090523175936 0.0003980262114052546 1.984366644293269e-06 -0.0012800684595417084 -8.327040988304379e-05 -7.940562806737334e-11 0.022820609336633307 -0.04650065884358207 -0.23405947115087458 0.07875084885925056 -0.00322647554131428 0.030427565552321328 -3.7117978893860085e-16 0.04627749291350167 0.052065356223817576 0.06678975093023179 0.08544555713073529 -0.337655007183565 -9.72061370606033e-17 0.4590771064506225 0.017513521858373654 0.6784904889261479 0.2923288988080444 0.5682300936559165 -0.026518969114307206 0.083271046395747 -0.032879141043611386 0.2803842638569807 -0.009817170975141865 -0.019893627472468645 -0.008205865724500378 0.00020282794143553282 0.0003937309052318506 0.00039802621140526477 1.984366644284563e-06 -0.0012800684595416596 -8.327040988302784e-05 -7.940568474923075e-11
28 0.04816576297905841 0.0360411862024088 0.14738697139349918 0.19384740478428214 -0.007111382574468411 0.524595574815712 -1.6540654599602068e-15 0.35701529862017795 0.179027735827229 -0.19166735268991372 0.06910531093833927 -0.25445014749917716 1.4805664690280835e-15 0.1737589030450406 0.0002981000208946954 -0.41760456596666784 -0.24468463768638554 0.3569432021495653 -0.04766059313768505 -0.1130017873203142 -0.04755093371016809 -0.026160074849573414 0.06628111060850168 -0.20937509326010648 -0.00971976121306398 -0.0847385058923369 0.00014235224650071662 -0.0031342561645661127 7.308352618799343e-07 0.00867013213593625 -0.01191709085448877 -9.354610251963065e-11 0.048165762979058196 0.03604118620240889 0.14738697139349907 0.19384740478428275 -0.0071113825744684965 0.5245955748157121 -1.879417537983462e-15 0.3570152986201779 0.17902773582722872 -0.19166735268991347 0.06910531093833906 -0.2544501474991773 1.3275902213679537e-15 0.17375890304504066 0.00029810002089470397 -0.41760456596666756 -0.24468463768638543 0.3569432021495652 -0.04766059313768495 -0.1130017873203142 -0.047550933710168046 -0.02616007484957341 0.06628111060850161 -0.20937509326010675 -0.009719761213064062 -0.08473850589233702 0.00014235224650074874 -0.0031342561645662315 7.308352618555019e-07 0.008670132135936186 -0.011917090854488804 -9.354603789536312e-11
29 -0.03927887068955758 -0.028594030445751675 -0.22128219236112076 -0.10162999913262377 0.006951114112293435 0.28069462415093055 6.647149495152584e-16 0.11112989923956061 0.03103443593482804 -0.07313662630370082 -0.025898393502960405 0.4309084949647772 3.2882208147856245e-15 0.7331338267619876 0.019739564675955373 -0.05824466908069858 0.0527726823523327 -0.3236915026107315 0.01877736105456591 0.028988459196537565 -0.40193427905887075 0.039860761043314166 0.007596141533276802 -0.011656919408163 -0.00042310772529837836 -0.002111018836230713 3.148968575504582e-06 -5.6079295335757724e-05 5.778780882236216e-09 3.856287815379325e-05 -2.5993463535725022e-05 -8.895221921780203e-14 -0.03927887068955762 -0.028594030445751595 -0.22128219236112076 -0.10162999913262394 0.006951114112293453 0.2806946241509304 6.808562244931158e-16 0.11112989923956051 0.031034435934828204 -0.07313662630370076 -0.02589839350296049 0.43090849496477723 3.0868563899266266e-15 0.7331338267619871 0.0197395646759552 -0.05824466908069846 0.05277268235233269 -0.32369150261073115 0.018777361054565282 0.0289884591965378 -0.4019342790588712 0.039860761043314465 0.007596141533276867 -0.0116569194081631 -0.00042310772529818933 -0.0021110188362304964 3.148968575510774e-06 -5.6079295335797386e-05 5.778780805438128e-09 3.856287815383608e-05 -2.5993463535819046e-05 -8.897361285991354e-14
30 -0.024994831986406486 -0.04908473499544143 -0.20036405999246232 -0.1830043194496696 0.012937284410531089 0.02435812191225216 9.27890379977677e-16 -0.16359801912145294 0.04157375825575059 0.13218147171951491 0.09215619236313564 -0.2707969005926349 6.351052040585507e-16 0.24985069753710573 0.0037471352548173156 -0.4651197762419264 -0.25093739535805837 0.3820700463799206 -0.06923959863101072 -0.2440753311687568 -0.03814811853244204 -0.07984988595326611 0.20574705699651322 -0.795827286152135 -0.041262681862152636 -0.44007308566443 0.0008274303027234694 -0.019008713678514835 6.956466264097179e-06 0.11036494156277431 -0.2236418326019589 -2.742249997467979e-09 -0.02499483198640648 -0.04908473499544115 -0.20036405999246226 -0.1830043194496696 0.012937284410531156 0.02435812191225221 1.0836711379514104e-15 -0.16359801912145283 0.041573758255750624 0.13218147171951464 0.09215619236313553 -0.2707969005926348 6.856730071519553e-16 0.24985069753710581 0.0037471352548170828 -0.46511977624192635 -0.2509373953580584 0.3820700463799204 -0.06923959863101076 -0.2440753311687568 -0.03814811853244214 -0.07984988595326613 0.205747056996513 -0.7958272861521349 -0.041262681862152685 -0.4400730856644305 0.0008274303027239401 -0.019008713678514824 6.956466264182305e-06 0.1103649415627744 -0.2236418326019592 -2.7422498446783654e-09
31 0.03713400632512304 -0.10244483406802554 -0.6456400619024805 0.7549689808369201 -0.055728515792175005 0.020915061172195944 1.0627874868494317e-15 -0.21038876164043163 -0.05074233562890403 -0.17671875253896155 0.0037288477162660204 0.05123680397849067 -1.1224704724970392e-15 -0.08371027042720919 -0.01455560107081468 -0.13600883254383012 0.2040702825278804 -0.09559028882649986 -0.6546406646829372 -0.006738476722036864 0.024271644630863395 0.1322714449487184 -0.023268950165448516 -0.08740441175451205 0.006437171509697819 0.008005375673419217 -0.0012387375665241505 0.0283240600540819 -1.90732505894566e-05 -0.2714869270545015 -0.04843501297262269 -3.243165454362404e-08 0.037134006325122954 -0.10244483406802522 -0.6456400619024804 0.754968980836921 -0.05572851579217545 0.020915061172196252 1.1805287214198785e-15 -0.21038876164043177 -0.05074233562890423 -0.17671875253896166 0.0037288477162660373 0.05123680397849054 -1.0330667928595447e-15 -0.08371027042720892 -0.014555601070814671 -0.1360088325438303 0.20407028252788073 -0.09559028882649992 -0.654640664682938 -0.006738476722036794 0.024271644630863207 0.13227144494871834 -0.023268950165448162 -0.08740441175451233 0.006437171509697992 0.0080053756734194 -0.0012387375665241789 0.0283240600540818 -1.9073250589708853e-05 -0.27148692705450195 -0.048435012972622794 -3.243165483782968e-08
32 0.2531786056499108 -0.012303706211439627 -0.02387856126289916 0.006588519219977596 -0.15498339480264378 -0.001091942506657686 -2.0171529999514717e-17 -0.0016425847872805256 0.0002649888322019323 -0.0015786725560507908 0.0039893643891905604 0.003004054855391536 -2.7869341685375575e-16 -0.006766187718161876 0.14601935999543572 -0.005025382791231165 -0.00422665645198081 -0.0024936447803079274 0.014697480844135939 0.0021854762957782907 0.003011403282749725 0.01909786562750724 -0.0021788125133188107 -0.01523265251504807 0.2579559350823025 -0.0009121313210481527 0.8242301805468393 -0.0034917855889453646 0.18835912777300418 -5.1084841688769965e-05 -1.2412126260167627e-06 -0.005292122082142465 0.2531786056499109 -0.012303706211439818 -0.0238785612628992 0.006588519219977829 -0.15498339480264392 -0.0010919425066577212 1.7006953431506164e-16 -0.0016425847872807622 0.0002649888322019207 -0.0015786725560508 0.003989364389190667 0.0030040548553914195 -9.611743647786707e-17 -0.006766187718161831 0.1460193599954356 -0.005025382791231246 -0.004226656451980658 -0.0024936447803079564 0.01469748084413599 0.002185476295778401 0.0030114032827498723 0.019097865627507135 -0.002178812513318992 -0.015232652515048083 0.2579559350823023 -0.0009121313210482424 0.8242301805468402 -0.003491785588945156 0.18835912777300423 -5.108484168885673e-05 -1.2412126258245307e-06 -0.005292122082142407
33 -0.2087493623436044 -0.0024448359780995872 0.007913886296625561 -0.01729383804601839 -0.21560568809930972 0.0016179250432454741 -4.790738374884745e-17 -0.009991941949906229 0.0028487730234828057 -0.015470043604140981 0.033915053130542945 0.004970615469410779 3.8242182911621406e-16 -0.013495708915000336 0.41419901110832585 -0.002404358735662547 0.0013850246839630861 0.0003037185088022516 -0.0007880533744650644 3.039245125993263e-05 6.191428230291923e-05 0.0003960756933216381 -6.564666902259332e-05 -0.0005649317234755026 0.009296410547386124 -4.171931726437224e-05 0.04394608369438445 0.001015255738371035 -0.19486576549975307 7.82823648770276e-06 3.6656251197543877e-07 -0.5962728813071961 -0.20874936234360447 -0.0024448359780994723 0.00791388629662556 -0.017293838046018355 -0.2156056880993097 0.0016179250432455808 4.945443037319556e-17 -0.009991941949906255 0.002848773023482996 -0.015470043604141214 0.03391505313054296 0.004970615469410818 4.649944387870615e-16 -0.013495708915000452 0.41419901110832585 -0.0024043587356624013 0.0013850246839630191 0.00030371850880232294 -0.0007880533744649652 3.0392451259867113e-05 6.191428230291756e-05 0.00039607569332163087 -6.564666902259869e-05 -0.0005649317234755811 0.009296410547385996 -4.171931726425889e-05 0.04394608369438459 0.0010152557383708272 -0.19486576549975335 7.828236487710272e-06 3.6656251199776037e-07 -0.5962728813071962
34 -0.003688807313852552 0.03868979571109455 0.2803012803918283 -0.21591975941754424 0.21895086120885585 0.06074300106349042 -2.5185356828739797e-15 -0.10575884768187228 0.03349527706346531 -0.3272197176299558 0.7636972468743022 0.07362653225162684 1.1230516344457044e-15 -0.023632704543946857 -0.023084086621711197 0.2525456192644456 0.002873509926854198 -0.020217402854596583 0.15167134546019667 -0.096491647549171 -0.023985238463950675 -0.2552631736432755 -0.0030460254127945632 -0.157882342817492 0.017524094212045923 -0.0057316233260233905 -0.003534441952140117 -0.12080719537309134 -0.00011711742972554715 -0.8046734433258417 -0.1610849350987606 -1.3126863009988043e-06 -0.0036888073138528054 0.0386897957110946 0.2803012803918283 -0.21591975941754435 0.21895086120885582 0.06074300106349013 -2.4117869285209346e-15 -0.1057588476818722 0.03349527706346559 -0.32721971762995605 0.7636972468743018 0.07362653225162685 1.0682085276351249e-15 -0.023632704543946906 -0.02308408662171129 0.2525456192644456 0.0028735099268542967 -0.02021740285459666 0.15167134546019664 -0.0964916475491712 -0.023985238463950523 -0.25526317364327566 -0.0030460254127946825 -0.15788234281749225 0.017524094212045916 -0.005731623326023407 -0.003534441952140219 -0.12080719537309154 -0.0001171174297256001 -0.8046734433258422 -0.16108493509876043 -1.31268630119258e-06
35 0.03458193361120268 -0.0675752051341394 -0.36087887238186633 0.275616534688181 -0.029325674374533563 -0.10029092326772347 5.269812212373219e-16 0.08829006083594865 -0.0009727765089220138 0.1586731496203512 -0.2151144489704253 0.06599577688372542 -1.3790677959785115e-15 -0.0929006755819622 0.01637271866462838 -0.13889644955527122 -0.30207496796073485 -0.12990579647327546 0.9756399358097508 0.03419132478887086 0.11018654221885431 0.6198007521971828 -0.06834710431469797 -0.22092197269089284 -0.11522253967244216 0.01842035496960912 0.011287211064593948 0.004915563041344945 0.0001483829186428046 -0.7065099570317256 -0.13842054012167923 -2.6873744184008695e-07 0.03458193361120275 -0.06757520513413909 -0.3608788723818661 0.2756165346881812 -0.029325674374533796 -0.10029092326772343 5.006608396152166e-16 0.08829006083594843 -0.0009727765089220295 0.15867314962035142 -0.21511444897042498 0.06599577688372515 -1.2651533789866163e-15 -0.0929006755819625 0.016372718664628427 -0.1388964495552712 -0.3020749679607357 -0.12990579647327558 0.9756399358097516 0.03419132478887107 0.11018654221885474 0.6198007521971829 -0.06834710431469825 -0.22092197269089278 -0.11522253967244221 0.018420354969609105 0.011287211064594078 0.004915563041345023 0.00014838291864293593 -0.7065099570317256 -0.13842054012167931 -2.687374417526717e-07
36 0.2621271086158503 0.052041312786335885 0.5971147583294687 0.28441628545865016 -0.015756168701445198 -0.551795016265047 1.5380791624629972e-15 -0.16556398658305763 -0.030266358670794625 0.058039380581044187 -0.0019932082252498845 0.23398745459110518 7.912661599831027e-16 0.5009631456930334 0.01339990615995008 -0.07804894655714655 0.005588966568382121 -0.11600187841801467 -0.0006057605227509903 -0.02091262155437392 -0.10612012760940692 0.0005437031506708295 0.021780224759498725 -0.06979051528490694 -0.0032797054518893375 -0.029052971819510748 4.899408651667215e-05 -0.0010802028786334784 2.472141807725584e-07 0.0028370216156884884 -0.003658200919931015 -2.615116562048776e-11 0.2621271086158505 0.05204131278633587 0.5971147583294686 0.28441628545865033 -0.015756168701445455 -0.551795016265047 1.3542905548352015e-15 -0.16556398658305804 -0.03026635867079475 0.05803938058104407 -0.0019932082252501144 0.23398745459110507 8.657930972275425e-16 0.5009631456930331 0.013399906159949872 -0.07804894655714661 0.0055889665683820896 -0.11600187841801471 -0.0006057605227510636 -0.020912621554373723 -0.10612012760940688 0.0005437031506710157 0.021780224759498864 -0.06979051528490705 -0.0032797054518890964 -0.029052971819510616 4.899408651688871e-05 -0.0010802028786334502 2.472141808123099e-07 0.002837021615688646 -0.003658200919931176 -2.6151317520864997e-11
37 5.61386973806681e-16 -5.857868075376938e-16 2.2112140614713988e-16 1.721334810364009e-15 -2.4267021979672602e-15 3.254571063845875e-15 -0.7574627035911572 -6.768254543021832e-15 8.77449794296327e-16 6.585868076969835e-15 -3.9163670457381976e-16 6.966455193724002e-16 0.6326020394343619 -1.8987294299858254e-15 -2.31875651478048e-15 4.199734367717589e-16 2.1247924999047304e-16 -5.247895611318424e-16 2.6741635382180106e-16 -1.385975676256027e-17 -3.6149494470791976e-17 -9.162629207348788e-17 -1.6560816093779928e-16 -1.2252681637905513e-16 5.590705602734602e-17 -3.918731491370703e-16 4.597007435412345e-17 6.353918687509664e-17 1.4245617953720188e-17 -4.214452717033294e-17 8.735116535209068e-17 1.344771566162094e-16 5.780878918544196e-16 -6.411230123334058e-16 1.9966742137370268e-16 1.936405474893243e-15 -2.730405421228693e-15 3.405721462240193e-15 -0.7574627035911571 -6.606003977628257e-15 7.647770984999709e-16 6.489802911692946e-15 -4.367833133529777e-16 6.20506381976615e-16 0.6326020394343617 -1.8843708766985683e-15 -2.2365710513482644e-15 3.5599789851717416e-16 1.924029436756825e-16 -5.06459669387882e-16 2.5333298256651036e-16 -1.1511577955066847e-19 5.118797265785377e-18 -1.5364541548100143e-17 -6.302699766759735e-17 -7.100840407507647e-17 7.448596129556482e-17 -2.20523749639328e-16 8.486404715152926e-17 3.2895728048947745e-17 -2.5118918428386296e-17 -1.5348064182239428e-17 3.755210715641784e-17 4.0490127244817205e-17
38 0.5139693258961235 -0.25343018830574576 -0.022440978617315716 0.1162544961297964 0.017899934603021465 0.04470244522513474 -4.336878949895664e-16 0.03576757291252618 -0.17053477146884696 -0.02188084897941248 0.056218437734038805 0.013064799073951628 -6.815596789347931e-16 -0.015088999455869771 -0.001796552760115686 -0.006816855363891107 -0.0038802919305286846 -0.009945920814332551 0.011318364007003196 0.1679956951302287 0.012239149170046225 -0.0008975734824010906 0.08687692648729989 0.04296111690638841 0.0016141064587385668 -0.08895912689368236 -3.205971926379315e-05 -0.0003707114992629972 7.452942262495076e-07 0.018936439284746087 -0.05385328217848351 -8.38371260487752e-10 0.5139693258961237 -0.2534301883057455 -0.02244097861731561 0.1162544961297963 0.017899934603021517 0.04470244522513462 -5.096118677370619e-16 0.03576757291252619 -0.17053477146884702 -0.02188084897941239 0.056218437734038784 0.013064799073951652 -5.86005465717894e-16 -0.015088999455869959 -0.0017965527601156743 -0.006816855363890926 -0.0038802919305286477 -0.009945920814332352 0.011318364007003163 0.16799569513022855 0.012239149170046062 -0.0008975734824010042 0.08687692648729994 0.042961116906388486 0.0016141064587384085 -0.0889591268936824 -3.205971926387407e-05 -0.0003707114992629295 7.452942263601162e-07 0.018936439284746295 -0.05385328217848358 -8.383710918805153e-10
39 -0.0761246508168576 0.11146523882745359 0.5975027097808577 -0.42320730900778836 0.022243386926574498 0.1531477949996319 -8.472042599796181e-16 -0.08861555177071823 -0.035024786676303835 -0.09823908553749802 -0.058376693524711316 -0.035248944537438015 1.6958112212912097e-15 -0.004433962619440119 -0.0007175941064153506 -0.1760018637760666 0.07322231965622335 -0.06067019375027007 -0.013344042380414865 0.2444660123290322 0.1848252102212954 1.2630426741493883 -0.07980429420150102 -0.17232442415447077 -0.09790652276422146 0.008687234024044789 0.008133415238123318 0.008969276571778496 9.304597735335005e-05 -0.09679580945102625 -0.01177802388118816 -2.3450172057484245e-08 -0.07612465081685764 0.11146523882745354 0.5975027097808575 -0.4232073090077887 0.022243386926574803 0.15314779499963177 -6.664786355724017e-16 -0.08861555177071803 -0.03502478667630374 -0.09823908553749816 -0.05837669352471149 -0.03524894453743786 1.4072137684864796e-15 -0.004433962619440187 -0.0007175941064154418 -0.17600186377606644 0.07322231965622347 -0.06067019375026992 -0.013344042380414976 0.2444660123290325 0.1848252102212953 1.2630426741493888 -0.07980429420150092 -0.17232442415447066 -0.09790652276422156 0.008687234024044841 0.008133415238123422 0.008969276571778524 9.304597735347699e-05 -0.09679580945102634 -0.011778023881188013 -2.3450171967258964e-08
40 0.051193999522454944 -0.05944545210348917 -0.27468436362423154 0.2500243837571057 -0.06735787851591281 -0.0359160558371549 1.3193441340307594e-15 0.051347055905349215 -0.01912180994839267 0.10002403349521735 -0.20571068217577804 0.035323668067269984 -1.3350653105381458e-15 -0.057240893614640916 0.006082094855690462 -0.11530554439418622 -0.13254828994123008 -0.07155904715215906 0.39734734102210206 0.04794004140081699 0.05667377695489336 0.33216645039894854 -0.023950855492899242 -0.04632334603625238 -0.3178395843012708 0.0042473200850317964 0.05544227169489539 0.0011928363559617348 0.001531011342170066 -0.056749476420189765 -0.007455362514144772 -1.1075567011063318e-06 0.05119399952245494 -0.05944545210348944 -0.2746843636242315 0.2500243837571057 -0.0673578785159131 -0.03591605583715478 1.1103004466139004e-15 0.05134705590534894 -0.01912180994839263 0.1000240334952172 -0.20571068217577781 0.0353236680672698 -1.1441808235646244e-15 -0.05724089361464099 0.006082094855690648 -0.11530554439418644 -0.13254828994123022 -0.07155904715215895 0.39734734102210273 0.04794004140081706 0.05667377695489365 0.33216645039894904 -0.023950855492899426 -0.046323346036252495 -0.31783958430127074 0.004247320085031911 0.05544227169489526 0.001192836355961765 0.0015310113421699578 -0.05674947642018978 -0.007455362514144772 -1.107556700993758e-06
41 -0.09342621261710414 0.10960239338067827 0.34197824457710263 0.3711928942807754 -0.006161452863714624 0.4609186563073494 7.688258496880466e-15 -0.6979590855997753 -0.17886999925021957 -0.2808443705528058 -0.35704526414462545 -0.10163081966146803 1.2408664474955203e-15 0.10948468794546502 0.018954325135173717 0.5527751232135001 -1.0500921255110365 -0.14172747381951706 -0.21792021800481476 0.009619850629818289 0.004925579981319156 0.026250272391219603 -0.0009267152132022162 -0.0012160961919875626 -0.0002010842583586695 2.2235076182313997e-05 3.86325209745839e-06 3.81730682623201e-05 4.962392004056703e-09 -2.4798662902881224e-05 -1.035526539574465e-06 -1.5538001916358172e-13 -0.09342621261710424 0.10960239338067822 0.3419782445771026 0.37119289428077584 -0.006161452863714903 0.46091865630734935 7.769086379238074e-15 -0.6979590855997753 -0.17886999925021976 -0.28084437055280626 -0.3570452641446251 -0.10163081966146797 1.2046275108033397e-15 0.10948468794546506 0.018954325135174196 0.5527751232134996 -1.050092125511038 -0.14172747381951742 -0.21792021800481476 0.00961985062981837 0.004925579981319302 0.026250272391219884 -0.0009267152132021385 -0.0012160961919876207 -0.0002010842583588057 2.2235076182346747e-05 3.863252097343184e-06 3.8173068262273264e-05 4.962391955578599e-09 -2.4798662902968604e-05 -1.035526539578842e-06 -1.5532393288578342e-13
42 -0.033551726996019354 0.05819703323584923 0.19599018486904304 0.1453826710465619 0.01141081309982552 0.3262433637235329 6.398339385248902e-15 -0.6358817025430118 -0.1812434345432058 -0.38206412040328 -0.3510147001528843 -0.09983282183585421 2.4648016088331744e-15 0.09025027752662727 0.015079124055173126 0.4141228556493929 -0.7816139134111753 -0.10058995012785843 -0.1516694758842926 0.006143968188457478 0.0030658033335024134 0.016267365728909484 -0.0005320642648609001 -0.000711440953426254 -0.00011096097156405018 8.181628454099247e-06 1.9511232198175646e-06 1.89596441878411e-05 2.1824312537797343e-09 -1.0000574077922519e-05 -3.743533108108284e-07 -4.862557859690833e-14 -0.03355172699601937 0.05819703323584911 0.19599018486904304 0.14538267104656202 0.0114108130998253 0.32624336372353274 6.450201336419201e-15 -0.635881702543012 -0.18124343454320593 -0.3820641204032805 -0.3510147001528844 -0.09983282183585408 2.3260004111218602e-15 0.09025027752662748 0.015079124055173648 0.41412285564939283 -0.7816139134111761 -0.10058995012785847 -0.1516694758842927 0.0061439681884575366 0.0030658033335023726 0.016267365728909647 -0.0005320642648608616 -0.0007114409534261579 -0.00011096097156417516 8.181628454118937e-06 1.95112321991614e-06 1.8959644187799155e-05 2.182431250296978e-09 -1.0000574077995804e-05 -3.7435331079657245e-07 -4.866163880813837e-14
43 -0.030055482703315643 -0.3263746370804166 0.059742546225958565 0.006932678201519937 -0.0003247236578309145 0.014164105170400383 -2.1583537099480746e-15 0.1521230339313144 -0.986554195891917 0.0982731683299988 0.17975668713583276 -0.09667657586082812 -2.9790524201522314e-16 0.10926946762595903 0.0006349377805385184 -0.13913358342740587 -0.07744729143426587 0.11113311848421938 -0.01351857539108844 0.02854699387503711 -0.03285204852739677 -0.0610971428208023 -0.5794569976714019 -0.07076365746687009 -0.004858416186244985 0.15702043369904575 0.0002395353532471728 -0.003040107152445677 1.4525704524843894e-06 0.02135588828504283 -0.04361510138820876 -5.17476168996669e-10 -0.030055482703315713 -0.3263746370804165 0.059742546225958613 0.006932678201520135 -0.00032472365783084515 0.01416410517040024 -2.2675937908674886e-15 0.15212303393131488 -0.9865541958919173 0.09827316832999859 0.1797566871358326 -0.09667657586082876 -2.4272160147896065e-16 0.10926946762595918 0.0006349377805384982 -0.13913358342740595 -0.07744729143426618 0.11113311848421963 -0.013518575391088514 0.02854699387503692 -0.032852048527396954 -0.06109714282080241 -0.579456997671402 -0.07076365746687015 -0.004858416186245016 0.1570204336990458 0.0002395353532472151 -0.0030401071524455963 1.4525704524516033e-06 0.021355888285042837 -0.043615101388208934 -5.174761366282174e-10
44 0.12980280543746212 -0.026845576583416512 0.03358124234753428 -0.17022265107563464 0.012809501865506574 0.14181716828825194 1.775094639957295e-15 -0.01937602842722601 0.004839408433393519 -0.02542207875944243 -0.038352684203013215 0.3904369948920424 -7.443753725985418e-17 -0.2878405599015157 -0.012481638821648107 -0.18984170563117445 -0.19758723174445333 0.5508319885584267 -0.04308070840690557 -0.05473611361772986 -0.33743712401382303 0.03289076116006308 0.04663341598593711 -0.1308112753995098 -0.0059454471098685365 -0.04604567576466845 7.925248405872365e-05 -0.0016073305972802456 3.3308827099591714e-07 0.0035193577837776217 -0.004294993964587038 -2.9372760198451216e-11 0.12980280543746234 -0.026845576583416464 0.0335812423475342 -0.17022265107563486 0.01280950186550637 0.1418171682882518 1.6851802277394182e-15 -0.019376028427225866 0.004839408433393495 -0.0254220787594424 -0.038352684203013174 0.39043699489204275 -2.0114641512375907e-16 -0.28784055990151575 -0.012481638821648091 -0.1898417056311743 -0.19758723174445333 0.5508319885584267 -0.043080708406905664 -0.05473611361772966 -0.33743712401382325 0.032890761160063356 0.04663341598593694 -0.13081127539950957 -0.005945447109868791 -0.04604567576466849 7.92524840588358e-05 -0.0016073305972802592 3.330882710044367e-07 0.0035193577837775 -0.004294993964587139 -2.937253137320361e-11
45 -0.14724287540754374 0.027210671166796888 0.0007583520098301186 -0.018830580410661022 -0.002073575411401775 -0.05682935748337269 -1.2846743168440936e-15 -0.004735081612869059 -0.04161764110013268 -0.01872227503087896 -0.04297145912411898 0.11465701721329956 -1.3417301846545213e-15 -0.3224952938893837 -0.009176189949864928 0.029591641748124016 -0.014693986348010961 0.022120101723618894 0.007820893188348114 0.05748065055489996 -0.9453671807495367 0.11359178655336563 0.021511305873596683 -0.03611924838203522 -0.001491083982583104 -0.0065519611228726845 1.4439142159835046e-05 -0.00016967406181866046 2.6166643873976358e-08 0.00012031780106344817 -8.726939019860503e-05 -3.5075961571854097e-13 -0.14724287540754374 0.0272106711667966 0.0007583520098300663 -0.01883058041066118 -0.0020735754114014466 -0.05682935748337264 -1.2920809093883763e-15 -0.004735081612869015 -0.04161764110013259 -0.01872227503087891 -0.042971459124118566 0.1146570172132996 -1.3286865147681512e-15 -0.3224952938893838 -0.009176189949864733 0.029591641748123825 -0.01469398634801104 0.02212010172361889 0.007820893188347838 0.05748065055490026 -0.9453671807495382 0.11359178655336594 0.021511305873596644 -0.036119248382035445 -0.0014910839825833257 -0.006551961122872642 1.4439142159865987e-05 -0.00016967406181864108 2.6166643814712444e-08 0.00012031780106346634 -8.726939019858232e-05 -3.507260313767203e-13
46 -0.09367518240908589 -0.0001034437160658189 -0.012869617205244915 0.016742028046895032 0.05133437688576569 -0.0019342317220807119 4.034305999902943e-16 0.0034276930370106414 -0.0011349300607940902 0.005860004057219309 -0.012027665066060718 0.0012762767325638334 -1.2620146525456302e-16 -0.0018490460001809204 -0.02600732834822262 -0.0055487491227633745 -0.006775640087362706 -0.00381233937735082 0.022534439631519555 0.0034050419261937954 0.0048759497496169025 0.031239658860949652 -0.0037224804968164597 -0.027260168589000256 0.47414252441258997 -0.001764131840571757 1.6426125318568416 -0.006986032822038976 0.42044775357589576 -0.00012662426825349118 -3.4566955175132562e-06 -0.014204233436392226 -0.09367518240908598 -0.00010344371606559287 -0.012869617205244942 0.016742028046895056 0.051334376885765635 -0.0019342317220807498 4.1950485131048544e-16 0.0034276930370106804 -0.001134930060793948 0.00586000405721933 -0.012027665066060352 0.0012762767325636788 -9.011509430238191e-17 -0.0018490460001809891 -0.026007328348222628 -0.0055487491227632895 -0.00677564008736274 -0.003812339377350853 0.022534439631519545 0.003405041926193839 0.00487594974961698 0.03123965886094951 -0.003722480496816832 -0.02726016858900014 0.4741425244125901 -0.0017641318405720006 1.6426125318568436 -0.006986032822038697 0.420447753575896 -0.00012662426825348305 -3.456695517662548e-06 -0.014204233436392197
47 0.016908938944259013 -0.04311599418333538 -0.2698212609750853 0.30430490332767474 -0.021258391664708384 0.006945083014996561 -9.612994765393732e-17 -0.061635144509944506 -0.014004621665790704 -0.04696191424621996 0.0009575683627229204 0.012408960041111073 -6.397316704312341e-16 -0.01862635046289181 -0.0032051014811748965 -0.028088497880515925 0.041346284290537175 -0.01845531159663643 -0.12029250224359557 -0.0011010251381632704 0.0037292676891268364 0.019850239924747895 -0.003183801439218249 -0.010782087154738077 0.000746563650009913 0.0008247699063788035 -0.00011885366806904087 0.002646584179440626 -1.3065566869952081e-06 -0.014954616342554017 -0.001957926838925077 -8.998421048061462e-10 0.016908938944259034 -0.04311599418333535 -0.2698212609750854 0.30430490332767485 -0.021258391664708505 0.006945083014996668 7.436812531233178e-17 -0.061635144509944555 -0.014004621665790784 -0.046961914246219955 0.000957568362723016 0.012408960041111026 -5.077942645298322e-16 -0.018626350462891822 -0.003205101481174861 -0.028088497880515994 0.04134628429053724 -0.018455311596636412 -0.12029250224359561 -0.0011010251381632806 0.0037292676891267995 0.019850239924747885 -0.0031838014392181714 -0.010782087154738136 0.0007465636500099349 0.0008247699063788669 -0.00011885366806905554 0.0026465841794405987 -1.3065566868817184e-06 -0.014954616342554062 -0.0019579268389251204 -8.998422953589081e-10
48 0.013250379363294528 -0.002594606609532964 0.0032583448874790133 -0.011459742151550737 -0.15682179778154523 0.0015470824257846011 7.627359781066502e-16 -0.010618957031328539 0.003258973783081829 -0.01845784296634922 0.04200592822302979 0.006391337779217617 1.565865653987691e-15 -0.019389982748050885 0.6083902399165318 -0.003551062359434206 0.002695974054779804 0.000777271704837003 -0.002995531193810578 -0.00010130011401251405 -0.000163157231248204 -0.000977610665123747 8.291551507158357e-05 0.00040233891823029 -0.006942933396282402 1.447718577117895e-05 -0.007770606079214078 0.001807174956065416 -0.12572609298367363 1.8753442637371494e-05 1.0481122185863768e-06 -1.9408293796749152 0.013250379363294519 -0.0025946066095331407 0.0032583448874790076 -0.011459742151550632 -0.15682179778154542 0.0015470824257849576 4.989452258918629e-16 -0.010618957031328891 0.0032589737830819583 -0.01845784296634922 0.042005928223029516 0.006391337779217774 1.5140295469863738e-15 -0.019389982748050944 0.6083902399165318 -0.0035510623594340986 0.0026959740547796785 0.0007772717048369431 -0.0029955311938104348 -0.00010130011401248917 -0.0001631572312481128 -0.0009776106651237036 8.291551507161955e-05 0.00040233891823037273 -0.006942933396282302 1.447718577132315e-05 -0.007770606079214097 0.001807174956065212 -0.12572609298367357 1.8753442637236653e-05 1.048112218390274e-06 -1.9408293796749159
49 -0.04380387454651743 0.04864812406801541 0.2704783043180322 -0.2511712170419978 0.013219940543870214 0.11861104688088692 -1.2512652202823972e-15 -0.017830844505014053 0.016906764209009627 -0.006146042021627296 0.027652351736647703 -0.23991306691749886 9.506510938855357e-16 0.29230714529502405 0.010864611856874616 0.3485498753873268 0.21255684197947056 0.3224651082821723 -0.02116249411458166 0.1355158700484122 0.044486377826757205 0.5802902664257901 -0.03023628462403249 -0.06011690645185526 -0.031153278163488146 0.0022868875491561876 0.0021302185542043913 0.002288117665804243 1.8155097159806593e-05 -0.015867147890194253 -0.0015254946041655551 -2.305030362860052e-09 -0.043803874546517324 0.04864812406801524 0.2704783043180321 -0.2511712170419978 0.01321994054387039 0.11861104688088696 -1.0903657610675406e-15 -0.01783084450501398 0.016906764209009748 -0.006146042021627233 0.02765235173664782 -0.23991306691749886 8.431481307577339e-16 0.292307145295024 0.010864611856874583 0.34854987538732685 0.21255684197947114 0.32246510828217256 -0.021162494114581827 0.13551587004841223 0.044486377826757066 0.5802902664257905 -0.030236284624032682 -0.06011690645185523 -0.031153278163488146 0.0022868875491561104 0.002130218554204449 0.0022881176658043024 1.8155097159861236e-05 -0.015867147890194368 -0.0015254946041654762 -2.305030616647166e-09
50 -0.014888299855679042 -0.012851058157027107 -0.07003146710935382 0.10141004349237943 -0.03568462591478414 -0.08673530654810786 -2.9746703146159358e-15 0.36627816402791524 0.12760175960976428 0.4656508457739188 0.17855897264720447 0.03906280557122345 -3.1522412449826737e-15 0.03298036269041169 0.007966724760459534 0.4143594536403567 -0.8636867361518898 -0.15466695394269137 -0.2846196069099346 0.018887481529788187 0.0112867247484701 0.06324970029659181 -0.002828459269852526 -0.00435687699759738 -0.0008272263079430394 0.000129902080054855 2.208095221796621e-05 0.00022819178807089919 4.687839190492417e-08 -0.00031434092466905907 -1.937093568472265e-05 -4.550637362611938e-12 -0.01488829985567901 -0.01285105815702701 -0.07003146710935383 0.10141004349237923 -0.035684625914783975 -0.08673530654810757 -2.8719094009312e-15 0.3662781640279154 0.1276017596097642 0.4656508457739191 0.17855897264720466 0.03906280557122355 -3.03563342687184e-15 0.032980362690411706 0.007966724760459596 0.41435945364035637 -0.8636867361518905 -0.15466695394269186 -0.284619606909935 0.018887481529788093 0.011286724748469807 0.06324970029659167 -0.0028284592698525337 -0.004356876997597355 -0.0008272263079430268 0.00012990208005492337 2.208095221795168e-05 0.00022819178807095199 4.687839197226898e-08 -0.00031434092466897347 -1.9370935684769787e-05 -4.550430317070423e-12
51 -1.1251037678667659e-15 1.93943415469072e-16 -2.8469357572755206e-16 1.4277485295920872e-15 2.207197480249619e-15 -1.813895636757599e-15 0.34592070574470585 4.81195507735268e-15 -4.010506963202027e-16 1.5689060425881688e-15 1.3482594151423368e-15 -2.010060534230355e-16 0.5231014967176171 -1.1851438856491135e-15 -7.468198992978032e-16 1.9951805018752273e-16 -5.116009902986468e-16 1.669867945761665e-16 -2.181961846546225e-16 -8.365148504263371e-17 -7.342603510690404e-17 -1.280026035686791e-16 -1.2195727717942555e-16 -3.9562083382063444e-17 1.374441895596213e-16 1.6229094406497836e-17 2.0649158314213395e-16 3.0252975996342964e-17 -6.423249284736533e-17 1.8133683584152328e-17 4.321937970554114e-17 -5.4873035551982295e-17 -9.894045624623796e-16 3.052392979248833e-16 -3.026189506005699e-16 1.4816508960673428e-15 2.0624235176311488e-15 -1.7041826009650247e-15 0.34592070574470624 4.5427090957543035e-15 -3.087793383627074e-16 1.3810451487475842e-15 1.1145942222526403e-15 -2.0746670653826126e-16 0.5231014967176172 -1.3100756591001471e-15 -8.410871356722268e-16 2.1669543815752965e-16 -3.3936418590625676e-16 1.8825055728120396e-16 -1.7860892393227164e-16 -4.50604033676337e-17 -4.4573165021242545e-17 -7.600967824043963e-17 -6.221793330473348e-17 -2.0435533478807502e-17 7.761677095375615e-17 -2.325300362581975e-17 1.2531076811609422e-16 6.5055422465067894e-18 -2.3265000117308246e-17 1.2965710766198056e-17 1.290814819244484e-17 -4.9576259072251906e-18
52 -0.3528465440139221 0.10254747357886661 -0.1226615328603672 0.03396746786672255 0.029033060693891756 -0.228854385304842 5.648028399864121e-16 -0.2632907302781519 0.18142042150768967 0.02394023467362868 0.17950421999116645 -0.12204355695194126 6.844207082442251e-16 0.20946759120000696 -0.002523603788320741 -0.42094861714729614 -0.2342059736626426 0.2959704942963077 -0.004899302045854566 0.09616007940843929 -0.06357157553122295 0.1335493701693101 0.06335505571351056 0.773090461313533 0.03824677554852984 0.38062679668536065 -0.00046267095241557375 0.01252953947936491 4.084412004326418e-06 0.18625772214798286 -0.9387305389261656 -2.386168999142868e-08 -0.3528465440139224 0.10254747357886669 -0.12266153286036718 0.03396746786672256 0.029033060693891735 -0.22885438530484192 5.585441548031499e-16 -0.2632907302781519 0.18142042150768964 0.023940234673628706 0.17950421999116623 -0.12204355695194113 7.619497256643162e-16 0.20946759120000688 -0.0025236037883209204 -0.4209486171472963 -0.23420597366264262 0.2959704942963073 -0.004899302045854361 0.09616007940843929 -0.06357157553122303 0.13354937016931012 0.06335505571351069 0.7730904613135335 0.03824677554853015 0.38062679668536065 -0.00046267095241570645 0.012529539479364889 4.08441200436649e-06 0.18625772214798328 -0.9387305389261661 -2.3861690223235698e-08
53 0.0008567922767324294 -0.029570265557677354 -0.1490131737237698 0.1800034338896973 -0.04756270469899808 -0.0005510754355468304 5.698457224862907e-16 -0.06338416525052488 -0.027573417096204932 -0.01041126895649262 -0.13262558327076718 -0.020887711600655782 -3.448788763114492e-16 -0.0016350991931888524 -0.001790879318429002 -0.007029364176053918 0.1724669907101003 -0.014128518670690626 -0.5061644075117817 -0.09008544049672006 -0.020798072926477236 -0.16213759358957697 -0.021571168860990562 -0.14560018295490718 0.03218953033133885 0.019794847085056366 -0.004679316018635963 0.0829402761977953 -8.733569157781691e-05 -1.3819570006751598 -0.325351460949241 -2.9687902471525363e-07 0.0008567922767323497 -0.029570265557677344 -0.14901317372376963 0.18000343388969722 -0.047562704698998086 -0.0005510754355467739 5.130885496234505e-16 -0.06338416525052486 -0.02757341709620505 -0.010411268956492564 -0.1326255832707671 -0.020887711600655817 -4.507262220532866e-16 -0.0016350991931886917 -0.0017908793184289794 -0.007029364176053869 0.1724669907101004 -0.01412851867069053 -0.5061644075117823 -0.09008544049671993 -0.02079807292647726 -0.16213759358957716 -0.0215711688609904 -0.14560018295490737 0.03218953033133884 0.019794847085056466 -0.0046793160186360035 0.08294027619779532 -8.733569157775325e-05 -1.3819570006751598 -0.32535146094924106 -2.96879024746456e-07
54 0.018428414916686443 -0.03665827721312769 -0.18411751482976896 0.0612578826028854 -0.002466964370361282 0.022262140794411668 7.796769115046801e-17 0.032510678520019556 0.03586732946754376 0.04543913383943601 0.057474823353452574 -0.2227299965958369 -2.3493402750820427e-16 0.2943277251951456 0.01118892740222146 0.42416412441351686 0.18156909297237056 0.3471861817319065 -0.01593159277097933 0.04804857942069367 -0.01857323582947295 0.15710296872326152 -0.005327246944768087 -0.010412902945404059 -0.004203726349876173 9.969276498385233e-05 0.00018875997914848252 0.00018905658347769804 8.452978560596526e-07 -0.0005051454203379503 -2.9488008212528327e-05 -2.4664420676984525e-11 0.018428414916686606 -0.03665827721312769 -0.18411751482976885 0.061257882602885415 -0.0024669643703614623 0.02226214079441183 -7.875039949698525e-17 0.03251067852001953 0.03586732946754362 0.045439133839436055 0.05747482335345274 -0.22272999659583698 -1.6889124528018677e-16 0.29432772519514555 0.011188927402221577 0.42416412441351686 0.18156909297237095 0.34718618173190663 -0.015931592770979292 0.048048579420693606 -0.018573235829472956 0.1571029687232617 -0.0053272469447681135 -0.010412902945404099 -0.0042037263498761746 9.969276498383217e-05 0.0001887599791484745 0.00018905658347765438 8.452978559702317e-07 -0.0005051454203378839 -2.948800821258156e-05 -2.4664299105391226e-11
55 1.394187012838e-16 8.784392454470419e-16 -7.370943150362487e-17 3.0953288448183146e-15 1.4485100648605648e-15 -2.9745704762577054e-15 0.6014369411869579 7.888665514290236e-15 -1.1038952673775753e-16 2.594392600427403e-15 9.611919853419805e-16 -1.3235926457595443e-15 1.5218579256896219 -4.152302684116095e-15 -2.6545175912236038e-15 5.821527416881301e-16 -1.6005814564358792e-16 5.590654840203113e-16 -3.2611588783516093e-16 1.1336491442480684e-16 7.955650995624344e-17 1.4130981532446076e-17 2.534439352837371e-16 7.59405093159106e-17 -2.626322678082677e-16 -1.5304963155438113e-16 8.922145627427979e-17 -8.864117093451979e-17 -2.2651784500006583e-17 1.980111293116662e-17 -7.317710107754628e-17 -1.1990013318448014e-17 7.521410866923124e-17 9.59057942370294e-16 -1.6286998531617688e-16 3.702001548201912e-15 1.6503131299805203e-15 -3.036967498718016e-15 0.601436941186958 7.954141792349497e-15 -1.697840583383616e-16 3.249307540358297e-15 1.156463956107795e-15 -1.1530403371168176e-15 1.521857925689622 -4.161685082050412e-15 -2.752690386283377e-15 5.369340376160755e-16 -1.845868801241273e-16 5.029449363044589e-16 -2.227829696660889e-16 7.241830236808182e-17 5.319831731232198e-17 -8.291357634059305e-17 1.7612024197571318e-16 6.11451232108758e-17 -1.2046329811395073e-16 -1.1735326116904675e-16 1.2260299099994533e-16 -3.0989594625032833e-17 1.4952325304247962e-17 5.938585250429514e-18 -4.4474764513850434e-18 -3.224026986136829e-17
56 -0.4766094130303723 -0.030338931261368822 0.029886020440465098 -0.0049419120049624225 -0.022405127140148796 0.17063700239268 7.261750799825298e-16 0.1565606881660532 0.05790078353652708 -0.06667955940834806 -0.1229438707984925 0.12107880390582139 -1.4184003720860119e-16 -0.17562322804500735 -0.0007034662046286702 0.27199172146402245 0.14814557752189947 -0.19871873836967896 0.01998175189034664 0.29185983259079673 0.04623483108519239 -0.1222929541500676 -0.3361109066158977 -0.40068194795089157 -0.022984123044059484 -0.24165047210291593 0.0005857388036239022 -0.013924306125916852 6.384472871325727e-06 0.12062079468914913 -0.30195835889258515 -4.820493276953335e-09 -0.47660941303037263 -0.03033893126136888 0.029886020440465132 -0.004941912004962526 -0.022405127140149035 0.17063700239267998 7.954480324279901e-16 0.15656068816605298 0.05790078353652724 -0.06667955940834822 -0.12294387079849242 0.12107880390582122 -2.1075104802734408e-16 -0.17562322804500757 -0.0007034662046285595 0.2719917214640223 0.14814557752189964 -0.198718738369679 0.019981751890346806 0.2918598325907966 0.046234831085192225 -0.12229295415006756 -0.3361109066158979 -0.4006819479508917 -0.022984123044059675 -0.24165047210291585 0.0005857388036239305 -0.013924306125916976 6.384472871317204e-06 0.12062079468914927 -0.30195835889258554 -4.820493229073568e-09
57 -2.9038991099498196e-16 -2.124150604547106e-16 2.3483868773832624e-16 1.6797954335883775e-16 -1.7672151802370192e-15 1.6252354640418767e-15 -0.3574443191819671 -3.9615513508419264e-15 3.6498962666092845e-16 1.6902584186718912e-15 -6.094827929043557e-16 1.4927095526647838e-16 0.05119356940655375 -2.816453199700714e-16 -4.0860598613650947e-16 -7.5408404715796e-17 1.32707340129719e-16 -1.813654525021288e-16 2.1261551971490984e-16 6.261150312677043e-17 9.27895273819644e-17 -3.911285198595989e-17 -1.0384674759570013e-16 -5.923643640423933e-17 -8.055579392518133e-17 4.5143712618598047e-17 -7.581705227189438e-17 8.246555758966939e-17 2.4401424184561233e-17 -5.18039079061859e-17 -4.276864134916116e-18 -7.650427669587872e-18 -2.8383776945220937e-16 -3.1252836665454875e-16 1.7927486661716147e-16 2.3008391311030403e-16 -1.7197228379913435e-15 1.6183345061614894e-15 -0.35744431918196706 -3.726763322545914e-15 3.261515960441586e-16 1.7144612773094954e-15 -5.268057448688381e-16 1.739202434219256e-16 0.05119356940655373 -2.350878166622427e-16 -4.407099745226892e-16 -8.915075676799294e-18 1.2415477194467893e-16 -1.6828463301707993e-16 1.3433873049171427e-16 2.5545401680134784e-17 6.436419479301833e-17 -1.9885907749442122e-17 -3.999255221163212e-17 -3.066647338361695e-17 -2.4253682058297103e-17 4.069092655902113e-17 -3.7877167539978864e-17 2.7366840160723982e-17 2.0336168400778837e-17 -1.4910414534983448e-17 8.251887013593582e-18 -1.563794467375531e-17
58 -0.02187827499282499 -0.015724670221909584 -0.12154766063934803 -0.055488558943637904 0.003759854147400918 0.1481550151842939 2.903597189383271e-16 0.05730867893082358 0.01582227767321237 -0.037013271488604414 -0.013018586277907423 0.21408377794860353 1.5971106295201431e-15 0.3579713606473677 0.009617458223439106 -0.027998270656078315 0.025265002373014506 -0.1533723118347199 0.00880199302812403 0.013238337500350686 -0.1810044713743976 0.01785379933966021 0.003329902708396251 -0.004985500249695169 -0.00017827185944948172 -0.0008638478509060758 1.265745594371284e-06 -2.239056706253288e-05 2.1278712007418114e-09 1.3384572962708331e-05 -8.272563567406175e-06 -2.5252288446249338e-14 -0.021878274992824968 -0.01572467022190969 -0.12154766063934797 -0.055488558943637974 0.003759854147400925 0.14815501518429372 3.45453741577469e-16 0.05730867893082366 0.015822277673212416 -0.03701327148860436 -0.013018586277907444 0.21408377794860345 1.5558022617233538e-15 0.3579713606473677 0.009617458223438954 -0.027998270656078236 0.02526500237301451 -0.15337231183471967 0.008801993028123697 0.013238337500350913 -0.18100447137439782 0.017853799339660265 0.0033299027083961686 -0.004985500249695242 -0.00017827185944941948 -0.0008638478509060442 1.2657455943313608e-06 -2.2390567062595923e-05 2.1278711985167378e-09 1.3384572962729895e-05 -8.272563567368072e-06 -2.5366018094260624e-14
59 0.011418172095491556 0.0029528791025904256 0.015130765843182773 -0.015848799061293516 0.0031372115531362065 0.0035100697939117217 1.7650088749575378e-16 -0.0061289265387868865 0.0025232902434052296 -0.013999721250177571 0.030345436971391488 -0.005920541701164924 -2.206642437944989e-16 0.011103773654980989 -0.009466160078456612 0.024876751151828566 0.02953001586329559 0.01749508197934338 -0.10767101685116785 -0.01741786192270501 -0.025110804959174726 -0.1608066739063898 0.01845068714392553 0.11810979293478366 -1.749777561611824 0.002900393655601664 0.4165581693544853 -0.0008183074797044897 0.017870508343520164 -0.0060387057606833055 -0.00047617756569215847 -3.570329838351192e-05 0.011418172095491447 0.002952879102590406 0.015130765843182683 -0.015848799061293602 0.0031372115531363874 0.003510069793911547 2.345915286933636e-16 -0.006128926538787183 0.0025232902434050588 -0.013999721250177637 0.030345436971391672 -0.005920541701164842 -6.293842622887299e-17 0.011103773654980909 -0.009466160078456545 0.024876751151828618 0.029530015863295414 0.01749508197934377 -0.10767101685116766 -0.017417861922704947 -0.02511080495917511 -0.1608066739063899 0.018450687143926014 0.11810979293478303 -1.7497775616118234 0.002900393655602041 0.41655816935448564 -0.0008183074797044172 0.017870508343519536 -0.006038705760683312 -0.0004761775656923912 -3.570329838330705e-05
60 -0.16350631178086786 -0.0074668742852011805 -0.2071598267290898 -0.10435205626309514 0.004740298019129052 0.18379551519715492 -1.0712973510679768e-15 0.0671499733359961 0.01434293882111765 -0.03423920401300667 -0.003158618395616507 0.040219572356286835 4.3528335660543605e-16 0.25843880157748655 0.007829955316944161 -0.022135509815195357 0.05221483278836996 -0.3538904458040034 0.02766104590484628 0.06644470148710929 -0.9139477374652754 0.0993126477779156 0.01635260602360867 -0.023402253827511623 -0.0008662457697673114 -0.0035040529838107452 6.420140120858215e-06 -8.360843101069194e-05 8.713262194218915e-09 3.887238807103852e-05 -2.2243184445959672e-05 -6.572823738821884e-14 -0.163506311780868 -0.007466874285201356 -0.2071598267290898 -0.10435205626309518 0.004740298019129503 0.18379551519715487 -9.443334668546844e-16 0.06714997333599607 0.014342938821117738 -0.034239204013006716 -0.0031586183956166802 0.04021957235628687 6.013318645257403e-16 0.25843880157748644 0.007829955316944281 -0.022135509815195378 0.05221483278836994 -0.3538904458040033 0.02766104590484574 0.06644470148710968 -0.9139477374652769 0.0993126477779163 0.016352606023608628 -0.023402253827511644 -0.0008662457697673008 -0.0035040529838107617 6.4201401208266995e-06 -8.360843101067685e-05 8.713262247548864e-09 3.887238807098485e-05 -2.2243184445886922e-05 -6.592291343739996e-14
61 0.4481865520605626 -0.017506674748876228 -0.021601209340293616 -0.0069179327059964634 -0.2778100805449702 0.00026255325902460434 -9.58147674976949e-17 -0.0061544126865257474 0.0016229075631467435 -0.008866119258455304 0.019781991677663313 0.003973119120531912 -1.7238042060556572e-16 -0.010817684287336574 0.31309156176262615 -0.0034983967302341305 -0.00036712863443362856 -0.0005176706018032103 0.0034395817242319376 0.0006524577900302381 0.0007829318946384646 0.004914186159030668 -0.0005084762782626933 -0.003202208783278734 0.051162990440271235 -0.00015436144150471465 0.12315928037436742 -0.0009434592448589522 0.2537964601692307 -8.218001991534208e-06 -1.2953074492829585e-07 -0.03341536307977616 0.44818655206056257 -0.017506674748876384 -0.021601209340293526 -0.006917932705996161 -0.2778100805449704 0.00026255325902477424 4.535187581734978e-17 -0.00615441268652582 0.0016229075631466053 -0.008866119258455221 0.019781991677663393 0.003973119120531864 9.19550180732033e-17 -0.010817684287336747 0.313091561762626 -0.0034983967302342728 -0.00036712863443364054 -0.000517670601803191 0.003439581724231962 0.0006524577900302562 0.0007829318946385667 0.004914186159030613 -0.0005084762782627263 -0.003202208783278763 0.05116299044027144 -0.00015436144150474327 0.1231592803743676 -0.0009434592448589045 0.25379646016923085 -8.218001991521282e-06 -1.2953074498269369e-07 -0.03341536307977614
62 0.16107609147490473 -0.003370468781531492 -0.005070053277717155 0.0014956714646063931 0.015506029405258593 -0.0006062771946967593 1.5223201546508763e-16 0.005156282115634783 -0.0017126850706481213 0.01019472039923516 -0.02428270192399506 -0.004097480986271755 -1.3946009104349916e-15 0.014158027214594348 -0.44989330054792404 0.003223375894938035 -0.0021331804615001824 -0.0006318307212470971 0.0025874829462215814 -5.809722566512112e-05 6.637732874691191e-05 0.0002879339886006357 -3.8101580415158074e-05 -0.00021252776205973626 0.002314257048029628 -7.461930412732609e-06 0.006423873961325502 0.00038077479833184297 -0.01555179432409398 1.0613028554778225e-06 3.2761796520942905e-08 -0.03123064765860081 0.16107609147490512 -0.003370468781531306 -0.005070053277717124 0.0014956714646061882 0.015506029405258673 -0.0006062771946966364 1.2052186406559686e-16 0.0051562821156353016 -0.0017126850706478828 0.010194720399235097 -0.024282701923995197 -0.004097480986271685 -1.305055595736167e-15 0.01415802721459463 -0.4498933005479236 0.0032233758949379715 -0.002133180461500139 -0.0006318307212469906 0.002587482946221499 -5.809722566524627e-05 6.637732874689728e-05 0.0002879339886006237 -3.810158041525443e-05 -0.00021252776205979787 0.0023142570480296416 -7.4619304127544026e-06 0.0064238739613255895 0.0003807747983318473 -0.015551794324094039 1.0613028554879503e-06 3.276179656244833e-08 -0.031230647658600896
63 -0.006302132122007608 0.014115438829120643 -0.009642647547445524 0.04593415292901449 0.6077784234162866 -0.004254063257517382 -2.3159437880692835e-15 0.021423442301784813 -0.005235963262986846 0.02438098181606657 -0.043673614237560214 -0.0028033725170148053 1.091970182676218e-15 -0.011158874136828093 0.4287330591472217 -0.007798992369713905 0.0045367365108507345 0.0017405141479804216 -0.009093795168528694 0.0008395242622526832 -4.308656046165546e-05 0.0007396744407787852 6.958187981267685e-05 0.0004511776131162354 0.009372682392915329 -3.548554255691601e-05 0.04393330632527429 -0.010555808335869556 -0.19491635327961987 -5.320046793028477e-05 -1.738026228299247e-06 -0.5962781670136553 -0.006302132122007545 0.014115438829120653 -0.009642647547445513 0.045934152929014295 0.607778423416287 -0.004254063257517262 -2.353178673295008e-15 0.021423442301784824 -0.005235963262986837 0.024380981816066728 -0.043673614237560325 -0.002803372517014828 1.087408939076368e-15 -0.01115887413682815 0.42873305914722176 -0.007798992369713799 0.004536736510850575 0.00174051414798034 -0.00909379516852862 0.0008395242622526336 -4.308656046168537e-05 0.0007396744407787475 6.958187981265319e-05 0.00045117761311617223 0.009372682392915345 -3.548554255682333e-05 0.04393330632527446 -0.010555808335869611 -0.19491635327962017 -5.320046793025155e-05 -1.7380262283078634e-06 -0.596278167013655
64 0.1676928355630284 -0.05809487911726935 -0.06710838985842044 -0.2574410883542757 0.02074746745438083 0.3202200498572558 2.3197259499441923e-15 -0.006832089961350091 0.06529007214991055 -0.005770333287599328 0.021524976906509834 0.1545026322539088 6.031725174206856e-16 -0.10119306358826 -0.007971767005549052 -0.3416262794055286 -0.25107118194793093 0.5371457066573829 -0.05333649761361486 -0.10226853386622642 -0.22130376098388282 0.0013524993087015655 0.07029412360937046 -0.21609189645055077 -0.010038076632162826 -0.08572273237581889 0.0001459443909886739 -0.0031556229759116643 7.359688250797494e-07 0.008677956577106018 -0.011921533891904963 -9.356501251782244e-11 0.16769283556302847 -0.058094879117269474 -0.06710838985842058 -0.2574410883542756 0.020747467454380563 0.32022004985725533 2.2664003204512425e-15 -0.0068320899613499705 0.06529007214991063 -0.0057703332875992525 0.021524976906509678 0.1545026322539087 5.006950762787205e-16 -0.10119306358825986 -0.007971767005549186 -0.3416262794055285 -0.251071181947931 0.5371457066573827 -0.05333649761361475 -0.10226853386622654 -0.2213037609838829 0.0013524993087016357 0.07029412360937018 -0.2160918964505507 -0.010038076632163027 -0.08572273237581893 0.00014594439098853556 -0.0031556229759115003 7.359688250099275e-07 0.008677956577106221 -0.011921533891904928 -9.356506236306266e-11
65 0.6585014926063356 -0.01222714256147617 0.10995020076485068 -0.019657205490185164 -0.011882679895201812 0.1510346598590175 -8.875473199786475e-16 0.11799444816909642 -0.0003460826825326831 -0.023909966697256136 -0.07736866175075788 0.05333263181115512 3.0302164923599313e-17 -0.07662328235476802 0.0007569264826929619 0.13956931843082024 0.0752013539054412 -0.08906279057382097 0.0013652616316574778 0.07365004321008474 0.026299137566054637 -0.07585420645681454 0.2493213850107026 -0.4293246320525775 -0.01872296059341472 0.7215553635299071 0.0008484210016851229 -0.010923084824602995 4.539550794374053e-06 0.06625551489483997 -0.13110186700168952 -1.5396971399097023e-09 0.6585014926063362 -0.01222714256147631 0.10995020076485086 -0.019657205490185046 -0.011882679895201665 0.15103465985901773 -1.0645756112914738e-15 0.11799444816909634 -0.00034608268253256725 -0.023909966697256386 -0.07736866175075774 0.05333263181115524 -5.1766243714209294e-17 -0.07662328235476792 0.0007569264826930431 0.13956931843082004 0.07520135390544128 -0.08906279057382109 0.001365261631657159 0.07365004321008486 0.026299137566054762 -0.07585420645681441 0.24932138501070233 -0.42932463205257804 -0.018722960593415106 0.7215553635299068 0.0008484210016852151 -0.01092308482460319 4.539550794392087e-06 0.06625551489483997 -0.13110186700168933 -1.5396969764611701e-09
66 0.06563250867678933 0.023587001655739508 -0.020548293744507996 0.08982211062938739 1.2954898334889782 -0.011446642675573923 -6.1769007020388975e-15 0.072710272374779 -0.02020828725669875 0.10432123765403355 -0.21128718169137609 -0.022323167769081862 4.967408336657136e-16 0.003454031178771149 0.18988169926108378 -0.021035350050962603 0.012540701442315129 0.005932133032842363 -0.03599611303421408 0.003996310483765289 -0.0005421610332069464 0.0019472162759854637 0.0008030595712331627 0.006786137188797565 0.0019465862296738435 4.606816759148309e-05 0.005157370569332302 -0.10630705141724915 -0.0165583602623058 -0.0009926135235393072 -4.753809323150198e-05 -0.018344117793423133 0.06563250867678928 0.02358700165573965 -0.020548293744508013 0.089822110629387 1.2954898334889786 -0.011446642675573906 -5.968079352265134e-15 0.07271027237477903 -0.020208287256698914 0.10432123765403391 -0.21128718169137609 -0.02232316776908195 4.346760738857456e-16 0.0034540311787710936 0.18988169926108367 -0.021035350050962888 0.012540701442315163 0.005932133032842331 -0.03599611303421418 0.003996310483765365 -0.0005421610332071241 0.0019472162759854319 0.000803059571233084 0.006786137188797613 0.001946586229673793 4.606816759145595e-05 0.005157370569332265 -0.10630705141724904 -0.01655836026230585 -0.0009926135235393191 -4.753809323149799e-05 -0.018344117793423084
67 0.1397806651031462 -0.08518780891365084 -0.21644893876472707 -0.2943921688029354 0.02648467230405858 0.5605269027670765 2.5012697199398247e-15 0.01871441702441554 0.17640454784038576 0.03347354301084388 0.13995607170808408 -0.3144271170348641 1.859445764700684e-15 0.2662530586457049 7.784170568522723e-06 -0.7418784697576498 -0.4316248316948975 0.6928747713595458 -0.09749362155507683 -0.26824554616822294 -0.12063129535880937 -0.06804343055688988 0.1891247736229311 -0.659427028553833 -0.032395128519912296 -0.3136779022788457 0.000560186698219596 -0.012613871087690052 3.787461356680545e-06 0.05321789047452693 -0.09228405700807733 -9.527978816178376e-10 0.13978066510314613 -0.08518780891365077 -0.21644893876472707 -0.2943921688029351 0.02648467230405845 0.5605269027670766 2.121990400085471e-15 0.018714417024415893 0.17640454784038564 0.03347354301084414 0.13995607170808352 -0.31442711703486415 1.7701432392244066e-15 0.2662530586457052 7.78417056835119e-06 -0.7418784697576497 -0.4316248316948978 0.6928747713595453 -0.09749362155507693 -0.2682455461682234 -0.12063129535880958 -0.06804343055688987 0.18912477362293115 -0.6594270285538332 -0.03239512851991277 -0.3136779022788462 0.0005601866982196953 -0.012613871087689965 3.787461356847589e-06 0.05321789047452697 -0.0922840570080775 -9.527976787561888e-10
68 -0.04481469746341642 0.001533534167343735 0.0030857929414088233 -0.000899480147876268 0.0067156148056377605 -6.397785058048406e-05 3.2274447999223547e-16 -0.00016470175588628903 1.5214758118254501e-06 -3.1728020575007356e-07 5.4747877547217885e-05 0.0009130513116358965 2.974416478221394e-16 -0.0021809990285259705 0.03600429459042452 -0.0026500772079435025 -0.0028445843361188682 -0.0017898663390508516 0.01151928895287152 0.0020507799759247516 0.003167421159145855 0.020845548401482568 -0.00274958567147173 -0.02234942626160959 0.41183692094619884 -0.0017043656895844436 1.6872023569383776 -0.00699088873587707 0.33824927790883286 -0.00018704275819814912 -6.185810831374451e-06 -0.006801998230995516 -0.04481469746341626 0.0015335341673437543 0.003085792941408911 -0.0008994801478762468 0.0067156148056377605 -6.397785058097256e-05 4.08166882356148e-16 -0.0001647017558865553 1.5214758119879108e-06 -3.172802057555845e-07 5.474787754723783e-05 0.000913051311635788 1.790050502150856e-16 -0.0021809990285262407 0.03600429459042452 -0.0026500772079435203 -0.0028445843361188136 -0.0017898663390507467 0.011519288952871558 0.002050779975924799 0.0031674211591457163 0.02084554840148278 -0.0027495856714716835 -0.022349426261609653 0.41183692094619884 -0.0017043656895846767 1.6872023569383803 -0.006990888735876741 0.33824927790883297 -0.00018704275819815 -6.185810831463238e-06 -0.006801998230995394
69 0.17134060580747218 -0.15659348495013936 -0.0952966336122503 0.053605680451216164 0.011330200423404253 -0.23269047112946087 -8.875473199786475e-16 -0.1365433115063303 -0.23717352963966828 0.0898477484982609 0.08983646750329594 -0.0976225505313187 -6.318997249270032e-16 0.09822609390998513 0.0011383008212022508 -0.11912349835071037 -0.050474342938137746 0.037074213258426705 -0.0034971027941524653 0.21500457433910666 0.04229160624716526 -0.05133434195270742 0.3309975623179643 -0.39995575854796434 -0.023076927685948344 -0.5909838300761032 0.0004948311800186064 -0.015244854455609533 8.923806138971541e-06 0.194556926908655 -0.5698588466400196 -1.0321672447889988e-08 0.1713406058074723 -0.15659348495013903 -0.0952966336122503 0.05360568045121591 0.011330200423404706 -0.23269047112946079 -6.301523797779126e-16 -0.13654331150633023 -0.23717352963966853 0.08984774849826094 0.08983646750329606 -0.09762255053131867 -5.040438962335446e-16 0.09822609390998513 0.0011383008212022016 -0.11912349835071032 -0.05047434293813778 0.03707421325842672 -0.0034971027941527615 0.2150045743391067 0.04229160624716524 -0.05133434195270739 0.3309975623179645 -0.3999557585479643 -0.023076927685948347 -0.5909838300761038 0.0004948311800186284 -0.015244854455609667 8.923806139122885e-06 0.19455692690865514 -0.5698588466400202 -1.032167227319874e-08
70 0.023777599070889558 0.015026767590922424 0.09831905418707694 -0.23897997428723508 0.06661296059427473 -0.07760900068559198 -3.2400520061720516e-16 0.05430823260350519 0.032978766859298556 -0.08187574345295984 0.29269701561288547 0.1257950675253488 1.2509708989393399e-16 -0.13903565141464103 -0.021748521048803985 -0.19682522588708845 0.030359912983973936 -0.19088124730780484 -0.6944239668528397 0.11257214565938427 0.09250010357245748 0.5782844008274218 -0.038327628376873236 -0.08629291796138792 -0.020239706959190487 0.004648862133579478 0.0009739145161564605 0.010873953288352214 5.207470928215111e-06 -0.06047487948953254 -0.0078114993769040205 -4.3310617551356665e-09 0.023777599070889537 0.015026767590922101 0.09831905418707704 -0.23897997428723528 0.06661296059427461 -0.07760900068559222 -5.747305973234869e-16 0.05430823260350531 0.032978766859298535 -0.08187574345295984 0.2926970156128853 0.125795067525349 3.503594355863664e-16 -0.13903565141464075 -0.02174852104880407 -0.1968252258870883 0.030359912983973877 -0.190881247307805 -0.6944239668528401 0.11257214565938468 0.0925001035724572 0.5782844008274223 -0.03832762837687301 -0.08629291796138791 -0.020239706959190504 0.004648862133579526 0.0009739145161564127 0.010873953288352254 5.207470928183385e-06 -0.060474879489532604 -0.007811499376903987 -4.331061703390966e-09
71 -0.025482566650152205 0.031474940239347736 0.18854485246877836 -0.09739851547481992 -0.025859703090463988 0.056666534095731566 -6.177531062351382e-17 -0.0064597364516663725 -0.03332746682081086 0.03407611567064857 -0.20705634723732755 0.014677193183986954 1.8436712246957583e-16 -0.05822357453643294 0.008231248189891089 -0.20443793057221238 -0.10480301001521033 -0.1072082432915361 0.446760389457891 0.17165240764701112 0.15793261186649116 1.0127848664188284 -0.07051298581358785 -0.16439394209444713 -0.12118475107038093 0.00952521623867293 0.012063469192966985 0.005681050016939879 0.000173117177682448 -0.15418105451470188 -0.022107638091241902 -6.420444982463382e-08 -0.025482566650152264 0.031474940239347764 0.18854485246877845 -0.09739851547481997 -0.02585970309046386 0.05666653409573176 -1.581348301526012e-17 -0.006459736451666307 -0.0333274668208108 0.034076115670648506 -0.20705634723732788 0.014677193183987042 1.151890095265296e-16 -0.05822357453643312 0.008231248189891233 -0.20443793057221246 -0.1048030100152108 -0.10720824329153582 0.44676038945789176 0.17165240764701153 0.1579326118664909 1.0127848664188288 -0.07051298581358798 -0.16439394209444724 -0.12118475107038065 0.00952521623867287 0.012063469192966872 0.005681050016939938 0.0001731171776825742 -0.15418105451470207 -0.022107638091241912 -6.42044497121657e-08
