223 64
0 -0.22332588 -0.039654683 0.07976098 -0.024858458 0.048751555 0.04158801 0.43378836 -0.19275278 0.013847385 0.4979033 0.13469048 -0.34330195 -0.021883843 -0.21517885 0.03209252 0.34974366 -0.35918817 -0.34209472 0.21451984 -0.32003373 -0.30483902 0.22747697 -0.34942374 -0.11686433 0.22742629 0.110852316 0.35734642 -0.11169621 0.2699661 0.43478155 -0.3692985 0.2574742 0.029396819 -0.119335346 -0.13949198 -0.22010103 -0.7478723 -0.40181738 -0.21169579 -0.48997092 -0.5116071 0.022467488 0.7644993 0.66128755 -0.83123124 -0.2794214 0.054947276 0.29736608 0.40811124 0.22198287 -0.45445043 0.10209625 0.7091184 -0.38860205 0.22198793 0.49825346 0.82049733 -1.0359238 0.6094639 0.013105506 -0.24987578 -0.3129636 -0.09430343 -1.1020541
1 0.19978254 0.2647644 -0.20561302 0.47184995 -0.050056152 -0.12119564 0.03981783 0.2585371 -0.24982655 -0.072528504 -0.38324594 -0.37468174 0.37379187 0.02867115 -0.18109709 -0.24186066 -0.029147694 0.01248112 0.20734434 0.06655727 0.30308282 0.3517451 0.34551162 0.2499945 0.2841889 -0.1300113 0.31917316 -0.019477386 0.14820355 -0.26540986 -0.20436797 0.38669693 0.16913532 -0.078749314 0.23773506 -0.5225044 -0.25682643 -0.36892244 -0.86071306 -0.9232191 0.32579333 -0.45066887 0.022660792 -0.051114995 -0.670884 0.39516407 -0.74707955 0.13403332 0.9745015 0.30731905 0.39854845 0.096901424 0.11366512 0.6855212 0.27250305 0.779415 -0.21183756 -0.62107295 -0.31099814 0.11111961 -0.9768165 -1.1265323 0.16930903 -0.5724026
2 0.2669281 -0.029920606 0.062212627 -0.36705482 -0.23350756 -0.17264985 -0.16936629 0.19824384 0.3084076 -0.05973995 0.23146108 -0.1613582 -0.17013201 -0.23107356 0.12916629 0.40808722 -0.3553407 0.28421673 0.3172284 -0.12309578 0.27301258 -0.35285828 0.2642767 -0.21635331 0.072921135 -0.43264994 -0.0217142 0.29785886 -0.43063992 0.26387066 0.2070808 0.33482322 0.16837472 -0.05313376 0.34107086 0.38882875 -0.5809044 -0.005455592 -0.88317126 -0.2889338 -0.86941665 -0.3390851 0.027763197 -0.041960303 0.089383505 0.6543149 -0.6453129 0.2365787 0.46197432 -0.0017303077 0.06562018 0.64895415 0.083946966 -0.5144161 -0.6952423 0.6954099 0.6611864 -0.31434345 -0.041258946 0.3961927 0.20059897 -1.0134153 0.69242674 -0.9104821
3 0.3220574 0.37794074 -0.1631944 -0.13788368 -0.45787343 0.2204068 -0.29119632 -0.21094598 0.17846626 0.35909745 0.5241901 0.3880159 0.34385407 -0.24290021 -0.16975959 0.004660125 -0.4651248 0.08324933 0.002062309 0.2105834 -0.011068754 -0.35967928 -0.23482813 -0.20490165 0.17385149 -0.2644682 -0.11804293 0.31991607 0.2846451 0.14552045 0.33701906 0.21178249 0.69053066 -0.40861782 0.8974128 -0.6931631 0.2564857 -0.24072292 0.5020662 0.04082815 -0.17353356 -0.99951166 0.15959018 0.7111957 -0.19928023 -0.24350037 0.03263134 0.33189023 0.20589985 0.2682309 -0.47561386 0.07523112 0.4450886 -0.5087452 -0.74491847 0.14591508 0.20029792 -0.11356143 0.46345982 -0.18968451 -0.28026628 -0.64015263 0.25960508 -0.7721127
4 0.32806924 0.22960313 -0.044091154 -0.34189075 -0.2853399 0.11835305 -0.113795504 -0.40686032 0.35195744 0.4562219 -0.392412 -0.062913604 -0.2737219 0.2163269 0.4923143 0.14584897 -0.020492785 -0.37898913 -0.1682152 0.40762374 -0.19415963 -0.19842243 -0.22046454 0.24341235 0.070394106 -0.1616143 -0.10137836 -0.10868892 -0.08219142 -0.31389695 -0.03520388 -0.42948806 0.1938371 -0.41863465 0.5288108 -0.46840078 -0.47198224 -0.45780906 -0.6245039 -0.91545224 -0.5215154 -0.91060007 0.69646394 0.8032012 0.25888753 -0.08686915 -1.1033539 0.19432968 0.8700552 0.1817817 0.30665395 0.37797806 -0.1551708 0.26913866 0.3412304 0.153503 -0.41171226 0.12550183 -0.19009957 -0.3709341 -0.27365643 -0.06430652 -0.15752581 -0.076518565
5 0.24405402 -0.4663191 0.38333014 0.4083288 0.28700653 -0.27930725 -0.28773633 0.048444122 0.2471375 0.25404564 0.3628465 0.109582394 -0.02930414 0.11039869 -0.18345462 -0.03376629 -0.15339947 0.2181456 -0.014443 0.2875226 -0.42537484 0.06447362 0.27336 0.1118808 0.0046546883 -0.28841215 0.28742483 -0.20727202 -0.23950285 -0.34545457 -0.032685187 0.16651218 0.5339823 0.07101015 0.8527376 0.43139467 -0.41881198 -0.102281906 -0.74880254 -0.9073124 -0.13938867 -0.6154073 0.75795645 0.34824076 0.059834752 0.62484735 0.284347 -0.4233526 -0.3130196 0.72729117 -0.5285352 0.78425354 0.8885142 -0.27913624 0.24152672 0.46945 -0.4168509 -0.024477946 -0.025734283 0.3083579 0.02371845 -0.8641543 0.27704984 -0.705155
6 0.3207022 -0.13807057 -0.2700913 0.3529342 -0.267943 0.090422966 0.28352895 -0.18242657 -0.16917485 -0.4125051 0.3041259 0.18542905 0.30733013 0.26107296 -0.27541518 0.2188158 -0.23951975 0.30334508 -0.12954861 -0.17739877 0.2741556 0.35471871 0.290495 -0.2881211 0.080393486 -0.29627457 -0.103460155 -0.29876348 0.25122178 0.1627007 -0.43427935 0.17579629 0.28679278 -0.5447446 0.4273398 -0.7407517 -0.5147266 -0.80580336 -0.6529939 -0.48306367 -0.14103939 -0.6597287 0.41773063 -0.17485312 -0.20656027 0.3092475 -0.7770965 0.33114797 0.7881009 0.41313377 -0.10860819 -0.12360443 -0.09576146 0.7514285 -0.28781545 -0.22362082 -0.4496062 -0.93538135 0.26149106 0.13676973 -0.1930982 -0.8636488 0.33624995 -0.93135685
7 -0.3248515 0.39512914 -0.5266961 0.13633828 0.36693686 -0.27691436 0.18281133 -0.23217997 -0.1090026 -0.15635239 0.018422749 -0.321204 0.23081003 -0.04895978 -0.39139032 0.37988952 -0.2691737 0.060681537 0.12305538 0.33021897 -0.38575432 0.19161478 0.0045875744 -0.21242031 -0.03405837 -0.508027 -0.37032193 0.023410553 -0.21964858 -0.08039809 -0.11367658 -0.12812361 0.3256617 -0.46836522 0.8015157 0.085411616 -0.70932204 -0.45418245 -0.081668384 -0.4410781 0.28398535 -0.27187434 0.34208918 0.7865358 -0.6679755 -0.4237775 -0.5688582 0.30769125 -0.3898773 0.29242077 0.20975444 0.5540381 -0.21198252 -0.15425444 0.0041783024 0.8214713 0.8131072 0.052212607 0.43155307 0.5468293 0.07204419 0.018299444 0.8315754 -0.7487086
8 0.47792488 -0.35694095 0.008026787 -0.4086529 0.23164766 -0.2528623 0.0077426466 0.28612268 -0.017787468 0.112971306 -0.19769655 -0.372192 -0.10601742 -0.13690525 0.407971 0.21505406 -0.06346443 -0.2757105 0.13431807 0.0038611006 -0.29418683 0.37267053 0.020075614 -0.124112256 0.39597672 0.1179051 -0.16245338 -0.32935855 -0.2766813 0.05545131 0.2793962 -0.25914487 0.9601163 -0.73783934 0.31882 -0.4051255 -0.7193537 -0.28597724 0.26175168 -0.95555085 0.0546182 -0.01944068 0.9261351 -0.08364516 -0.8854478 0.57097673 0.23193853 -0.630218 0.664343 0.4619512 -0.61770123 0.06764029 0.8698014 0.36366275 -0.03448646 0.32120582 -0.21435781 -0.1807032 0.23043786 -0.4504766 0.041864797 -0.5038826 -0.277448 -0.07349746
9 -0.0061788047 -0.060624167 -0.0055635744 0.25862485 -0.14641389 -0.24577534 0.30261686 0.2904957 -0.1583 -0.22040431 0.22252059 0.2734435 -0.40476453 0.05808968 -0.16918941 -0.32247332 -0.27235055 0.0022027919 0.2337929 -0.4070044 0.2535228 -0.052319497 -0.16548151 -0.3269634 0.43555567 0.044479705 -0.291585 -0.48554277 -0.25129008 0.29632235 -0.33168983 0.1782302 0.0013774285 -0.8904889 0.13146344 -0.48754746 -0.95173097 -0.72037745 -0.2951016 -0.054690346 -0.83321446 -0.30766264 -0.14537475 -0.1523208 -0.38480976 0.007452025 -0.17093407 0.60189945 0.8734164 0.95200616 0.23186256 -0.0212556 0.47698423 0.31157678 -0.7537901 -0.04265235 0.16987859 0.038129024 0.71287084 -0.0145891365 -0.58296794 -0.77638185 0.42070088 -0.96106935
10 0.035415836 -0.19195321 -0.36125523 0.12263946 0.33251104 0.44853058 -0.32237577 -0.39993203 -0.042400315 -0.29798064 -0.15440269 -0.18039513 -0.39788908 0.31763145 0.4618949 -0.19745931 0.29090187 -0.19880366 -0.21972011 -0.26840642 0.26325583 0.14768966 0.012236072 -0.30368438 0.13870558 0.09002825 -0.14308964 0.22831869 0.022280132 -0.0061580804 -0.46069908 -0.112521276 0.06328852 -0.3875425 0.21493691 -0.07142483 -0.82511556 0.17934155 -0.8282109 -0.9614006 -0.8365825 -0.11416929 -0.15268236 -0.011194791 -0.68819714 0.5643484 -0.2483708 0.49265233 0.11213717 0.39900577 0.46874744 0.27683812 0.41067722 0.43480122 0.05126673 0.37478554 -0.09905841 -0.95471996 -0.2874625 -0.19416037 -0.5527733 -0.03947368 1.0871236 -0.17837895
11 -0.053970385 0.007804087 -0.05702943 -0.10492295 -0.24971569 -0.24080013 0.43540418 0.26369375 0.09307855 0.097518355 -0.15017584 0.2603211 -0.43120188 -0.20597544 -0.39600384 -0.24540848 -0.10358936 -0.45717603 0.23512305 -0.43438292 0.2645589 -0.18791267 -0.3783405 -0.14465402 0.38548565 0.26713842 0.017313465 -0.28813067 -0.34951472 0.17294936 -0.28679326 0.37937263 0.079856515 -1.0542374 0.2322206 -0.42594886 -0.6127421 -0.9037329 0.050254866 -0.3873714 -0.4192269 -0.30329365 -0.34561494 -0.06337136 -0.8169237 -0.43870178 -0.13231479 0.39503565 1.0385725 0.7698213 0.26878148 0.3074196 -0.16822653 -0.14339824 -0.6453093 0.13215956 0.66158605 0.30089796 0.42948037 -0.78980595 -0.42297348 -0.7877686 0.05885241 -0.9571707
12 0.30448353 -0.40099815 -0.026363054 -0.40645385 0.3097697 -0.3248126 -0.33944437 0.36688006 0.30425575 0.14849591 -0.44452086 -0.07960299 -0.14092574 0.33990136 0.3185089 0.3308196 -0.24900594 -0.22746862 0.06538622 -0.106090814 -0.12618169 0.23573372 0.05368625 0.08655464 0.3916625 0.37917066 -0.23010615 -0.28024542 -0.3258305 -0.10836407 0.3209354 -0.23052353 1.1079125 -0.7142824 0.18909879 -0.42568785 -0.812943 -0.23084582 -0.06847492 -0.99290735 -0.019938683 -0.01122644 1.0378805 -0.02047736 -0.2616444 0.60268927 0.041681312 -0.78108805 0.41914368 0.6518521 -0.4375021 0.046753697 0.8004882 0.50001186 0.32920742 0.30999202 -0.2878384 0.18879336 0.32459491 -0.14503941 -0.010281409 -0.32268566 -0.035333756 -0.31347382
13 -0.100276485 0.21072316 0.07828366 0.21767664 0.10794327 -0.24635069 -0.2728696 0.092013225 -0.43543136 0.39713848 0.3599964 0.3303778 -0.364716 0.36862108 0.11970673 -0.27578998 0.17369209 0.29814807 0.43660098 -0.3220953 -0.2183397 0.18256484 -0.29678735 0.4872557 -0.0964076 0.044135842 -0.09368047 -0.12341062 -0.25681823 -0.1732918 0.10603253 0.020860596 -0.0683364 0.0859712 0.8609455 -0.39019275 -0.034412086 -1.0236714 -0.65182006 0.15940192 -0.32832965 -0.16018336 0.16259558 0.5690344 -0.13941774 0.65536225 -1.0885404 -0.7556886 -0.08341901 0.5833792 -0.70999306 -0.08753746 0.70432574 0.06593855 -0.56374526 0.48590183 0.3525802 -0.26004082 0.75722367 -0.5904532 -0.4822777 -0.15902127 -0.06362265 -0.4848567
14 0.25447583 -0.34825516 -0.09881743 -0.3549869 -0.30461115 0.3144307 -0.3141961 -0.21043342 0.37802106 0.27916932 -0.21881041 -0.23841007 0.22254679 0.31743795 0.025691202 -0.21624509 0.0809851 -0.071050294 -0.12860413 0.030381342 0.15997553 -0.44335502 0.3580139 -0.19116926 -0.27222067 -0.17547417 0.25445792 0.041989923 -0.3600541 0.26231998 0.052373376 -0.18029395 0.1949035 -0.2981112 0.44283292 -0.21338564 -0.51473635 -0.07781779 -0.77158594 -0.2254556 0.31501114 -0.35587063 0.3031162 0.5018889 0.26542056 0.6148324 -0.81421494 -0.18760845 0.29429805 0.5363624 -0.6205764 0.7482057 -0.036232334 0.6383346 0.199005 0.02325889 0.05184541 -0.73705924 0.30145538 0.13054161 0.16349219 0.14054374 0.8528682 -0.20540951
15 -0.15322976 0.29250246 0.34987956 -0.04286863 -0.04190751 0.075645 -0.15701033 -0.18306004 0.4122055 0.3306237 0.021220341 -0.069022216 0.2733629 -0.22427063 0.027089301 0.03668992 -0.2644305 0.4088974 -0.34244362 -0.39073807 -0.23615634 0.34322557 0.2894076 -0.027546303 -0.043782696 0.21271382 -0.2183798 -0.4350464 0.27949092 -0.32868877 0.35143226 -0.24134056 0.34048343 -0.36774105 0.11220202 -0.1665532 -0.553853 0.10917958 -0.5570184 -0.18778016 -0.074620016 -0.4824929 0.8479648 0.11137579 -0.611449 -0.5572888 -0.43605623 0.20931238 0.04887778 0.53273463 0.5037582 -0.12456954 0.6976607 0.6476206 -0.5313089 0.10286142 0.7006785 -0.23689573 0.84551936 -0.7478475 -0.113596655 -0.06936225 0.21869665 -0.46112093
16 0.3584751 0.14223304 -0.28084993 0.5707117 -0.3005812 -0.012634179 0.048930414 0.1955306 -0.23207968 -0.2651715 0.11615806 -0.15071683 0.27048326 0.09067564 -0.14126024 -0.055710576 -0.26912737 0.14898042 0.07648267 -0.052981466 0.4033165 0.29212716 0.39421865 -0.0020606192 0.39559972 -0.06662518 0.16820887 -0.13728097 0.28560093 -0.10567449 -0.43935794 0.4262455 0.27179322 -0.45678052 0.04457359 -0.6872505 -0.346 -0.59743583 -0.6812112 -0.6169223 0.2862548 -0.552714 0.2257297 -0.16231555 -0.62287647 0.7273907 -0.6752952 0.34453833 0.86942255 0.6182762 0.367778 -0.03694142 0.2626482 0.6343728 0.0825973 0.14485162 -0.31609783 -0.9292188 -0.22207476 0.13997053 -0.6353359 -1.0641816 0.30855122 -0.8272361
17 -0.13229863 -0.2742586 -0.27679834 0.24591783 -0.36371666 0.16576459 -0.42969036 -0.17019832 0.31740865 0.40710348 0.22677463 0.37741163 0.15979834 -0.24849212 -0.182278 0.44606966 -0.25497493 0.13962029 -0.11355541 0.001494862 0.43567175 -0.2265834 -0.37210208 0.34860697 -0.16877274 -0.38271406 0.15178601 0.25634864 -0.021366557 -0.014007874 0.21859029 0.1647174 0.64657503 -0.5563809 0.272428 0.49681494 -0.2376654 -0.54513705 -0.5107854 -0.6656461 0.23183914 -1.2494041 0.20249449 0.19684102 -0.3668946 -0.09116278 -0.5755851 0.33704308 0.80737 -0.3092253 0.27541757 -0.25507236 0.08472416 -0.4586768 -0.5574276 0.6481867 0.39287782 -0.36255324 0.82538456 0.4393292 -0.33660573 -0.2109292 0.19877645 -0.12502044
18 -0.10957649 -0.1356522 0.028443744 -0.43525848 -0.08290573 0.12007856 -0.08994371 -0.23776503 0.1649203 0.018878635 0.31470957 -0.02982577 0.05177818 -0.12803788 0.036283158 -0.3235343 0.18721762 -0.38295165 0.10390426 -0.25295934 0.16604936 -0.43527833 0.4256703 -0.31155482 -0.32401386 -0.40278444 -0.29294196 -0.16321968 -0.31676662 0.2515628 0.3238689 0.4595139 0.7481136 -0.36831874 1.1322687 0.58917683 -0.2432694 -0.7227111 -0.8236237 -0.00048149738 0.40124634 0.19146967 -0.10588602 -0.14737554 -0.15482917 0.58452535 -0.5226457 -0.7180008 0.35843515 0.022364477 -0.045269404 0.7078922 0.018534638 0.5648319 -0.22156101 0.28384414 -0.21257317 -0.5742446 0.49570778 -0.4903019 -0.03724975 -0.016255388 1.1175488 -0.22461934
19 -0.28944024 -0.011025979 0.23559779 -0.083270505 -0.3140878 0.39160362 0.09393048 0.29820395 0.10466935 -0.10627414 0.25651205 0.16142224 -0.079089604 0.039382003 0.44208074 -0.2572902 0.21746269 -0.33179826 -0.17829345 0.090757266 -0.29205352 -0.35300356 0.23737976 -0.3237845 -0.28700992 0.25066322 -0.326155 -0.1352286 -0.38036537 -0.40101314 0.15132442 0.2414058 1.2259761 0.039053667 0.9970255 0.4526817 -0.40289247 -0.31553552 -0.5151154 -0.88378036 0.22356465 -0.6731267 -0.14555085 -0.27111232 -0.786321 0.5879971 -0.8015929 -0.6085312 0.1484272 0.49103945 0.29403353 -0.042041086 -0.3005245 0.3296973 -0.86614376 0.26783925 -0.21074076 -0.098993264 0.5757537 0.14156678 -0.005184158 -0.18593746 0.95609796 -0.05944485
20 -0.34519517 -0.23552984 -0.50216186 0.21812652 -0.19997533 -0.44266504 0.23549229 -0.27483854 -0.27912858 -0.022110114 0.18239845 0.104434244 0.057282485 0.3781538 0.36109632 -0.09963197 -0.27851728 -0.36310145 -0.16651808 -0.06965342 0.21821213 0.29299966 0.36730236 0.1798481 -0.26405525 0.15686889 0.36714903 -0.21789919 0.23083298 -0.027656706 0.35016707 0.16240083 0.17191264 -0.09688611 0.17500561 -0.06363436 -0.09631895 -1.0555923 -0.6597591 0.010690455 0.21157725 -0.40739402 0.17854245 0.6206758 0.41747394 -0.18628997 -0.25254184 -0.8213604 -0.07191513 -0.031806175 -0.35280842 0.67790985 0.86296713 -0.42730892 -0.32719266 0.7762804 0.63644683 -1.0684831 0.04289918 -0.9263386 -0.48644158 -0.6008119 0.5084535 -0.13914223
21 0.14608462 -0.28286365 -0.3719322 -0.058669616 0.4574012 0.2571605 -0.16472256 0.42043477 -0.33296522 -0.054110624 -0.25969273 0.31081697 -0.06116092 0.053841297 -0.34494188 0.42764527 0.28444788 -0.32723394 -0.3969639 0.086483836 -0.17250073 0.16344467 -0.042428404 0.056174647 0.29698488 0.05425889 -0.28822777 0.27400818 0.28840455 0.0361267 0.12901212 0.34805694 0.45682362 -0.623895 0.77726394 -0.47311613 -0.4407885 -0.4020902 0.14063045 -0.30719107 -0.6831382 0.11934396 0.053608563 0.9305442 0.25197408 0.5518728 0.2766711 0.23981865 0.6525969 0.969725 -0.37597808 0.7447307 -0.13942623 -0.2633794 -0.8842114 -0.038452853 -0.20396295 -0.3842356 0.41983142 -0.19311218 0.030288586 -0.18816856 0.9378257 0.14095168
22 0.3062125 -0.3575127 -0.4249804 0.18383895 0.33995882 0.15634933 -0.32094368 -0.3745499 -0.34095535 0.06613925 0.023324672 -0.054377235 -0.44622707 0.1653631 0.35383585 -0.09212086 0.4099816 -0.23992845 -0.29007667 -0.16207746 0.25456396 -0.11602783 0.11951191 -0.36526614 0.19542064 -0.211308 -0.07291695 0.20910317 -0.060173947 0.14087844 -0.3495094 -0.19069995 0.3867811 0.010171889 -0.04663848 0.3861118 -0.39461476 -0.025874782 -0.73856384 -1.1335766 -0.82281023 0.23142974 0.34243143 0.21825816 -0.8078898 0.6371969 -0.29626313 0.43863103 -0.17216967 0.6741846 0.28625476 0.6369444 0.047134478 0.58910644 0.018915186 0.13431959 -0.28687316 -0.86608225 -0.26251176 -0.115993455 -1.0628079 -0.15979932 0.7241716 -0.45364565
23 0.1765404 0.15154451 -0.40027106 -0.28470266 -0.40502107 -0.24346635 -0.43329474 -0.14750232 0.21468714 0.24001083 0.2720068 -0.04347726 0.088477544 -0.3312818 -0.20458741 0.08841516 -0.26677352 -0.01428562 0.37043232 -0.12962432 -0.249937 -0.24076256 -0.28109464 -0.17636241 -0.28010693 -0.2437571 0.02948467 0.3893328 -0.056610573 0.15428737 0.33156478 -0.004694897 0.969533 0.05171502 0.91087854 -0.3187304 -0.26571935 -0.2810151 0.41947788 -0.90855694 -0.4203982 -0.22564335 0.8755678 0.93966985 0.03891702 0.36823556 -0.2903221 0.24037728 -0.033430345 0.46349266 -0.059961744 0.32632387 0.8406095 -0.35798118 -0.31159052 0.07390587 0.31954202 0.16134666 0.19418465 -0.3752065 -0.9663684 0.06917956 -0.14606522 -0.8038934
24 -0.011298716 0.28985026 0.11291847 -0.33504748 -0.17784746 -0.097851485 0.2623443 0.21164641 0.21455146 0.15876369 -0.24869668 0.033303544 -0.45230982 -0.31502253 -0.40139017 -0.20312437 0.11711141 -0.4111452 0.055980228 -0.25876236 0.28765702 -0.2189439 -0.42754784 0.21100791 0.18318978 0.21884651 0.03788684 -0.38943008 0.01616114 -0.12748706 -0.38603985 0.39471933 0.07587933 -0.4500595 0.10964185 -0.6141828 -0.008390022 -0.6230319 -0.26085573 -0.66090566 -0.18040879 -0.25748038 -0.0142681375 0.02903452 -0.67547435 -0.44209218 -0.14855435 -0.023479495 0.98135346 0.5525211 0.42708078 0.70562756 -0.27648202 -0.41996676 -0.2901483 0.23738429 0.836739 -0.027233917 0.4830767 -0.8833518 -0.8120061 -0.8882559 -0.076462895 -0.78905964
25 0.04450781 0.46125594 0.08166355 -0.28636464 -0.33665365 -0.16802448 -0.40282673 0.08298457 -0.3199332 0.21161059 -0.20694835 0.30920425 0.3092332 0.34648255 0.16383089 0.06336177 0.28916985 -0.041958876 0.1324933 -0.16259898 0.37228674 0.37780726 0.023816139 0.041131552 0.38958618 -0.37072194 -0.12459235 0.3288689 -0.22153862 0.32366836 -0.07823911 0.1783573 0.52698046 -0.8397947 0.105908535 0.53074265 -0.49480823 0.085443586 -0.20386787 -0.674442 -0.49580413 -0.6203499 0.08838033 0.51365304 0.16145965 0.4890352 -0.5462108 -0.40124655 0.6566738 0.23341447 0.6080522 0.7832481 0.8476164 -0.47376332 0.31428763 0.7386302 -0.051924188 0.06874639 -0.22623362 0.35008028 -0.9542642 -0.05549421 0.9282673 0.0616241
26 0.23372333 0.28944045 0.11650289 -0.043069966 0.22000828 -0.16373016 0.041631635 -0.1986971 0.028136674 -0.12906964 -0.012236483 0.2953322 0.17197528 0.34251028 0.1924877 -0.24347292 0.26663938 -0.10457602 0.016095212 0.46122238 -0.4457918 0.20296203 -0.39641568 -0.26865485 0.103402674 0.06738343 -0.22132775 -0.47645316 0.018600628 0.43204272 -0.37473628 0.06961146 1.0214881 0.11530251 0.16692014 0.55227226 0.034080267 -0.071827926 0.3520411 -0.050677445 -0.17762934 -0.6260911 0.8619689 0.815921 0.27858058 0.30373868 -0.071607925 -0.34190983 0.52616566 0.6633418 0.3814769 0.2735088 -0.095414594 0.6869228 -0.6263616 0.79700845 -0.46978003 0.104406364 0.81456834 -0.4070341 -0.8593133 -0.26299223 0.8594709 -0.5424695
27 0.2009462 0.23480669 -0.3274466 -0.20776337 0.2457335 0.3939809 -0.25346208 0.083081804 0.04056323 0.16035384 -0.29429203 0.21482323 -0.34856194 -0.42490378 -0.2674405 -0.37011108 -0.4344444 0.34325546 -0.07415826 -0.0247728 -0.27731338 -0.23118573 0.25225815 0.14772265 0.14749074 -0.31478694 0.44697303 0.19324365 -0.25543177 0.18189378 -0.29905617 0.27332804 0.35358757 0.14569154 0.3889068 0.08010589 -0.54129595 -0.5117055 -0.08524722 0.32320845 -0.8526182 0.042874712 -0.010941367 0.27469698 0.049400207 0.3449791 -0.59124213 -0.79201126 0.83275974 -0.037140287 -0.016200405 1.1004483 -0.025368674 -0.22706312 -0.7480004 0.28436014 0.6837032 0.10863326 -0.19412348 0.12913193 -0.16882274 -0.546014 0.6752819 -1.0188069
28 -0.39677542 -0.14582366 -0.24937275 0.1814397 0.17375885 -0.11634035 0.14448394 -0.04934846 0.32791084 0.019465253 -0.25085822 0.44674027 0.34429047 0.14470454 0.092040256 -0.44849324 0.19462767 -0.32536995 0.3214226 0.3180072 -0.02703535 -0.34085172 0.37022975 0.3528066 0.24177957 -0.2272598 -0.37669218 0.09688861 0.2822915 0.19558199 -0.37867612 -0.06825039 0.42907044 -0.66835976 0.7458774 0.5362436 -0.028985757 -0.2429812 0.33015057 0.25245076 -0.38048524 -0.9069021 0.032233994 0.9038606 -0.61805737 -0.1777315 -0.7933602 -0.6518822 -0.33790466 0.24760276 -0.38515076 0.47336766 0.55723673 -0.22420673 -0.90549594 0.42572957 0.59445184 0.028414492 0.37784275 0.31221363 -0.78373545 0.09757876 0.33735335 0.15963712
29 -0.06636848 -0.32980546 -0.40598628 -0.29478887 -0.27132565 0.25496233 0.437943 0.4415982 -0.03434359 0.052722953 -0.0708244 -0.014619654 0.31921455 0.11385688 0.24785922 0.048697736 0.23941274 0.13190034 0.37182826 0.055598155 -0.042166214 -0.29647574 -0.3061146 -0.34020385 -0.040256493 -0.24906713 -0.42810547 -0.36977264 0.091514334 -0.009964311 0.35896128 -0.28769162 -0.06772843 0.2942386 0.44934678 -0.46518508 -0.84802336 0.17330235 -0.29648063 0.15379474 -0.015980856 -0.46641067 0.5109599 0.72544396 -0.87075984 -0.5618611 0.17811935 -0.6451147 0.42612454 0.45681894 -0.6098189 0.9040532 0.71273154 -0.06707084 0.19745074 0.4589939 -0.3757578 -0.21927781 0.44576845 -0.60414183 -0.7504915 -0.36250287 0.13130267 -0.8631916
30 -0.30090335 -0.038933776 -0.4035816 -0.32352448 0.10219421 -0.30171928 0.26423857 -0.05736078 0.107807845 -0.44573978 0.17616946 -0.14480072 0.37119576 0.012509809 0.37916553 -0.38093892 -0.11568695 -0.29163238 -0.37898237 0.34501734 -0.14377202 0.31361675 0.29990587 0.2326445 0.099092305 0.10872475 0.19926183 0.16640571 -0.20330442 0.13425653 0.41198075 0.06876715 0.22610839 -0.87654996 -0.06527851 -0.19251171 -0.7257779 -0.9124024 -0.5620655 0.20403188 -0.26863024 -0.7474033 -0.198062 0.6649502 0.14097098 0.31623593 -0.021756316 -0.36896375 -0.1467925 0.6349016 -0.5289444 0.7085001 0.6987346 -0.19501685 -0.6304615 0.39399946 -0.2713939 -0.42116633 0.074374355 -0.24180439 -0.8989906 0.13458101 0.45721158 0.25412393
31 0.007835986 -0.3440491 0.058074713 -0.36674097 0.2797805 0.03948683 -0.25175366 -0.23720996 0.20195985 0.12377503 0.38691142 0.17279689 -0.17549728 -0.3035507 0.05798439 0.18106309 -0.055099815 0.45120218 -0.3042224 -0.16757938 -0.33711508 0.39289695 0.024102397 0.27179995 0.105590455 0.37177074 -0.31530923 0.011468619 0.15788847 -0.38594496 0.3168145 -0.33139548 0.17696777 -0.8151623 0.5512197 -0.44743758 -0.4917564 -0.21251114 -0.43531 -0.3509829 -0.75135815 -0.56003845 1.0145701 -0.16668607 -0.7157012 0.012835072 -0.8638172 -0.57767105 0.22711046 0.31843236 0.2880325 0.25122443 0.18963376 0.6168149 -0.516418 0.7407642 0.43485144 0.13016805 -0.061796863 -0.88697845 0.24181008 0.29038012 0.1954124 0.22288549
32 0.23678611 -0.030259447 -0.2564684 0.29493603 0.2948531 -0.07699748 -0.1382664 -0.38547903 0.32717583 0.22610424 0.2839192 -0.4016235 -0.104079105 0.20641701 -0.42527425 -0.0370095 0.22733077 -0.31755868 0.16141017 0.1464416 -0.29602808 -0.43188208 -0.30857146 -0.31578484 -0.26973355 0.44831124 -0.09708895 0.2826097 -0.10515401 -0.1920131 -0.089900546 -0.044691868 0.072149314 -0.15562727 0.72980744 0.23342647 0.2746255 -0.022941248 0.031293154 -0.84524465 -0.93531597 -0.9456438 0.86042815 0.40031737 0.15434994 0.06080462 -0.58264136 -0.039279748 -0.3100577 0.21270603 0.116467535 0.47283727 0.052251287 0.0021113548 -0.89141566 0.22691739 -0.1561026 0.051015396 -0.30653054 0.12699056 -0.5902696 -0.7543622 0.90607953 -0.8016198
33 0.071676545 0.06891666 -0.11828534 0.33661318 0.21524972 -0.3246429 0.21540767 -0.16342387 -0.26868537 0.15555823 -0.40285587 -0.3821594 0.38085282 0.04556692 -0.33944356 -0.13798428 0.31018722 -0.1052377 0.3041124 -0.15935655 0.35516104 0.4913958 0.2966291 0.19342849 0.2293629 -0.245052 0.08999847 -0.084375374 -0.26695707 -0.26621714 -0.007830568 0.2159444 -0.19941658 -0.11140284 0.80776095 -0.08747381 -0.069297224 -0.010828937 -0.82650363 -0.87458163 0.30463287 -0.61238164 -0.02233618 -0.16289651 -0.42366078 0.07454618 -0.40750617 -0.4110666 0.9461557 0.18563487 -0.104052536 0.08225342 -0.10104589 0.6366542 0.034403913 0.7100728 -0.26436976 -0.47875178 -0.13609391 -0.21453358 -0.9355331 -1.0323007 0.17387743 -0.3934658
34 -0.09521275 0.35746965 -0.023613416 -0.0873785 -0.2942763 0.28985563 -0.012121039 -0.3070281 -0.23190215 0.19276832 -0.29237735 0.27675718 -0.09730103 -0.21720785 -0.41033447 0.12848555 0.33789903 0.39721823 0.41950172 0.12960468 -0.16788997 0.13173088 0.3954044 0.37101647 0.15879036 0.35887617 0.247271 -0.24710944 -0.32117245 0.028542615 -0.18470544 -0.19126476 0.8389103 0.15862006 0.1390838 -0.4232502 -0.4915084 -0.6868355 -0.6556388 -0.14500342 0.27680895 -0.62613577 6.347599e-06 0.7803856 0.1737998 -0.2667776 -0.8216749 -0.719816 -0.1508359 0.77611 0.1718301 -0.013378025 0.9239685 0.525455 0.39163408 0.3044724 0.8519383 -0.7770088 -0.40518302 0.14260119 0.1973959 -0.8618759 0.44325742 -0.49423385
35 0.3931522 0.43683475 0.1825662 -0.14182785 -0.09141831 0.2516788 0.20100202 -0.45873347 0.3088665 0.4416039 -0.23886019 0.18847933 0.0245937 0.042612087 0.38130653 0.12245126 0.11757672 -0.21882293 -0.2586598 0.0037555802 -0.33226457 -0.22990158 -0.3773763 0.14582635 0.25656593 -0.37087563 -0.08578742 -0.36881626 0.4350403 0.008638365 -0.10341407 -0.33086404 0.39981034 -0.20681402 0.18094736 0.20353602 -0.33201492 -0.8215083 -0.07904193 -0.63798535 -0.6974749 -1.0609856 0.85407114 0.9415112 0.33666334 -0.49494368 -0.67585564 0.052638534 0.84997445 0.296657 0.65358573 0.13649435 -0.4154082 0.57785726 0.22499402 0.06507146 -0.16548693 -0.02389017 -0.026604317 -0.7683061 -0.40143692 -0.45256874 -0.26113445 -0.3265646
36 -0.19485214 0.44284928 0.0007755607 -0.25830767 -0.33491695 -0.36644885 -0.4050401 0.21359418 -0.33007893 0.07776424 -0.16390826 0.07256059 0.26617262 0.3631271 0.23130666 -0.093561426 0.39104196 0.006726418 -0.014478962 0.11102985 0.43449435 0.13267249 -0.29405096 0.024254862 0.2137059 -0.51001424 0.12627402 0.08942228 0.07359909 0.050196897 -0.08192798 0.4033215 0.6569333 -0.17850234 0.10359979 0.30343533 -0.30194825 0.23142886 0.041077934 -0.52029955 -0.8102201 -0.8739164 0.06298756 0.7097058 0.05525007 0.6238828 -0.5727067 0.15796402 0.8879528 0.38331553 0.25122657 0.5179789 0.777387 -0.5978391 0.17094682 0.7058764 -0.26934552 -0.18294048 -0.45612007 0.22222716 -1.0109049 -0.06515351 1.0721262 -0.15994728
37 0.21654536 -0.18314226 -0.11935247 0.08320307 0.43636176 -0.12749663 -0.11248281 0.3857178 -0.38258538 -0.21279344 -0.35544366 -0.004428028 -0.34849808 0.26253855 -0.20077 -0.25490087 -0.47168812 -0.20245525 0.27815273 0.18495509 0.17131029 -0.09890357 0.30486932 0.08429771 -0.28513953 -0.1319714 -0.24716285 -0.27353227 0.24846256 0.24774906 0.04764158 -0.3493192 0.79789263 -0.9069864 0.1513177 -0.08606888 -0.044683013 0.22869447 0.058481272 -0.2740992 -0.7483721 0.14240819 -0.17200425 0.6245759 -0.57912743 0.6831827 -0.1342663 -0.21692769 0.83688116 0.43790486 0.17103766 1.0412328 0.07064996 0.76943064 0.4123951 0.60481346 0.2029728 -0.1578412 0.38748765 0.55908215 -0.33065152 -0.8103889 0.68535167 0.06248861
38 0.27856854 -0.47211894 -0.16088326 0.28523728 -0.043948103 -0.1919964 -0.11804021 -0.17583624 0.3873824 0.17271057 0.3319384 -0.07681265 0.1899911 0.12487696 -0.21843953 -0.34157923 0.40011415 -0.16673036 0.21283315 -0.30894566 -0.27041474 0.11681502 -0.35947943 -0.10507307 0.28240663 0.010145358 0.18180713 0.33312634 0.41807407 0.32937843 0.10052583 -0.10765696 0.61393565 -0.1312865 0.74834305 -0.589372 -0.6495861 0.003077424 -0.14135209 -0.8223219 0.3600851 -0.37259766 0.75343055 0.36255863 -0.7671371 -0.20166118 -0.59846926 0.48189077 0.20589429 0.64564216 -0.42993587 0.32939437 -0.15225033 0.6587347 -0.7840358 1.0927975 0.7086776 0.11337825 -0.03206665 0.4681055 0.14438546 -0.14592291 0.7943774 -0.033508748
39 -0.20170327 -0.12866211 0.23267946 0.100583985 0.22805278 -0.32630304 0.2855224 -0.13041483 -0.15054992 0.19616365 -0.4227595 0.070140675 0.123733945 0.13656797 0.17392707 -0.33048913 0.19274707 0.21823983 -0.46798092 0.4119268 0.3755482 -0.007382056 -0.22024894 -0.30894473 -0.20900756 -0.3109628 -0.18129492 -0.13579877 0.31121695 -0.10538552 0.20221788 0.45757127 0.5352647 -0.2362735 0.31381604 0.55367196 -0.258065 0.16199447 0.15350719 -0.8113462 -0.5605129 -0.6336278 0.7758734 0.37840214 -0.41372034 -0.54047537 0.007270968 0.42408863 0.42222187 0.41566977 0.4598256 0.04203324 -0.17903893 0.65273786 0.1265777 0.011147648 -0.24940053 -0.21436533 0.17469326 -0.9376368 -1.0401812 -0.6736547 0.8619229 -0.20117915
40 0.1735863 0.14165244 0.12392088 -0.09660041 0.27571335 -0.33780065 -0.18057013 0.11188504 -0.1397678 -0.08892215 0.19354773 0.29028857 0.17493501 0.16457725 0.058167275 -0.07811434 0.3956021 -0.16131851 -0.09916308 0.44392857 -0.35941985 0.31713635 -0.50070745 -0.3293369 0.1675449 0.21786256 -0.3607182 -0.4335284 -0.21191071 0.4691362 -0.3165368 0.0702254 0.9720829 0.03459585 0.1083287 0.6910562 -0.30068398 0.21571371 0.17531595 -0.18483144 -0.61575836 -0.4362402 0.6389513 0.9772351 0.13806266 0.4955157 0.026647326 -0.53770745 0.25666392 0.48497352 0.15984999 0.15269397 0.13573952 0.7127607 -0.8415719 0.96719253 -0.28294712 0.21392362 0.83238244 -0.6811684 -0.1594219 -0.415952 0.81744426 -0.14871383
41 0.25602466 -0.03389899 0.43121597 0.30557427 0.4087783 -0.39565498 -0.46495652 0.0658497 0.09992041 -0.24334058 0.0041627027 -0.12822281 0.34263644 -0.2984788 0.15809928 -0.015572584 -0.49087942 -0.2887589 -0.28836653 0.30432343 0.30762708 -0.13077897 0.032336213 0.0142089 -0.31000313 0.41725454 0.36072022 -0.19878891 -0.19152565 0.19370227 0.06362773 -0.37453666 0.81238025 -0.76289064 0.35939327 0.41648534 -0.03535978 -0.25620008 0.2734099 -0.08319736 0.223127 -1.1062934 0.99520767 0.5936741 -0.68173695 0.6120855 0.29206237 -0.327847 0.47373918 0.15172593 0.6986738 -0.00133939 0.8549708 -0.214505 -0.4306619 1.0357832 -0.29671133 -0.82886314 0.1655957 -0.5904316 -0.10965668 -0.26899046 -0.15886408 -0.0833032
42 0.15068531 0.08942095 0.2975395 0.3481204 0.29916605 -0.40353426 -0.44635966 0.15426217 0.043752827 -0.38202423 -0.055569902 0.06208674 0.26951846 -0.44877127 0.32940754 -0.14410967 -0.25731868 0.07756539 -0.4038858 0.09016782 0.35781243 0.069777824 -0.032025218 -0.04353535 0.10190408 0.3878255 0.14516626 -0.060713273 -0.035570875 0.34012452 0.07079456 -0.45078027 0.98747444 -0.86057156 0.49020976 0.4339568 0.081447996 -0.60122836 0.4873121 -0.038514663 0.22375223 -0.7065442 0.80116314 0.6236861 -0.13437337 0.46657547 0.112810396 -0.3565644 0.19364272 0.86544913 0.5821428 -0.06903358 0.57824534 0.055662673 0.15757668 0.9483871 -0.2881733 -1.0313731 0.5764413 -0.07571978 -0.21208276 -0.20500304 -0.20073874 0.11112677
43 0.27953258 -0.008762654 -0.030774236 -0.021840386 0.39870358 0.23225334 0.036153406 0.16661529 -0.30540493 0.10713676 -0.15909453 -0.012170804 -0.28440854 0.26507995 -0.20425594 0.5574278 0.32635537 -0.34095633 -0.34519523 -0.20605738 -0.26196155 -0.2830981 -0.12138592 0.31267962 0.36374608 -0.21411298 -0.3515306 0.169619 0.43016973 -0.1717673 0.09391979 0.4061653 0.8671458 -0.41352928 0.6283931 -0.5785146 -0.3881497 -0.5827574 0.1885487 0.010132365 -0.8135284 0.24848527 -0.23123963 1.0801765 0.02978265 0.5694945 -0.000330471 0.040216696 0.3466245 0.9947552 -0.49712378 0.55043966 -0.3692041 -0.17981765 -0.54796 -0.034607083 -0.08511566 -0.73642945 0.58784324 -0.060133036 0.11599116 -0.6939038 0.8517878 -0.09096976
44 0.052624587 0.43314087 0.18170917 0.3270532 0.22060634 -0.072280325 0.11176052 0.40209907 0.14072013 0.08878691 -0.32988486 0.008145225 0.14807014 -0.3755091 0.2098466 -0.14752583 0.18214132 -0.17112984 -0.2855943 -0.384788 -0.33059278 -0.40767398 -0.35999864 -0.102520265 0.16221744 -0.07761662 0.38731337 0.25930205 -0.23660398 -0.23256606 0.43634248 0.097973496 0.9843602 -0.10983296 0.08240295 0.45585224 -1.0506058 -1.0170954 0.11153747 0.051229186 -0.9266593 -0.26861355 -0.0038291349 0.89989096 -0.6341054 0.009898826 -0.38185135 -0.5037597 0.86511856 0.009076201 -0.66794884 -0.26196036 0.40973565 0.5654593 0.019651804 0.28433427 0.46904695 -0.34256116 -0.3056378 0.029865667 -0.27370292 0.036734995 0.16389044 -0.36498368
45 -0.3918657 -0.32491505 -0.27417567 0.09059616 -0.13470708 0.19593431 -0.31218195 -0.35751963 0.300046 0.3182734 -0.15010078 0.23733148 -0.09912371 -0.21718475 0.016147504 0.46443015 0.055494826 -0.066181526 -0.045101896 -0.30711636 0.32585338 0.09167342 -0.2888346 0.34232432 -0.34489524 -0.36039266 0.44357365 0.078798406 0.08563615 -0.27662086 0.09360442 -0.093936406 0.11386978 -0.94644773 0.064172275 0.6189159 -0.5091626 -0.45282072 -0.7852428 -0.6512698 -0.06692067 -0.89314497 0.46545145 0.44948214 -0.8626146 0.23741946 -0.57188004 0.31455657 0.55640626 0.03088984 0.3225012 0.041757364 -0.4196995 -0.47779125 -0.00592347 0.7493491 0.6428122 -0.091241285 0.89076054 0.3963678 -0.38095844 -0.19007133 -0.100589745 -0.28267583
46 0.2983915 -0.3990691 0.060911134 0.37414327 0.04522119 -0.063186936 0.3702276 -0.050881047 0.1729655 0.3098652 -0.38487834 0.098556325 -0.008311163 0.009920068 -0.42242277 0.27624753 0.28153732 -0.06858113 0.029225802 0.07141545 -0.15458405 0.29407367 -0.30832472 0.14997517 -0.3835866 -0.24770631 -0.16280653 0.27096283 -0.37994918 -0.33620152 0.22639976 -0.42819512 0.40037692 0.03548239 0.8781332 0.53210205 -0.12558384 -0.4433108 0.123793475 -0.8075319 -0.018491792 -0.8755045 0.86410856 0.22110593 -0.4026002 0.14016108 0.11499778 -0.7741202 -0.09201311 0.544905 -0.59337527 0.40562156 0.11571409 0.46716776 -0.4567387 -0.032068502 -0.1349382 0.2284305 -0.525654 0.004072314 -0.39271393 -0.88938296 0.8746383 -0.9427745
47 0.37387398 0.021873638 -0.17782703 -0.3870939 0.27981225 -0.08684157 0.30255023 -0.044539664 0.07726707 -0.3181845 0.32486182 0.2828148 0.11592889 -0.12390412 -0.005872392 0.24936417 0.02318934 -0.040339842 -0.37960026 -0.36420727 -0.3171596 0.35162193 -0.26389453 -0.1734484 0.3413496 -0.10412477 -0.1675711 0.029837329 0.3429395 -0.22938247 0.2609419 -0.18704852 0.31025887 -0.89444435 0.83182764 -0.59423524 0.20729128 -0.16817433 -0.5847723 0.06941044 -0.605311 -0.21606477 0.78611684 0.23290165 -0.71736234 0.19777882 -0.921707 0.26407945 0.63141483 0.7074041 0.48177537 -0.028847385 -0.14431451 0.49189708 -0.8391369 0.7202466 0.109452754 -0.30354232 -0.3516402 -0.30027273 0.17511368 -0.07770543 0.73459065 0.17565769
48 0.14041202 0.33958304 -0.364238 0.32873335 -0.19530436 0.16140042 -0.24887113 0.33310023 -0.11149832 -0.008046727 -0.24952663 -0.33528197 0.19051087 -0.10532339 -0.23111248 -0.21917813 -0.11552793 0.12910631 0.18093356 0.24457708 0.2794312 0.2801328 0.19483851 0.2919579 0.30606836 0.13001125 0.30462754 -0.043795343 0.29632932 -0.25014994 -0.33531266 0.35300413 0.31320298 -0.46573424 -0.07549778 -0.59121394 -0.23760468 -0.35938266 -0.7529897 -0.8320988 0.3735251 -0.09118599 0.46143553 0.084774435 -0.84294516 0.44692177 -0.93721217 0.036458913 0.9764837 0.38383558 0.4324446 0.055429414 0.06076137 0.3993087 0.39944118 0.5918561 0.088721305 -0.56450254 -0.42704475 -0.18476921 -0.7079765 -0.96305215 -0.018898394 -0.78860027
49 0.018679531 0.20592062 0.18990643 0.2690788 -0.29639524 -0.47126976 0.24677102 0.17754655 0.3693431 -0.18819323 -0.34918875 0.28407523 -0.33864972 0.1519902 0.3661753 0.22391996 -0.3239 0.28156343 -0.042213432 0.2022226 0.053610556 -0.1755257 -0.21975769 -0.29833043 -0.042258456 0.02992945 -0.46888867 0.41220227 -0.081344046 -0.2782155 -0.25655106 0.32579067 -0.2264108 -1.0056707 0.7931279 0.6825548 -0.43352365 -0.24623658 0.3268376 -0.16822466 -0.7633162 -0.35283858 -0.13697939 0.2869378 -0.68913215 0.32839713 0.22005804 0.13488142 0.207555 0.51738673 0.1691048 0.1338874 -0.3881735 0.28018114 -0.6388661 0.3042995 0.3818816 -0.32226542 -0.045152873 -0.2485904 -1.0612202 -0.75194746 0.78443253 0.03616706
50 0.0004269487 0.36809835 0.13733384 -0.4117939 0.16282836 0.08063669 0.14074518 0.0717831 -0.30505753 0.19219954 -0.2335918 0.30575266 0.30930233 0.39259472 -0.42502946 0.2353152 0.00024356219 0.22892785 -0.38094223 -0.17435896 0.35633343 -0.39859053 0.40592095 -0.065122016 -0.34764943 0.14214759 -0.23030022 0.31552207 0.08132067 0.33261138 0.025192872 -0.24307004 0.041627973 -0.7289311 0.10943961 0.54696983 -0.3794614 -0.046161223 -0.020363664 -0.76949024 0.38551736 -0.55978537 0.5564807 0.9060918 -0.8536652 -0.09887798 -1.0089642 0.21389066 0.09706156 0.6921158 -0.3221052 0.46307778 0.7697704 0.23228091 -0.7732368 0.08680843 -0.2253348 -0.76930183 0.59450287 -0.87370837 0.007453168 -0.38524386 -0.30394322 0.32348546
51 0.007230939 0.30347973 0.2678309 -0.2333083 -0.29536912 -0.31364098 -0.4193623 0.021569375 0.25862917 -0.078879446 -0.45220056 -0.5149542 -0.13966261 -0.34515074 -0.056891136 0.16560057 -0.016182985 -0.275531 -0.09142707 -0.44345146 0.2146504 0.23025842 -0.2820284 0.04178318 -0.2987271 -0.22579698 -0.3413361 -0.2845724 -0.2564364 0.1410041 -0.18937935 0.0291412 0.42128518 -0.5149307 0.2641673 -0.52699345 -0.97208965 -0.26244774 0.24683784 -0.37711033 0.2692091 -0.6418986 0.47692102 -0.0037106804 -0.007061183 0.5188101 -0.42856136 0.12588975 0.06665899 -0.12922886 -0.59873766 0.6115736 -0.10167031 0.18649046 0.30435815 0.35107145 0.80343205 -0.4091241 0.6932635 0.2562043 -0.99189156 -0.9190248 0.6678945 0.24963918
52 -0.3517606 -0.15091106 -0.13069429 0.13465606 0.017694326 0.26535597 0.2025905 0.11532195 -0.3115447 0.25174126 0.32487765 -0.3142672 -0.17017849 0.43659592 0.34844097 -0.19065014 -0.35123822 0.08834084 0.26049903 -0.265969 -0.1295985 0.38281593 -0.13831316 -0.07948048 0.2600042 -0.113430694 0.2396441 0.3979751 -0.012953958 -0.1645851 -0.3540641 -0.001152264 -0.08146673 -0.7392862 0.9464434 0.4929734 -0.6887331 -0.41214105 -0.09044915 0.1126032 0.27715215 -0.44818866 0.38349137 0.7212416 -0.14619666 -0.38654807 -0.7973969 -0.7010212 -0.27561352 0.21623248 -0.59656256 0.29435253 0.7083461 -0.4963065 0.3660386 0.84304327 -0.0044986918 -0.66205156 0.6005245 -0.18565391 -0.82799554 0.03416942 -0.12692238 -1.0581387
53 -0.40648478 0.09996954 0.27655417 -0.34353068 0.25593305 0.058260534 -0.10376281 -0.35874015 -0.22282606 0.4145148 0.30715263 0.02485117 0.1221341 -0.34327456 -0.22194943 0.40020764 -0.33576047 0.016456822 -0.056797456 -0.31924334 -0.11142108 0.11555177 0.36441246 0.08069002 0.37489864 -0.1537179 0.20581652 -0.4091546 0.14399172 -0.22139117 -0.042849023 -0.25078565 0.2787875 -0.22855759 0.39332467 -0.3010131 -1.1075679 -0.44529477 -0.153196 -0.29178417 -0.32733643 -0.27122703 0.998466 0.22806083 -0.77595216 -0.4803813 -0.3700119 -0.07235251 0.11544514 0.20656718 0.5261532 -0.118308835 0.98325855 0.7172095 0.16736001 0.34080642 0.7405958 -0.3998635 0.00033064483 -0.8852438 0.26957256 0.20678751 0.465639 -0.5303012
54 0.20399739 0.2012349 -0.47292072 0.0044663837 0.35140523 0.44527742 -0.40630928 -0.37596634 0.08955058 0.14543395 -0.05161488 0.20764874 -0.19916157 -0.19507876 -0.19476704 -0.33629653 -0.18819477 0.12129635 -0.06909743 -0.14369263 -0.3773577 -0.08559571 0.22626136 0.15490381 0.27573088 -0.4030571 0.38453716 0.3735769 -0.29761773 -0.07091101 -0.31472918 0.2160951 0.70121115 -0.27033356 0.021888116 0.13467921 -0.26430705 -0.6700231 0.27290225 0.19924326 -0.8299024 -0.0746252 0.012468442 0.1574159 0.18749878 -0.16198875 -0.48643026 -0.7993843 1.0925672 -0.08444391 -0.2750137 1.077278 0.34780136 -0.3108174 -0.4900316 0.6639858 0.48044872 0.16850393 -0.29015526 0.066311285 -0.35768747 -0.8304318 0.32833478 -0.8576879
55 -0.14908029 -0.19207521 0.34949616 0.14108212 0.04623626 -0.2652696 -0.19374833 -0.17336532 0.31822917 -0.32861474 0.16163142 0.050144754 -0.42214486 0.20043108 -0.3748374 0.107360974 -0.25385112 -0.17720906 -0.43583483 -0.3215514 -0.22192486 0.2874146 0.23627435 -0.19621105 0.06851787 -0.13602893 -0.24201271 0.3643616 -0.31566074 0.45431292 -0.29775015 0.16978982 -0.04589029 -0.17140429 0.086478785 -0.37897027 -0.05203977 -0.068537906 0.35669613 -1.1368144 0.088020794 -0.7961364 -0.19800839 0.4205588 -0.015457103 0.27822006 -0.43056682 0.022507861 0.825119 0.91222876 -0.62768346 1.2666515 0.9115037 0.20652905 -0.85246265 0.07971108 -0.0064334124 -0.17094475 -0.35845953 -0.10390753 -0.59952456 -0.4568259 0.30284563 0.20093031
56 -0.007388761 0.04071728 -0.25192574 0.37257415 -0.104950786 -0.3445898 0.32358694 -0.10211707 -0.30878988 -0.05776474 -0.15878025 0.104307994 0.126874 -0.33540088 0.234777 0.3944003 0.19344673 0.10297641 0.10633467 0.025024211 0.26618275 -0.3960038 0.23255502 -0.21495594 -0.12528351 0.3259682 0.22833414 -0.36482832 0.29460555 0.27559373 0.4031581 0.28297985 0.18697412 -0.51717544 -0.17996185 0.292688 -0.6042094 -0.76538455 -0.63387674 -0.6482399 0.44382742 -0.39609373 0.25463456 0.059925687 -0.7473079 -0.64186877 -0.8692865 -0.8428441 -0.17732714 0.1952208 0.29900655 0.23517671 0.28535563 -0.35660148 -0.45268384 0.24051173 -0.13223858 -0.43186802 -0.117153116 -0.061899174 -0.22376746 -0.99236435 1.048591 0.05925601
57 0.29112458 -0.33411622 -0.06980266 0.12114385 0.35235623 -0.18949479 -0.25940582 0.38194698 -0.2669117 0.45567453 -0.04484187 0.063756704 -0.0238525 0.04179965 0.24139328 0.20733199 0.33268565 0.03211784 -0.3050403 -0.00095295423 0.00479036 -0.26381263 -0.18394034 -0.43337095 -0.19954017 0.23271069 0.112863414 0.18014657 -0.2015768 0.20857278 -0.46022776 -0.26082858 1.0315909 0.021732762 0.13512194 0.5594638 -0.45575145 -0.26299733 -0.41364416 -0.88494086 -0.74976766 0.12664208 0.9490712 0.2881589 -0.825745 0.47206062 -0.89192504 0.15579401 0.08732944 0.59349114 0.2097119 0.7895951 -0.22386926 0.52397346 0.11076747 0.05348718 0.19137412 -0.43578833 -0.25583735 0.32692602 -0.58038414 0.2082731 -0.01231812 -0.48960897
58 -0.03599417 -0.26334444 -0.3933556 -0.2938677 -0.4293282 0.031394117 0.31791985 0.2649844 0.0877003 -0.07245033 -0.15008628 0.2890225 0.27586943 -0.14074232 0.28303882 -0.114793256 0.1882363 -0.22326007 0.37843248 -0.18566541 0.11354088 -0.1355296 -0.3418587 -0.31488088 -0.27585152 -0.3065471 -0.3280847 -0.40660158 0.015633697 -0.008832651 0.3090443 -0.15622902 -0.02210555 -0.030503696 0.43648517 -0.5578858 -0.81173736 0.11046582 0.16737947 0.12744819 -0.38730678 -0.34605008 0.7315269 0.77927655 -0.92296636 -0.35299218 0.0698135 -0.308156 0.032056294 0.84715396 -0.51338315 0.5842848 0.71908903 0.21774037 0.41409203 0.51275283 -0.4960098 -0.09005907 0.35356775 -0.6742947 -0.7877972 -0.29333553 0.015281927 -0.9013931
59 0.40409595 -0.08523443 0.32675022 0.063521355 0.33601686 -0.21144113 0.024075106 -0.015944296 -0.12988083 -0.27949852 -0.3678261 0.2828982 -0.04858984 0.16995521 -0.20944527 -0.116086386 0.3003967 0.004332286 0.38871506 0.33330014 -0.22183155 -0.264749 -0.23064725 -0.13069269 -0.19152758 -0.316557 0.35337663 0.34063563 0.37601498 0.26204687 0.13183214 -0.2062036 0.098984346 -0.20112039 0.6470885 0.551458 -0.44970247 -0.15534532 -0.10191577 -0.90189004 -0.8701442 -0.269438 0.16921426 0.65742445 -0.8643854 -0.09754288 -0.5292554 0.27838948 0.01984759 0.19293405 0.30523232 1.1171097 -0.20799999 0.70399153 -0.8710789 1.1896228 -0.2877287 -0.22348295 -0.31846565 -0.6530237 0.120807916 0.07175549 -0.15344805 -0.21623892
60 0.04455884 -0.4936376 -0.041867644 0.12542583 -0.32433435 0.19241682 -0.0656252 0.08871356 0.30020347 0.10521196 0.3160067 0.17841423 -0.112695515 -0.064762644 -0.1877922 0.51552606 -0.051206198 0.2557554 0.072557084 0.16653998 0.40256023 -0.27445185 -0.2422732 0.44465742 0.23743068 -0.40657777 0.030745743 0.050167892 -0.27070004 0.051163066 -0.044724226 0.14957005 1.1980906 -0.08469952 0.02800003 0.18524931 -0.32829326 -0.8969676 -0.74951506 -0.6022731 0.17819627 -1.0903744 0.47690582 -0.0071068364 -0.3267093 -0.33177605 -0.1741275 0.2570256 0.93270487 -0.09190896 -0.0285369 -0.06555887 0.82791674 -0.2963128 -0.4344282 0.417937 0.78554773 -0.32763964 0.23785886 0.411687 -0.34506676 0.13771094 0.5791573 0.016701622
61 -0.072651714 0.020024518 -0.015989978 -0.06138243 0.24891935 0.16255921 -0.34443864 0.18705909 0.44228908 -0.05945986 0.107837416 -0.2549657 0.24175397 0.18513493 -0.3639758 0.26391634 -0.31329933 -0.42979786 0.3002769 0.28791142 0.3050593 -0.20065717 -0.11384509 0.048667755 0.037314054 0.4164334 -0.44207394 0.14818093 0.32938412 -0.4117847 -0.25361076 0.38254133 0.077467084 0.19838956 0.325899 -0.19241308 0.2673083 -0.40877575 -0.7379899 -0.48739222 -0.021343172 -0.6677578 0.5933776 0.71446645 0.17222953 -0.31046313 -0.9776751 0.4774035 0.39876038 -0.14562027 -0.12679248 0.15701945 0.20677759 -0.28747225 -0.8165282 0.31423348 -0.19919214 -0.0003993147 0.38908124 -0.62908626 -0.5098313 -0.8802914 0.9921913 -0.9614391
62 -0.4859472 -0.32186836 -0.16857408 0.4443409 0.42191565 -0.31994408 -0.19818236 -0.03902174 -0.04288431 0.17882642 -0.30006242 -0.3359328 -0.14450166 0.17366154 -0.16631222 0.049775094 -0.28722277 0.33258033 -0.43242753 0.22293481 -0.020646995 0.033616234 -0.38883027 -0.3083609 -0.09734497 -0.22255117 0.0036418447 -0.2436407 -0.30205917 -0.23224622 0.037555803 0.060729075 0.48762935 -0.41248527 0.28086936 -0.48053774 -0.92454976 -1.0013076 0.0270478 0.2156276 0.32883424 -0.8789374 0.14738518 1.0798562 -0.1340416 -0.16834189 0.00955365 0.05300345 0.41573638 0.29766414 0.37426656 0.5698353 -0.25814587 -0.15867135 0.2666355 0.57322216 -0.31256542 -0.9381536 0.75450957 0.30155605 0.0332965 -0.16935882 -0.09673896 -1.0653181
63 -0.2923115 -0.07103171 -0.33340192 0.14638515 -0.2937805 0.2927766 -0.47579902 0.07085638 0.094944745 -0.39163885 -0.3481353 -0.34229904 0.35829565 0.023091255 -0.24967037 -0.25366122 -0.053302664 0.22434565 0.26708055 -0.39591914 -0.04928498 0.26152226 -0.420094 -0.15117773 0.06936704 0.2804444 0.18024376 -0.27104852 0.2773826 0.18883663 0.26040795 0.2843379 0.2563865 -0.32529697 -0.06746223 0.39169973 -0.24315876 -0.76111513 -0.4608638 -0.40465444 -0.29907742 0.2720827 -0.021590736 0.6634453 -1.0940421 0.7137114 -0.31650704 0.09776549 0.07179351 0.36714247 0.084045276 0.5043028 0.39973643 0.030427828 0.20755813 1.0009341 -0.23824574 -0.9690237 -0.41506043 -0.54579216 -0.81072843 -0.487212 0.4666094 0.28094122
64 -0.28322822 0.31785294 0.14825752 0.17017885 0.24805187 -0.2692017 0.059023593 0.5254054 0.31945795 0.23978344 -0.2123153 0.23318656 0.39485243 -0.2626798 0.38001207 -0.17297406 0.11970364 0.18064106 -0.24066699 -0.4574863 -0.3001837 -0.30888388 -0.26901588 -0.3264806 0.15324932 -0.1357422 0.3713949 0.00035867962 -0.036078785 -0.21734565 0.2830941 0.11548044 1.1177087 -0.29420665 0.1273466 0.4174461 -1.140191 -0.9238497 0.4328138 -0.16819076 -0.86618185 -0.09502993 -0.25202295 0.89230937 -0.28308755 -0.3617475 -0.17626828 -0.4151627 0.8799622 0.33491063 -0.59541076 -0.12930952 0.14454211 0.7134517 -0.66167426 0.6304955 0.027673496 -0.03977455 -0.29841048 -0.21836196 -0.36638498 -0.11150116 0.07771511 -0.057772927
65 -0.05463263 0.2567896 0.22109768 0.113506325 -0.2663764 0.4149225 -0.024281157 0.37787846 0.26565117 0.010927873 0.42562124 -0.19397087 -0.3047467 0.118892625 -0.1609557 0.019183315 0.2622843 -0.3986501 -0.43814537 0.3761686 0.041599214 0.280736 0.19650151 0.2728049 -0.3429907 0.29445988 0.080276124 -0.09479842 -0.22376503 -0.30927265 0.023028212 -0.23372027 1.0108393 0.07059517 0.25606287 -0.44373834 -0.52104783 -0.8835555 0.023467876 -0.3443181 -0.65588206 0.13830411 -0.18470943 0.4313782 0.23531298 -0.25923812 -1.018659 -0.006009008 0.7740541 0.7615472 0.52888143 0.3236677 -0.28112602 -0.35073194 0.054166052 0.6843706 0.53322244 -0.5494019 0.47914255 0.2592776 -0.041419942 -0.099012814 -0.012136585 -0.6841183
66 -0.23800938 -0.3368734 0.32503673 0.2900266 -0.321531 0.31103188 0.31039557 0.20624515 0.027741197 -0.50400966 -0.39568543 0.2782388 -0.18196207 -0.4684602 -0.038069792 -0.17103083 0.042383756 -0.062254168 0.18996127 -0.44661507 0.3473558 0.18048453 -0.16015743 0.08053398 0.1594877 0.14895922 -0.08480679 -0.010122798 -0.011347679 0.21042725 -0.07062959 -0.2295507 0.24310897 -0.64058876 0.12518626 0.2703176 -0.10197014 -0.8958247 -0.07323575 0.18857284 -1.0136706 -0.6039794 -0.00012713994 0.6407443 -0.83452564 0.49729708 0.07647697 0.29743093 0.5465639 0.8802466 -0.2580969 0.54143304 0.8160119 0.5616294 -0.21809863 0.1367475 -0.38877004 -1.0733653 0.064728685 -0.08198877 -0.8140971 0.21101414 -0.22357617 0.2868059
67 -0.35251617 0.11974401 -0.40309355 -0.37510535 0.4619361 -0.1826047 0.41745526 0.27171537 0.391752 -0.22824301 -0.14323208 0.13803011 0.47225764 -0.10097205 0.41168088 -0.50059915 -0.11933405 -0.101873286 -0.19788693 -0.01743881 -0.22126003 0.0788357 0.1099013 0.16320008 0.094974525 0.1588251 0.21380511 0.058235712 -0.33265066 0.15563111 0.1950266 0.3182029 0.39773205 -0.9862032 -0.06748136 0.3550426 -0.8791204 -0.68084294 -0.03754918 0.15119085 -0.66495264 -0.49198753 -0.17678066 0.8412201 0.1801344 0.31233415 0.004705383 -0.4499865 -0.04413276 0.93350047 -0.55518997 0.18602434 0.45142254 0.017306374 -0.93292767 0.89834017 -0.13061197 0.14504215 -0.16590668 -0.039889995 -0.8776757 -0.04484929 0.20547669 0.18080671
68 0.33720043 -0.2923029 0.2834306 0.48955843 0.26708913 -0.28589627 0.20871198 -0.09626427 0.49706033 0.36018556 0.11615486 0.24053992 0.10455845 0.10218235 -0.32594684 0.00055336766 0.14360543 -0.052911673 0.11166808 0.15720767 -0.33431464 0.14679639 0.015556069 0.14793555 -0.31137523 -0.25805643 0.065895416 0.12703915 -0.42054898 -0.4010238 0.020913541 -0.3973021 0.38496694 -0.16042341 0.8162422 0.3960736 -0.23154919 -0.17749566 -0.4231803 -1.0075516 -0.15001886 -0.89782053 0.9150653 0.50249743 -0.03645979 0.5418586 0.18645465 -0.73158073 -0.22152284 0.5804931 -0.4751003 0.6103264 0.7262128 -0.16580923 -0.11059278 0.12969919 -0.39124766 0.24183545 -0.3740579 0.36768472 -0.3776185 -0.8503485 0.8198854 -0.87436885
69 -0.35564747 -0.37191898 -0.34451836 -0.42305484 -0.31393537 -0.12009513 -0.012558773 -0.101197176 -0.37220272 -0.14182027 0.098359115 -0.38580287 0.29736874 -0.07587028 0.036054946 -0.3854761 -0.04693767 -0.100245796 -0.2014121 0.33281502 0.03101928 -0.14250328 -0.3674876 0.18450418 0.39761978 0.06344016 0.19325522 0.12472641 0.09727477 0.059170984 0.36393705 -0.37066314 0.09769448 -0.7171603 0.6199192 0.2466929 -0.5408555 -0.7213508 -0.0014818189 0.13418768 -0.392228 -0.07595834 -0.1761124 -0.114376105 0.20984264 -0.07920384 -0.58611244 -0.7111197 -0.28325388 0.794687 -0.5689797 0.57693666 0.58412915 -0.4579286 0.35066172 0.5430047 0.49699658 -0.7287196 0.5302634 -0.6744853 -0.7202826 0.019190477 0.92684335 -0.47691157
70 0.21043855 0.07647075 0.18570909 -0.061896652 -0.3243363 -0.018490085 0.23576264 -0.01891142 0.21745555 -0.06748658 -0.29845157 -0.42492148 -0.28331128 -0.19572015 -0.06285624 -0.38853204 -0.0755011 0.21901695 -0.08522267 0.061858278 -0.39537948 0.2897152 0.3632847 -0.30808195 -0.45666566 -0.25759983 -0.3915513 0.021905996 0.32155168 -0.18000996 0.09974029 0.19441505 0.5015231 -0.109645344 0.0329786 0.51342106 -0.1413808 0.014392231 -0.68406135 0.08612441 -0.52071714 -0.19857101 0.6884494 0.16307765 -0.49157164 0.047375575 -0.5222875 0.26620743 0.3058437 0.3980012 0.49114418 0.23552898 0.89763427 0.73475784 -0.6480252 -0.056129508 0.7741319 0.15290205 0.7578757 -0.5780307 0.1058573 -0.6836031 1.0253762 -0.57600033
71 -0.034949534 0.18749152 0.24952863 0.23408872 0.33668125 -0.015984887 0.28144947 -0.24885659 -0.18443303 0.007863454 -0.2852343 0.20541292 0.22864199 0.19562829 0.22960542 -0.29541886 0.333862 -0.032661434 -0.4695458 0.3640254 0.0610575 -0.1708225 -0.33040464 -0.32270733 -0.03053636 -0.36485958 0.24158534 -0.26479658 0.2086376 -0.0013894341 0.18381557 0.38733038 0.6132882 -0.19832927 0.14495161 0.4434555 -0.081520125 -0.24010989 0.20015755 -0.27394468 -0.7287218 -0.81915194 0.6598974 0.3151552 0.07949714 -0.27198076 -0.051784147 0.14539917 0.80170214 0.7181802 0.5867617 0.26511604 -0.31062058 0.63564956 0.33002445 0.24905443 -0.43796685 -0.1214337 0.11683199 -0.86822456 -1.0587484 -0.43852264 0.96317846 -0.43998125
72 -0.14519191 0.33519506 -0.2972462 0.10219151 0.01902786 -0.25587326 -0.33303958 0.046476092 -0.4109194 0.10975164 0.43472952 0.46686038 -0.44748193 0.11767385 0.26336178 0.13331519 0.24407485 -0.053924937 0.23561674 -0.03848326 0.027361693 0.27131072 -0.30060586 0.3568152 -0.2908351 0.27430543 -0.2334832 -0.38534454 -0.13096589 -0.41393018 0.30610114 -0.22020897 0.1994619 0.05037409 0.6702085 -0.34115145 0.23774885 -1.0435152 -0.23789783 -0.25596607 -0.398585 0.26894695 0.27021256 0.8402809 0.3632304 0.1936622 -1.0445367 -0.75529677 0.3973191 0.4279674 -0.33123392 -0.083225556 0.58291584 0.17627017 -0.6894384 0.6689413 0.62624556 -0.5439073 0.7722504 -0.69134027 -0.4854988 -0.14780535 -0.08071523 -0.1296218
73 0.34419608 0.21163552 -0.4440051 -0.2290451 -0.42878413 -0.08085395 -0.25641614 -0.1376931 0.26763102 0.29317552 0.35860276 0.15142909 0.25097218 -0.22020245 -0.04881938 0.09300558 -0.42149985 0.103344 0.1735579 -0.04771325 -0.06928624 -0.25293374 -0.32791415 -0.21316665 -0.08298074 -0.3212594 -0.08831261 0.35352594 0.20749776 0.26162905 0.36123097 0.13409944 1.1104405 -0.08213178 1.1110383 -0.6074625 -0.056682304 -0.4005802 0.5419099 -0.53918684 -0.2880325 -0.4620012 0.5476796 1.0085038 -0.049023606 0.20365836 -0.08956963 0.3247934 -0.17551649 0.3792453 -0.35209328 0.10322648 0.7898735 -0.6084734 -0.37891567 0.12865132 0.26794326 0.116093084 0.31621417 -0.3333057 -0.7727977 -0.28731796 -0.05782434 -0.84518456
74 0.1619587 -0.35634798 0.17809027 -0.2067249 -0.4454977 0.4110349 0.24443373 0.2548154 0.30073273 -0.1391234 0.30335864 -0.081005916 0.044925395 0.33769575 -0.1161414 0.4684201 0.25678945 0.41421825 0.22114445 0.21799959 0.1303296 -0.20224047 -0.31157374 0.26298368 0.40310407 -0.33786282 0.04374184 -0.19386837 -0.22211733 -0.01654015 0.021121748 0.013763122 0.99948514 0.193144 -0.07157847 -0.21252441 -0.29083374 -0.49635828 -0.74709916 0.0017082017 0.09720763 -0.91293216 0.5509134 0.10295721 -0.49942315 -0.4416187 0.08178013 0.041783232 1.1374208 0.124989904 -0.37140056 0.6469044 0.9069771 -0.23468444 -0.41005117 0.2249329 0.5938809 -0.36006334 -0.16794907 0.21418315 -0.46417254 -0.018240057 0.51872563 -0.11006264
75 0.17027871 -0.34709883 -0.34440002 -0.21053196 0.10144775 0.40274698 0.1450564 -0.057279073 0.1784913 0.24717277 0.22721289 -0.40654513 0.18033902 0.38861808 0.07506194 -0.3016343 0.29249606 0.15721108 0.38928485 -0.020801404 -0.12850693 -0.016448833 -0.30469358 0.22557692 0.3551487 0.24380791 -0.13455078 0.098143265 0.07145759 0.34880432 0.2398995 -0.28104922 0.5453595 -0.17845981 0.8470894 0.044964176 -0.5763816 -0.18494241 0.35977083 -0.5948004 -0.12419415 0.2569592 0.8592457 -0.20619018 -0.2570853 -0.5533578 -0.7925109 -0.54023033 -0.119031504 1.0619726 -0.6889191 0.5615336 0.49488002 0.35020742 -0.506589 0.70121735 0.6807076 -0.6391634 -0.15379709 0.47063705 -0.13584237 -0.15527421 0.28381205 -0.00756971
76 0.25924537 0.38914904 -0.16213036 -0.2714793 0.15023623 0.31013438 0.12457762 -0.1673148 -0.24465357 0.18143262 -0.25047126 0.41521186 0.23838733 0.18404679 -0.43321273 0.06533603 0.3785057 0.050963763 -0.42458302 -0.4168864 0.37276176 -0.23986311 0.38571072 -0.02937153 -0.39511305 0.15155242 0.0623578 0.28695875 0.29109076 0.2630778 -0.2991455 -0.15174085 0.022064053 -0.94594973 0.47431326 0.5423479 -0.43910715 0.16391212 -0.53951734 -1.0776016 0.08539085 -0.121381715 0.26264733 0.7634633 -0.6460128 0.107592896 -0.6886185 0.26586878 -0.1004225 0.7412967 -0.57499266 0.31797886 0.8091624 0.6728521 -0.83377856 -0.02916748 0.15620387 -0.59417516 0.73594457 -0.587248 -0.3687803 -0.04511618 -0.21075615 0.026524587
77 0.10067185 0.3261851 -0.038960416 0.17534673 -0.27536535 -0.29274783 -0.052921407 0.37397468 0.32359132 0.005867519 -0.2772523 0.27505785 -0.373189 -0.21729168 0.3773163 0.24689247 -0.33968002 0.3680664 0.2884674 -0.06412277 -0.08422247 -0.26332468 0.13142659 -0.31013077 -0.1572035 -0.10448579 -0.100979306 0.31149578 -0.37001008 -0.078857884 -0.33176863 0.3576537 -0.14081807 -0.50037724 0.98141634 0.5122066 -0.5966664 -0.27063733 -0.2909398 0.28280556 -0.7707237 -0.0021616016 -0.29733092 0.0757038 -0.54478186 0.61208516 -0.11008793 0.038135324 0.15228975 0.5803412 0.22279547 0.1930991 -0.28209874 -0.18250588 -0.735133 0.4983478 0.71874714 -0.043909535 -0.11377447 0.20659086 -0.8949912 -0.81873405 1.033372 -0.5340046
78 0.2995461 -0.31730065 0.11340347 -0.27556878 0.34885424 -0.01088924 0.16803247 0.044567656 0.20561647 -0.5014353 0.47803307 0.22357148 0.14412667 -0.33844355 -0.21262743 0.22278197 0.054994658 0.14355287 -0.22496866 -0.34111255 -0.2774793 0.17457269 -0.4012382 -0.23640153 0.32397303 0.019400066 -0.25359353 0.059123483 0.28376567 -0.3413896 0.23744419 -0.16559753 0.33584198 -1.0553776 0.77707815 -0.5713652 0.18359381 0.022899322 -0.6925173 -0.19256873 -0.81277573 -0.23475228 0.9226575 0.03924867 -0.57105213 0.38973176 -0.95464057 0.034268674 0.65307117 0.6283742 0.63617694 0.21019287 -0.12732327 0.23945972 -0.7734317 0.8830551 -0.025439523 -0.11292542 -0.40480006 -0.51549834 0.12369408 -0.010528522 0.46245492 0.11291833
79 0.27618253 -0.32208496 0.09028746 -0.26632002 0.17521195 -0.3743685 0.4140645 0.11298412 0.05431467 -0.43126547 0.104085155 0.2178822 0.3011307 0.45354638 -0.40973258 0.20246938 -0.36355793 -0.24188489 0.3980053 -0.45789292 -0.20177068 -0.13748792 -0.10507853 0.038466778 0.12968081 0.23471192 0.26902518 0.35853297 -0.104555905 -0.3459403 0.030800939 0.13358265 0.32169646 -0.88379467 0.31764877 0.10730033 -0.047700502 -0.24447359 -0.49797013 0.15188837 -0.7315635 -0.01467589 0.6216888 0.4024634 0.28653184 0.36471727 0.023413075 -0.6312414 -0.15913683 0.5743921 0.5026159 0.1683631 0.31483284 0.32101634 0.13481778 1.0516448 0.6362101 -0.2752946 -0.1263373 -0.009627244 0.09196841 -0.022609018 0.5374134 -1.0618955
80 -0.32878214 -0.35656905 -0.09149441 -0.0029341527 -0.35019708 -0.3241992 -0.22990194 0.42394528 0.077879995 -0.079713516 0.17531663 0.2624567 0.25630453 -0.15815328 0.04975462 0.49802226 0.46694353 0.14366992 -0.119618736 -0.0044914084 -0.12679125 -0.08802222 0.5162036 -0.14222498 0.39277333 0.353577 0.21580392 -0.10805654 0.21524893 -0.42439064 -0.2752267 -0.1507605 0.33175322 -0.4196377 0.65946954 -0.36599895 -0.13221058 -0.51258934 0.44788966 -0.6144728 -0.6357066 -0.017057503 -0.46631902 1.0096275 -0.060233675 -0.20497271 -0.06904657 0.3829368 -0.30578858 0.6354641 0.5450199 0.6721155 0.8419334 0.22218296 0.11496978 0.3844631 0.671877 -0.8944262 0.5968161 -0.62549424 0.058584243 -0.82881343 0.087318316 -0.30069262
81 -0.42637444 0.14831346 0.27042627 0.1222851 -0.092680655 0.23040868 0.193877 0.1687815 0.012536495 0.04819459 0.3138991 0.34209692 -0.12371197 -0.06814363 0.29457256 -0.3300766 0.22012082 -0.05655411 -0.17898978 -0.072477505 -0.18319035 -0.41973108 0.20047258 -0.21359722 -0.11946473 0.47180152 -0.356051 -0.21306002 -0.48617584 -0.45788297 0.23975027 -0.011774645 0.9110081 0.062591106 0.4315101 0.49388847 -0.0777348 -0.378351 -0.076681286 -0.8460832 -0.24750331 -1.1013079 -0.19933677 -0.15416376 -0.99433994 0.4870676 -0.95174706 -0.2702562 0.24439421 0.3465979 0.215891 0.17456171 -0.06788596 0.2122505 -0.7302114 0.15279804 -0.01045632 -0.05791664 0.79437405 0.37218663 -0.055289045 0.114145696 0.7460771 -0.071701154
82 -0.2522159 0.4252278 0.28864536 0.007626339 0.10608614 0.1475617 0.07731052 -0.32904428 -0.25592467 0.37902802 0.23153098 0.094569124 0.21064202 -0.34013632 -0.36446702 0.43493247 -0.017485688 0.09939142 0.19921528 -0.16251455 -0.30719325 0.07196425 0.36577892 0.16819929 0.35565186 -0.08689015 0.28833306 -0.51493794 -0.0026936433 -0.09193761 -0.120696016 -0.26614207 0.506481 -0.0069465293 0.30036455 -0.17598794 -1.0551358 -0.90162563 -0.5208837 -0.20184182 -0.025669642 -0.3714649 0.7187556 0.67929256 -0.21191631 -0.38038397 -0.32905796 -0.17198274 -0.11501549 0.5508159 0.64514464 -0.04033389 0.6780385 0.83318764 0.25595614 0.17556697 0.68623406 -0.2969325 -0.4107202 -0.29887217 0.375668 -0.22966333 0.45841634 -0.8082148
83 -0.109838925 -0.20253241 0.19764178 0.07690721 -0.12636411 -0.4357227 0.24808109 -0.087063424 -0.0035647918 -0.14979878 -0.50033015 0.2053199 -0.22740865 0.3135479 0.26215103 -0.040498037 -0.25852823 0.4197733 -0.36734223 0.3790731 0.353879 -0.104560204 -0.39492145 -0.33888334 -0.01713586 -0.096653424 -0.4829233 0.30827725 0.2352783 -0.1626897 -0.11566815 0.4177951 -0.03021622 -0.8667964 0.6438497 0.67527485 -0.31444633 -0.009368078 0.45299047 -0.7645805 -0.68716407 -0.63809156 0.14109494 0.47120416 -0.746923 -0.25086868 0.2161682 0.36736608 0.43670377 0.34114066 0.3178032 0.13084725 -0.24161841 0.5855022 -0.12233618 0.08800057 0.0024641869 -0.32916734 0.017907092 -0.7000244 -1.0822028 -0.81382704 0.8306586 0.13627312
84 -0.039793182 0.113470934 0.45082697 -0.19866222 -0.21238038 0.5615979 0.3348902 0.18287165 -0.36296496 -0.3363809 0.37078196 -0.27238947 0.15577102 0.2883552 -0.3689053 0.15133448 0.05205377 -0.026195524 -0.16636905 0.4177559 -0.021544058 0.1683949 0.05903678 -0.015377624 -0.20643261 -0.27412286 0.22450767 -0.14984511 -0.23338729 0.018781353 -0.0035360313 0.2761722 1.1698091 0.012949794 0.1322806 0.5207275 -0.12686482 -1.0628123 -0.045249503 -0.27728614 -0.3409152 -0.12686211 -0.15128443 0.22018188 0.039585084 -0.52137446 -0.39699584 -0.50799 0.63396287 1.0570772 0.38683164 0.32427558 -0.33255038 0.019697677 0.326268 0.02730137 0.7550623 -0.020405311 -0.2624335 0.10157924 -0.39998648 -0.5811154 0.7211311 -0.7280948
85 -0.088386424 0.26138872 -0.11040548 -0.34662795 -0.3233933 -0.27708006 -0.23122843 0.37650236 -0.028791584 -0.08837322 0.11649046 -0.26125875 -0.033536572 0.262269 0.35692564 -0.25177225 0.45481038 0.16489989 -0.29799047 0.2417567 0.33759117 -0.1537337 -0.40069932 0.059212916 -0.116860636 -0.28390008 0.17535345 -0.1505047 0.19304618 -0.16783063 -0.23027828 0.35658386 0.29562187 0.29738632 0.3330412 -0.15963371 -0.19943799 0.0063723885 0.19215944 -0.56415296 -0.85821223 -0.62995094 0.093003325 0.75562555 -0.088526584 0.5765766 -0.23956722 0.16909817 1.0340096 0.5528615 -0.24545525 0.55913925 0.4329118 -0.5176279 0.09201259 0.9331633 -0.45977417 -0.43431512 -0.43429482 0.34743816 -0.71049654 0.043772347 0.819376 -0.79358596
86 0.19998269 0.21480463 -0.16330948 -0.31233153 -0.034120534 -0.008703166 -0.17405753 0.38028765 0.12940502 0.16801576 -0.21752393 0.13653062 -0.40292308 -0.43674275 0.010797538 0.15496711 -0.42814144 0.38164872 0.2370001 -0.10025399 -0.036780972 -0.41822803 0.21920063 -0.22648834 -0.072419085 -0.36706913 0.22333188 0.2544912 -0.4977277 0.25707826 -0.19770104 0.39381945 0.043457806 0.08952375 0.73117864 0.17335445 -0.76200855 -0.31984738 -0.76326346 0.16899118 -0.9946353 -0.038149152 -0.18218254 0.12523276 -0.11029625 0.7021154 -0.61811566 -0.12217535 0.38497236 0.2202059 0.15200408 0.6188649 -0.1648499 -0.43680468 -0.9133573 0.51086825 0.86083853 0.021260211 -0.09401196 0.3411333 -0.12674859 -0.7773906 0.90814865 -0.9862006
87 -0.048453014 0.38379902 0.009693388 -0.30539432 -0.1458777 0.1971543 -0.14570542 0.3678 0.25324586 0.10267781 -0.3697895 -0.01866919 -0.14504907 -0.27064154 -0.3544227 -0.009884075 0.13277422 -0.18124983 0.091625065 -0.031470723 0.2827579 -0.34413242 -0.05351181 0.28568625 0.22926053 0.2555796 -0.15901563 -0.40355527 0.30988744 -0.45524982 -0.42974833 0.37436286 0.052803885 0.038807627 0.046672255 -0.6283595 0.16966921 -0.27250314 -0.7836883 -0.80244 0.22035086 -0.099241436 0.73129797 0.056818914 -0.6242319 -0.33958182 -0.6246205 -0.20719096 0.9326379 0.24500561 0.062624305 0.8076543 -0.38341883 -0.08302718 -0.2831368 0.24393642 0.7779447 -0.40040624 0.3771692 -0.8696778 -0.5520083 -0.8774313 0.035566237 -0.6878535
88 -0.16217856 0.076283254 -0.1184777 -0.20592627 0.42635524 -0.13745248 0.19721054 -0.009614174 -0.41227186 0.12063973 0.3975724 0.27856427 -0.2973425 -0.37791258 0.017770259 0.15812048 0.046977088 0.3740615 0.29092756 -0.031052912 0.22596624 -0.14489669 -0.27514327 0.21793737 -0.3489896 0.41447344 0.1398145 0.31127176 -0.35406807 0.26491553 -0.05923658 -0.041673902 0.20360214 0.19770838 1.0535539 0.13305597 -0.82732886 -0.30172616 -0.15650298 0.20432231 -0.24528004 -0.66084903 0.67486584 1.0683274 -0.7821035 0.31532773 -0.010174332 0.38238615 0.67224985 0.49017042 -0.40590352 -0.20131685 -0.24211015 0.46692726 -0.2774689 0.04735092 -0.22453345 -0.3343129 -0.34181985 -0.08604384 0.06006826 -0.7703023 0.47235677 -0.19060145
89 -0.3843381 0.27984044 0.1807504 0.2051913 0.27209017 0.11235771 0.12410932 -0.34614366 -0.055442065 -0.30989146 -0.29858777 -0.22829938 -0.227313 0.25752813 0.19389762 0.022966215 0.13798285 -0.2032086 0.43687394 0.25309998 0.11753026 -0.2255493 0.41177168 -0.10316858 0.3221962 0.29766983 0.3235917 -0.22734308 -0.30665973 0.22876002 0.36201394 -0.1935397 -0.2755213 -0.7468719 1.050981 0.37365377 -0.97256184 -0.72872066 -0.31145945 0.110623345 -0.6090325 0.05277785 0.8922494 0.6476617 -0.75346166 0.2348381 -0.33462554 -0.2300041 0.42533723 0.042300224 0.10735001 -0.21689382 -0.40114757 0.102343835 -0.8820188 -0.109582014 0.27160925 0.062228013 0.37449202 0.24734508 -0.7469752 -0.7423955 0.90364194 -0.07893227
90 0.26603046 -0.26857328 0.11178471 -0.095025785 -0.23876849 -0.1880463 -0.04696806 0.07424523 0.24477339 -0.24839203 0.42579132 -0.30935073 0.27592233 -0.42016757 0.32914513 0.42641985 -0.028704345 0.18785255 0.39275634 0.15774186 0.2139953 -0.31672344 0.28378385 -0.09120046 0.069830894 -0.16950943 -0.2664982 0.24047771 -0.32873207 0.13878421 0.12367874 0.351453 0.3573549 -0.4208677 0.20547967 0.523327 -0.1485543 0.2291797 -0.7572756 -0.4973996 -0.87529993 -0.31968814 0.20049955 -0.12854286 0.18523948 0.4847798 -0.25929514 0.35865662 0.58091235 0.023187112 0.059048466 0.9827571 0.36351258 -0.5884677 -0.2007204 0.56498486 0.62943405 -0.43447506 0.040580735 0.16062434 0.07462541 -1.0060796 0.5119869 -0.9869124
91 -0.33807603 -0.110430986 -0.056722406 -0.09676104 0.5047802 -0.0013648355 0.15280332 -0.21869092 -0.23461397 0.31986213 0.29775378 0.29767466 -0.30087012 -0.17341028 -0.08635574 0.36235496 -0.015094308 0.38566792 -0.00057526375 0.22738558 0.46264765 -0.02628523 -0.19303434 -0.16586985 -0.3269918 0.25036064 0.274351 0.2789054 -0.3956173 0.20789616 -0.0619462 -0.33631018 0.3073698 0.07972926 0.9864185 -0.39024642 -0.9368018 -0.11115022 0.20454527 0.19815473 -0.07271278 -0.67157745 0.8004599 0.85772496 -0.45520023 -0.15194847 0.16225344 0.16143245 0.9394261 0.19893965 -0.50701255 -0.21938041 -0.13263407 0.63391554 -0.58799255 0.39429474 -0.07171501 -0.69818234 -0.3211895 0.20412791 0.04370463 -0.9702149 0.18279898 -0.38015753
92 -0.39162773 0.16407402 0.15017626 -0.18924655 -0.054335006 -0.21974501 0.20748046 -0.34037757 -0.03187375 0.49081913 0.13713211 -0.29006428 0.22941785 -0.36002994 -0.35972616 0.3746301 -0.3048695 -0.20733553 -0.04457248 -0.34537825 -0.35791713 0.061156742 0.038292997 -0.24279834 0.23484112 -0.2765856 0.27832684 -0.32032564 0.22171135 0.15157434 -0.28962854 -0.11406726 -0.02649119 -0.14551653 0.06735965 0.083264045 -0.9569956 -0.47829708 -0.2721755 -0.4964237 -0.2055778 -0.14177854 1.0788529 0.82767063 -0.97356987 -0.34654126 0.16030645 0.10501671 0.48375714 0.4736582 0.35426536 -0.15911126 0.6179379 0.41299286 0.27731347 0.0019764076 0.825971 -0.5683534 0.22315744 -0.4410151 0.03603058 0.04970716 0.23010434 -1.1766759
93 -0.2728237 0.032371875 -0.23171724 0.07911219 0.32558557 0.38630795 -0.101588845 -0.2253452 0.21354042 -0.44719332 0.047141295 -0.2775292 -0.28221062 0.24902388 0.45228744 -0.36153045 0.015141358 -0.08501833 -0.18165928 -0.24843943 0.11796323 0.06610886 -0.1307837 -0.43249494 -0.17474388 0.33138186 -0.40490684 0.16431594 -0.13506417 0.051715776 -0.31880075 -0.14081259 0.041784465 -0.6904871 0.25093782 -0.5370943 -0.8035714 0.2501936 -0.6125624 -1.0455073 -0.43683696 -0.4976488 -0.25711453 0.03916213 -0.76729214 0.59615076 -0.52301633 0.325486 0.7362133 0.45113868 0.21868889 0.23193964 0.62078345 0.16999146 0.12038776 0.30412605 0.34700716 -0.7324687 -0.06291899 0.07509383 -0.047642242 0.15138353 1.0816126 0.079515085
94 0.30879986 0.16209057 0.2513649 -0.314808 -0.3506379 0.3301623 -0.037871312 -0.3592355 -0.2508462 -0.032127414 0.26910922 0.32786474 0.36549377 -0.35296914 -0.038778912 -0.2503763 -0.27494788 -0.3242799 -0.07480685 -0.27204618 -0.11510421 -0.46426964 -0.0910479 -0.33657682 -0.3864359 0.3245043 -0.25344437 -0.18000925 0.31495732 -0.18888547 0.13428298 -0.04430298 0.06639485 -0.70092034 0.54552555 -0.40019703 0.1111915 0.034104243 -0.19582874 0.17323333 -0.9595232 -1.0672469 -0.070608355 0.47144392 -0.22704315 0.3452658 0.11221534 0.34480676 0.3459353 0.64947194 0.056238346 0.1540108 0.55808395 0.16780372 0.11121361 0.29911494 0.89644414 -0.700112 0.7721021 -0.76764005 -0.27766466 -0.07654425 0.2050947 -0.4604269
95 -0.04340116 0.37918347 -0.08241536 -0.34343502 -0.07085207 -0.18983524 0.3409223 0.25779474 0.37481987 -0.23933628 0.3781608 0.07801254 -0.48031706 -0.052250978 -0.4692073 -0.22352009 -0.036196988 -0.08466223 0.25712842 0.34273684 -0.24182805 0.19522269 0.22882803 -0.14659698 -0.01479715 0.27221635 0.22963996 0.34130204 0.40907484 0.35589936 0.013252073 -0.42847425 0.019716037 -0.71914536 0.8933239 -0.39638773 -0.519227 -0.7179049 -0.54484284 0.1420445 -0.07338195 -0.8283656 0.36016935 0.055338383 -0.0047759195 -0.35216302 -0.05618786 -0.80759454 0.879429 0.2942349 0.5605091 -0.060342308 0.930986 0.58853054 0.036236454 0.9645549 -0.19877957 -0.17362894 -0.15509719 0.042919945 -0.2739784 -0.6118978 -0.2012081 0.24177362
96 -0.17057437 0.24416095 0.13547328 -0.06116116 -0.1690371 0.36350903 -0.27961615 0.33874437 0.33067 -0.042260062 -0.091709465 -0.1571019 0.24250636 0.07473785 -0.26793563 0.31495875 -0.1868456 -0.3474183 0.26853603 0.15170977 0.3030381 -0.36740586 -0.1132653 0.41281953 0.12550105 0.39982983 -0.48986956 -0.10643852 0.23335563 -0.45064405 -0.34143516 0.29305238 0.12997594 0.28201365 0.021479804 -0.4557294 0.25984165 -0.3806256 -0.7292272 -0.5013433 0.31340784 -0.35446933 0.9550515 0.186707 -0.13122489 -0.37232116 -0.9464827 0.25662398 0.95986843 -0.07352348 -0.20425932 0.4316285 -0.15967712 -0.116344616 -0.64625317 0.41128474 0.32091498 -0.28803867 0.56889397 -0.80477864 -0.7010436 -0.9575118 0.608859 -1.0055103
97 0.25532717 0.2904076 0.12999807 -0.41590717 -0.25503334 0.30921763 -0.33006755 -0.22083434 -0.13264917 0.2942272 0.43381006 0.4554163 0.42430496 -0.25484318 -0.03565323 -0.18778981 -0.39822605 -0.17626658 0.03716768 -0.025938256 -0.10007316 -0.37603977 -0.18531859 -0.34974107 0.02171029 0.09823487 -0.1769326 0.049923267 0.39495838 -0.04404532 0.21085684 0.13829105 0.13002682 -0.4303702 0.76735055 -0.6585838 0.2352324 -0.14011054 0.16567132 0.1478949 -0.6601383 -0.93260825 -0.11124738 0.46095794 -0.16634966 -0.106671885 0.21349436 0.4022245 0.41354033 0.43506345 -0.31803134 0.19831887 0.36168462 -0.17286637 -0.058512356 0.4781121 0.8109165 -0.44828027 0.4900148 -0.7724259 -0.0018462301 -0.39319324 0.47646174 -0.6911908
98 -0.38923725 -0.020523591 -0.42216936 0.21632163 -0.17284003 -0.3358047 -0.22180071 -0.30629194 -0.4402479 0.22074895 0.2959481 0.28022644 -0.3311956 0.3324874 0.36405385 0.0032996219 -0.28169835 -0.041852266 0.25033706 -0.05680647 0.09709334 0.20263796 -0.035645578 0.33150136 -0.4126871 0.399729 0.17305212 -0.32923877 0.1051383 0.0058314195 0.35681602 0.07457603 0.011561599 -0.114517845 0.38535586 -0.122287996 0.20846683 -1.0808535 0.0053304275 -0.06615258 0.070394084 0.09923386 0.78400314 0.97674453 0.41144192 -0.043111872 -0.7722906 -0.7799125 -0.10041013 0.24857602 -0.44317585 0.41374385 0.64766353 -0.22245623 -0.57047963 0.85558105 0.6461867 -0.9254767 0.39074436 -0.8184457 -0.48428228 -0.5501407 0.1139777 -0.20346422
99 0.22114609 -0.2150573 -0.34056422 -0.13763204 -0.37021294 0.19041933 0.3090111 0.29806653 -0.17200412 0.393002 -0.35309198 0.29785952 -0.26026824 -0.3792131 -0.4353481 0.07850179 -0.10636977 -0.3216847 0.061805826 -0.19159748 0.3555014 0.015751094 -0.36076885 -0.30622452 0.3849337 0.04092875 -0.025152525 -0.010948852 -0.45706856 0.15870106 0.15032808 0.12733217 0.36150575 -0.59007716 0.6736102 0.21816997 -0.821028 -0.67391527 0.26048595 -0.13942133 0.26363498 -0.7038166 -0.20792542 0.015462405 -0.98814565 -0.43464577 -0.24275294 0.18783231 0.8689625 0.66666645 -0.36047566 0.19598967 -0.5176275 0.41811886 -0.43152213 0.101925194 0.41862762 0.2407737 0.14305829 -0.780861 0.05723402 -0.84202987 0.4089081 -0.62320566
100 -0.005666594 0.014270649 0.36857578 -0.0340735 -0.25919357 0.5947675 0.27762586 0.16737802 -0.14894387 -0.12645273 0.41730207 -0.13032489 -0.07649678 -0.01629404 -0.42478788 -0.13524278 0.15949722 -0.3418214 -0.31387973 0.4515738 -0.118430465 0.26348713 0.14544336 0.46870723 -0.29187727 0.055731017 0.17520908 0.0052839527 -0.30584025 -0.25110635 0.04086831 0.20242748 1.0816379 -0.042387914 -0.03204982 0.10613156 -0.5101985 -0.95052207 -0.33433846 -0.14810482 -0.36203063 0.063649416 -0.20501393 0.1307897 0.25645787 -0.44281694 -0.9437195 -0.11256021 0.82257706 1.1707256 0.5146455 0.52273756 -0.3500798 -0.35197505 0.36245027 0.3277174 0.4029249 -0.26969394 -0.05924055 0.12289225 0.0073946584 -0.54523456 0.5499928 -1.0345064
101 0.30037332 -0.057966255 -0.036382966 0.0044052624 -0.32957286 0.048100326 0.037300818 0.13535026 -0.09158147 -0.25413546 -0.38295197 -0.36223915 -0.4202143 -0.27259794 0.03321899 -0.25699744 0.09275899 0.22112717 -0.07377682 0.004624202 -0.40797868 0.22565803 0.29223 -0.32156557 -0.4187738 -0.068989664 -0.31716728 0.31051317 0.3690027 -0.22640893 0.22971545 0.20400801 0.64007 -0.42291334 0.17888846 0.09911893 0.028257295 0.0044571203 -0.62940663 0.16286942 -0.6974952 0.07995883 0.04177147 0.35450655 -0.7130618 -0.22576436 -0.6391569 0.40153685 0.34795535 0.39911887 0.28350002 0.7123907 0.9464634 0.78846204 -0.18324415 0.03865181 0.73484904 0.097124875 0.6641669 -0.6631308 0.13098225 -0.7895635 1.007265 -0.097958334
102 0.13868363 -0.029535819 0.06737847 0.12332329 0.074737154 -0.26549956 -0.30579522 -0.26214838 0.194404 -0.2661883 0.27045918 0.22222127 -0.34402397 0.1480209 -0.43862966 0.054943178 -0.28529727 -0.11509118 -0.36779448 -0.29948378 -0.14512989 0.22299384 0.07018857 -0.29927486 -0.15799986 -0.25259984 -0.32059392 0.45440826 -0.34483957 0.18993382 -0.29224837 0.12547779 -0.021170957 -0.0487722 0.10809269 -0.4976537 0.121042445 -0.03829765 0.24424675 -0.83430755 -0.009521172 -0.85024273 -0.15538104 0.6259849 -0.18491162 -0.06728753 -0.27330688 0.06639644 0.8661364 0.8485535 -0.6551056 1.0299702 0.5373083 0.41354778 -0.7728626 0.22247474 0.022632152 -0.38072923 -0.14871769 0.08834072 -0.20657308 -0.47157466 0.14391367 0.020201135
103 -0.058760453 0.4671864 0.368834 -0.37722853 0.3699622 -0.22254954 0.06053855 0.19626425 -0.24671987 -0.06440297 -0.13431613 0.040454563 0.37232053 0.30969077 -0.17431545 0.2715693 -0.32760882 0.04819114 -0.20447288 0.04314701 0.30283284 -0.36553368 0.45044792 -0.06083192 -0.4064744 0.1467041 -0.110051915 0.26530176 -0.28441924 0.30834875 -0.00025961478 -0.33626226 0.30457965 -0.64105266 0.093205154 0.5766269 -0.19971666 -0.50976413 0.3026873 -0.48372605 0.43589684 -0.8755849 0.8763769 0.7945839 -0.9784731 0.09653831 -0.6840777 0.31915548 0.2748073 0.47577387 0.09642198 0.08821432 0.8347261 -0.14711942 -0.6686813 0.3154842 -0.36385816 -0.81728816 0.13628843 -0.83345217 0.13252193 -0.44829327 -0.17715237 0.19433853
104 -0.094353035 0.24785751 0.29055417 0.15111287 -0.20006756 0.06104491 0.05940967 -0.06392715 0.4123135 0.3753618 -0.20174359 -0.40031427 0.06522626 -0.105575785 0.025493275 -0.30504856 -0.05643002 0.2540219 -0.33724967 0.043139093 -0.3894374 0.43570697 0.45711118 -0.3270618 -0.25011805 -0.17778392 -0.37531263 -0.29034036 0.22772883 -0.24866273 0.17825624 0.10575476 0.5388651 -0.0346826 -0.029232584 0.42104316 -0.22265892 0.09724609 -0.79249555 -0.34907693 -0.16220197 -0.38004574 0.93779576 0.23013197 -0.60758674 -0.39611125 -0.11395124 0.34638056 0.31956998 0.36080757 0.59396446 -0.09849049 0.9111743 0.6171124 -0.929327 0.01162372 0.5823692 -0.089211665 0.9247602 -0.70847815 -0.17546667 -0.32263878 0.4700221 -0.7493122
105 0.27510682 0.102021135 0.26554206 -0.13764657 0.2742449 -0.22848824 -0.3542062 0.3496837 -0.063882485 0.09183499 0.24970292 0.1486057 -0.004772974 0.10259376 -0.09116107 -0.19548327 0.2983971 -0.16104965 -0.042575117 0.52023566 -0.4170469 0.005243119 -0.32844698 -0.40129626 -0.030956281 0.17255725 -0.2641677 -0.46305218 0.014107997 0.41035792 -0.45112136 -0.118244536 0.8708612 -0.2203664 -0.008874849 0.47656563 -0.5604205 0.091751575 -0.35821277 -0.45587635 -0.9384939 -0.4913709 0.26955456 0.79114234 -0.105030544 0.5862219 -0.078952916 -0.48321658 0.1393019 0.24598233 0.05624052 0.44198987 -0.072435625 0.77224743 -0.70730674 0.8440944 -0.20119166 0.2999649 0.34121138 -0.8157014 0.1268552 -0.23772554 0.58563346 0.08651853
106 0.27341458 0.08471791 -0.34247848 -0.4762443 -0.2504582 -0.19545867 0.086523615 0.257624 0.1383568 0.14230786 0.22580647 -0.4032251 0.011526145 0.18740326 0.32550684 -0.24204141 0.29819593 0.32299426 -0.31400207 0.29063517 0.3603977 -0.20138858 -0.3611283 -0.012132838 -0.3389175 0.05199105 0.12642755 -0.24707472 0.22932531 -0.3416149 -0.36041206 0.036228444 -0.111581415 0.19661655 0.28947136 -0.4799064 -0.31891787 -0.33696347 0.36432695 -0.5178148 -0.52721536 -0.34793803 -0.04992123 0.49869978 0.15397875 0.4684616 0.026765436 -0.30862474 0.9116616 0.62188804 -0.5130485 0.8209834 0.4327536 -0.32794303 -0.49598494 1.1020695 -0.030387515 -0.72898626 -0.5350867 0.4641082 -0.5693025 -0.059824064 0.7098082 -0.96866906
107 -0.4758747 -0.18753615 -0.054674458 0.027067075 -0.46838456 -0.32869613 0.21810688 -0.25133127 -0.24357703 0.120909035 -0.14589134 0.07958828 0.22897144 0.16388468 -0.13550197 0.090168424 0.29988042 0.103228964 -0.12353118 0.29190898 -0.47432563 -0.2930423 -0.21054952 -0.022210704 -0.34543565 -0.34248528 0.032221522 -0.05282449 0.0035370658 -0.3578026 -0.23479062 -0.36074823 0.46170583 0.0073776483 -0.23011026 -0.33482617 -0.3984958 -0.496204 -0.7163159 -0.91970193 0.1967 -0.3413287 0.8463632 0.6158199 0.11380367 -0.28486425 -0.0986024 -0.760037 -0.18958282 0.7268463 0.3025657 0.94320613 -0.23946536 -0.39062244 -0.8526612 0.5743895 0.6561458 0.034096193 -0.0038999054 0.17985924 -0.5703497 -0.24175021 0.13437115 -0.34337568
108 0.4726249 -0.39867944 0.18072271 -0.36984822 0.1444238 -0.14129901 -0.15467973 0.022650702 -0.3621033 -0.0053002215 -0.059147563 -0.23362587 0.4048242 -0.46487883 0.25899604 -0.0309921 0.0818688 -0.33706406 0.3484014 0.07864769 0.07008038 0.22595727 0.2555771 -0.21342646 0.113548815 0.04880108 0.26881188 -0.21976674 0.2992892 -0.04567102 0.13334808 -0.38861504 0.49774814 -0.026125388 1.005369 -0.13313408 0.053569246 -0.057642773 0.16309644 -0.049769886 -0.3487098 -0.14525951 0.4743149 0.4896379 -0.9336422 0.35097834 -0.14428921 -0.34473738 0.712718 0.29800007 -0.12826942 0.24446212 0.21825233 -0.24055944 -0.8362377 0.76574636 -0.20273195 -1.0775205 -0.20788348 -0.5427383 0.27272674 -0.59615237 -0.3047783 0.22675705
109 -0.36220586 0.118587136 0.40341845 0.016731517 0.32205057 0.10780837 0.27364564 -0.19678415 -0.2622673 -0.12747946 -0.32934183 -0.26517606 0.092209674 0.22995579 0.1481755 -0.184312 0.17705572 -0.05175228 0.4036624 0.2442858 -0.03420563 -0.16867778 0.23106515 -0.0042009726 0.41515198 0.35956827 0.18991044 -0.03748691 -0.34084174 0.13614203 0.43761653 -0.30340666 -0.29895827 -0.7049967 0.82261 0.2416846 -0.7865572 -0.95024204 -0.61964834 0.1307844 -0.39624238 0.04848873 0.8633689 0.71683264 -0.75614154 -0.30983242 -0.3443384 0.22761405 0.6226429 0.10519093 0.02220537 -0.08948853 -0.27913097 0.30032706 -0.8674028 0.030529737 0.19541632 0.016901089 0.11334867 0.22074188 -0.6728019 -0.54865664 0.6396136 -0.19531898
110 0.15769167 -0.123496786 -0.27448034 0.13692921 0.4634755 0.13838428 -0.25985947 -0.1004503 0.4440781 -0.019249989 0.3050387 -0.38801998 0.010021791 0.17600444 -0.485137 0.10945478 -0.15287559 -0.26631728 0.23716474 0.24189077 0.0021746957 -0.22382957 -0.21067362 -0.2757915 -0.07090067 0.5034699 -0.43461108 0.22156516 0.2395925 -0.17790936 -0.25781527 0.30743825 0.07935684 -0.011806362 0.5669634 0.022362925 0.29497486 -0.21180041 -0.37379235 -0.44751465 -0.60746044 -0.9659942 0.7115233 0.6401611 0.30102906 -0.16111457 -0.9669034 0.29295626 -0.03654113 -0.063746564 -0.005439633 0.23772332 0.12266474 -0.13875987 -0.8239097 0.2106394 -0.16706772 0.1783673 -0.022497525 -0.2474201 -0.5664348 -0.8246391 0.9808713 -0.9119876
111 -0.45872477 0.25367105 0.27994016 -0.14740217 0.14122903 -0.29885608 -0.01341196 -0.06759712 0.43094507 0.11133122 0.08838643 0.05062997 -0.23732318 -0.3635579 0.2373951 0.3159162 0.073862016 0.21661527 0.056913752 0.47600445 0.39589024 0.071534015 0.35791823 -0.24058898 0.15531465 -0.10638671 0.29709488 0.36895916 0.42148378 0.14966434 0.29168007 -0.1779671 0.769705 -0.24487573 0.33018705 -0.5109941 -1.1379104 0.04322472 0.37209487 -0.9655182 0.0886587 -0.8968873 0.5021899 0.55424714 0.16272317 -0.42071348 -0.1178406 -0.7580408 0.9782595 0.1901925 0.2709323 0.7038355 0.29484037 0.77650183 -0.58201057 0.47574925 -0.41952285 -0.55535656 0.38378218 0.33307302 0.15779354 -0.44452396 -0.110962965 0.033237617
112 -0.019781645 0.48981744 0.18133603 -0.013478082 -0.10818143 0.013114765 0.22390448 -0.35697302 0.202671 0.22990301 0.058840286 0.13314115 0.25455764 -0.31258318 -0.15897961 0.4169329 0.01328512 -0.008570751 -0.15620923 -0.34449357 -0.44643843 -0.07712581 -0.11845239 0.09483547 0.33989152 -0.2737695 0.17042753 -0.4347764 0.30617768 0.10405855 -0.23244642 -0.35591567 0.12255442 -0.02525811 0.15336889 0.3969975 -0.9764558 -0.9306509 -0.294103 -0.48637605 -0.30698973 -0.5434619 1.0161375 0.84382373 -0.10482896 -0.5148337 -0.23368181 -0.15798578 0.2924777 0.5056436 0.46135613 -0.17227204 -0.13014762 0.7285347 0.21538563 -0.10403758 0.49556416 -0.35178432 0.023923632 -0.66022325 0.036650304 -0.37827408 -0.025605017 -0.83784944
113 0.22805108 -0.34399894 -0.15865509 -0.24225752 0.037578374 -0.12430029 -0.2866215 -0.22466564 -0.3585526 0.12423174 -0.2227621 0.118696734 0.45407334 -0.4185989 0.2778942 -0.24791856 0.23848438 -0.4666589 0.4209667 0.18269071 0.14301684 -0.13954777 0.3483579 -0.011155182 0.03587602 0.16353811 -0.1048647 0.021597264 0.36916634 0.17553402 -0.08680047 -0.270076 0.31810257 0.046667952 1.1134466 0.3020164 0.2633405 0.06926356 0.22511645 -0.20757854 -0.32642245 -0.6229063 0.17642073 0.70164967 -1.1573488 0.02155228 -0.8491621 -0.44675028 0.16978468 0.077408895 -0.12225586 0.08934779 -0.07477818 -0.37302873 -0.84323055 0.677633 0.19772647 -1.136833 -0.26724753 -0.14025189 0.07439917 -0.4507599 -0.22065763 -0.030418726
114 0.35005146 0.0204686 0.23709813 -0.2161365 -0.33696714 0.34258926 0.14589614 -0.16342789 -0.16960068 -0.2578104 0.12903121 0.2500551 0.15981923 -0.37955433 0.0062756124 -0.039007302 -0.18190354 -0.40355077 -0.28324658 -0.32576293 -0.2546746 -0.40818363 -0.105782226 -0.27941042 -0.44586444 0.19763757 -0.13752568 -0.38215545 0.09016226 -0.03553554 0.24100915 -0.05958695 -0.057391092 -0.91482097 0.44469318 -0.11251612 -0.06003189 0.112047404 -0.5687765 0.1967325 -0.8324248 -1.1412894 0.07881428 0.5932282 -0.54095405 0.5998494 -0.16388851 0.06547193 0.10952459 0.7022248 0.28413942 0.13295458 0.4999796 0.24077068 0.32079473 0.03246316 0.70300764 -0.93135935 0.80572116 -0.6202558 -0.60391164 -0.031239592 -0.030653158 -0.3669805
115 0.2523382 0.25228795 -0.2187679 -0.0308586 -0.22547401 0.36301327 0.16597025 0.11672035 0.16882914 0.062206015 -0.13016054 0.2307544 0.22485827 0.088934004 -0.09580879 -0.2529473 0.39504597 0.01827424 -0.41485462 -0.47150338 0.25358987 -0.1742746 0.38064387 0.22504231 -0.4643917 -0.16121328 0.1861687 0.34998176 0.3950832 0.18207365 -0.1554703 -0.35615438 -0.013799426 -1.0919865 0.95290875 0.2899481 -0.19695446 -0.14123969 -0.7222379 -0.93633646 0.036178656 -0.06539246 0.114277095 0.6157815 -0.6871744 0.14930882 -0.0320759 0.49656162 0.23435326 0.75785816 -0.40684372 0.40436718 0.9018022 0.69025886 -0.27426952 0.16362353 0.7057251 -0.5048284 0.71304566 -0.31104854 -0.44891948 0.12001164 -0.22583885 -0.006173468
116 -0.050608743 0.034777626 -0.013551958 0.09175426 0.07960283 0.33535567 0.32137927 0.22302942 -0.3747155 0.09943209 -0.5411992 -0.16880383 -0.28995785 -0.40914628 0.3152993 -0.00059333985 -0.3812102 0.07702093 -0.34106693 -0.2754719 -0.14509115 0.2359433 -0.482242 0.2894303 -0.12097366 0.08726153 0.19730109 0.40486717 0.054421265 -0.20810789 0.2802428 0.047605272 0.776993 -0.21344244 -0.15225136 0.23782831 -0.65909266 -1.0457158 -0.76000553 0.24409914 -0.93516254 -0.36098734 0.5915191 0.15100528 -0.85248125 0.5594915 -0.29726264 -0.051689334 0.35307863 0.6636466 0.29711092 0.25281292 0.005114499 -0.43958604 0.37526843 0.017138677 0.5611048 -0.50393105 0.53743404 -0.09846083 -0.85084856 0.059330445 -0.2943965 -0.959877
117 0.066527925 0.4009012 0.46672422 0.27942708 -0.176277 -0.30883974 -0.007638336 -0.4374962 -0.1804453 -0.14341229 0.03510698 -0.31643274 -0.28162184 0.040701393 0.35795695 0.28164044 0.18786404 0.20737693 -0.064207055 -0.19387454 0.21351549 -0.31792718 -0.119025975 -0.11814106 0.084974304 -0.059858695 -0.011221579 0.46906233 0.45462662 -0.3064835 0.31598738 0.29936206 0.5754828 -0.13354808 -0.12360542 -0.6094118 -0.31265974 0.20064725 0.009307223 -0.4324458 -0.7566855 -0.23218063 0.14997171 0.74525 -0.7208507 0.23501906 -0.92208266 -0.7514385 0.13602245 0.19775167 -0.2678143 0.6458811 -0.30917707 -0.09566111 -0.49543235 0.1006971 -0.3858029 -0.8681163 0.8882214 -0.144593 0.17110378 -1.0076368 0.51601547 -0.05588375
118 -0.3987779 0.41532484 -0.16096057 0.32246548 0.15727237 0.26098728 0.12433425 -0.3175336 0.09809137 -0.3325691 0.07134533 0.09257042 -0.39189857 0.18111308 0.16090846 0.24659309 0.18622193 -0.45375913 0.34924495 0.21094565 0.16492061 -0.13453598 0.34740373 -0.05346418 0.16183044 0.19092757 0.37050727 -0.33538824 -0.26047835 0.24666877 0.44724068 0.07864207 -0.26846856 -0.9930915 0.9730829 0.3392596 -1.058912 -0.11857579 0.035314266 -0.009752714 -0.7282421 -0.29988167 0.93382776 0.40852335 -0.8645339 0.68315923 -0.30415344 -0.73593175 0.5668474 -0.10495491 0.22402933 -0.06505218 -0.24946904 -0.2602545 -0.69229686 0.07360194 0.117507525 -0.11600193 0.62611246 -0.049671166 -0.44252852 -0.6145314 0.8039204 0.113617174
119 0.3794169 -0.024130113 0.21723013 -0.038958106 0.19199695 -0.25587332 -0.2773833 0.24438953 -0.04862162 -0.03725979 0.0060022157 0.17262354 -0.07490222 0.11919195 -0.40928188 -0.18342303 0.19901998 -0.2310511 0.27383268 0.4523658 -0.2694935 -0.16905703 -0.34077975 -0.2783026 -0.18779452 -0.23518103 0.070689514 -0.048755422 0.33209172 0.41394728 -0.34420192 -0.23429097 0.5035023 -0.36736006 0.046361122 0.53700715 -0.52043796 -0.23446625 -0.65981764 -0.6978267 -0.8691474 -0.4613116 0.057661258 0.96801543 -0.5059136 0.46364295 -0.44664586 -0.12678379 0.07747131 0.10003106 0.07077535 1.0568337 -0.2706947 0.7775278 -0.8175326 0.8496561 -0.23216416 0.16541955 -0.26404044 -0.8407794 0.26586232 0.024586247 0.14392388 -0.08395915
120 0.35973907 -0.34552085 0.2877977 -0.13106845 0.39720014 0.14962354 0.32352445 -0.09161093 -0.30429745 -0.37623933 -0.32975024 0.40021548 -0.4430708 0.021115033 -0.20824352 0.30699548 -0.4253871 0.26216978 -0.0038876154 0.061168145 -0.20231925 0.38103035 0.41899562 0.16428974 -0.11444725 0.1748409 -0.07980682 -0.13338822 0.06106741 0.2062818 -0.30703434 -0.26892462 0.030363124 -0.6000755 0.040077113 -0.17006044 0.07342572 -0.2807996 0.32843125 -1.0375166 -0.6953146 -0.11416936 0.116970375 0.9119342 0.07397599 0.6122694 -0.14188884 -0.8396526 0.2838258 0.538466 -0.28523925 0.8807704 0.12855119 0.68787026 -0.16475452 0.91273284 -0.20373352 0.32954252 0.4246384 -0.12334049 -0.9094025 -0.9507289 -0.22917932 -0.035982214
121 -0.22406322 -0.28451023 0.35431015 -0.06491147 -0.021239933 -0.10068132 -0.21657984 -0.35114977 0.19817573 0.075229496 0.25202918 -0.28063938 -0.04811553 -0.31806788 0.35170788 -0.4273187 0.32778355 -0.0067045167 -0.07960846 -0.13929397 -0.011573772 -0.040472876 0.45873085 0.16951051 -0.2033745 -0.034344036 0.38307166 0.11830232 0.045958523 -0.2667217 -0.28099918 0.38496587 0.3490118 -0.8442765 0.038179 0.48702127 -1.0027015 -0.0953135 -0.71922284 -0.03369183 0.04144113 -0.17897648 0.9240301 0.589247 -0.48631957 -0.098021105 0.2113911 -0.56190634 0.22942461 0.34947595 -0.6523519 -0.077900015 0.2199933 -0.2423789 0.45076963 0.018923776 0.1308991 -0.72878945 0.27494803 -0.51878357 -0.15312694 -0.9492158 0.65243334 0.09934798
122 0.367472 0.122618146 -0.38046044 -0.45583668 -0.1327818 0.09852332 0.3609077 0.026262444 0.074514806 0.24560338 0.18599015 -0.35604665 0.2667244 0.23256443 0.21211956 -0.054359056 0.15754811 0.5028496 -0.118842505 0.21919958 0.3510924 -0.31346574 -0.4355473 -0.25449413 -0.14340527 0.10211949 -0.038571298 -0.2704192 0.14327581 -0.3562499 -0.09136947 -0.304824 -0.10887441 0.058374606 0.19121495 -0.40689844 -0.36461398 -0.18776041 0.012259385 -0.13332635 0.073648065 -0.3615362 -0.052565277 0.38736463 0.060724534 -0.011139143 0.22145385 -0.6931763 1.0790663 0.5179112 -0.5674438 0.95429945 0.80763733 -0.33567873 -0.8183525 0.79692256 0.47487673 -0.7001332 -0.31972843 0.17649554 -0.6349206 -0.07110362 0.5216119 -0.84916157
123 0.17024377 -0.3457999 0.12265521 -0.32369953 0.26152784 -0.4129363 -0.008349377 -0.14439821 0.17329118 -0.44124153 -0.12172774 0.44747964 0.36259785 0.36279544 -0.3784285 -0.011152408 -0.3965453 -0.030083243 0.3391859 -0.27976084 -0.20283337 -0.13886154 -0.30899644 0.25062722 0.24060556 0.37910366 0.097697824 0.13952692 -0.028480664 -0.28023052 -0.1636961 -0.07101266 0.8216982 -1.0955689 0.24676596 -0.4870665 0.00010215441 -0.23356406 -0.700193 0.08973919 -0.8308699 0.05737551 1.0428102 0.06826631 0.15189876 0.5198491 0.018910788 -0.7035685 -0.1892362 0.6627132 0.25787538 0.11977994 0.2803252 0.4616371 0.16461208 1.0978721 0.3285495 0.12246671 -0.10028666 0.025027068 -0.026673827 -0.11588511 0.72626096 -1.0675877
124 -0.28327766 0.3186088 0.27611914 -0.33404025 0.18254016 -0.19240414 0.32044417 0.21130854 0.48782566 0.24213372 0.04733243 0.02317223 -0.43792462 -0.21339767 -0.11642112 0.005693141 0.11251202 0.24783473 0.14667368 0.46113384 0.19755296 0.19990155 0.26536492 -0.0019580987 0.13987729 0.12033821 0.258175 0.3739871 0.38007742 0.16844274 0.03617503 -0.2913205 0.47385144 0.12450417 0.8355421 -0.5158209 -1.0613667 -0.57984805 -0.2161243 -0.69381565 -0.14094763 -1.0870594 0.28522122 0.46836388 0.33100802 -0.2504349 0.15693444 -0.7521076 0.9638956 0.2520194 0.4377682 0.44688368 0.6770347 0.5056131 -0.09180172 0.61837274 -0.4339304 -0.38408545 -0.20723718 0.14260365 0.03220351 -0.28188235 -0.08509107 0.056173336
125 0.08113811 -0.12361562 0.25262403 0.36689267 -0.09331149 -0.30098072 -0.42809504 0.29563445 -0.07198693 -0.3020639 0.06784825 0.052509032 0.091294035 -0.38355112 0.33046046 0.11418663 0.07170211 0.36103436 -0.34818798 -0.0050469544 0.33502468 0.033457484 0.20150027 -0.3855131 0.36089337 0.46281278 -0.07814798 -0.034565266 0.1880608 0.20098697 -0.15435588 -0.3694651 0.8449259 -0.89419353 0.6713427 -0.07903571 0.35707247 -0.89112425 0.4586951 -0.1346213 0.040395107 -0.30904227 0.20468035 0.76203203 -0.044094395 -0.20586388 0.14123166 -0.2466767 -0.040337548 1.0912608 0.43306932 0.07903836 0.33257622 0.5125106 0.15840884 1.0568559 -0.21356356 -0.93192506 0.69972485 0.0155577585 -0.22946973 -0.19969839 -0.19822241 -0.26736355
126 -0.20314251 -0.36094755 0.1901297 0.29301777 -0.33681267 -0.30353102 -0.10067621 0.35553506 -0.1633096 -0.23392601 0.18342109 0.008512547 0.07712095 -0.27581123 0.19204977 0.3764203 0.4375712 0.14643484 -0.28157476 0.0792125 0.24727504 -0.074328005 0.35675392 -0.3268512 0.37056565 0.39838883 -0.07383262 -0.16311736 0.2764697 -0.13438593 -0.3322409 -0.421857 0.65367526 -0.6004361 0.8922905 -0.49804845 0.24844897 -0.6556441 0.50089043 -0.41324311 -0.34937578 -0.15931065 -0.32136655 1.0333343 -0.15769845 -0.3863747 0.17965756 -0.0017541684 -0.24128525 0.8360277 0.5463649 0.40249747 0.6657234 0.54670715 0.019421583 0.795331 0.097233914 -1.0936685 0.6446201 -0.3020512 -0.13732359 -0.43631938 -0.26829544 -0.39271298
127 0.34705964 -0.33744264 0.42911944 0.13513196 0.19396937 -0.28964674 -0.3773806 0.31602523 -0.27839956 -0.06804411 0.201513 0.14675349 -0.0063686958 0.2162833 -0.12221081 -0.21502079 -0.016641898 0.23168957 0.23199399 0.3904442 -0.28046644 -0.29022652 0.060175378 0.32005078 -0.03203517 -0.39464864 0.30807245 -0.21337952 0.3978316 0.005896436 0.24159244 0.006589292 0.23092644 -0.07133401 0.94450563 0.63112587 -0.4773707 0.07787839 -0.13527197 -1.0060062 -0.7556655 -0.24703956 0.3833432 -0.024528008 -0.023281101 0.26500311 0.0052357605 0.05818067 0.11821109 0.6523569 0.10876347 0.9512319 -0.05483676 0.5681598 -0.15169089 0.20506774 -0.114007995 -0.9633769 -0.015148455 0.07155095 0.27232495 -0.15039746 -0.17207393 -0.3815291
128 0.083791845 0.20978081 -0.056327183 -0.19986512 -0.3216997 0.25113845 0.0025084992 -0.5252191 0.20371728 -0.11284617 -0.35114753 0.094952516 -0.07466734 -0.23180377 -0.39941472 -0.338429 0.376615 0.39185777 0.45220777 0.22325696 -0.06581498 -0.006101171 0.2811504 0.3065736 -0.20427887 0.1678793 0.09186907 -0.41087878 -0.48001692 0.22745256 0.17304093 0.05701952 0.6706317 -0.046277888 0.33903706 -0.085135646 -0.45360604 -0.7140457 -0.8396463 0.040625576 0.4108577 -0.34353712 -0.13951051 0.6542941 0.22718754 -0.076278746 -0.35427928 -0.46877122 -0.24446352 0.4969184 -0.39214075 0.65833306 0.7162316 0.5514552 0.32323155 0.45533755 0.83561623 -0.7950677 0.0761135 -0.027373409 0.37412608 -0.5530895 0.98487014 -0.337537
129 0.11711016 -0.11517631 -0.06630693 -0.5051337 -0.29219112 0.27731597 -0.23232563 -0.5299814 0.31890073 0.061608706 -0.07536315 -0.17914023 0.07882113 -0.06684167 -0.21358486 -0.45338485 0.17535064 0.12554266 0.3714911 -0.045376506 0.15895557 -0.3289588 0.49576136 -0.15274268 -0.4087937 -0.21126282 0.043071724 -0.14118782 -0.3876679 0.37382135 0.25066352 0.22967593 0.5627393 -0.22141686 0.6971652 0.35070884 -0.33490455 -0.42917958 -0.9289862 0.1407608 0.38695467 0.027783664 -3.6803405e-05 0.2922895 0.16626777 0.39166087 -0.42114216 -0.5284236 0.061482422 0.35568908 -0.5505671 1.1020929 0.26402834 0.64477855 0.042404078 0.12303688 0.37185502 -0.8991348 0.4139539 -0.19912705 0.24562818 0.018137973 1.1009537 -0.29708713
130 0.049651492 0.34513527 0.34100884 0.08541113 0.3363135 -0.1336021 -0.18768287 0.00043844746 -0.4334304 0.3371054 0.30434728 0.11280206 -0.361716 0.3551648 -0.014181628 -0.06537978 0.40807885 0.21106301 0.30297446 -0.38680807 -0.071066946 -0.25932512 -0.24863829 0.46021795 -0.25058386 -0.22500607 -0.28950283 -0.21367414 -0.15924513 -0.21995598 0.20551611 -0.021191526 0.42408788 0.2513745 0.7546806 -0.6372956 0.022193555 -0.7991994 -0.41437733 0.156914 -0.73727816 -0.027032368 -0.1801139 0.6282218 -0.76222867 0.5787489 -0.96571356 -0.6633168 -0.16674064 0.7855175 -0.63457614 0.23009479 -0.032113746 -0.07747057 -0.6270669 0.25350162 -0.057711173 -0.29696077 0.7428413 -0.48589426 -0.31631172 -0.3864093 0.35867578 -0.16365734
131 -0.25427628 0.20526765 0.34542412 -0.4181896 0.2802882 0.32742694 -0.2957725 0.2698677 0.12765397 -0.1511613 -0.08635636 0.12927522 -0.22793305 0.26257464 0.31696016 -0.20166536 0.23993385 0.37794504 0.23820423 -0.01926461 0.27787578 0.46779543 0.0024990253 0.25291848 -0.30394515 -0.0650628 -0.33546513 0.100446835 -0.15895371 0.055352155 0.22483273 0.25375104 0.26564142 -0.8614046 0.513115 0.43530434 -0.014138286 0.11409387 0.28516078 -0.18050273 0.26933777 -0.68033886 1.0239404 -0.18822564 -0.69313425 -0.017237658 -0.51834935 0.1364521 0.87184244 0.62342256 0.4673813 0.29136306 0.24265957 -0.33392695 0.17617662 0.30138135 0.5429895 0.15183856 -0.39096016 -0.25338906 -0.74722254 -0.30803055 0.7301993 -0.97425854
132 0.23152722 0.25691316 0.108547665 0.27809393 0.1170909 0.25382826 0.2145865 0.4104418 -0.13511162 0.06451022 -0.44497696 -0.20494835 -0.0594355 -0.3520757 0.26237345 -0.0847417 -0.0036541626 -0.13253675 -0.48706248 -0.30178198 -0.42160013 -0.22583649 -0.34290144 0.15445696 0.23294246 0.11932445 0.2713419 0.4129822 -0.28268528 -0.1743589 0.44843394 0.0517486 1.0910003 -0.0063084876 0.07637305 0.548186 -0.9105308 -0.86130404 -0.3654665 0.3015655 -0.9015213 -0.3893224 0.44925043 0.47783074 -0.9074119 0.5154564 -0.4446602 -0.51557004 0.92230976 0.07136755 -0.36691618 -0.24001993 0.34197307 -0.0755216 0.3899062 0.056062605 0.7079582 -0.4655188 -0.06455457 -0.012527215 -0.58992505 0.041136507 -0.09472514 -0.8225109
133 -0.13621363 -0.2962673 0.25463778 0.31236702 0.10285049 -0.086857274 -0.291415 -0.31682596 0.18121192 0.19878301 -0.012212737 -0.38964123 -0.012721458 -0.36858788 -0.16925666 -0.454176 0.23097327 0.32658705 0.25681105 -0.2817049 0.3166611 0.34967873 0.32345578 0.33469597 -0.0061664274 -0.4142483 0.10993108 -0.059822332 -0.10048373 -0.20463306 -0.22128631 -0.024185527 0.0792102 -1.0545114 0.45515758 0.48573393 0.029892981 0.052671544 -0.8564635 -0.28039613 0.15065464 -0.1514148 0.24281664 0.08214543 -0.97139627 -0.49948725 0.09749651 -0.6087885 0.3991413 0.18851466 -0.62457025 0.04896283 -0.031973697 0.20137751 -0.12539224 0.2887232 -0.29308698 -0.6488829 0.5192708 -0.4571626 -0.14420402 -0.97716737 0.7236757 -0.23336606
134 -0.32022783 -0.2867531 -0.4174557 -0.19406378 -0.1444748 -0.3913136 0.24725705 -0.31479788 -0.32507175 -0.42773512 0.33845615 -0.2246942 0.2786265 -0.07003747 0.27214727 -0.4208835 -0.21544266 -0.44887665 -0.47146416 0.2552466 0.05288662 0.27917525 0.037513055 0.1942386 0.28778684 -0.05619731 0.22093914 0.1366666 0.15433004 -0.07306196 0.3556388 -0.2515201 0.01680791 -0.67470455 0.10846501 -0.30709445 -0.5686492 -0.9018065 -0.66513586 0.3363767 -0.21094231 -0.53751904 -0.25690946 0.26598194 0.38715592 -0.04083585 -0.28726667 -0.69035167 -0.32549646 0.32211235 -0.33435622 1.054845 0.93239737 -0.35422486 -0.032847483 0.39652646 0.28160167 -1.0740292 0.552428 -0.67599386 -0.81691825 -0.07529808 0.60497904 -0.217241
135 -0.014149306 0.1463481 -0.07169723 -0.13992202 0.0090765655 -0.096627876 0.30628613 0.15622127 0.26515505 0.076863095 -0.29392818 -0.073670596 -0.5172884 -0.35139698 -0.3376888 -0.3358922 0.12719445 -0.36678565 -0.06311103 -0.1269466 0.31018218 -0.14756396 -0.28438136 0.25847226 0.49048525 0.27518478 0.2722581 -0.31106833 -0.050492056 -0.19246255 -0.4552958 0.15250203 -0.082257144 -0.8372066 0.08714604 -0.54778403 -0.021149047 -0.9213188 -0.2635381 -0.88233757 -0.49056616 -0.23827209 -0.05756218 0.12122183 -0.8815174 -0.5986155 -0.31191048 -0.12530446 0.9834406 0.42799562 0.4634555 0.22365573 -0.26350462 -0.3073775 -0.3060068 0.36729783 0.7241597 -0.06724179 0.021222344 -0.81018525 -0.6403369 -0.64378446 -0.0147074945 -0.86471045
136 0.20157291 0.43714452 0.33367634 0.21975464 0.2521502 -0.10143544 -0.023289807 -0.20953944 -0.32591894 0.24644452 0.09712628 -0.2987594 -0.39575502 0.3518242 -0.0015570832 0.37381276 0.27378997 -0.029103175 -0.030490162 -0.389114 -0.05870549 -0.44420332 -0.22859083 0.40982434 -0.0061516 -0.23602457 -0.37744114 0.17285495 0.35801944 -0.3134443 0.095373906 0.35865623 0.89369863 0.026406001 0.44105926 -0.49612463 -0.16667156 -0.3505455 0.061764967 0.097585775 -0.9624236 0.16488145 -0.12110752 1.0013406 -0.46523 0.6681043 -0.7176591 -0.6192712 -0.15018609 0.5945959 -0.59173274 0.5246709 -0.3966096 -0.26305398 -0.47153455 0.11121502 -0.13531835 -0.7925069 0.8188392 -0.24059203 0.03603017 -0.92162836 0.79255897 -0.12772678
