223 64
0 -0.03656546485031032 -0.059615122452895554 -0.02380965164169827 0.030384369318626626 0.033406314946183416 0.056987015247157644 -0.0431861802310819 0.004840325842046174 0.019337517056698637 -0.03307373294723115 1.7954085829273904e-14 -0.008452631413475223 0.007338478513643375 0.04905380952017014 -0.005442193236527355 -0.007220134636857843 0.053611429341929584 -0.004516592301142628 0.0065312056008327846 -0.0012981205635857708 -0.07717717272599772 0.01093198599719386 0.039785479313262075 -0.010476202363303292 4.16073204375712e-14 0.07252241255956893 -0.06050507528964166 -0.06153769919593265 -0.05757503529187733 0.09713559252210051 -0.03380482990101846 0.02312754185699048 0.08010597687369822 0.09897179842357229 9.177020790487871e-15 0.07706363244337636 0.024024275253415488 -0.044050713850105616 -0.06000494620058017 -0.005989349555252622 -0.0077175647323726735 0.03574902771725818 -0.07290236989715855 -0.027362753823905996 -0.020356349399637222 -0.011313692250689355 0.11514511896702333 0.05642382531802186 -1.0933460084239498e-15 0.013252198635655925 0.052762514723960235 -0.009454360844915216 0.04722737663166242 -0.030870061839777346 -0.01554435208090008 -0.06565911049153077 -0.081000185669084 -0.017275921090213198 -0.0842372350371369 0.20015281204516142 0.19533897251725416 0.03712187746258349 -0.04122347546499922 0.006917127621816392
1 0.018017163050481618 -0.07719084299993947 0.1420828793948698 -0.0010039610749594358 -0.013058790499884005 -0.05872757972231319 -0.014107436517303115 -0.02407764177934692 -0.020200593287828528 0.006458711707899344 -5.388379486702841e-13 -0.08036108540568826 -0.004943531704638649 0.03371591944563642 -0.025233374687903702 0.025173304745704506 0.00037649167719770775 0.007499188123738001 -0.002439588049255539 6.097855909819711e-05 0.011821288392225208 0.0026931236175634296 0.09386041253874393 -0.04035883619956198 1.0572113836757022e-14 -0.012783862727218973 -0.031629220265887006 0.09918998531294097 -0.04941497327099183 -0.009957275362825068 -0.08580409868819217 0.017083444827796276 -0.12692627320431316 0.012425087749830753 -8.647610523818684e-16 0.04043638061606933 -0.01701415478217839 -0.07835717203192526 -3.012618395609307e-05 0.1759725429707435 0.0009255068049519034 -6.237310423203562e-05 0.021161835505386056 0.014947742583274576 -0.0033545680482348532 0.11364338774851543 0.055742113836798224 -0.009751818088678473 -3.959104476956561e-15 -0.013242442043261709 -0.011547045716745008 -0.08320073858515813 0.08016868505373331 -0.02547297422250548 0.10757927625036524 0.062085706660539364 0.014194970986549734 0.00763429973847245 -0.004219314908690816 -0.018853624870130058 -0.0005738012852066864 0.07786696058573979 0.10457839663149397 0.010729822704876333
2 0.05783161138429301 0.007734557593915866 -0.032333456928515296 -0.01088778244275875 -0.07380082544514986 0.09304283677244693 0.09640569575788237 0.06064166612969182 0.035286705630721255 0.16246638111028947 7.40129039501206e-13 -0.128955540551964 0.006435798719561521 -0.09223367478241164 -0.02941722090765843 -0.028006823606264983 0.026357189888668486 -0.018900627312881512 -0.010774740408552122 0.00010841656863793826 0.021039504928990465 0.009461690479025934 -0.026369065261776226 0.007887776094424091 4.519163094525149e-15 0.016104100053606404 -0.06690069903045173 0.017182206079218144 0.05927474107691505 0.06963140390514816 -0.0657291454618585 -0.16947623595816114 -0.0041122509517982405 -0.055957525778146465 1.180527138353675e-14 0.06602172645654752 0.03180891311924318 0.06836262218878052 -0.0044612798906273395 0.012726196030360236 0.0762833665467957 -0.018740673634525664 0.00853057083634292 0.06249971631106697 0.03778043704222381 -0.06840419006436926 0.14105371597819163 -0.048230094167664245 2.8737296245712864e-15 0.11970596818570305 0.018549105741555747 -0.11306161596877926 -0.06407075750531435 0.10160970629194309 -0.0481047249259989 0.06562784345380662 -0.01818895361652616 0.06034172140675457 0.014494447560844519 -0.16947412771913897 0.0655651334550803 0.0659828499594795 -0.15519972799439824 0.023075385187170724
3 0.011064214427761796 -0.13224884122816233 -0.06069671908314289 0.01612567015097559 -0.20416430179236478 -0.04649515233826298 0.04045002238163463 -0.05270844710897199 -0.06061238518239732 -0.05783301666925888 -6.370342119830872e-13 0.055328483840237495 0.19389259211170698 0.06232301802758693 0.001174979653620946 0.004011912908500474 0.031276723513194146 0.004535195537837246 -0.05734653828984799 -0.00042941846953839063 0.00871215387795147 0.0534964225140993 -0.0053491243526309065 0.0038280519714044546 -1.2268560265012023e-14 -0.011100249334316215 -0.0009845912101655102 0.0002948932331304952 0.0003233575708261571 0.0015685045570221906 0.005229647476966373 0.07561555713754621 0.001293994639829656 -0.08247957273999945 8.959873351847763e-15 0.0685423262041124 0.02216323368036356 0.04488653010419239 -0.03075447763309556 0.008236295288313192 0.07317682982267054 0.031245052104846887 0.0010152418574725039 -0.002755410966543037 0.0009313256858672582 -0.0022114333636899324 0.006590990006515153 -0.004323291373201518 9.785324374517534e-16 0.009811953293756868 -0.006479240815514611 -0.00905026763184887 -0.010803554865324734 0.0038154217914554887 -0.0007966860387992604 0.004419126190368804 -0.024186781852833013 0.024510989078937465 -0.001942912199035115 -0.03049008040292525 0.016557614054567647 -0.04495907474047156 0.03541553045876155 0.009911149224750167
4 -0.03733851421598315 0.05529099146442926 0.005169026868478854 0.006594682834690394 0.02113912922551009 0.11083665019950281 -0.018240645585025684 -0.02637785976925357 -0.004892139161470503 0.011592962744333338 -1.4183084925732424e-13 0.05483492041601697 -0.002214425562801797 0.04538794212045198 -0.03936367788259057 0.007369140421789563 0.03092679824680252 0.03304365730605041 -0.0033693911731046376 -0.002386788245041195 -0.18221003336518843 -0.017962301924700875 0.04090122400093721 -0.06477237184610499 -2.3443994188476685e-14 -0.04676931928355098 -0.048752053076747806 -0.002799684491414562 0.07077781695017711 -0.10228978503598365 0.09922373093592296 -0.0405262103875168 -0.07487181717866177 -0.09454654920671188 6.1813749406057004e-15 -0.014852929381970074 -0.05471714657599049 -0.07554217393703208 0.12325039306360232 -0.014091248096105695 0.019175116926766527 0.10689499164835754 -0.28560530160114417 -0.08417833014482776 0.025381409272895977 -0.06135795650414384 0.08859077334691479 -0.040810136994863196 -4.267535380648795e-15 0.002707524725467968 0.05942997690430475 0.05857030781008643 -0.049860920608635666 0.03722216645277298 0.08971826367451521 0.08798466936318318 0.06815275707346967 -0.004173327356527622 -0.01576412732166398 -0.0852744340333558 0.011233221600639883 0.10830334151247027 0.052769756573001945 -0.002913317322374849
5 0.010635016754055277 -0.022272485075574944 0.11172856243102479 -0.0033328554218101905 -0.007963701993773985 -6.415422690301607e-05 0.0624263877284583 0.11530152943084954 0.07330650660928867 -0.04549270382511935 1.8181782474541617e-12 0.1402002942562267 0.00974181980859432 -0.05957326784268272 0.035473393996701005 -0.01053116511903534 -0.010222831820820814 -0.06831400479596149 0.005653611232241976 0.0003138205696316118 0.022478408510037597 0.003404116061575572 -0.09695999100533448 0.046341140583273155 1.4349859320932787e-14 0.04107484883983051 -0.01639021033863355 -0.1700235496562128 0.0317896762260211 -0.028617714624049058 -0.08576319864106113 0.022928350795763264 -0.17694903176939927 0.019244222466904833 1.1680266210942348e-14 0.05331086452024451 -0.01583175077417809 -0.07235234713284774 -0.0030170345850001317 -0.02517693185546743 0.004942109977326107 0.0037408748457564475 -0.054159253900595845 -0.029655015740367476 -0.0023336331759272874 0.014421418573009602 0.016459481024053774 -0.026967130356436265 1.959025979666043e-16 -0.12725147656199487 -0.18185891469994425 -0.17956747676252055 -0.010805421663506742 0.08993803649347516 -0.15447113320738345 -0.06234292253909837 0.11269263974447746 0.05195464603180108 -0.0414866207310527 0.08505365903319587 -0.04803262556355824 -0.007119489793133191 0.016562954199892715 0.0007129332456443814
6 -0.039343558845226625 -0.0058957796462711185 0.14382094362076325 -0.0012636550041354654 -0.013778037813833716 -0.06255812173481129 -0.009639675516501332 -0.015275502418964344 -0.015408795987533763 0.002083070590536607 -4.079695136268484e-13 -0.08099505711600388 -0.004941763205080553 0.03518600400751327 0.008559436668978406 -0.0502058266914463 0.019598630562029797 0.1245012282223958 0.013833276988420792 0.0001024304050628708 -0.0013327816248476117 0.0001165775389484516 0.02689986701514624 -0.01848019400541515 3.654447262278337e-15 -0.008950379999814457 -0.016170650422293698 0.08006572022041003 -0.04020201701874372 -0.0028837483538813307 -0.06853231759183796 0.014905189171114035 -0.1035668462300227 0.01285744280380183 9.588830318789682e-16 0.03545586142836046 -0.013469550483524674 -0.06527407678524295 -0.001972028409304743 0.0654861465013866 0.011205603905109123 -0.004862336283928003 0.02896846215508895 0.01983370008135121 -0.003870406036984397 0.14909415146651162 0.08145021301408369 -0.01554264273670292 -7.817713023349765e-17 -0.003312097157125039 0.04353778174901021 0.22297966780308037 -0.20153662793939445 0.0698146312127746 -0.13795955927229828 -0.04332687650485632 0.025202327203626564 0.028010107889924033 0.0011632402684518567 0.041909020925467784 -0.008798876650967177 -0.06124650108175178 -0.05987229894974667 -0.004783255485244973
7 0.12431745436543616 -0.02494225140059223 -0.02465211141153102 0.03147100062519708 0.03238104266181317 0.053556818617688205 -0.04751432529869042 0.005257748861146768 0.01785012552252694 -0.0314588965047815 1.0306112341141269e-14 -0.007682769670410393 0.0029789079981316214 0.04625152312514069 0.0033709137884762137 -0.0008896547281264876 0.06936637544730209 -0.005583859538093293 0.0037385559445709178 -0.0022644464373831907 -0.07808686986592013 0.013111577794155897 0.03676285245908251 -0.009422804317832394 4.116210117046635e-14 0.07263473259853181 -0.06949627947640731 -0.06626034578178931 -0.07265123104847862 0.10346780350326928 -0.03488285958663419 0.017960739939880847 0.0673656245030155 0.08098426612253787 3.2512921709941174e-15 0.05741606043190491 0.026315481043556598 -0.022011275655956817 -0.06879623781578174 -0.0022290790685274725 -0.005530314760685615 -0.017410262364175345 -0.029683169361296818 -0.051228385306196264 0.10496187397605862 0.007552108848849616 0.06579270154124671 0.021446574261063552 -3.3204876032015333e-15 -0.04823894563020766 0.09375901409465139 0.002691673796008163 0.09555732233230309 -0.08771364264552683 -0.10918563588879808 0.008931311799646614 -0.11616763870480384 0.13561209084627238 -0.05089980558074209 0.0007566686848765977 -0.33002100433073006 -0.06535683379159632 0.009414383444543378 0.01642679190724972
8 0.037205194888415435 -0.008610199322155992 -0.056256704132108544 -0.13536108912244468 0.023418987499006935 -0.10833220364644891 -0.11181854461655005 0.021089381389501612 0.09099574659031505 0.143799121164218 7.108746494910676e-13 0.07282480193475942 0.01173183212537963 0.08928823077849792 -0.006679806371545968 -0.013992768996071327 -0.08188151327506356 0.019624581991845372 -0.13671507698315605 -0.00019803488467329294 0.02112883395277349 -0.06076831998030029 -0.03175995843102015 -0.020958595357104124 3.593045429234444e-14 0.04561281017846403 -0.1108784664099601 0.037919084457486166 0.10945396971950941 0.1045427924806875 0.020416086186465312 0.10227331736141533 -0.03436856089043248 0.07271663292655424 -7.245404590965786e-15 -0.10407843444089317 -0.013824169905177803 0.013550334247106152 0.0662855381865494 0.006243400793390928 0.049407861373765787 0.019586413117922533 0.08617296080363479 -0.15067011460302787 0.02808844345114696 -0.028960595099733248 0.06934032837743923 -0.09708639081392134 5.631023917750954e-15 0.1180934509006655 -0.1135909222384473 0.028832498395465343 -0.006566895903375229 -0.04338538109872323 0.018693936526975184 -0.014198430160278613 -0.011627470613584785 0.0013748643312763084 -0.1467123180301708 -0.0009369767378186305 0.021473960864362318 -0.07878998680022752 0.05758160327581091 -0.009747618666371284
9 -0.044771158678623475 0.06611647671981177 0.14199039539569358 -0.0016515659943797528 -0.013662286928697304 -0.05785792280938084 0.003487722842108099 0.00993337244967379 0.001131107515241529 -0.008472476028677829 -1.911529663491223e-14 -0.044769637108278026 -0.0016782426379587981 0.012872328099616488 0.0372185515028823 -0.07058264743442845 0.010141865694792022 0.0022800406039080014 -0.011805398440315256 -0.0005515533943656801 -0.030790198970059832 -0.002964212028323161 0.06023708651146059 -0.03331237979987077 -7.966334406478266e-15 -0.02579140349825602 -0.00623959595722962 0.1493495401383128 -0.058071765418056434 0.0113158367464397 -0.05413293896806423 0.011203274919507336 -0.05095860311891307 0.012514089417146225 3.721560491345935e-15 0.01746443384317161 -0.002000440541342368 -0.01599932948737584 -0.004682585270878352 -0.17136314849160683 0.022890522475838948 -0.009807561390824119 0.01329261646600049 0.007656552562969019 -0.0005978531906867143 0.038098571290178296 0.02425805785716975 -0.0038178778217759007 -1.1593356391931863e-16 0.011408687944990241 0.042876255688066404 0.16931853494551938 -0.1377767863931458 0.03834695312440887 -0.08344532055380137 -0.025334628224918627 0.002304554707103483 0.017466881652520683 0.015303117130587551 0.029390572555994626 0.008205928355631815 -0.11460129235012491 -0.14735160187823462 -0.014166350738178582
10 0.04453531266065434 -0.1312257597999891 -5.03931008316216e-14 -1.960349990016638e-12 -4.4361475329899195e-13 6.916559924281822e-14 -8.944554847728536e-13 -3.666850592485955e-12 -1.805247469749583e-12 -3.4945505779910066e-13 0.2846592832393069 -6.651207598177096e-13 -2.304464969092494e-15 -8.625915228687828e-15 -5.2782377647562995e-15 -1.5452390783881556e-15 -1.0182379291814905e-14 -2.8265324460465724e-15 2.7181473188135878e-15 -7.62765890825677e-15 7.032092614845145e-16 -4.0226887625184715e-16 7.23850716082991e-15 9.2983891869259e-16 -0.08267691315196504 4.623180409733414e-14 -1.1557184782726814e-15 5.067033278438249e-15 -2.2875062922676626e-15 2.8454194864726366e-15 -1.6449185512249181e-15 -1.751476557946138e-15 4.788431320685927e-15 1.4849178900561953e-16 0.08831969226561803 -1.2992441134712618e-14 3.946204989821229e-15 -1.6199671452758403e-15 -2.1916038610503143e-15 -1.7484880128487478e-15 -4.26067948258142e-15 -1.5215471100431408e-15 3.270981859189547e-15 -1.6483474427499182e-15 3.4366355867748942e-15 -4.653965447567267e-15 -3.3321921891870424e-15 3.0430901715525156e-15 -0.2929965122892939 1.19383833940189e-14 -7.286328831380705e-15 -8.557216322032297e-16 1.6291910092017353e-15 -8.387419708073386e-16 -2.2598620635402405e-15 -7.613281444442437e-16 1.0102470472785608e-15 -3.6058023694746633e-16 -8.491837468376042e-16 2.4246767551227586e-15 4.32252222720507e-15 3.9877074552796275e-15 4.264528400461977e-15 5.836411905647975e-15
11 0.010864312006590935 -0.1840478621164365 0.1405764921888879 -0.0019372490462093086 -0.013572504648842342 -0.05448287050039066 0.012911942846847145 0.027956307116064314 0.012897848086107187 -0.015998417699922243 2.701016021737929e-13 -0.019873872626306917 0.000461528741757684 -0.001306243829798646 0.05719812994557811 -0.08881039291723507 0.0064217621846882535 -0.05765511139070175 -0.023974907689586218 -0.0009250150614874881 -0.05050618812932507 -0.005332848645731631 0.054088312857211475 -0.03100953755680154 -1.1653713841991088e-14 -0.031153106745285642 0.006543250658555574 0.15577426924697976 -0.05217223016040722 0.020068342052208626 -0.02022746385867075 0.0034846366436856947 0.015840230587646716 0.007121033998690528 4.3335240011638265e-15 -0.005509829016965331 0.008790487266855669 0.033547088704586114 -0.004907558647247426 -0.29564813949689633 0.02205270371177366 -0.009193255237904522 -0.006778805265549782 -0.006396718829151612 0.00228526890798185 -0.06944720832300429 -0.033328246177381636 0.007034476619220488 1.3666481468405554e-15 0.014870071271973649 0.015692060196578154 0.02612222661997945 -0.007898176984642196 -0.006753832597064381 0.005247827583006153 0.002420359739360698 -0.01339343075435854 -3.007582110745936e-05 0.013059275648501094 0.0044687924347683984 0.011192096781725171 -0.06897951116623594 -0.09678699527345706 -0.009658235134628053
12 -0.007758513901464245 0.009218088269705313 -0.05642088095653866 -0.1498173407865682 0.029956609553579386 -0.11176460702138988 -0.10474113368266691 0.016565619622002398 0.08338782399134989 0.1361866929085667 6.372368835236897e-13 0.07499840512189274 0.01934257356071748 0.07632733088490659 -0.04869180628358768 -0.03729487809137467 -0.05106468591330839 0.011201105128926832 -0.12311167266067516 -8.815583994975359e-05 0.02162099974828471 -0.0849097626120868 -0.010167872304023912 0.05570815617925317 3.5367248670047777e-14 0.03981916762782404 -0.1262604659807127 0.03908504554127766 0.06856658450003388 0.07623860021226248 0.07474749366233548 0.10029911797955399 -0.07306684748893298 0.11848979261830096 -7.474927876303604e-15 -0.10474031321197066 0.0029856084324479805 0.06257028833357342 0.06506010910178207 0.014255239358400614 0.09759145921664732 0.0009348045169192573 0.03840176360606366 -0.025412594717981744 0.033241440718397804 -0.04410790940896464 0.08602642953423278 -0.06737593893052896 3.606854937247078e-15 0.0631245975575107 -0.10719649221376339 0.049502633494849894 -0.0003639937943066681 -0.09554269505291707 0.06870634580130983 -0.13460845885790138 0.025593659548169684 0.09632541826175825 -0.07815337371557032 -0.010320293710304856 -0.018976837949263775 0.043208868805923194 -0.03183812142927476 -0.02316356842612309
13 0.033469362745480354 0.02054372756320047 -0.03992537096959469 0.059621795832845235 0.04849025018756502 -0.0033420117294945956 -0.043113411418984726 0.011913238356083369 0.032632511476736466 -0.044124875554943675 8.427535061044902e-14 -0.03400555210591339 0.03169586175917633 -0.020137579450686453 -0.002462614079728294 0.0003929333736188599 0.014851289593528922 -0.0015007914437860763 -0.002314550198543171 0.015109616230120127 -0.012532572862838032 0.030271939376249068 0.02367729817302875 0.036931718356886946 8.485315977921994e-14 0.14106912681365094 0.020854417454223007 0.020705053934510213 0.0016306775951597276 0.040073191246179994 0.005766143308901404 -0.0037123233599478393 0.00592840263227218 0.005189501716985912 2.4366604319387266e-15 0.011243316388632777 0.04575274861607266 -0.04473384743743539 0.051649373014132194 -0.008219373118170042 -0.03710992743398454 0.16237917644338498 0.04636860615525765 0.08326470570273076 -0.22734818199883763 -0.04432983893219628 0.007999522627367774 -0.07494855372764318 -3.3415068596279625e-16 -0.00319019313148177 -0.027881698832535287 0.049010961793214035 0.06663252888105654 0.18347808611830332 0.07207235770603099 -0.060627851924701166 -0.04488406532063282 0.020836681559680596 -0.005912758623037905 0.05545230821250784 0.1203769719304222 0.03362859245480361 0.0066843729276129605 -0.004988189527070268
14 0.05261965800920787 -0.02732988680653142 0.01332776392619407 0.008790471097609937 0.022810808932407185 0.11488711241910658 -0.04484458205986946 -0.07065370054194572 -0.028122291518458218 0.028237857438011937 -6.65048814329241e-13 0.06943349682609394 0.0011534592405610504 0.014695417261166762 -0.021661119538681713 -0.0011540268212198218 0.02712994568215727 0.01366007684547478 0.0038103293257576226 -0.0024118553502627035 -0.19339212187262894 -0.0195962310238642 -0.024935302004296653 -0.056627826271908835 -1.8365054211603777e-14 -0.03897580179602641 -0.09466083618449983 0.011669911237128893 0.04472874758711859 -0.16459306496936907 0.02069498811121976 -0.051083455946313 -0.11705408657295796 -0.1518427577253181 3.1246230334161942e-15 -0.07688469442992941 -0.0550770215365071 0.03836567703699123 0.1897138863475061 -0.003395638776520268 -0.023636804878884348 0.14465430896127268 -0.10227469208145273 0.002384716144763702 0.014760768958731406 -0.019734292833234638 -0.02788328926373136 0.028792239280894347 4.332313974179787e-15 0.11938573240937639 0.09236839204815926 0.0021122852163324834 0.019135926103903845 -0.005557869758801323 -0.02076666330933327 -0.0006131568907119214 0.06207573630556367 0.08995525861413682 -0.015978308579655615 0.12907297271898094 -0.06682479374038988 -0.037387054816787786 0.05656232851944223 0.010174929252943226
15 0.011296115546979062 0.08270788252864508 -0.0151320074288035 -0.020919061038868626 0.02476667138126218 0.10986763700166101 0.030347456079436022 0.003086315270572542 -0.009420411916403679 -0.02434305650515414 -3.057123647313507e-14 -0.017712448909950714 -0.02261765307637952 0.13998127346494232 -0.00383898442398528 -0.04471626688623852 -0.03628653354478231 -0.01682188264730895 -0.014819167130053405 0.0006340735531583638 0.015284140928947601 -0.025963839878797832 0.04140209823591837 0.055011588315485166 -1.864951331684916e-14 -0.031210513736379827 0.10202005598824768 -0.05055916502165701 0.002679810365761605 0.03441234616912861 -0.13617017130914585 0.0745786583900194 0.0432637238099642 0.05476638804872173 -1.0950386312136402e-14 -0.07040263320586658 0.009621522702851819 0.020989069444003593 -0.018795197368119833 0.009306358678570801 0.05706235927228194 -0.05811273517515582 -0.12006586735246785 0.05632171993980558 -0.07845137236504306 0.10580276914475227 -0.1526874540466695 -0.052961912029523425 1.2220928422161647e-14 0.24742958593212866 0.001668605569919843 -0.06054428077674112 -0.02131453135978637 0.04373564294263429 -0.015572875139707568 -0.02589205524086873 0.11840718381068893 0.046362087686778686 0.06326759666342878 -0.026944897728704818 0.014920262953778771 0.015411477980569204 0.0015474459581079176 0.007976965531575264
16 0.0935381352613466 0.08335906667328555 0.14226104611977378 -0.0010969830794750732 -0.013189910379150587 -0.05891929989084374 -0.011620674548333607 -0.01917947902805399 -0.017136522862412948 0.004231392329138083 -4.544930440394491e-13 -0.07515867717810423 -0.004308293765570861 0.028870577438810534 -0.0016986184122562246 -0.018245664093930844 0.007847876472638035 0.04769677579877916 0.000568950656141913 6.192247826192242e-05 0.009026480499937782 0.0022035552335921632 0.09023895549665473 -0.040363623574435646 6.0459606402592655e-15 -0.014480115572392841 -0.030185471125804015 0.11087919346627266 -0.054051539879486674 -0.007790205936913638 -0.089762134107231 0.018229279763141086 -0.130763442190256 0.014183296348155718 1.0868375003368969e-16 0.0424073268407869 -0.016945670115167195 -0.07954093667389277 -0.0010260601100076142 0.13510030267507217 0.006193887532856298 -0.002469937569726148 0.025616240299415283 0.01767619306468264 -0.003628391320682602 0.13044179355984598 0.06704689805082048 -0.011951417480112922 -2.0117296386911047e-15 -0.007799006257239374 0.014414735339141012 0.06765062665963506 -0.06126166669263398 0.022818651634341217 -0.03522438617438562 -0.009573205287516862 0.009590750753800763 -0.00023730112839906786 -0.0074632488496464405 -0.014697091301914626 -0.003193149732422599 0.07023671167622351 0.09362997019694853 0.00941564617377677
17 0.09180263583838898 -0.020227675302016922 -0.05783597135405176 0.01440584283701997 -0.17380513219254043 -0.03431510132586095 0.02400470440839222 -0.029351110451072596 -0.03268088984050729 -0.02884481214645055 -3.684940459529051e-13 0.024364750555817716 0.03920320612219102 0.006794001005077397 0.0008319365784953622 -0.0005099113615289244 -0.013954379631857259 -0.0026387711575404024 0.051671112280699365 0.0004576172644158054 -0.01157965114110258 -0.09996037679039091 0.013132224442660996 -0.01077608018263063 3.279188213674766e-14 0.04262054977211957 0.00619204054511005 -0.0023976175203815164 -0.010274533985043298 0.02772975231894013 0.03200369945677663 0.21000826106190815 0.0026289336669778154 -0.12539363028899167 -5.612727195917919e-15 0.039688570781876126 -0.005906863204262089 -0.022311743629330385 0.04138770311008198 -0.01575168178829759 -0.2000826592994391 -0.12346500298297411 -0.02582625463207277 0.14547558800968538 0.04063993139030348 -0.060205076800706685 0.10990632746161325 -0.040555755488891544 3.175726384182013e-15 0.0754125280908744 -0.03993728319090893 -0.04088021033621305 -0.045695944739689506 0.015045760346262479 -0.0029388183130400498 0.015171409981265954 -0.07391153975179979 0.062142048067996114 -0.0037327936407037816 -0.0554945865100254 0.02695950083392012 -0.06850943908127703 0.049557409403246495 0.012529380434452593
18 -0.053202185781610185 -0.05504250457741354 0.03034084546025166 0.009278376659569534 0.021384878385914876 0.11312059847015052 -0.07357853073217546 -0.12650275807692543 -0.05902941945948491 0.055051025280812585 -1.312832371736805e-12 0.0866569674885944 0.006499103074855479 -0.049872279785149694 0.0076890766410892325 -0.0026657388460615485 0.004265586793765182 -0.008727740643349345 0.0037194763817424274 -0.0010059748359456404 -0.09582108710086307 -0.012358526823589143 -0.09854475743017771 0.0004987849294074859 -1.3663320171398531e-14 -0.018709638023292716 -0.02859162207607536 0.0528317135522265 -0.007044846454116972 -0.06905456201839716 -0.028035128309192497 -0.0193286594013423 -0.06197525819836943 -0.07071069604642838 1.7341901506195468e-15 -0.04792880266521018 -0.018063179862444517 0.05853637438057643 0.08800289963439961 0.003155174020056954 -0.02721305713611823 0.0607241115279879 0.08424323138491364 0.055441299417352354 -0.0059359520927542535 0.09583702796654353 -0.041768972545881675 0.04580452210066448 5.3021573843517826e-15 0.08726197984839339 0.022999949045212253 -0.09531657118753582 0.11286088218002743 -0.068819085515852 -0.13357722712627448 -0.16576644067865745 -0.12605583451276875 -0.07152032918955471 0.009923236349205104 0.037662116130159344 -0.005914032600860159 -0.12409000265261706 -0.1215818117379849 -0.0075455665075419886
19 -0.009765360545001349 0.00628948100920688 0.05150462348594486 0.008149436398125761 0.017377368580931498 0.1039936893146697 -0.09297724416432762 -0.16971642591290642 -0.0842257737810368 0.07899289339686306 -1.8399598832810906e-12 0.09561230873333894 0.01087288704934821 -0.11103579480493674 0.03176716181075413 0.002011239008956424 -0.022164811833676665 -0.02074029816306442 -0.002198244320114164 0.0007966002677609719 0.03817000631770143 -0.0011030621968307324 -0.10407639492300362 0.04748177329084442 -9.002252996668308e-15 -0.0004736444092507909 0.05868003653709817 0.05299299972300729 -0.02146044151830155 0.04455357316370176 0.003021317166585016 0.004992450187484982 0.017145946330720283 0.01217531732784331 -1.821784204185307e-16 0.002041932762706713 0.0035535950318432955 0.00804700781159745 -0.0008184845525878819 -0.03863314855229522 -0.001773974798258139 0.0066424302157868 0.021737171097804514 0.01994833071550663 -0.006203797401264047 0.19110441900736339 0.08323271542349756 -0.007197476592005087 -2.5772669025006014e-15 -0.0008872825983623979 -0.002048778242238915 -0.07119600617061408 0.0799879979549963 -0.042959420241918976 -0.04621925919109571 -0.0991798729916926 -0.11133590282880398 -0.13306313865294017 -0.0019450146695765835 -0.12211961133731129 0.032307672279572104 0.05260794605591817 -0.028890470976804895 -0.009486272264930665
20 -0.08256436030455186 0.0008920395207681798 -0.04140749670361826 0.045279710540084006 0.025314892005678408 -0.0036180417817169176 -0.06130495513465468 0.024798521233960993 0.02660477908639803 -0.03142715661923043 1.6870801271238812e-13 -0.026145051001778784 -0.013776105270902126 -0.004891903592638413 0.041341154570972594 0.02814384275376641 0.05822064710298915 -0.003034776587663951 -0.001634563592532707 0.00787346473875146 -0.005868679874015328 0.07893039292759738 0.022839138703287392 0.04992454349548306 4.049828136174354e-14 0.0718699546404429 0.013885974888448182 -0.011115972406665356 -0.08026327274542115 0.09113166515214659 0.05038924965288771 -0.023533160819925087 -0.059544477017559834 -0.07111182852299264 -7.726672706005783e-15 -0.039744943662340604 0.008048619238725631 0.019048220897631443 0.08800786582878534 0.0040320502260837955 0.009509747003264232 -0.04712027202724689 0.024152703500568244 -0.01125843466639172 0.09060703421668984 0.025739898319691822 -0.09457117807821838 -0.11598374262631865 -3.520501089177721e-15 -0.019288237656524043 -0.0024976949369917676 0.03150107591451113 0.02808451345430327 0.10224229137792508 0.04627440920601438 -0.011763235793102534 0.036328712790227875 -0.07817265057149443 -0.004358258681507253 -0.017820861875201016 0.017846362751824912 0.0069288023457730165 -0.029171422261128645 0.18623109448662317
21 -0.01801438417757335 0.07704546406553939 -0.047333380393955106 0.09399082065248182 0.0857314293151783 -0.07301201420557682 0.1100281567967344 -0.10314892319092889 0.07639973545840477 0.009732022964636631 -2.884558131932573e-13 0.00866183637327968 -0.0013492379928564569 -4.1806388385524234e-05 0.0006661470760002741 0.0009091067186218668 0.0065657135350320065 -0.000652279440154474 -0.0016369930015301465 0.024317404185228434 -0.004426244952362883 0.022340554942010905 0.018577384674130247 0.04564672881406808 1.0686543797916341e-13 0.18946881432087767 0.07531063544792668 0.10332491468002875 0.17208210286747175 -0.1948502179840311 -0.05063761268832684 0.029793673101048128 0.06932772157618411 0.10794549857576749 1.8036053074962387e-14 0.14336779362806323 0.034691301922145194 0.028430859731698545 0.1079301797821375 0.004077556270114056 0.010779915958415463 -0.056813297729433054 -0.006139806067672438 -0.02422532880883739 0.07021424571545015 0.013711665273848012 -0.010305919181895672 0.0034005870019285754 2.594001726426432e-16 -0.0013961089195972973 0.0032141186612780577 0.0062730062057270025 0.014177252115293859 -0.06701920491388692 -0.054413350697001386 0.04746655297045076 0.035745159325992 -0.0010118223397536123 0.023377821004962315 -0.07823873634739803 -0.12103165674246917 -0.03568211548217496 -0.00944632677254486 0.2102122687661641
22 0.09184400606099866 -0.12409013165210366 -2.4635223640084815e-13 -2.1563878552014072e-12 -5.521627315257103e-13 1.0175169127989783e-13 -1.0242631999975527e-12 -4.084272170219807e-12 -2.0150058412675495e-12 -3.9926760681500854e-13 0.3190884937551877 -7.305187588703061e-13 7.776098150289318e-15 -1.721135636169458e-15 -7.922945500957272e-15 -1.662305420187198e-15 -1.0264385216159107e-14 7.859870411661899e-16 6.767554716201248e-15 -1.1388740174178428e-14 7.895652398976726e-15 -7.378531303698294e-15 1.88929785658787e-14 -3.566895387915101e-15 -0.2049009489238638 1.1745722366150098e-13 -8.183162315262327e-15 3.961512259828115e-15 8.94481125285213e-16 1.1670008599017262e-16 3.708607932681132e-15 -2.3207364346162955e-15 -1.651498551328166e-15 1.1140867565587455e-15 -0.0828264173082448 7.798249101327134e-15 2.6813472286124294e-16 3.0491706765965717e-15 1.589647381331581e-15 -2.139663786223702e-15 -1.4797894051419528e-15 1.077218318823357e-15 1.2985218904059075e-15 -1.478371798137051e-15 8.0679008364058e-16 -1.720798489950052e-15 8.472930217445917e-16 6.205673016572613e-16 -0.050138251272091296 2.343188943670349e-15 -1.196730002235863e-15 -6.003508368201767e-16 1.0488938586655776e-15 -6.973495751074871e-16 -1.4388655903761205e-15 3.4816542617151167e-16 2.206829884847152e-16 -8.4835527755537745e-16 -2.5720651572661705e-16 1.5281860650889147e-15 2.6162306497316258e-15 2.360017941192332e-15 2.276297071913778e-15 2.9509910966772946e-15
23 -0.033939184827450807 -0.03031005482251302 -0.06113600785914375 0.016391048324387317 -0.20884970275136994 -0.0483830139863702 0.04301054910372283 -0.05635026689950123 -0.06496909053864683 -0.062360101679493 -6.792662532014319e-13 0.06016831597752714 0.21814701002237225 0.0710306751154901 0.0012346364036278357 0.004721820526395988 0.03831759483451747 0.005647922406859368 -0.07407806509189058 -0.000564713103556208 0.011770589831551308 0.07593544285153074 -0.007974923373542005 0.00578850069927252 -2.400637036212511e-14 -0.018018432591707313 -0.0017372676006470202 0.0005459417588689039 0.0008963069240548565 0.0017330994972246025 0.009574606776324216 0.17322071976613804 0.0031474841505993675 -0.21540140297458213 3.063151265231122e-14 0.20160376407769634 0.07344857600841423 0.1538615394304382 -0.11957996869279372 0.03479979230727076 0.347673899220094 0.17474710976320457 0.022957552547231246 -0.12350481480556759 -0.03143811492672328 0.045886431062562516 -0.0806281530009323 0.027726345547404364 -2.67400916667149e-15 -0.05068782001178455 0.02614714415421338 0.026668600622998324 0.029800583095660662 -0.00983179499414922 0.0018902750426669926 -0.009916751814989988 0.049823640617822296 -0.044027838542990715 0.0030168946015893786 0.04468289094048817 -0.022941965556990802 0.060346608803856484 -0.04581570483448535 -0.012337011553895456
24 0.024027422403680068 0.03926301956943033 0.14115183889634866 -0.001913765382395552 -0.01368912986095746 -0.055558259655192635 0.012153045080218687 0.02670238566006924 0.012017486098544784 -0.015651225644650706 2.5068934489075137e-13 -0.02226929078976831 0.00039893803069741477 -0.0011214285128954586 0.059525481820371595 -0.09165997856708093 0.005816794291845081 -0.06998037579550168 -0.02782339996071491 -0.0010325359704835538 -0.055796304443741666 -0.005953247022234803 0.06665351868954088 -0.03701855290973528 -1.2239620566562484e-14 -0.03694095019411341 0.009553063962201278 0.1821192946482656 -0.05744786370302491 0.026218729288835573 0.0027085783156597398 -0.004728624053621585 0.0894708797818606 -0.0016074693860926264 -7.045037324207491e-16 -0.03752078743748528 0.021952081557182618 0.09998451893569908 -0.00046938294990923033 -0.23049644907025682 -0.011860847544680114 0.009164013776023786 -0.048555897033015945 -0.027810106054398424 0.0016477804165507788 -0.08457085175591142 -0.03834087429284262 -0.0010694866331051876 7.899425199243717e-16 -0.03277548435413388 -0.05903154854761925 -0.09106039026121616 0.03876049678143693 0.007220000835830801 -0.011774748612110834 -0.007489959040843639 0.021823107587115528 0.009720365685697226 -0.010202874580129232 0.02112128426414776 -0.01337701232677405 0.00041608070223107536 0.010382774552647772 0.0010828151160476819
25 0.1139953189846249 -0.09107067923408461 -0.05239706125123868 0.030937276586057133 -0.07914474446051047 -0.032194434802095453 -0.05633218200673817 -0.0019510624634721167 0.008286810005266494 -0.06845716142521265 -1.3293475194638035e-13 0.009662566776639656 -0.23199108603011395 -0.040790806701290865 -0.03366121246046631 -0.013669580520228698 0.012280184609055382 0.002925669697193772 -0.05224227856428585 -0.0005189016745355463 0.012362591927729883 0.21632884143291592 0.000425823496482558 0.14218383646330088 -9.431003343758884e-14 -0.1606881538965565 -0.10060408938690264 0.041157734920193575 0.12134435887194424 -0.021847926212127684 -0.031033399650568456 0.06704569896066455 0.0338650843656735 0.0011191280025322139 1.1179803263572853e-15 0.0075721129493429495 -0.008620884109791033 -0.026701194414792358 -0.03467401223108298 -0.005602032143363527 -0.03764284126554382 0.005945918057648964 -0.0029817096457442193 -0.026228189725145803 -0.07648185317534881 -0.004852048299387486 0.029648822644793897 0.0724584843488745 -3.523860941631e-16 -0.01868271191964709 0.06923074623088633 -0.07610060530826424 -0.06445577693708146 0.014832530851344814 0.02174531900286712 -0.0592502482263721 -0.09321965103585221 0.18831010393358738 0.0015791690993117917 -0.08162362042779918 0.011965362831518826 -0.08827758234471754 0.10163118522238285 -0.00343870444425362
26 0.06568443155025373 0.017826372799082373 0.019109073227413065 -0.003175327124727264 0.010111665799552815 0.10254026433412003 0.03978949133859771 0.05163079871262809 0.03677565267639791 -0.004188250902768476 9.559007839641244e-13 0.08989211975921912 -0.002822970631971142 0.029059384929351964 -0.07533867814722532 0.07019543117537021 0.009118694085327212 0.0982352011952761 -0.006402712332143609 -0.0005572057373330183 -0.05421078712262696 -0.010043222513481154 0.10443074158701852 -0.04566173858079225 -4.141151999635323e-14 -0.06586447595650179 0.0798120972116423 0.07824209516739256 0.07571068982446064 0.032129386804196226 0.2317792727658275 -0.028318257323509614 0.062197357272578545 -0.01225347160193042 4.200009102724393e-15 0.04712188866366287 -0.03874239952556854 -0.1997084651545366 -0.011281091598479908 -0.008132728573623559 0.10449597385399657 -0.06023014901589096 0.08227953452936974 0.03475089011737969 0.0004392081590128702 0.011569566012071755 0.006543091230046543 -0.012072077566821212 1.6786375691604205e-15 -0.06978871344090826 -0.11560561296852274 -0.10100422537203287 -0.018758762828739093 0.05370396841340628 -0.08514240791914332 -0.029346191812317457 0.029144944382022295 0.001508197985907061 0.027109819182681523 -0.04789754386254732 0.047385683122951494 -0.0431244863762199 -0.08745794537623917 -0.007637287669703746
27 -0.03942802640175584 -0.04849154091427039 -0.02859466148525169 -0.013517837090766358 -0.06387418599007956 0.11274023193700647 0.11210866206923811 0.07021360941934526 0.03920388737636457 0.1816278924480532 8.333236541876702e-13 -0.14825281877870644 0.0034498880066375966 -0.10659610128008949 -0.07112930021484795 -0.05356181642144682 0.04661017214144103 -0.01919927854468782 -0.11232366910617156 -0.0004097242322916831 0.048158204382296316 0.08871584634457999 -0.07304307308201155 -0.07381434331259219 2.211296568634675e-14 0.04793329027390754 -0.03822892747409509 -0.011879471110117378 -0.1115885095930394 -0.09067645315395625 0.02834724293494299 0.0760296741062141 0.037634345917716375 0.011793537182922567 -6.170914524282046e-15 -0.03264621635322724 -0.015750064708274267 -0.040893435939834834 0.007896433325127784 -0.0018764552399434507 0.005457671459684361 -0.001427485457151416 -0.0008065146514425048 8.945097251905759e-05 0.0026321314509035946 -0.005908668697032348 0.01567250824838982 -0.00259530114768679 -1.25106532010882e-15 0.015789888306086387 0.02453291771359353 -0.027828280155546063 -0.005115151677310042 0.03129899575421572 -0.013903141801188084 0.006089031963766755 0.03932830622953277 0.006760768486908215 -0.016714277502158332 -0.056374841338373685 0.02173743389406609 0.04147837586141715 -0.0703531186037183 0.002848835009789242
28 -0.08404782760138887 -0.1076639896758751 -0.052269338123640055 -0.045999037929505285 -0.011551844491270332 -0.061140109982909335 -0.09740255591960448 0.03170620716667856 0.08187268548427472 0.10263668341541889 6.814383995678866e-13 0.022610525265821087 -0.027384450990672035 0.06871995633145388 0.15266914453852357 0.08361588876822987 -0.09741231972008159 0.025495214258149185 -0.009436969826461038 -0.00020429390309294765 -0.009329319196706435 0.09503508692326021 -0.036834402736917765 -0.16269786724098312 -2.6629460036181054e-14 -0.01753797501400331 0.11783167727244315 -0.03410878575935035 -0.03947613391296379 -0.06391343165110466 -0.07378322117579231 -0.10567207010182812 0.05850153467673782 -0.10135807200581999 7.12120086611752e-15 0.1095248386427393 0.010170097750415873 -0.02495728797115878 -0.06663065285777481 -0.006705761879152584 -0.0479553691472057 -0.022445018414368044 -0.09606089422840743 0.19063044032178247 -0.017441331712485627 0.010512085568290589 -0.03419384474050607 0.07968796812831704 -4.6787995337174695e-15 -0.10954063494475534 0.05038323686567522 0.01773065331438398 0.008638433956795134 -0.05597187395939288 0.05829232513034524 -0.1447104262614813 0.045150349728723414 0.11786153324972987 0.023705003658504656 -0.012077169228586506 -0.037394336756596334 0.10065155832064254 -0.0696822113724134 -0.022554319063520546
29 -0.031741847525502 -0.03498048595686656 -0.05866121589853541 0.023248260478263776 -0.16196843146219542 -0.04503426302770738 -0.010742252351896868 -0.031416298106361124 -0.02887224949866299 -0.08007028203130472 -4.837108837358437e-13 0.0369616141649631 -0.2035419062900602 -0.0420294996597517 -0.10436947562056573 -0.06076902076633189 -0.05480790978253104 0.002112171627798882 -0.017935590117912965 0.0005467054776019495 -0.0022548847790437175 -0.18840879711990577 -0.016473044608498574 -0.15254308402431024 7.978037508075166e-14 0.13687159776499305 0.09203052912635977 -0.037194554666190614 -0.10530244034901273 0.007139205210827679 0.01651658163025896 -0.15168810068506045 -0.04112238326688184 0.03984526434988361 3.0586361354144642e-15 -0.022422004527349076 0.016076942655181354 0.05263048531577227 0.07174683103285934 0.016410587394115578 0.129202413211025 -0.07890812219365342 0.012416874282930224 -0.16399780881981763 -0.14276193896439737 0.03186546562987798 -0.03425418191935702 0.08937393672241416 -3.568967871536611e-15 -0.062387266265047855 0.0763672855569661 -0.01910180732062914 -0.005776650278506857 -0.0031586563934177673 0.01739946308017828 -0.056864364721877184 0.020735613843842548 0.07683207806908565 -0.053333943324501365 -0.08796647781763908 0.04081297101704703 -0.05688917491219296 0.023049106997362564 0.01102132994493369
30 -0.029189733995288066 0.07574307598253405 -0.04676448302789051 0.013654240182243321 -0.011077666079681877 -0.021523454065327123 -0.07057534898038069 0.02697099881244653 0.04742017019369797 0.018227949042689758 3.61871439308715e-13 -0.014338431762537752 -0.044212141248945826 0.013618091764514648 0.11334715468429729 0.06791897530658891 0.008684831641069268 0.004810644343135612 0.0443013399915783 -2.5562906104504708e-05 -0.011051096931491144 0.11674557752001524 0.012789177925381678 0.00876059705041522 -2.645518028208583e-14 -0.025677869066800568 0.07680574521829793 -0.03052291334165448 -0.11837368964542308 -0.04156114091458023 0.05540003236137952 -0.048859247705611834 -0.057417841675204306 -0.016392814003594033 3.3086249036365525e-15 0.023217158656754073 0.03048905612730649 0.08250482474586698 0.07573065330203514 0.01486517840423861 0.07311309157933082 -0.11452304895792961 -0.023679080230050213 0.06757440158223763 0.0339343480771724 -0.026711816332816996 0.03821205383788441 -0.08382208140221163 1.2154142425238254e-15 0.049107721670493605 -0.13445508459721392 0.10164583724907782 0.05554142472227612 -0.07302996180735728 0.018008008593242735 -0.006596911296602935 0.08802168709815206 -0.13549817394265734 -0.15755438310001596 0.007669572474525389 0.05376614311461398 -0.09404789852936273 0.03849929319583924 0.018964667109500927
31 0.0239213794322586 0.07959693573925845 -0.014545546685700541 -0.006787402077580008 0.028560312797578716 0.11650022779180313 0.009205928296066231 -0.003176968195710183 -0.005264449823206557 -0.028576503593754153 -8.345945647206166e-14 -0.0069837639318808846 -0.02564448282658138 0.2195194670805133 -0.026389041880390107 -0.11107282530401107 -0.030089359274090195 -0.0775187812110025 0.10711267915434666 0.0031900515252921624 0.12233640454450678 0.026094269486712007 -0.03929587449976243 -0.013351958321431026 4.43735931470337e-15 0.004850148506959103 -0.007398030872750667 0.0059916860441404304 -0.0006705411190922558 0.004001271970755065 -0.022354139157821556 0.017269928918369464 0.020889181122971147 0.026959416057769928 -3.3830733469798174e-15 -0.008344940815740944 0.01101814364301025 0.0035604310461263295 -0.03458281448969168 0.003198214200306858 0.021989981593827843 -0.04240205875347397 -0.0697511806494391 0.012491350902568693 -0.04165947723313022 0.05095728652078746 -0.048922198038502875 -0.05266415102445476 7.181307040066964e-15 0.17053075714159882 0.030837117081854517 -0.06298189002354317 -0.0032295023264878983 0.04997164156939752 -0.0013589701603285121 -0.0882207042998602 0.19111387151667453 -0.0548725520970183 0.18632333680493024 -0.026068940327025916 0.08170779364566745 -0.13862410206366452 0.1070337995880055 -0.014608943939817728
32 0.08765428264732752 -0.03449286617505002 0.13058228037152597 -0.0027929067522493604 -0.01189472597198674 -0.03351446070103797 0.04376155232152533 0.08526533064665427 0.051400176866622745 -0.038138952627583135 1.2254433252190574e-12 0.07237905817037295 0.007268523796702121 -0.04571111482795292 0.08865588061961982 -0.10102809722445133 -0.004147710546147902 -0.15582507623254388 -0.0310232165874866 -0.0011092410953062297 -0.06081423283440978 -0.006906674849428994 -0.07675634727919994 0.03621462814095005 -8.216502397303584e-15 0.006937308504125106 0.03738760652648046 -0.14270126712142378 0.07908795605518122 -0.001993525318309022 0.10589725752768925 -0.018131146314788918 0.07369204943931346 -0.016475940667230175 -6.440279708122355e-15 -0.0111167442680646 -0.00616522161202785 -0.025999821125785128 0.0034376609476594986 0.22965506596624188 -0.0015334694850029668 -0.004853921266232842 0.050404851837388145 0.02843755949990313 -0.0004692680438839773 0.05492889706227435 0.022155191929278225 0.007866942601685372 -1.4387110659051042e-15 0.05572030459669231 0.0867275167115459 0.11093659417855696 -0.031679316874479974 -0.021591566041156682 0.03429998688589942 0.015730075803524667 -0.0352915938282338 -0.013926222506806054 0.012374187474680562 -0.022827783318941166 0.012904515967827775 0.0037643385080640577 0.001023750305684684 0.00066275996912743
33 -0.013134187883849228 0.032960644796133726 0.14417205295745428 -0.0010676508059623974 -0.013708379486894247 -0.06410602596964278 -0.016656012628991163 -0.02921535014652124 -0.02459706066364048 0.008278422307872737 -6.590882782158484e-13 -0.10239659627458293 -0.007684414497793018 0.05779416226218546 -0.08790349417298007 0.12685862936966488 -0.010074247871896942 -0.04746109415469609 0.0006689404045369302 -7.867373453960556e-05 -0.003953692192632364 0.00022535520889874796 0.023387239317568975 -0.014460225612347808 7.068619761285108e-15 -0.005315894189469657 -0.01522560859813456 0.050978257796632946 -0.027574319631137406 -0.0059146824723609135 -0.05469126838209774 0.011628372505182134 -0.08863009106070538 0.008769775603479567 3.8995092519309524e-16 0.029610966052626857 -0.012868386163706122 -0.05971166691196173 -6.613263606387992e-06 0.14098279752178297 0.0007114353124994219 -5.336092875100849e-05 0.020155058529647264 0.014524366597210958 -0.0034189932215591226 0.1187853885734977 0.060656181494241825 -0.011668937019119786 -6.0688901204042785e-15 -0.016889562739682864 -0.016950211892417282 -0.15805322603019772 0.164584176335331 -0.05805364296253268 0.27057270866927297 0.17673490905213654 0.05067047700451895 0.07547868424596793 0.021572431828718347 0.06504264048852872 0.0004776698308067642 -0.1366007375554957 -0.1455152119696943 -0.011856475237167222
34 0.14616089572628665 0.027334786686659118 -0.0006727362951835705 0.012645228630630232 0.02710671233585126 0.10422194975029052 -0.040053548588705384 -0.04369051842324918 -0.013145407679389416 0.003955881477223499 -4.142169664541675e-13 0.04123015122014802 -0.0016148488795117337 0.059312523413817674 -0.01938000302165955 -0.017624436367020338 0.040140771170991366 -0.001675600008928623 0.01653277023814853 -0.002483277923810602 -0.17941986770906793 -0.010363258467971656 0.002158869249226303 -0.05628691513932832 7.471138093494574e-15 0.007521342889388212 -0.14380705902058305 -0.05809094532751257 -0.013170105405996438 -0.09343392112096802 -0.10848208655537762 0.008511560204107309 0.023560376731167773 0.01711530682411269 -7.763848461741675e-15 -0.026049336415413737 0.04502001759715332 0.10846409381493428 -0.09525421175797005 0.014322325999318623 -0.02274675524020525 -0.11420918919465776 0.27057404351370173 0.05778163563434549 -0.02437211689525095 -0.04174420330547841 -0.0834913240328067 0.002714569904606645 3.5156941739452715e-16 -0.10859468992003729 -0.11370369493617939 0.03890994200761231 -0.0756060956393219 0.03614118731061369 0.0553304230101775 0.08394626633033497 0.02985464961722617 0.022131710236569117 0.015462316313264935 -0.05719072335212686 0.04821708748414892 0.05683914051885567 0.023053791792823068 0.0003448798256594629
35 -0.06314440823759382 -0.08134401012165485 0.0010775699601668193 0.005446417550968175 0.019991477502103252 0.10584585621503807 -0.004179643668047343 -0.0026868000187420657 0.007214465947380556 0.0023960961881647896 1.3069987897146632e-13 0.044357371025713715 -0.0037388754600117726 0.057663417704443644 -0.044365560384152625 0.010932166220286156 0.029515200961086372 0.03889546880630309 -0.006648967972697879 -0.002009051887313038 -0.14687711338261342 -0.01360312673514414 0.06857042891161545 -0.054502715001653476 -2.0526435230746415e-14 -0.03913965495083902 -0.01029018606653437 -0.011219925957181983 0.0620154514604944 -0.028733436722415105 0.10456008564938905 -0.015375898622000044 -0.01314950133272381 -0.012465476045073212 7.0871518205975034e-15 0.03181897273615271 -0.024492148193742715 -0.1060590253463023 0.009110721247293833 -0.01283723463206189 0.03516366428455006 0.014149843884629552 -0.2010232252575333 -0.0807516489149728 0.012340726870524978 -0.039368038925530355 0.09803844895418491 -0.05477250379253168 -8.084281833538078e-15 -0.08726824890419033 -0.025531712052944938 0.03693752180606281 -0.04603524979544756 0.02677559246754915 0.07058116427049155 0.049032460846680594 -0.01852546767799316 -0.08445548708300964 0.008054950294961387 -0.15069997930394052 0.06728899461914409 0.06459242399442525 -0.045846078078665316 -0.01113707057185819
36 -0.008801831436140953 0.11999550236805623 -0.05400161422193034 0.029822418184541764 -0.09787926595981461 -0.03610122381964808 -0.04930245892113418 -0.008577600459295792 0.0005440045703876205 -0.07555464637089025 -2.236138371317335e-13 0.016604189211241106 -0.2503447832419501 -0.0459379074184902 -0.05677359756870197 -0.027915977018285628 -0.002858586507824281 0.0033329572149925673 -0.055596163977819746 -0.0003948742489324066 0.011905792414563566 0.1682496861216465 -0.0048822378665105545 0.1082496864362839 -8.130328291213585e-14 -0.13794886500669748 -0.09018192270964276 0.038307979809904996 0.12403255806591823 -0.03087604376080514 -0.04586299950468536 0.04229314274792128 0.05141752928635404 0.0363899482374723 3.534370100747818e-16 0.0019102675204026522 -0.016359075465695986 -0.05137950617010765 -0.11103025966393963 -0.01007843176680354 -0.034078992564840926 0.1511034398787594 0.0009895412706037432 0.05872770384625979 0.06339988619034771 0.002810699430699099 -0.015512155558259872 -0.001126575046727128 9.554788107300725e-16 -0.011002399705454724 0.021019148153248395 -0.019324314358892574 -0.014582559253805857 0.0019159304954854558 0.01421522993748406 -0.04737658559847196 -0.019719204525382877 0.13512746857899324 -0.0483602562095213 -0.13436238884538984 0.05306974167739597 -0.12413314226861359 0.09774319089587398 0.013289919089205727
37 0.027344900792315895 -0.10634296858336216 -5.408197548719223e-13 -3.2408296644800873e-13 6.725226011523549e-14 -2.999283476745434e-14 -1.101560739288961e-13 -6.462657326107975e-13 -3.2347148332762666e-13 -4.068435099812666e-14 0.04990472478234977 -8.035405066889663e-14 2.8134143248358133e-15 -1.0116676529540038e-14 -6.008810890393772e-15 -1.752146948085338e-14 -2.2345897062037157e-15 -2.4049938274605745e-15 -1.0973036096385019e-14 1.2664992349596807e-14 -4.841928218122905e-15 1.2287598936950225e-14 -2.803760396217264e-14 5.850955731997234e-15 0.3493936148311854 -1.9896804424801237e-13 1.7290935709431205e-14 -4.566885509489223e-15 -5.668754310859091e-15 3.242984388834856e-15 -3.5058565944910644e-15 4.570301216437359e-15 2.381747284840501e-15 -1.7491985620053846e-15 0.17202479615362437 -1.7515738097745408e-14 3.991394504801163e-15 -5.064203936210698e-15 -3.4908036702911613e-16 5.694424009436769e-15 6.553032908881687e-16 -3.434395248458953e-15 -2.5242856539350546e-15 1.3875536393110647e-15 -1.0784116442376466e-15 1.3867565822354367e-15 3.707872351948362e-15 -1.7540370851450517e-15 0.2611997766426536 -1.2714194922932369e-14 6.203651513152449e-15 5.3376172549566827e-17 -9.390343716781018e-16 4.2802795819207955e-16 1.0898089241707925e-15 1.5939642848706625e-15 -1.5661144535545622e-15 -6.777554272504277e-16 -3.565320858670786e-16 -2.4357560009370053e-15 -3.0664796412064107e-15 -1.8149941662769094e-15 -2.5728298359598e-15 -2.7119470854070234e-15
38 -0.015066557222888398 -0.047082784131542696 -0.03942753399934982 0.04734503482371557 0.03135615120224736 0.011890905350779447 -0.08476783265779739 0.029549996594269615 0.0425387583249576 -0.055282645484518125 2.565976091089034e-13 -0.04176208170357304 -0.009657553311080098 0.005819705026351765 0.10824458892698526 0.08227854638350715 0.34237912433585593 -0.030121015540547972 -0.09455245632333284 -0.07642968879479989 0.17659313853272926 -0.24140522213565277 -0.07647369807245119 -0.07581424393714394 -7.430225262684715e-14 -0.13820401697599058 0.01357766106608783 0.037676783186180465 0.09734495156804647 -0.11193162357559454 -0.025245340596600663 0.0084702762545793 0.01011954003441455 0.00886574085153023 -2.583848623058506e-15 -0.014252556789719463 0.003918798687928597 -0.0026416591623700325 -0.05415293675068749 8.809567679758415e-05 0.003938400444475414 -0.0064772582391067896 -0.008258894880543023 0.007235567751063033 -0.050328273134013946 -0.012522866103429982 0.023341047288837263 -0.010299280314396331 -2.980754447385843e-15 -0.0028195568010657775 0.007811274194654225 -0.01945309573647856 -0.03639700726163706 0.028589901892948046 0.054880957847669685 -0.04746620055763378 -0.03026488795985087 -0.03675610722182897 -0.04336030218107805 0.056879749480442963 -0.00390945756549758 0.003972957873219023 -0.01620252651660846 0.09143443645303363
39 -0.11625181091166739 -0.052546181222239655 -0.009755765117607458 -0.018521613883380524 0.0008720216225888401 0.11555310876395893 0.0589099018521324 0.03072122416838622 0.011089641948751052 0.03232382117007932 4.0691946617215053e-13 -0.023240715529926317 -0.013529511565745481 0.050229166035745995 -0.042262128119684404 -0.005235988870948223 -0.010929345570706931 0.03482874874572302 -0.08148059299174831 -0.0007257697431120732 -0.04016518547604763 -0.018178399199956983 0.0906554395436196 0.022908581107961356 -5.533663920132572e-14 -0.08186752526812557 0.21874784367418787 -0.023523985633711955 0.09824380055004892 0.07973425134563725 0.04075381912551098 0.029322907312897436 -0.12561899894176498 0.04517553154186873 4.268205042256007e-15 0.030653412584766813 0.021059456801535925 0.07604660727663572 -0.029188936182670825 -0.006741728471427283 -0.10738708553782614 0.024611552303010303 -0.00018067794950581077 -0.037266644929483166 -0.02739409214939815 0.05151030136979329 -0.11107830209133139 0.018880767446596863 -1.2361199180433341e-15 -0.07763449426742745 -0.10298038557026283 0.0901677084328261 0.004160398033964853 -0.09426290568208612 0.037910389125053415 0.002945366941789033 -0.15625554748602027 0.011718417876311102 0.06386318136974799 0.03807115984394983 -0.00741823634758527 -0.05786640258345103 0.04668150093617443 0.014381158417836251
40 -0.033671903742430544 -0.07200338370206284 0.032046019258830855 -0.003432069889338775 0.007833505493758672 0.09500705512677633 0.05147930929413854 0.07524697178920187 0.05211958227634261 -0.014440371380707601 1.3516340869520814e-12 0.12606869858776876 0.00016078256206875503 0.00974736598081843 -0.08525229063398339 0.10166837341987922 0.0038502550318291226 0.12120864506416353 0.012008258986392543 0.0002095364646945215 -0.0068786600501704 -0.0041575143472439 0.09645718789474488 -0.044968728463647835 -3.0313996040952817e-14 -0.05300876704519742 0.05664407975355632 0.11422401772985047 0.0444297491832439 0.03438501567006807 0.22551548056204457 -0.03399775986415864 0.117610175159258 -0.019020369055547753 -2.4295319414929874e-15 0.03041590256394324 -0.03687645367695564 -0.19454952981252496 -0.01108711077859335 -0.00025649157045601903 0.1284780628061501 -0.08067995878447547 0.1852227148992549 0.08880267467877936 0.003204214214128816 0.013488498316363735 -0.005667500334147251 0.01317166548600053 3.999882865769312e-15 0.028194315498020827 -0.02548726924228395 -0.13177665094323837 0.016149226340222457 0.06108663045241724 -0.1149659911339841 -0.05197117711380956 0.1095497067403923 0.05201098845714376 -0.041483298598945936 0.08155370389454847 -0.041198893682774664 -0.018871211832816592 -0.010852593112192829 -0.0024547742611184887
41 0.04247199006544926 0.012961646747356104 -0.04646061102107587 -0.19726381942764756 0.06655907088835064 -0.032234691687120225 0.06584133368861331 -0.029417963744745416 -0.0700314760598347 -0.09910105576267342 -7.651872943574839e-13 -0.03074472867029611 0.0068550540925025345 -0.09935209394544875 -0.0019462341633346117 0.015460228145458796 0.06796537979526766 -0.013190858620566306 0.11588111340834376 2.073552607217023e-05 -0.020083790545331288 0.10051685103482431 -0.03110012842843069 -0.18137662834322152 -4.7183747905103166e-15 -0.002423976208385245 0.04258550016406907 -0.0008820133406683777 0.11110477652361364 0.09734976126247148 -0.04159697860138941 0.09567157924459292 -0.024936610317422357 0.06909251929899445 -1.0984627217239975e-14 -0.10916622205165283 -0.006870462900719723 0.040538054840998 0.06924837626311385 0.013464462775855354 0.09891595585474605 -0.0024246134394376377 -0.016972026096209927 0.10657272963451571 0.019594870080576737 -0.033059877516257975 0.03929151922045793 0.047291672107076084 -4.448518013090694e-15 -0.09367129217579616 0.05504198721098729 -0.009317709986755782 0.008173260213323373 0.02000827188259828 -0.007799513937903862 0.006370761028724931 0.006818441939432857 -0.04717415060189575 0.10016440288791657 0.009769220846160189 0.021189736220761354 -0.059987556642322845 0.052102738293234085 0.022853637114273087
42 0.019118798528020144 0.07191122171865863 -0.048359255729295295 -0.20128101405865248 0.06595934803736801 -0.047343664445919545 0.048382658894214295 -0.02718966880097405 -0.056470686288211655 -0.07606914681606175 -6.445721891367788e-13 -0.01616418353234866 0.014894793768125698 -0.09661942109084407 -0.044078842093084936 -0.00899930560693002 0.09533629463315087 -0.021258339855360357 0.134500058075349 0.00014441404199278565 -0.022027789964020952 0.09427347856347883 -0.009099538949584351 -0.13809893649466218 -1.757431538515577e-14 -0.020651086004462325 0.08955842843445738 -0.01815670941134132 0.06879923801022773 0.05939620740400101 -0.09014020039941019 0.056010329549742444 0.02484347330365883 -0.0010076734823726442 -9.313926488653817e-15 -0.07952107122501818 -0.021624303088329775 -0.013631152912116074 0.06267565125283006 0.004691068059924159 0.04934014503427363 0.016904254303212404 0.047555513585157284 -0.03262031880454715 0.03266689800352065 -0.04483101629860871 0.08062359189619203 -0.024208435088983696 1.5545132631591245e-15 -0.01127801987929098 -0.03686680602810684 0.02949165689794194 0.007739483183365196 -0.058895020486400995 0.05253514375480242 -0.12145139955497727 0.03829869450380404 0.05863149766677984 0.14653763718452978 -2.4724366457766454e-05 -0.019212693397351408 0.06317049660543321 -0.03772859858804667 0.016303527609730646
43 -0.06211093222023262 0.09569722602114922 -0.046130877380039736 0.08750213453615568 0.07831291796516571 -0.059669538829626105 0.07131256992697224 -0.061179393788966786 0.044511692442424804 0.0031117788427363793 -1.6540029040531657e-13 0.001757602932757407 0.005096709264433245 -0.00409305357275446 0.001194356525796691 0.0017236501009946375 0.011653429891288508 -0.0011167584750945946 -0.002561336029337702 0.03678375999281562 -0.0063576672915111035 0.029961705423842345 0.023941524947648236 0.05560689988928588 1.3343041452139097e-13 0.22455839717859252 0.08212736318438045 0.10951197280129273 0.16965462778837084 -0.17789734545796915 -0.04155931596407118 0.021090945308830808 0.04588929802489122 0.06810712393453701 1.0456422993031285e-14 0.07970935579159828 0.01672693602406006 0.012747154477452605 0.040594442581408666 0.0012577337112850157 0.002406731269168977 -0.006844936992846898 0.003882640120682965 0.019469527807862246 -0.1039552771884785 -0.026511933678882577 0.03189887124931105 -0.08674549090533377 -2.4855168969695096e-15 -0.02013618768644878 0.016871938188628016 0.016924755560231437 0.03480731164889003 -0.14988144521699762 -0.110507251826789 0.08913020401358493 0.059718642033677875 -0.0013622757516593453 0.02630060177877468 -0.08160926095812765 -0.11460675999622674 -0.031866361516477336 -0.007830680867309427 0.15979929424546852
44 -0.008356467004654623 -0.11188376561780841 -0.05042927570732127 -0.0012822411853728954 -0.08324468985464127 -0.012620694399605928 -0.015001034350794702 0.024537392325270645 0.03718407730508036 0.07440168055007652 3.8300725244597366e-13 -0.032701281264678875 -0.006447580775409896 -0.010169413249032781 0.1499101061320272 0.08200928187376474 -0.045206832263632625 -0.005704053292847987 0.22126075609017665 0.0009692392644981113 -0.043034933880106964 -0.03912138177466766 0.04716866310215787 0.06288679506315782 -2.404879410956725e-14 -0.056123616044065384 0.04660903355379505 -0.011936570852142638 -0.0643221825208925 -0.12071465081801973 0.08039915106729484 0.07398829962642159 -0.03791718183177183 0.19308499672972376 -3.853835334354757e-15 -0.09054230104166291 -0.009469728916364084 0.01556139421013215 -0.05785494738811324 0.0024414644980767326 0.04620875774624607 0.14912037939674908 0.086034887407514 -0.15882125725869695 -0.005322037838856234 -0.0008716079486320116 0.01813155621749795 0.008184529458430491 9.882313883050576e-16 0.04140911429222896 0.0791054087570218 -0.09605124459305221 -0.04444046132193866 0.10672003518225999 -0.059824836577890374 0.10726019166648797 -0.07321793702002517 0.012454017663357728 0.15914214614818065 -0.000924464769197012 -0.03271520084922283 0.09578660246161556 -0.06812256297110336 -0.0016393478392789066
45 0.11318660269180855 0.029039088667769473 -0.055516447577769856 0.01027267192353253 -0.15679683365185265 -0.022638861695918926 0.025067479855229554 -0.0140378773441493 -0.016541411928949132 0.005892667927838064 -1.6268932710123543e-13 0.001509773019503969 0.033072853182028204 -0.007207926658725184 0.03525378638466503 0.01710354674367195 -0.02138900159558116 -0.0073818769721121 0.11898768367867892 0.0007816725356812397 -0.022091870540590003 -0.12080015805148245 0.027880223702761293 0.030162192546658303 2.6023917074462226e-14 0.024772579223642417 -0.018882516503057275 0.007780240381646659 0.017315748624397446 0.03183442818883093 0.030475896159674328 0.227371197010055 0.012245156110976789 -0.09358780078735184 -1.120749567417497e-14 0.004395369203394879 -0.022656539950038586 -0.05996255630727115 0.04235445193928349 -0.022347719790122136 -0.24142858628090982 -0.10769949878191674 -0.01807224832731772 0.10034734741728307 0.023970485152535075 -0.02816723498743698 0.04222404678842023 0.0018431956796966637 -6.137210879242906e-16 -0.0009311558383467639 0.021222175654232022 0.0007558430873687176 0.011586971591407456 -0.008242988916384747 0.014810742992726597 -0.058873036402408936 0.08005855885449725 0.04958952389585991 -0.13006106318130187 -0.15697678798229692 0.09233532681915613 -0.06797706514561266 -0.03157403974110461 0.027859216961220883
46 0.09291281452668745 -0.04856056889514408 0.1273872474814663 -0.0028897703158590957 -0.011219421645243356 -0.027622479953660333 0.04716755083095195 0.09076962366668244 0.055413065230611326 -0.039493451257699236 1.3343951235187589e-12 0.08488191974380413 0.007717367392435772 -0.048167089523587316 0.07727583552892503 -0.0821169845985743 -0.005063596655278426 -0.13244436723963313 -0.021649130489554372 -0.0007576621681139159 -0.04010588007141407 -0.004223905826857384 -0.08609039061244898 0.040970794204001855 -9.958155233057245e-15 0.018282626642909704 0.02007199289081155 -0.16206539520487248 0.06563204850970855 -0.015232020861544588 0.010899304819038752 0.008677359371861818 -0.1249660977344762 0.011377233659125347 1.2305441376699864e-14 0.06475146096965295 -0.030643712041833252 -0.15253223998067678 -0.008700311643508226 -0.08786858705700855 0.07437270430177173 -0.041516179135579166 0.08770865389431112 0.042709482614744575 0.002336848835968789 -0.010927451100568695 -0.01512818321283484 0.019413744228143525 1.512890611700085e-15 0.07720534845739532 0.08827795630506698 0.027339450314299803 0.04619339488727572 -0.046247382587913284 0.08190274160406522 0.029186331813716132 -0.034021384436836784 -0.019217528353890453 8.40200777761575e-05 -0.025991122390991002 0.0013763911891974084 0.060072984515749085 0.0788439700399723 0.008094269959397715
47 0.030609572250993516 0.048690606235233365 -0.014825082814728845 -0.007243135963680388 0.029910035517674467 0.12676702655135827 0.011218175460094959 -0.003737676642180733 -0.00646113499354572 -0.03366373509063417 -1.0009374856123849e-13 -0.008645148269032038 -0.03412301539815846 0.299380649561439 -0.03987850024696134 -0.17442951899702736 -0.0520768020240856 -0.13439964907875546 0.2050546127129759 0.0064580280430622606 0.27417391817678266 0.0673732857504195 -0.12039869622156472 -0.046761107686765745 1.2355217239587399e-14 0.016350541660784746 -0.04470875383941414 0.08760255716167345 0.012597332407702392 -0.03349033966001496 0.11903996409974929 -0.057875458040786684 -0.05841891910785881 -0.06942654889736688 6.6583314066946255e-15 0.024221088343878944 -0.021758661567689304 -0.008595662317402435 0.060697625852845494 -0.00594719938129455 -0.03784352969041109 0.06569395013772973 0.08744091862134352 -0.017008275896266245 0.0485558957179207 -0.05813283529184795 0.05576666718339492 0.052669322291884875 -6.610196476462571e-15 -0.16763830416030137 -0.028034373173170576 0.05552215528448515 0.003311931983767652 -0.042936104359195225 0.001454493747359748 0.0726601998909146 -0.15646775194765122 0.04228036837028895 -0.14488359054519886 0.020431731278638326 -0.06286937633701116 0.10558296496297007 -0.08173122143278548 0.011021625635877547
48 0.04524311394884601 0.07578878272372305 0.14154178701684428 -0.0011189036643566685 -0.013016997866750094 -0.057178586145124 -0.009819776214466221 -0.015717248799981133 -0.014650272785196495 0.0028911601193955363 -3.948227048411813e-13 -0.06727128994076317 -0.003561015383251226 0.023273742512085874 0.0014880220339017743 -0.01515369815598495 0.0035026688690809396 0.007717682543105502 -0.0071889451507125115 -7.63103753651424e-05 0.005075456677428197 0.0019377092962076826 0.10733827731775988 -0.0464556439406148 7.14850573096496e-15 -0.01863507998547108 -0.029095644578383068 0.12541954272245748 -0.05631993676352118 -0.004894230860166732 -0.07766847123319306 0.014260889067924932 -0.09573516114074344 0.010278801597540235 -2.412787676209041e-15 0.02779909219369614 -0.010642748086829466 -0.048416197748269225 0.00036667165269982594 0.12830602681063794 -0.004667264766410303 0.0033782190501201823 0.005449218944696125 0.005685962511438073 -0.002587076973625532 0.0777198626168096 0.03811867096329677 -0.00870281895383045 -2.5572080876639805e-15 -0.021296825129534 -0.0273696635904972 -0.0758336214632171 0.051684483327815514 -0.00713611169600022 0.030305458442349817 0.010168133858356552 0.008315294272126388 -0.014101959207425688 -0.01839815097372416 -0.039505312274606366 -0.007518585496203966 0.15641086654667502 0.20160164586158524 0.019638453423628913
49 0.038067489494323176 -0.07698689982722746 -0.019197408102171493 -0.016189447957739658 -0.03132409588004679 0.11569419890844372 0.08629257599195815 0.05071640961443924 0.025042738524106045 0.10596265684509275 6.285100899827903e-13 -0.08466650663645751 -0.005905503986274732 -0.02237238643541486 -0.057297737089488605 -0.02759664834494872 0.014255528002576704 0.012369534568782417 -0.09876047096751034 -0.0006205008038767953 -0.005118285506529978 0.022088298841167787 0.0345327995359038 -0.007874853876734226 -3.2927641730015504e-14 -0.0442032639488023 0.15906457046524017 -0.02018647176285818 0.07181645750544426 0.07425119116167402 0.0313492880863157 -0.020835325634747732 -0.17224387340623135 0.03785640659921089 1.4071280205515234e-14 0.0855876470733405 0.059419787808238374 0.19219143610994535 -0.06420460942257782 -0.0027792264707616806 -0.1921311464933877 0.05131452156194933 0.12355788784242243 -0.05433677541879125 0.04232297816411146 -0.06034472479031105 0.09181921122115667 0.04038444295128229 -2.765850892880207e-15 -0.024872465795139357 0.15309002710350536 0.01308831053971985 0.06268755719346163 -0.0022158272968717777 0.009940754022970077 -0.06436647698435899 0.143750920299744 -0.05918347402721405 -0.04529150522904406 0.11579002859123969 -0.04842841909591127 -0.028750476163549 0.10566985422905344 -0.023118980945722074
50 0.03735528753400479 0.004320837879547208 -0.03905230383359927 -0.16681511047834807 0.06102800728174308 0.018499898373324938 0.09787141475560594 -0.026823579379931437 -0.08694037502060342 -0.13146884231496456 -8.53152236786999e-13 -0.06092826801730523 -0.019124450521177984 -0.052227729651166586 0.11375762976255327 0.07050970214109814 -0.05783418149374642 0.019039244614794466 -0.03802759157923541 -0.00032210000291319797 0.004939906451714742 0.0026864565861605154 -0.04767422848300905 -0.04831528098248176 3.100702074354165e-14 0.044109627297749913 -0.12933502757056575 0.03938564979424832 0.01540476164618805 0.0016218814092381136 0.13740013855162353 -0.02732704615108275 -0.06560188920944689 0.0500020502662068 1.541572316130891e-14 0.08151116361577684 0.034907009829707326 0.041243150554789616 -0.08391050331371025 -0.004228912717504927 -0.061695719433365756 -0.027139497229775867 -0.062245964223171406 0.011020040139991309 -0.05113813827412825 0.07319936301047704 -0.12101502671882207 -0.006811602421841404 3.235721462028492e-15 0.08673231203795576 -0.012504598928330881 -0.015883415214771053 -0.015326158984649483 0.025054261189385578 -0.031225430795532493 0.08119661228926245 -0.0341756119192932 0.02695553598784407 -0.2003012141391484 -0.013109289621486806 -0.021543582068054144 0.059508358050794394 -0.058306848473062264 -0.03430726094507356
51 0.04751912766189302 -0.002904536255788404 8.477086271846353e-13 2.0449765063758133e-12 2.7252921814541983e-13 -1.1405958392409373e-14 9.304989470037645e-13 3.954131004472412e-12 1.9451174345937997e-12 3.8497905082977363e-13 -0.3080841901136972 6.872104264275402e-13 -1.8622808098527092e-15 2.5656324417699502e-14 1.4257146933089424e-14 2.0282498363549408e-14 2.3279289967917066e-14 -6.7233931474183e-15 3.812556139720857e-15 -1.1091814949339333e-14 1.030562130069008e-14 -1.4219607035983495e-14 2.0058723217717256e-14 5.893770701040895e-15 -0.309128692678805 1.6882720610227309e-13 -1.5719488628114137e-15 2.1756241923557187e-14 -1.1858962095798898e-14 5.3608041022245096e-15 -4.916909738536697e-15 6.204372820160368e-15 5.150766682969525e-15 -4.217238978925508e-15 0.2909142591999078 -3.690676680052018e-14 3.571742871492616e-15 -8.78574570510916e-15 -3.0956823739552955e-15 6.753525433589201e-15 -6.578024383482862e-15 -4.50599670937029e-15 1.0562696126374424e-16 1.566630326164434e-16 -3.5267714978687854e-16 -1.754040429459554e-16 7.725381722059594e-16 -1.4708314606205263e-15 0.12690209754997683 -6.187068210942832e-15 2.5611309473632664e-15 5.092442318888251e-16 1.8434596453998569e-16 2.303150525682777e-16 9.883978456304965e-16 1.470809257403793e-16 5.230973054640787e-16 -9.13641605546778e-16 -2.914911921980095e-17 4.861921969516132e-16 2.7689805976063157e-16 3.210251025936651e-16 1.189884845149252e-16 1.5002200401716859e-15
52 -0.04134562801708191 0.01995563287450986 -0.03688436099257335 0.05016657723510207 0.039944985116832185 0.016180151874424613 -0.0677606299136188 0.020671038622107032 0.03868117447180967 -0.056413451230167964 1.0558350593177862e-13 -0.040903777395557624 0.034872895911106254 -0.016194245774791033 -0.0009519515160594788 0.0012831332098852792 0.029513203934288128 -0.002830323391238979 -0.004186760950878286 -0.002262990287172519 -0.01543434454227688 0.013763059436854075 0.019613582545618 0.014858526990975646 4.793463960277754e-14 0.07791739501775566 -0.018311457725140996 -0.026822392042105916 -0.06549470818350409 0.11939427462865179 0.007316379742476243 -0.0004992929619570895 0.031331328132849556 0.042512659864286775 1.3248454248823954e-14 0.0756848787464631 -0.06647472065771133 -0.01964081174737085 0.07431944515835513 -0.00865143423146459 -0.040514822259518246 0.16539140623560541 0.03003375436482227 0.0416041586240278 -0.04582320333685178 -0.0030518779387613535 0.00683194082378624 0.20276681278015277 5.1203622096528845e-15 0.05932815467780661 -0.07196610153922106 -0.06391015903840779 -0.1492854246714704 -0.09348999952192893 0.0252979598727169 0.018432615487022803 0.03733972406368304 -0.013630254668911422 0.0052937678932096595 0.03478276572716988 0.10457613509595551 0.02703936988492285 0.004821153835777848 0.043814293942136526
53 -0.015331268897334488 -0.011722299885447202 -0.013185239059926647 0.00859438749303388 0.0287226906965528 0.09613261588203856 -0.017226621956078336 -0.008007176192885752 0.0019895979117001733 -0.020120232280389696 -9.261879435500853e-14 0.007921391828683684 -0.00841130314161464 0.11179726187237414 -0.01887776067204651 -0.03676063347781812 0.02471196848284623 -0.01615613862374922 0.026180657044049028 -0.0009434308391482014 -0.07575831501372302 -0.00019490282022084705 0.031091697118144787 -0.023810923279887153 1.2395999569753175e-14 0.022446264761144842 -0.05996065718051944 -0.06663967449138114 -0.024361018972448835 0.026472301639463087 -0.08371847463234867 0.04344148603110678 0.0850319054555234 0.10222516852868724 -1.960320078499953e-15 0.02706389387728559 0.04361042686049619 -0.00482624452768427 -0.13400434201221223 0.003851745160891939 0.0292670585044856 -0.10133804964629527 -0.08639329490781816 -0.0253323435138639 -0.02811324101472831 0.01908423843510709 0.04711096692538243 -0.058473325142821844 8.602569219604653e-16 0.07602631725246554 0.05647239376603757 -0.028468217642494197 0.020338252351694817 0.01872074011616613 0.016214530407084902 -0.07767434365561426 0.06625674796069021 -0.10082593671470066 0.02617030379759861 0.019747219128804172 0.006781550181457626 -0.05211467609367702 0.01392639422081649 -0.010219711557604072
54 0.021566491354630322 0.010693002830698663 -0.02876260799676128 -0.013743415729368198 -0.0650101902845198 0.11601340109544046 0.11738058067859883 0.07380446146318471 0.04126013088907549 0.19234101628672887 8.646506994287981e-13 -0.15792701570035772 0.003798352235090124 -0.1178306589153194 -0.08099371732363327 -0.06148717251329449 0.05427592559998245 -0.02268395454785204 -0.13553321056662085 -0.000498103097595959 0.060236774542112737 0.11473891095717507 -0.09715646013888454 -0.10189746716388964 4.2235426287670285e-14 0.06781542459570847 -0.05855392163402833 -0.018326422236730828 -0.18625992784373863 -0.1631663406047837 0.05645089277120382 0.17447096871393322 0.09269342186765026 0.02976750585613183 -1.6853341964173702e-14 -0.09264158139537734 -0.049978916045324624 -0.13406830991752042 0.029631293958584996 -0.007490799326496389 0.026020595314508066 -0.008005026884380512 -0.04735309112218095 -0.014626400145585406 -0.03330176923397166 0.054174310078815534 -0.09903260457033485 0.009652520042265317 -6.099631113196574e-16 -0.0474805244121367 -0.057830030161381024 0.04648433848572588 0.007918925773635961 -0.04492491965515942 0.018337190239252375 -0.007438015971894621 -0.04304290969025956 -0.006128942282720224 0.01218745291537197 0.03808007891510016 -0.01342254129377634 -0.024349192159581697 0.0387472135089839 -0.001454403628362413
55 -0.011608894357120108 0.009815423683958045 3.789807684147011e-13 1.5075732415718122e-12 4.246774504348207e-13 -8.333659843649676e-14 6.865008287855951e-13 2.797170788617878e-12 1.385086418612082e-12 2.587370563688991e-13 -0.2179492600218035 4.951180503719633e-13 -6.212073996758505e-15 3.845462257653024e-15 1.0801149913337202e-14 5.499214818447378e-15 -1.1575837960782572e-14 1.5322121311838096e-14 2.5522291799440735e-15 8.514634094121904e-16 1.2081731999092063e-15 2.9373960885514844e-15 -2.2934733287054607e-15 -7.366220696658936e-15 0.06027062457199083 -3.33623987444348e-14 -8.253708099058844e-15 -1.3973868481829263e-14 1.1165074851534476e-14 -4.685018508966721e-15 3.0347197112949907e-15 -6.0352439693231e-15 -5.300633699845462e-15 5.3177244798369834e-15 -0.3207364859298234 3.913736725307878e-14 -7.189055977706477e-15 8.30982914786075e-15 3.2195635960852753e-15 -7.45920486663079e-15 6.242053080744562e-15 5.907004698767207e-15 3.9850942352722834e-16 6.011436332281346e-16 1.2073958113444237e-15 -5.259677894060693e-16 -2.8182270790505966e-15 2.3735977421336646e-15 -0.24147409712926876 1.1162955770472663e-14 -4.956141221470008e-15 -6.841652876437235e-16 -3.605423622446532e-16 5.347466701683799e-16 -2.5066639544748297e-15 -1.004021099667599e-15 3.398534709400099e-16 2.0280389231637637e-15 4.608647557366308e-16 -5.757612719236418e-16 -1.437552422635028e-15 -6.542744256290754e-16 -1.2182253472007069e-15 -1.5273655457737574e-15
56 0.1140538567723777 0.027901644304076892 -0.042591124757373706 0.06269320647578407 0.048237262612513175 -0.0215645584081053 -0.029235941993348714 0.03451435556170643 -0.01955910741997712 -0.011016719714302828 1.5632793398365582e-13 -0.01201955910613355 -0.003102589184479527 -0.0014165960372966623 0.02650512655870926 0.018812512427910547 0.056481057490516295 -0.003929401299407487 -0.006007679906737564 0.0390257322643504 -0.005715408946205878 0.05331248724719957 0.025157809625729492 0.052235346248093006 8.933738873707843e-14 0.1399506977864051 0.030911855619718827 0.02019505305071905 -0.030092417249970388 0.0666119935131383 0.04652415083732773 -0.03353785213265185 -0.09518203085527746 -0.14169624151111543 -2.399886300408631e-14 -0.17869618332890155 -0.07601336004013362 0.008363025118452964 -0.11602212585909533 0.002511515120658604 0.01480739640872978 -0.06080175279381113 0.00011366060898232142 -0.043698552487130525 0.21435965447542077 0.05464575507970606 -0.12703719051264045 -0.13084379648921113 -7.60085384646232e-15 -0.06759431294177974 0.1295506711616493 -0.14294092564831146 -0.19591441517194624 0.0040801030226901265 0.10920874719996347 -0.08666120254251866 -0.0529631806520588 -0.00781667205809044 -0.0117285975299333 0.019347673516993343 0.008533532446073855 -0.0009770976451001993 -0.0016170847415533046 0.13705887774464384
57 -0.0764341380113758 -0.04789226668283872 -4.281881472374053e-13 -2.3422030143860412e-12 -6.441764114641266e-13 9.992802322498717e-14 -1.128062157531656e-12 -4.443008743589288e-12 -2.1875165338316042e-12 -4.654339829682576e-13 0.3467883488091104 -8.161258759281975e-13 -6.73604315837162e-15 -1.7450703307400106e-14 -3.666386295953988e-15 5.902401845436745e-15 -2.5202491009128525e-15 -9.636598828786923e-15 3.054960801362419e-15 -5.8943384376434135e-15 8.35428659941274e-15 -9.731787711926654e-15 2.3661613646736494e-14 -5.355153174961494e-15 -0.31651782742328693 1.7924933884080087e-13 -1.772166963412697e-14 1.4628625382489885e-15 5.246840824052205e-15 -9.520790075424416e-15 3.58493196204908e-15 1.0525100706988122e-15 -8.474830436312893e-15 3.928595665474353e-15 -0.26895541670030604 3.048469597658435e-14 -8.749802372387386e-15 6.275983971176327e-15 4.27350616382865e-15 -2.126641120491457e-15 5.2267758618575024e-15 4.271987992863534e-15 -4.147977282328214e-15 2.504919953412036e-16 -3.815767023851765e-15 5.528928503411083e-15 2.7276421579513356e-15 -3.079671866122679e-15 0.31192206220336427 -1.2776657616640405e-14 7.137309378506817e-15 -3.096862229848219e-16 -1.842112763162969e-15 4.0198768653644074e-16 2.5345749347346686e-15 7.197336379003679e-16 -5.261995288844092e-16 1.505038750333179e-16 1.4911807740246425e-16 -1.67013615013622e-15 -3.304403581493176e-15 -3.069763269033362e-15 -3.2453113302657957e-15 -4.270691658656567e-15
58 -0.008347595495019677 0.040317249409073684 -0.05876012101860975 0.02333820343081508 -0.16282819812085964 -0.045452403277674414 -0.010863366007406885 -0.031905628583042155 -0.029344556492609752 -0.08144053809709087 -5.105249628744068e-13 0.03768048135999352 -0.2089355680952103 -0.04324835186043534 -0.10838887491894343 -0.06322740236817433 -0.057232018347794504 0.0022185380023252085 -0.019020848042450238 0.0005755515717315981 -0.002364630629694422 -0.20181015568689298 -0.017802305537929407 -0.16604605283227578 8.325422276597343e-14 0.14963359462385617 0.1022222876320899 -0.0415349627045875 -0.11919970020085939 0.008127437905800002 0.019237457402952247 -0.1815694156568209 -0.04953142182605874 0.04850980177428913 3.687486217426137e-15 -0.027577420740625486 0.019971467827634044 0.06560073242383287 0.09034906825733709 0.020865465363325685 0.1660123087793454 -0.10210025073783094 0.017068008816066106 -0.22714281994305255 -0.20207169583543075 0.04566439929261005 -0.04998834532167948 0.13476719116414448 -6.538084087909421e-15 -0.09615999524214629 0.12116041910461012 -0.03196068657276392 -0.009732644412211085 -0.005505997805155575 0.030740765054935816 -0.10233629170142047 0.038670208807517516 0.1508638653008156 -0.11395396560847688 -0.19367059558607364 0.0935514658634219 -0.1335853260387139 0.055783601932235284 0.027694928682159718
59 0.033233514755388466 -0.06472966322213732 0.07013582008622164 -0.0038758546740375373 0.0006774992092394688 0.06273988354876181 0.0765921068256824 0.13015186031852638 0.08698363117473812 -0.04139670585339982 2.2248770365278003e-12 0.20227232475717608 0.008551425322014368 -0.04668442691953973 -0.07740287339760264 0.14356009977469064 -0.011469035416063386 0.1231144904451362 0.05392851090437905 0.0020759886350459472 0.1175987700084107 0.013542008591721942 0.005924570295126362 -0.007028281552674737 2.494134266423131e-14 0.02354678162938037 -0.05249959386417848 0.0818648181229383 -0.07361588264986843 -0.00010397868927025726 -0.07400696844263435 0.0020656859854730493 0.05954687017845634 -0.0030293645048083966 -4.3261346495364566e-15 -0.04531161994225775 0.02397522090293515 0.11710840027313736 0.005263080175360001 0.013566549093593764 -0.04441184927156305 0.022260909755559666 -0.012554802289274076 -0.002871663563230286 0.0007075006772272889 -0.010620260230905475 -0.008454525461419192 0.014777162346207247 3.945708282506657e-16 0.07719409567574717 0.12150940586324174 0.12788023576444882 0.010763398328718086 -0.06714902744494067 0.11661976610416819 0.04671427654573736 -0.0806483686391616 -0.03665172333060011 0.021262272585800667 -0.05107965161585294 0.021103268797101043 0.031471527503130585 0.034037645464404555 0.004144845474603295
60 -0.047224475555987855 -0.06261378383940713 -0.05822420577864522 0.017409718227956002 -0.17091489611167152 -0.038239923049042675 0.012868121397576194 -0.03054217010983408 -0.03200585636477032 -0.046361172764460896 -4.174819157889556e-13 0.029062274239554722 -0.03956895026825297 -0.009002116807006811 -0.03359245752972704 -0.020230974409885874 -0.027770353674482162 -0.00119831168257614 0.031496399727773364 0.0005071389013649323 -0.009178493723216491 -0.13389894467313795 0.0046343913237157225 -0.055593838001119555 4.642437909123408e-14 0.07481947631502807 0.03251074239288151 -0.012963440488248282 -0.03877690168912087 0.02477831501103299 0.03140431135819824 0.1446309361316156 -0.007672728667556542 -0.10184707224428372 -4.5969346944516465e-15 0.03087500396965805 -0.0019790681184975087 -0.009530790290836212 0.05295078996806076 -0.011867174606768113 -0.1698543231202794 -0.13365674502927072 -0.02651955071544587 0.14720483546340435 0.043200807246457196 -0.06842712539895417 0.129211337691685 -0.06199431569534729 5.413958309587321e-15 0.10824704256238868 -0.07568734754212571 -0.050545736266198425 -0.06592295726702785 0.025630470640595825 -0.018233577230363573 0.07567197441869114 -0.15461973044329405 0.004527859007209888 0.1280110363982285 0.12318667127021761 -0.07854245734436187 0.03669240324599874 0.05031131229157602 -0.024461448851582357
61 0.03440749625181063 0.06355867007623657 0.13653437586110367 -0.0024115464901941067 -0.013000612876001556 -0.045506253296608457 0.02998521739414348 0.06027368557782167 0.03436808008780825 -0.029058412668645558 7.98894897445427e-13 0.029321459103217512 0.004450964145435376 -0.027721631181801137 0.08627858822876244 -0.11129703572464557 8.19221540747412e-05 -0.14263465241332418 -0.03718545843007374 -0.0013513727680697653 -0.0748098823297379 -0.008615604178361555 -0.012800175058983565 0.003285422494979465 -1.4817199897831497e-14 -0.019667874042942384 0.04011777483404909 0.006445814758630045 0.033222014675677446 0.021211353970106553 0.14254228004066627 -0.035618370841328496 0.25664331837241433 -0.03435825347936323 -1.8239602558926536e-14 -0.09161410586119571 0.029481241493561457 0.14952519533119377 0.012594117161316169 0.29143187234868734 -0.07661289016214293 0.036275886834287056 -0.04002328998424762 -0.016948293530212755 -0.0018022775085099459 0.03170927162392811 0.018927063640578154 -0.007911574282200132 -6.486937202683374e-16 -0.019857681129115096 -0.010419828773720236 0.040399697684165056 -0.04271002660381289 0.01492262885526196 -0.029017031809314885 -0.008404553727064954 -0.0010816959153751129 0.0036691293906706986 0.010718408082756323 0.003365088693389499 0.010884573137709963 -0.059118356427972696 -0.08590984318541348 -0.008793155269576062
62 -0.12083845268559723 -0.034723750696408914 0.14727648248959982 -0.0013839549838632929 -0.014874692017158688 -0.07147129561417204 -0.012199492980290555 -0.02005042990009499 -0.020202748362691217 0.0030893001531812456 -5.173746462040845e-13 -0.11136990747220207 -0.00809903934126584 0.061675509772371344 0.01602257239734269 -0.11566181773904335 0.055086525388165566 0.4005728481001974 0.0671291897930069 0.0006748805406716882 -0.009283462416861387 -0.0038379203040514636 -0.20477167066585875 0.07095499718186736 -9.284609468422675e-15 0.027069383683669665 0.031121651566740596 -0.13585719500854243 0.05408694522132216 0.003235932476360759 0.06470860529576393 -0.012058416193160752 0.0793913594758374 -0.009632002852913435 5.794745823135594e-16 -0.024788087440902117 0.008872584525392947 0.042527154434382916 0.0013073868146518434 -0.036025059581310956 -0.007074285054012318 0.002997764797423604 -0.014793577187380466 -0.009904618176888107 0.0018275202983864887 -0.07002084714810516 -0.037615164632345884 0.006895782650536918 1.531546923003052e-15 0.0010215618730936087 -0.0197919493903667 -0.09796270569968304 0.08794391795747226 -0.03018121930819112 0.059895780462716874 0.018830506898694376 -0.010691481995099604 -0.012485947019533252 -0.0008854446182237432 -0.020001917373764277 0.003987386166139388 0.03249891518241156 0.033532398999765775 0.0028350324455599777
63 -0.03139434466959259 0.018038303651801205 0.12935833418413736 0.00046649638741707325 -0.008314790036613841 -0.03171312521108674 -0.03225409820147841 -0.05904422055454392 -0.03697309704541408 0.0243366152094918 -8.708791756373848e-13 -0.04839955714479042 -0.0010637248293839633 -0.007929836147535393 0.002281214740368377 0.002060528482454014 -0.00914913369380406 0.017484007209075808 -0.006140334709300156 0.0010869392413237527 0.09909562684435032 0.014112514920344777 0.20606431180380966 -0.06014859949776542 2.5036999165658418e-14 0.007122751374034252 -0.06107191207260557 -0.02568209480142158 -0.0026824217761298908 -0.03498384557535809 -0.05149756890155741 0.008089185661470157 -0.09937413927126039 0.0005641976275332175 -3.7332405636315304e-15 0.028841488761561042 -0.016271838867467865 -0.06849267507962924 0.001970840560909623 0.18534793184612258 0.0015821218085677977 -0.004068355843833001 0.005506130497753656 -0.002751247797393367 0.0048500602073990335 -0.169436006870323 -0.10421512220978506 0.03017145449384798 5.419478984535277e-15 0.0488799148252776 0.011299818296751177 -0.07009871169807531 0.0827454237523699 -0.04742585502548647 -0.06544489818488812 -0.10857046070070522 -0.10742008578346407 -0.11721259038243109 -0.004900553458979888 -0.11364502418717862 0.026093728745522255 0.10357303551459149 0.059859280899689345 0.0009380503743537715
64 0.0102644118829375 0.0948527878293574 -0.050229816587256435 -0.0027750734733291618 -0.06453791986038881 -0.019520475200252848 -0.0346922175784599 0.0269702582310954 0.04569136616426202 0.07072940387230074 4.307334038721971e-13 -0.02527219385481119 -0.017270817510297784 0.002642086296257306 0.16201613450420957 0.0904726523858218 -0.04681751120025409 -0.0002947796051053483 0.19135787206986338 0.0007214803113767677 -0.03986428625875887 0.01013699827096916 0.03852899739812186 0.031898327542224394 -3.377087256577934e-14 -0.061929651236376386 0.0887925538773864 -0.02713677426134921 -0.11044128331447782 -0.15469051987673307 0.089527940781013 0.032340016088157536 -0.0533223909735521 0.19211362824778583 1.495405153029203e-15 -0.063280803437165 0.008422458475915615 0.05819799462751107 -0.06242494679778617 0.010126872428797527 0.09589235800828881 0.13268509117773683 0.06877360828566745 -0.09021964796537797 0.013795122128659316 -0.034554139994454856 0.08499414493135027 -0.03397778629497255 4.121232848255204e-15 0.10279673449169241 0.0020304023392450346 -0.09872717382919739 -0.07686592442910294 0.08171659462772793 -0.04508224691540891 0.10527093768669335 -0.14742684000890324 0.03991268944060163 0.10249718994960963 0.00299591397560357 -0.01319402810028271 -0.01731862702688546 0.03659588902137211 0.004847772544601186
65 -0.03431808892267174 -0.06369786349109603 -0.04090086478369959 0.06099143990073682 0.04888054182842907 0.006742711660242641 -0.09106317393411613 0.03045914457587953 0.06055993072783631 -0.09134407081996097 9.356224857761652e-14 -0.07579014407661984 0.10319820018119794 -0.08706249214972941 -0.06440731665595725 -0.037520640214401144 -0.12543552636569605 0.008663213794576895 0.008169755290782513 -0.006404997841158531 0.014943669369313519 -0.020610891968487303 -0.016166175074717355 -0.013747027553122432 -3.3844997338041805e-14 -0.05216163098798642 0.006367561471912618 0.009734722828492094 0.02287903267707947 -0.03877557501783806 0.0010838396308899955 -0.003580536163398407 -0.02551482457470921 -0.039655727066286145 -1.809108750492182e-14 -0.08431544987585389 0.28410595327097754 -0.07548161832081929 -0.00857672486277904 -0.0014362522711857178 -0.00125906579288922 -0.0036410788407315983 -0.004519519845466652 -0.005056344117866092 0.007966342086013259 0.0010131099982925683 -0.00033679569617143693 -0.015060481042953504 1.3503416761328393e-17 -0.00480338567962501 0.003333633300629876 0.020713154415379565 0.04016561421185242 0.0861850065269872 0.029327582528052145 -0.032718184131333455 -0.030039896157454133 0.0073662290237915375 -0.0032222777341121434 -0.024269934353528023 -0.08342079888472358 -0.022514465977153116 0.005506500168943749 -0.07917645184787837
66 -0.09737052576483325 0.05808126621379944 0.09776888812775038 0.003925902894300297 0.002977301090192087 0.030897655775893484 -0.0702339692322229 -0.13134966640734266 -0.07102002862102003 0.060929622506914666 -1.5684412657716753e-12 0.02016089120037523 0.006145264684527389 -0.08176725193255448 0.025899620133495373 0.006359851699818452 -0.02998575955999503 -0.0003245444518142442 -0.009336774329372645 0.0024195585792090683 0.20117754761005371 0.025087553847908024 0.24101140931591056 -0.0407570319907059 2.836856546232299e-14 0.038182990291806086 -0.05076950801614063 -0.21630793902342568 0.07730109065303767 -0.03409200820998887 0.06082934046767581 -0.014446895344981331 0.06612508481200673 -0.015586131115458242 4.462039892913984e-15 -0.02458070107742121 0.0071304020876948645 0.03866868568097591 0.0015612914715644774 -0.07248699843991288 5.354852684561679e-05 -0.002037408336723351 -0.016128978661005208 -0.012574053875772578 0.003062004570571309 -0.09461398507247322 -0.03931716426467394 0.0023870076888423057 9.543376421422643e-16 -0.0014125738248488178 0.002438563141174722 0.05441479843629288 -0.05802330865298771 0.02800295286349258 0.014375552211203785 0.05148665413596745 0.06371399574124803 0.08451819372672696 0.006598967533465239 0.10015852969520603 -0.021696273986141698 -0.10838861430796107 -0.07283437805571195 -0.0023482107366681665
67 0.023932139411561353 -0.05300516960697194 -0.04926554252200737 -0.00554975321428409 -0.025041107417680657 -0.031910633713023336 -0.07091026525715827 0.029364469042478657 0.05818706887305208 0.05571178821456459 4.978181027421954e-13 -0.008031985220461389 -0.03571276428011293 0.027029654105610194 0.15065587949927148 0.08657612143567268 -0.03752597765476703 0.010073630293732462 0.07868919961465744 8.921987493272496e-05 -0.021023581934049636 0.09992282024034896 0.007550608188573789 -0.03864197502946822 -3.623065216995669e-14 -0.04300555314646245 0.11960485080804165 -0.0404414894130502 -0.12951557749490344 -0.11300883138492937 0.04294660674513386 -0.06580273684003005 -0.03795983233224179 0.029366937659330298 6.647678825451267e-15 0.03874828531192533 0.031749573924212404 0.07855431565819404 -0.007736354304541828 0.013421715634980513 0.08383816886860067 -0.03401223301207729 -0.03926366447566231 0.12774242660725363 0.028514935099174372 -0.04436119166041799 0.07947167125846388 -0.05458287089788897 3.973615990693173e-15 0.05260152227018638 -0.11900845995156559 0.05267722848220836 -0.0013091784232082675 -0.08529170225540313 0.049048800910496036 -0.07039625355157585 0.0003400645369996074 0.0039154729478795116 -0.16289491017143817 0.002288500470265963 0.03790160509187092 -0.12805415277692742 0.09608062927184548 0.004035416782771414
68 -0.04480688499386075 0.029700808108916472 0.12226087867785651 -0.003074093322974594 -0.010174862692734023 -0.018271442038232895 0.053700611505761706 0.10182414091299213 0.06325665860806258 -0.0427649876178174 1.538763596009086e-12 0.1074081429807901 0.008793007220741389 -0.05468585803081074 0.06702388755638838 -0.06151797619277019 -0.007382454324143642 -0.12006737427937844 -0.013776585386711032 -0.00044115880575931656 -0.02147179083662557 -0.0019483339659545494 -0.10007916247218238 0.04823479227643013 3.0132939114102805e-16 0.028866007134792097 0.010561692831234289 -0.19107335165529793 0.06591515452480753 -0.022201776719332753 -0.013429663403953051 0.012662966518305415 -0.14706895428723496 0.013080161126755146 1.310955358821666e-14 0.06438448156087323 -0.028522028003864483 -0.13836494653217127 -0.006451349314488157 -0.023574716617023563 0.05130946295917319 -0.02687812576852587 0.0442162922485513 0.020861097652449603 0.0003138257792671355 0.012783762947126168 0.0032361619562393225 0.0013693190467549147 1.5385102854845164e-15 0.0003307490587637336 -0.014720537051323779 -0.05664740598584751 0.02270507436530425 0.011241105760413223 -0.01815088627148164 -0.010150430063454592 0.03304496474751245 0.013189469020507338 -0.025404707972247285 0.028155332431318677 -0.02983021557844911 0.058618507056167 0.09713762674921954 0.009649547028273135
69 0.10337212281467993 -0.030886499449890137 -0.041295838394264886 0.038754346133648386 0.016136677913449488 5.718215787378324e-05 -0.06931379003218527 0.02382383981356217 0.03469924690290914 -0.031556970606826024 1.9518177042880854e-13 -0.025863796565592963 -0.02852251510751006 0.001506526787743655 0.060273469446993314 0.04088135956955521 0.09325136489888085 -0.005553599844284712 -0.00835563912347161 -0.00752263134098628 0.010474488533469238 0.06415876892825813 0.012796808840597751 0.038199321217182385 9.395236105916044e-15 0.019469769143055368 0.007618094175949097 -0.019320812292015897 -0.0830617785523122 0.07409675133739567 0.04502251505826677 -0.016571818918934406 -0.042335760143112 -0.039760207479763575 1.291006159290427e-15 0.011993002809521567 0.008805560620600013 0.03753422875015687 0.13044377063058957 0.0066147255214111115 0.0181775283184776 -0.08534556715347486 0.011386335905764322 -0.02170671352580934 0.08179854047792752 0.018696652165543025 -0.046210971780634755 -0.032766863988167624 3.5010419318932005e-15 0.01801031433164167 -0.06561503576348725 0.09709429978388527 0.11782421879979707 -0.05942577938119285 -0.1109859368969766 0.12619712579591255 0.14055295283235295 -0.07180980965793302 0.04861031086296962 -0.09674039282560344 0.0307363977274643 0.0034157843204139903 -0.01214212699534224 -0.14290143464068059
70 -0.050013200605883275 0.08986872469486135 -0.019520331114579632 -0.056958295425729416 0.028789480527647477 0.10067943771242512 0.066612987508123 0.0029007587175651313 -0.03043533546598 -0.04831061333003665 -1.660341599703204e-13 -0.040385256268480586 -0.02902370715975975 0.09576982422514112 0.047850219655876276 0.004027409454468075 -0.08370879331183295 0.015652803493407745 -0.10572207025923047 3.5480983466891555e-05 0.011159406346642543 -0.07471658753526385 0.061805582580210815 0.14180248952492022 -2.5030107892984254e-14 -0.04658157693323407 0.14946778251459286 -0.05167207595454855 -0.029707331774320313 0.002591867982298146 -0.18852055766701337 0.06421569600586526 0.0666061288943143 -0.02653403964132555 -1.8512265404568947e-14 -0.1324187365975233 -0.03467252498247177 -0.01458737172471207 0.10264446357853718 0.011014971667207898 0.09948410720346736 0.010751823439062832 -0.016693609890428562 0.08028389899639989 -0.0032492390465797146 0.007205019067124186 -0.0390019770453877 0.02463257909632145 2.056086826695224e-15 0.025751470884197058 0.013302511055440901 -0.021187981972739748 -0.017615182602566514 0.030771673421315118 -0.03617400246533262 0.09161376888772324 -0.03914417577165267 0.0722122178577544 -0.18028921660072741 -0.018564173699737164 -0.047125282243416416 0.13887967828510994 -0.10267369232701909 -0.0028732197268132873
71 0.06638142690726512 0.057676857232668396 -0.0018270822660568032 -0.01075758451683956 0.006608687447060251 0.11290450090046578 0.04357162482246971 0.02903248931621053 0.01593381270676293 0.019611590163226014 4.873327364228241e-13 0.013789789750344547 -0.009847056641169185 0.04985026327281924 -0.053000334203181586 0.01460201269694207 0.0014093612219931904 0.052985237328952474 -0.055544224442351145 -0.0010491892329444307 -0.07171966820966612 -0.01746291102644134 0.10102308334801378 -0.008950444204472172 -5.1643826272436516e-14 -0.08127559277801286 0.1683223953948822 0.0019766403001655634 0.10531713991212699 0.05731350859726278 0.12512946148248869 0.008467926437367332 -0.08019704187553207 0.025294554688840443 3.679141090708193e-15 0.04705926527240947 -0.003987970230737039 -0.03677896876881213 -0.02200339116334804 -0.012046817142462906 -0.040011842888303055 0.00517121509326997 -0.03766284001940822 -0.04696761485460137 -0.019042799770235805 0.03548396626853379 -0.06134086875835864 -0.008574806404625933 -3.1348279950462234e-15 -0.14229600301317535 -0.1676403262583612 0.05927277761817412 -0.027718743637879302 -0.05925332631049523 0.029252474758383742 0.012338126345956525 -0.17121086812992364 -0.031924569610273464 0.1122678877184685 -0.08692245681855792 0.0773636767258632 -0.07459709570471784 -0.03910507206807867 0.006506121578384241
72 -0.02311486897806101 0.1487297603352408 -0.0399866872157434 0.05684553960915877 0.044381715103397244 0.0024917759437210834 -0.06343655762286268 0.020675846264406095 0.04044234159243986 -0.05777887352720776 1.0063077685592112e-13 -0.045881746825011636 0.04535001967260862 -0.035524186558178246 -0.011570907783864411 -0.004873118478964013 -0.0106701672259088 0.0004854531032075645 -0.00034678317551032907 0.006316005450417568 -0.004864905784930551 0.02370187965150938 0.014193069050246246 0.02564685685349777 4.9361703288851316e-14 0.082380030887063 0.011648343660258955 0.006685736180768326 -0.01975843675354809 0.050355581635314776 0.015445413503445207 -0.008693668133617638 -0.01259885705601847 -0.018616459975512357 -4.492564288963857e-15 -0.015737622463678665 0.09074978584966817 -0.045375981066559413 0.05936532179219291 -0.005859202253418157 -0.027748351865400568 0.11591915275716025 0.04335736160001327 0.05765754645555887 -0.1280865217377092 -0.02131964559890504 -0.03190540562451084 -0.08380781369792883 -3.274466254409602e-16 -0.008962437300470439 -0.023986228976008613 0.05764860302897378 0.0782742354303038 0.28675529488988805 0.12604319248253898 -0.09820234551271585 -0.060834266696872835 -0.0007613417254208316 -0.003192706056575209 -0.019868755466084874 -0.0492948624403253 -0.010475033176931688 0.0071458728322530305 -0.03299477056799638
