223 64
0 -0.03775066 -0.015214629 -0.05247839 -0.03331941 -0.01621144 -0.10160965 0.34786913 0.4074208 -0.056390997 -0.014471041 0.0994666 -0.03161926 0.4471129 0.12510744 -0.038234793 -0.011135471 0.23253386 0.015042789 -0.056607913 -0.048106294 -0.08383401 -0.03292304 -0.017619425 -0.10662212 -0.051416215 -0.035918172 -0.06693932 0.33429545 -0.036783896 -0.09584473 -0.112801634 -0.067454584 -0.014695004 0.25765312 0.009724702 -0.039085798 -0.016126346 -0.019890036 0.16485554 -0.019974468 -0.0134122195 0.2746274 -0.05918931 -0.034357514 0.16305622 0.18790007 0.15197556 0.039043147 -0.009930471 -0.032707017 -0.029911801 -0.008194804 0.18362804 -0.047534868 -0.011433419 -0.04342597 -0.009693381 0.015355873 0.15278478 0.015806392 -0.08834499 -0.054949176 0.089325905 -0.06029479
1 0.52237666 0.2961336 0.053032886 -0.014296003 -0.035753485 -0.08688863 -0.06051619 -0.029425694 -0.089269705 -0.14048058 -0.07589361 -0.039004005 0.26081333 -0.052228272 -0.10130785 -0.0016352282 0.18550764 -0.012972754 0.7686835 -0.049768236 -0.049848016 -0.0026781396 0.3795712 -0.094672576 -0.06257783 -0.08176333 -0.036341477 0.27332178 -0.15813877 -0.091361396 -0.07791679 -0.109069124 -0.014991465 -0.07430317 -0.034718808 -0.037750702 0.07556814 -0.011449292 0.28059632 -0.07689611 0.1520562 0.26565337 -0.07033015 0.3320182 -0.066719115 -0.033212423 0.06265451 -0.05998211 -0.069823615 -0.114174865 -0.053907137 -0.12093884 -0.06317581 -0.03804578 0.011864334 -0.04421415 -0.13477941 -0.0053307326 -0.0886867 0.5264978 0.020630598 -0.052934315 0.3662004 -0.1244533
2 -0.036869556 -0.02924583 0.4507932 0.120089084 0.37007096 -0.047990095 -0.016049063 -0.09175902 -0.04299915 0.35241565 -0.15047097 -0.03815418 -0.041605595 -0.044059638 0.04687511 -0.020046895 -0.051603258 0.06269318 -0.0626021 -0.06692874 -0.084570624 -0.0039536725 0.60023683 -0.055721372 -0.11722561 -0.046588264 0.02428182 0.21482895 -0.13724132 -0.014391898 -0.05523613 -0.05834758 0.33811566 -0.07461479 -0.09182502 -0.07461708 0.75521386 -0.029989628 0.027993679 -0.07716421 0.2276591 -0.044078078 0.005967632 -0.030106694 -0.076835595 0.04953152 -0.13771881 -0.04781809 0.73421067 -0.0026824395 -0.09497015 -0.13607806 0.35192153 -0.020391427 -0.041690234 0.3588839 -0.10113766 0.08561148 -0.020607809 0.14382547 0.60355914 0.4719975 -0.0716163 -0.02728425
3 -0.062220216 -0.0035430216 -0.11207449 -0.07659809 -0.06922046 0.38743338 0.7013514 -0.0527761 -0.025314644 -0.07755878 -0.07151156 -0.075303115 -0.027097946 0.5414752 0.102390066 -0.00723058 -0.007918238 -0.024118466 -0.025613386 0.1719085 -0.09698434 -0.03336208 0.031779822 -0.03435131 0.15940775 -0.10482395 -0.0757819 -0.043210324 -0.049930163 0.19082893 -0.090051934 -0.07194563 -0.12714477 -0.08688014 -0.1008847 -0.0994189 0.40311676 0.38490573 0.76685154 0.22244564 0.30209503 -0.09546256 -0.06457188 -0.03853762 -0.01920421 -0.004656483 -0.16530082 -0.08360096 -0.2005472 -0.04349781 -0.09303539 -0.13242245 -0.009059622 0.014415571 -0.069438666 0.26383513 -0.080503836 -0.059225358 -0.13450995 0.21084723 -0.018878946 -0.0016089274 0.6318025 -0.104353026
4 -0.049940478 -0.028267086 -0.11050899 0.44426832 -0.024616292 -0.039800942 -0.0060210032 0.13044718 -0.048209306 -0.071801096 -0.031347714 -0.11090934 -0.057828005 0.2755351 -0.030594159 -0.0011078567 -0.041723672 -0.027017659 -0.038186856 -0.062997945 -0.0131649 -0.020976488 0.21499169 0.038056165 0.16043349 -0.033941105 0.119601294 -0.05503824 -0.045426935 -0.08845034 -0.03503413 -0.0871865 0.36386594 -0.006954018 0.13978253 0.20137446 1.2526695 -0.0065130265 0.091023214 -0.04297339 0.0781348 -0.0065762624 -0.00782832 -0.038269203 -0.048748095 -0.019225888 0.19003278 0.029846065 -0.07758392 -0.040821802 -0.043226987 -0.057444762 0.31264266 -0.046969973 0.39365804 -0.06462494 0.0010360517 0.07765872 -0.040795553 -0.049478766 0.144821 -0.03659416 -0.07313486 -0.012490996
5 -0.0709975 -0.0368183 -0.09177494 0.09935511 -0.06858627 -0.052386034 -0.070625655 -0.037947554 0.3552199 -0.04168062 -0.07554875 -0.031004114 0.09023988 0.017291881 -0.04025876 0.0028630192 -0.03968403 -0.058598794 -0.027454425 -0.030241812 -0.034993704 -0.014912161 0.19429097 -0.037455585 -0.068510845 -0.03381583 -0.04458856 -0.018261619 -0.02114619 -0.03166016 -0.04088795 -0.044866722 -0.01549006 -0.029370585 -0.056083657 -0.048710085 0.82575995 -0.007659388 0.6878759 -0.02582307 -0.015071744 -0.03351668 -0.0004670262 0.34598225 -0.021775043 0.23964846 0.18899831 -0.018789783 -0.09370193 -0.041371305 -0.047252886 -0.09347834 -0.020284014 0.07532967 -0.006740772 0.16434744 -0.029581307 -0.0049396507 -0.08499873 -0.019326573 0.045113225 -0.006853589 -0.09824649 0.65303546
6 -0.03518207 0.39058945 -0.06534318 0.022205517 -0.015252943 -0.12423966 -0.0894421 0.29735953 0.1837053 -0.026881872 -0.025903348 -0.059669554 0.7138172 -0.03679162 -0.04800165 0.21962224 -0.039660517 -0.057961356 0.7534161 0.6723208 -0.078711264 -0.026487662 0.4945716 -0.031831797 -0.11107526 -0.043820556 -0.11576396 0.44224554 -0.22227691 -0.026812738 -0.10887853 -0.04670675 0.45243385 -0.07841275 -0.035194278 -0.055937868 -0.0414244 -0.06309881 0.47890645 -0.06650368 -0.029703258 -0.055272687 -0.019311624 -0.04891967 -0.07976009 -0.015459987 -0.04629169 0.01626984 0.08709836 -0.01614927 -0.098295495 -0.061028846 -0.047255445 -0.03807017 -0.07556883 0.57321 -0.12548196 0.23986037 0.08597275 -0.028610233 -0.0017698001 -0.09735801 0.41419554 -0.075210884
7 0.3962718 0.0019316082 0.050515622 0.4699796 -0.044286516 0.23432747 0.49724573 -0.07708716 -0.05984074 -0.030673718 -0.03755189 -0.004231876 0.09080738 -0.030190362 -0.033550344 0.050106905 -0.060429353 -0.049415223 -0.0067243627 -0.06262948 -0.017979382 -0.06816496 0.07241019 -0.0032569375 -0.023312785 0.057367772 0.16121201 -0.064577304 -0.03364097 -0.00090327096 -0.0814126 0.08078546 -0.024122654 0.085658655 0.54123294 -0.077551685 -0.012044544 -0.0255253 0.13875031 -0.012037863 -0.0075701484 0.01114553 -0.05515651 -0.041840266 -0.028607532 -0.003172705 0.110360704 0.14727767 0.021789866 -0.020796083 -0.03385817 -0.07062405 -0.014734707 -0.071503356 0.41216338 0.20494878 0.4200138 -0.070061386 0.26727498 -0.02902399 -0.07303912 -0.11081115 -0.07474963 -0.053949337
8 -0.053134043 -0.008680672 0.31109416 -0.025409454 -0.012380004 -0.028170055 0.015110154 -0.026935978 -0.09175407 -0.10475788 -0.09507458 -0.038655262 -0.026667958 -0.036717974 -0.034587707 0.0636192 -0.017933145 -0.09132802 -0.0452841 0.37983802 -0.007661368 0.031017985 -0.012893118 -0.06142969 -0.080947146 -0.046204817 -0.08088789 -0.112326615 -0.090032145 -0.009016632 -0.0496006 -0.045732662 0.628207 -0.09852708 0.04085174 -0.06784669 -0.013587661 0.45313612 0.29870227 -0.08883651 -0.026580503 -0.010021105 -0.006601244 0.09700021 -0.02399895 0.8182382 0.39241043 -0.03008449 -0.092982896 0.2220121 -0.07151817 -0.13490565 0.84737414 -0.07580453 -0.028775547 0.05643712 -0.081331804 0.15177815 0.029101186 0.27699074 0.37030512 0.25045037 0.48858872 -0.01240586
9 -0.051037915 -0.08112492 0.34688848 0.39798936 -0.07358718 -0.08851106 -0.08760019 -0.020727528 0.7968866 -0.06641551 -0.07660883 -0.08385228 0.18374503 -0.01837081 -0.0702443 0.030050129 -0.117029265 -0.07010913 0.11673729 0.08412369 -0.033981707 -0.0015887514 0.19953512 -0.026451934 -0.038091585 0.04664433 -0.07889563 0.2603713 -0.12454629 0.3515897 -0.00924768 -0.030267647 0.24611609 -0.090243675 -0.047718626 0.7237421 -0.03397735 -0.063641705 0.2631417 -0.008511809 -0.025027141 -0.067987725 0.13993621 -0.1024516 -0.031857204 -0.0058119996 -0.09044672 -0.07847922 -0.039975837 -0.004463608 -0.044890877 -0.009811673 -0.042019423 0.16002859 -0.09023515 -0.07270011 -0.049325984 0.3378253 0.24912351 0.003614386 -0.05977229 -0.027962124 -0.024280159 0.019673597
10 -0.014050307 -0.010509463 -0.040755343 -0.021785712 -0.026369229 0.01044607 0.32110736 -0.024527065 -0.0181858 -0.03767337 -0.08244252 0.098070815 -0.037933726 -0.022339953 -0.038821086 -0.012226671 -0.015006231 -0.0612651 -0.006530866 -0.023523172 0.113304764 -0.020320507 -0.015599011 -0.01524052 0.17884053 -0.043822493 -0.028710818 -0.055143263 0.057069592 0.034623425 -0.018823085 0.092148945 -0.035266463 0.14054865 -0.017558208 -0.027242646 -0.018736651 0.008072274 0.16178028 -0.009933809 0.07011339 -0.020689083 0.038162854 -0.049818505 -0.027573664 0.27284017 -0.02456937 -0.037713192 0.008994827 -0.04198795 0.096143916 -0.017205138 0.044245422 0.12509292 -0.048481543 -0.019438824 -0.07326738 0.02972779 -0.009837675 -0.0061157267 -0.043511722 -0.015027358 0.09944855 -0.02321451
11 -0.102263846 -0.11815689 0.91329724 0.50675195 -0.13398619 -0.11526074 -0.13118887 -0.022833146 0.752226 -0.120296314 -0.092043616 -0.18552221 0.26998985 -0.058749404 -0.107700266 -0.03519316 -0.2060169 -0.11018548 0.0628628 -0.0652693 -0.09819805 0.024951074 0.18618296 -0.03630916 -0.0128807295 0.18074347 -0.0812385 0.07175381 -0.13444093 0.7872012 0.31004634 -0.021367928 0.4976691 -0.10778196 -0.07591944 1.2244799 -0.029095465 -0.11654266 0.3946547 0.03351742 -0.02680477 -0.07741084 0.56261605 -0.12624332 -0.0044195247 -0.03656366 -0.07816856 -0.2181278 -0.033408683 0.04406238 0.10223478 -0.02739721 -0.09583888 0.035246756 -0.06425478 -0.1963521 -0.047907885 0.20802538 -0.010318015 -0.013730645 -0.14701447 -0.0672773 0.10055204 0.11710281
12 -0.0025123488 0.03947963 0.23354848 -0.020638347 -0.009978712 -0.008956946 0.0033627055 -0.019282239 -0.08852982 -0.08002639 -0.06039933 -0.027966527 -0.008949961 -0.051910777 -0.03976185 0.04437978 -0.00043271258 -0.07621963 -0.048745334 0.20045502 -0.01544445 0.10013482 -0.013074246 -0.03289754 -0.07297971 -0.044414286 -0.061853208 -0.099799894 -0.08068868 -0.0014327815 -0.04798771 -0.05329829 0.4418783 -0.07463401 -0.0011714733 -0.0581337 -0.021219246 0.35734338 0.24302626 -0.038777232 -0.0010482097 -0.014375922 -0.018346978 -0.029325679 -0.00984954 0.6393076 0.23622122 0.0027846927 -0.07319906 0.3734457 -0.043005273 -0.097392514 0.5996221 -0.05772037 -0.014231673 -9.0644324e-05 -0.026744938 0.33982164 0.11332939 0.32253662 0.20129448 0.28972465 0.38331783 -0.055412143
13 -0.06639012 -0.012886529 -0.0783119 -0.04809734 -0.029536603 -0.06522812 -0.023161642 0.16294885 -0.020119207 -0.05008478 0.29461053 -0.00021411851 0.45468763 -0.02028808 0.21255492 -0.018063972 -0.04408209 0.17612527 -0.034124833 0.2946107 -0.06661012 -0.018293856 -0.0041539753 -0.03048206 -0.042612623 -0.015773445 -0.09837289 0.3598561 -0.019319005 0.23044531 -0.057446655 0.21345687 -0.006246495 0.12830904 -0.09048879 -0.033043783 -0.03317212 -0.02037902 0.11871266 -0.019732941 -0.010054029 -0.0038037521 0.09721964 -0.05081662 0.18382148 0.20770976 -0.07555462 -0.059041377 -0.08035389 -0.041759796 -0.0608445 -0.03992948 -0.035472933 -0.033051457 -0.07935335 -0.045667324 -0.0029780783 -0.03640233 -0.016030747 -0.045418877 0.10486877 0.042272333 -0.06612321 -0.05901749
14 -0.0070914524 0.13972926 -0.09736494 0.27217278 -0.013228324 -0.038997676 -0.071313016 -0.012563834 -0.08973523 0.30840927 -0.070378765 -0.051697012 -0.019193642 0.14041027 -0.06493882 0.00573004 -0.0319116 0.10648434 -0.05551183 -0.062411614 0.27590626 0.0767513 0.3173808 -0.007251703 0.6683986 -0.041629933 -0.032359015 0.085792616 0.09469473 -0.09338399 -0.028509442 -0.070408404 0.24613579 0.24091369 -0.014692052 0.21803339 0.80030817 -0.03188483 -0.0073851766 -0.033552412 0.014121593 -0.037895918 0.24461368 -0.025614185 -0.040867995 0.09381616 0.057107918 0.12665303 -0.009128059 0.023585789 -0.052395053 -0.09126098 0.29006287 -0.0273845 -0.02079486 -0.036972683 -0.036702435 0.039056756 0.014112967 -0.037715424 -0.012739073 -0.06895888 -0.07539522 -0.052578237
15 -0.069475695 -0.0020155534 -0.005505659 -0.035923477 -0.020943224 -0.032947745 -0.03745303 -0.055923212 0.35075742 -0.122374296 -0.08159832 -0.07780262 -0.08262743 -0.034598056 -0.09867757 0.11570897 -0.07573554 0.16724889 0.40493792 -0.04141694 -0.0008703495 -0.054426312 -0.003828477 -0.042606182 -0.114006214 -0.08651512 -0.088884436 -0.023033483 0.4402688 -0.05674401 -0.008972949 -0.044289008 0.43156376 -0.06216997 -0.056062657 -0.08716327 0.5114396 0.52023965 0.039321054 -0.050107267 -0.019025037 0.25602695 -0.06828429 -0.14588702 -0.047356345 -0.04577317 -0.0045455946 -0.02599341 -0.063595705 0.25098684 0.04614013 -0.15749887 0.91615874 -0.066960745 -0.00601089 -0.04226931 -0.07983935 0.038289145 0.6562158 -0.01931686 -0.056232035 0.02430892 0.28272647 0.7397193
16 0.35209623 0.41839793 -0.020825697 0.020054717 -0.052746754 -0.14967516 -0.13208559 0.095460765 -0.042449635 -0.12561254 -0.08010451 -0.038667496 0.4210582 -0.050247062 -0.09616418 0.14403853 0.14165819 -0.025348091 0.9319064 0.22295097 -0.088347726 -0.0045147045 0.4871022 -0.11623897 -0.111176305 -0.083545595 -0.08888512 0.5696387 -0.25746256 -0.070506 -0.08027226 -0.09554905 0.33352396 -0.101385616 -0.055236377 -0.046015363 -0.033916023 -0.052078117 0.45590293 -0.087306775 0.07927472 -0.013320479 -0.09183182 0.18543726 -0.06159357 -0.027165974 -0.02919626 -0.046336927 -0.04002003 -0.10388353 -0.08084374 -0.12318628 -0.09999852 -0.04347416 -0.058917917 0.08365451 -0.15042539 0.22251207 -0.058361232 0.5730388 0.0016277602 -0.084860474 0.69017076 -0.13042228
17 0.13730441 0.16379224 -0.058313258 0.032297827 -0.04934245 0.18487217 0.17061855 -0.05740523 0.47805914 0.42588493 -0.0776929 0.42485166 0.07820376 -0.012096736 -0.078496814 -0.014300148 -0.057520103 -0.041697774 0.237522 -0.021534098 -0.035102915 -0.03049014 0.119068734 0.21935627 -0.017371396 -0.08974166 -0.070736915 -0.021008987 0.09493712 -0.09121348 -0.04890129 -0.06218947 -0.09648137 -0.08617791 -0.044859767 0.16510282 -0.0043709013 0.102919035 0.48011696 0.042239994 0.033677097 -0.09945875 -0.09103582 -0.039965656 -0.02938046 0.49779722 -0.06250655 -0.076836586 -0.08964213 -0.027897386 -0.012279935 -0.093466945 -0.023971137 0.19912751 -0.06963296 -0.04843002 -0.11113522 -0.0398972 -0.057416655 0.30557922 0.24774393 0.025546156 0.055217862 -0.06557042
18 -0.0044729677 0.13301656 -0.059881795 -0.009428585 -0.03760641 -0.059618432 -0.12666442 -0.039459653 -0.03710434 0.20555212 -0.104947224 -0.03487427 0.6516722 -0.012467737 -0.114780165 0.041857816 -0.04476041 0.22857153 -0.057903197 -0.033909414 0.31579196 0.2904907 0.13574147 -0.0010479302 0.6484035 -0.052052528 -0.052193534 0.51684004 -0.036833894 -0.059681714 -0.024706705 -0.038340118 -0.020729288 0.13842474 -0.0013373295 -0.036740515 0.12533802 0.06972704 0.15133597 -0.055508476 -0.044326384 -0.058134384 0.4054298 -0.007287163 -0.0076122317 0.55104184 -0.027199313 0.15175009 0.005460525 -0.008268385 -0.041107226 -0.11015292 0.03144882 -0.027203599 -0.0909311 -0.008966513 0.13391833 -0.010152772 0.26750255 -0.05842448 -0.033835188 -0.10181947 0.010551469 -0.076540776
19 -0.071879834 0.10128121 -0.052408665 -0.0028698265 -0.08343229 -0.16108501 -0.13226269 -0.014817299 -0.050403327 -0.08754319 -0.08137678 -0.06841224 0.5011862 -0.035487194 -0.11583602 0.15714106 -0.0955553 -0.047761675 -0.04993334 -0.004318669 0.54154044 0.27404314 0.19483536 -0.06392622 0.7892157 0.28374913 -0.102780595 0.23468047 -0.16378556 0.18044527 0.4370797 -0.024919402 -0.012110004 0.08337096 0.33625144 -0.07827771 -0.041261476 0.31948376 0.22685438 -0.062308516 -0.04871222 -0.013983143 -0.01871106 -0.0016784616 0.068861015 1.238363 0.14792897 -0.059830498 -0.031569757 -0.11587902 -0.03232482 -0.18659656 0.12035584 0.3864684 -0.081500135 -0.09068709 0.11153526 -0.011939413 0.37745857 -0.056451734 -0.08071149 -0.032858677 0.9065575 -0.10410952
20 0.2486402 -0.026410827 -0.07514466 -0.00211451 -0.043649744 -0.079266526 -0.05450945 -0.025147859 -0.05057993 -0.087500975 0.73651814 -0.03454369 -0.037356388 -0.007409672 0.27061105 0.15170892 0.3902601 0.025564827 0.08415525 -0.077978276 -0.09622114 -0.0083165 0.25880808 -0.006956125 -0.042738892 0.23339482 -0.023131657 -0.01679824 -0.010285172 -0.01796033 0.051144987 -0.002504043 -0.03759203 -0.013596847 -0.07662933 -0.06259571 0.11480971 -0.010013321 0.1270681 -0.05641442 -0.011665633 0.052182365 0.3739034 -0.06268487 0.34491062 0.057800017 -0.037215468 -0.014943247 -0.11776401 -0.023575043 -0.058107205 -0.056943096 -0.009761688 0.06945757 -0.068385735 -0.09863662 0.04109923 -0.020128068 -0.028384928 -0.013890303 0.14282459 -0.039194133 -0.014003882 -0.0408505
21 -0.114415884 1.004776 0.009872057 -0.10480851 0.06911932 -0.0335202 -0.011865126 -0.09849907 0.37890992 -0.04093681 -0.10322558 -0.040935956 0.62595314 -0.08419757 -0.041204404 -0.0014956066 -0.096446134 0.1374303 0.07846866 -0.06125191 -0.027192319 0.3269804 0.15916553 -0.096279204 0.22226885 -0.10428765 -0.09138451 -0.03878193 -0.0670787 -0.08196848 -0.062696725 0.3949618 -0.05106717 -0.0057394644 -0.02791045 0.05468914 0.11357744 -0.042498827 0.035641495 0.39631596 -0.002716505 -0.06331458 -0.04780831 0.22772576 -0.06886493 -0.02456688 -0.09266975 -0.1020592 0.29845232 -0.121991135 0.6443 -0.1156491 0.19817285 -0.018107258 0.10504626 0.08575934 0.061514392 0.30332497 -0.004200204 -0.022331594 -0.092086606 0.29015467 0.1335166 -0.05722462
22 -0.060846698 -0.0038844116 -0.007891621 -0.025287857 -0.016232533 -0.014338431 0.24192436 -0.027328659 -0.01429625 -0.046465073 -0.09452757 -0.021875773 -0.025422359 -0.02834711 -0.058153667 -0.01990788 -0.011590603 -0.022226939 -0.016250482 0.088293925 0.0475121 -0.009061202 -0.021053215 -0.029468358 0.21936469 -0.060457952 -0.060822107 -0.044038948 -0.038370825 -0.0065768966 -0.007181041 -0.012722859 -0.03653137 0.09191657 -0.024344008 0.0061550746 -0.0118687665 -0.028068587 0.19015709 -0.009125906 -0.0019926312 -0.05400948 0.043379676 -0.03333063 -0.019469073 0.20389219 -0.014379728 -0.048282117 -0.016750887 -0.05413686 0.2351982 -0.05066038 0.051388495 0.1639543 -0.038543057 -0.041088156 -0.04580524 0.03850852 -0.009214005 0.1970759 -0.06854087 -0.008225491 0.26074147 -0.025588257
23 -0.036225136 -0.011147662 -0.05344237 -0.020601375 -0.03413162 0.16694754 0.23049779 -0.023340074 -0.017964762 -0.041526124 -0.009061119 -0.046525117 -0.025269067 0.37868354 0.06789369 0.079235464 0.092377156 -0.05273329 0.042329293 0.23748296 -0.03180784 0.019423831 0.04681856 -0.027059449 0.031553753 -0.050059356 -0.04258379 -0.07104428 -0.019159181 0.14269231 -0.037524454 -0.03262512 -0.03788909 -0.028898228 -0.007881779 -0.025949458 0.18703371 0.13800134 0.26900685 0.088443086 0.04005433 -0.023198524 -0.04349976 -0.020669032 -0.0019750793 0.066700816 -0.022245562 -0.032482892 -0.08410605 -0.044392522 -0.028664708 -0.07049115 -0.011771828 -0.009592537 -0.015345967 0.14974944 -0.047568716 -0.030431598 -0.033146977 0.17695001 -0.020747017 -0.010277582 0.23923926 -0.03968841
24 -0.10828997 -0.046952408 1.1807874 0.22446129 -0.106130086 -0.09336296 -0.10453705 -0.07797747 0.3161643 -0.11124951 -0.12226899 -0.15967105 0.058704153 -0.09406974 -0.10466578 -0.009484635 -0.21531685 -0.062279094 0.13283616 -0.07499676 -0.06149558 0.08881639 0.009679875 -0.041828524 0.06700338 0.07189905 -0.09883406 -0.020397846 -0.09122353 0.44132626 0.44905525 -0.005251365 0.59635496 -0.09473759 -0.08251045 0.9740638 0.062352885 -0.06265583 0.15049423 -0.013042738 -0.016759433 -0.064907484 0.10257773 -0.12976913 0.14154594 -0.05050486 -0.01683637 -0.21909419 0.022653999 0.12668705 0.11193466 -0.11598402 -0.04117032 -0.046387613 -0.065373875 -0.1404661 -0.0031443187 0.0829067 -0.061912894 -0.029257162 -0.13584907 -0.08391946 0.5578203 0.25538585
25 -0.14302196 0.002842761 -0.11088705 -0.035249263 -0.07335477 0.42454347 -0.03413562 -0.002839824 -0.021350438 -0.06364157 -0.073944055 -0.09272739 -0.07857099 0.2660217 -0.034576092 0.063163646 0.49898377 -0.018169804 -0.026538601 -0.023545066 0.13148184 -0.005849562 0.35285544 0.042656835 0.7288526 -0.08493338 -0.0026216756 -0.15998846 -0.07654277 -0.1138518 -0.075468145 0.44756448 0.4391808 -0.025026595 -0.0050685504 0.034096923 0.53384876 0.44037393 0.3386103 0.12970395 -0.023744568 -0.06463592 0.48176107 -0.013097072 0.0054741744 0.048243515 0.07099521 -0.022852805 -0.106286265 0.35794502 0.38670197 -0.052058842 -0.0030595828 -0.065722786 -0.052384704 0.4017648 -0.073923945 0.9658011 -0.03794325 -0.04574094 0.31225485 -0.027666137 -0.022516534 -0.06042091
26 -0.11318206 -0.02612992 -0.038761508 0.023932923 0.3798723 -0.028270802 -0.036060933 0.5223897 0.20043491 -0.024967581 0.15239309 -0.07483791 -0.069757886 0.21417361 -0.02439153 -0.015419719 -0.0024119446 0.05047578 -0.053986114 -0.069621526 -0.011456358 -0.011679273 0.040321033 -0.0071940124 -0.022710893 -0.06650504 -0.020607343 -0.14391921 -0.11046844 -0.0626249 -0.07970829 -0.024586527 0.6036371 0.35113484 0.48579276 -0.061489612 0.2373034 0.02751963 0.121938646 -0.039437007 -0.03317612 0.07756383 0.33012167 0.20176594 -0.038418222 -0.002240276 -0.022752566 -0.013630062 -0.06621338 -0.030455945 -0.020692527 -0.061271925 -0.049297955 -0.05678546 0.14889942 0.14918517 -0.02859278 -0.009542004 -0.027510056 -0.0129594 0.42028594 -0.02387085 -0.00784556 0.36156258
27 -0.03382636 -0.04608087 0.09112735 0.26115003 -0.017109541 -0.050698567 0.19945349 -0.03139996 -0.03158238 -0.044225745 -0.046308827 -0.10633146 -0.011759184 0.016136613 -0.055665266 -0.021298919 0.12886107 0.20701058 -0.059628733 -0.06579016 -0.061352182 -0.022229923 0.71620744 -0.019942688 -0.07875416 -0.050934065 0.1890384 -0.019222595 -0.101616 -0.05246348 -0.06557339 -0.0838968 0.46291694 -0.08791671 -0.031214789 0.014331439 0.93961215 -0.027237302 0.03225868 0.23000789 0.24998307 0.05566647 0.14207835 -0.009522891 -0.118124425 0.013835007 -0.090164386 -0.06424813 0.44033054 -0.052850712 -0.05456095 -0.12538278 -0.03524703 -0.063685775 -0.030182457 0.16752471 -0.076116286 -0.030995442 0.44339347 0.13362971 0.13682425 0.0017982209 -0.12942529 -0.047875248
28 -0.048690613 -0.019393882 -0.008467016 0.14217085 -0.030777982 -0.012050636 -0.061229873 -0.08433364 -0.03315292 -0.045868155 0.034088545 -0.07514202 -0.04645523 0.12762825 -0.056731503 -0.0220365 -0.037284542 -0.035345856 0.0026341877 -0.050652385 -0.0075194994 -0.015935604 0.05992002 -0.037048634 -0.064320765 -0.050187588 -0.0025002148 -0.10019606 0.15946564 -0.07646971 -0.060436405 -0.02036177 -0.02257302 -0.05231128 0.06037439 0.14987999 -0.013185868 -0.022537967 0.15754503 0.098106496 -0.023808813 0.020069081 -0.06925998 0.14455058 -0.020533046 0.7738143 -0.032668952 -0.053968944 -0.05535422 -0.032138962 0.34465113 -0.077106975 0.015106073 -0.045966953 -0.039474975 -0.046896495 -0.0041065486 -0.00898487 0.079836816 0.003124338 -0.048090067 0.1999251 -0.045951273 0.110093504
29 -0.067839235 0.1038046 -0.03769074 0.14965206 -0.05898363 -0.055024322 0.041593216 -0.023250097 0.06857959 -0.0046310634 -0.017033799 0.4842095 -0.023653187 -0.038708966 -0.107695 0.032379095 -0.08955425 -0.067969576 -0.028903175 -0.06825899 0.79867554 0.09854755 0.3811106 0.9934442 0.01378693 -0.056918025 -0.027503848 -0.008131827 0.46580964 0.026405193 0.06984448 -0.06101522 -0.06373486 -0.07159962 0.16697165 -0.083371356 0.13420616 0.15235469 0.044807825 -0.067122936 -0.010392636 -0.016077664 0.6629947 -0.092041425 -0.029950438 0.092829295 0.27516297 0.3283456 -0.08121949 -0.043559704 -0.0629484 -0.022938222 0.35941795 0.34494224 -0.06654081 -0.06878843 -0.124192156 -0.04392508 -0.03485853 -0.016261106 0.2261716 -0.06523397 -0.07361031 0.048741896
30 -0.04086634 -0.012810721 -0.059829082 0.7922783 -0.03897761 -0.026844695 -0.0860857 -0.045733273 -0.048467435 -0.06174424 0.19136478 -0.07181492 -0.059738237 -0.016083425 0.22991319 0.055880796 0.58093715 0.22370605 -0.015413808 -0.10325316 -0.040757902 -0.00088566507 0.26100853 -0.021973249 -0.016565934 -0.039519124 0.057991363 -0.06502702 -0.011012812 -0.02176142 -0.004203572 -0.030147914 0.06695568 -0.04099558 -0.001894913 0.020061776 0.029177459 0.041387834 0.29020762 0.46509212 -0.050931253 0.45382825 0.38815588 -0.0035333366 0.021093758 0.025545163 -0.013174963 -0.017489154 -0.115111224 -0.052313637 -0.033962127 -0.060049888 -0.041402724 0.22383596 -0.032480117 -0.085825436 -0.030192623 -0.022929177 -0.00993962 0.43607345 -0.026202768 -6.530564e-05 -0.047409594 -0.010166611
31 -0.03628976 0.12392795 -0.0380044 -0.050472785 -0.050965775 0.035024896 0.119763784 -0.02676623 -0.029071322 -0.09972123 -0.06112956 -0.02953738 -0.15347742 -0.06009754 -0.030147446 0.5106679 -0.020846 -0.034985106 -0.01817113 -0.05153091 -0.03582653 -0.05563096 0.10620428 -0.059870806 -0.038284328 -0.04228821 -0.03423127 -0.018132651 0.52770346 -0.06738781 -0.040305708 -0.03817758 0.24270727 -0.04825688 -0.054972794 -0.09315738 0.21954522 1.1362554 0.46076947 -0.050623026 -0.012568466 0.11845026 -0.08516706 -0.09033644 -0.047799893 0.2346881 -0.008936232 0.18527919 0.03817837 0.3415118 -0.047232743 -0.09167672 1.2774785 -0.086888455 -0.060115732 0.066661425 -0.05138662 0.08148327 0.15825306 0.0026040967 -0.00029576194 0.37823907 -0.041845955 0.12844864
32 -0.14073455 0.009612363 -0.0010676122 -0.029930502 -0.06407192 -0.06511261 -0.0027182456 -0.038273692 0.31661955 -0.016806265 -0.052441146 -0.038371902 -0.001652355 -0.059955653 -0.0006588848 -0.0018367366 -0.04292927 -0.049980283 -0.03109247 -0.0051318887 -0.08403442 0.00521087 0.05622337 -0.08302013 -0.04402457 -0.0966621 -0.11187469 -0.047883872 -0.072843626 -0.06095285 0.15951227 -0.057148475 0.024693603 -0.010924388 -0.04474594 0.29644775 0.21022728 -0.04740361 0.47009563 -0.07054732 -0.014766008 0.1914055 0.13269663 -0.02315242 0.8771739 0.379797 0.19558707 -0.08887718 -0.014141822 -0.0005909504 -0.004867542 -0.13613506 0.014932167 -0.036262404 0.411161 -0.10518288 -0.16762753 0.013894343 0.002106321 0.13389415 0.25397825 0.27834743 -0.0603601 0.9879424
33 0.11073247 0.16567735 0.46746886 -0.007865959 -0.031955343 -0.029082805 0.09352778 -0.036037784 -0.06911382 -0.09604559 -0.018973012 -0.030949507 0.26037297 -0.05180451 -0.07700368 0.10260739 -0.038818862 -0.0014267594 0.33289737 -0.010437897 -0.0016147796 -0.02395331 0.3940426 -0.064492196 0.15174241 -0.052762028 -0.043043926 0.049588047 -0.013186409 -0.048771407 -0.07767074 -0.059680488 -0.026782367 -0.054610755 -0.013521736 0.06467936 0.12792546 -0.0074729337 0.07932025 -0.03816213 0.17169707 -0.024273835 -0.0007166542 0.1869018 -0.051006224 0.059137054 0.27033457 -0.043854248 -0.09887375 -0.072500095 -0.0065163076 -0.119840026 -0.008809566 -0.041077975 0.061991077 -0.05182388 -0.09208657 0.022249807 -0.05737951 0.28894398 -0.031532984 -0.045077033 0.050575063 -0.08107632
34 -0.031136796 0.1685669 0.08613902 -0.03866926 -0.042727567 -0.070984155 -0.0038768481 0.25339466 -0.06822547 1.0613132 -0.12490717 -0.052093156 -0.043212157 0.19371897 -0.09556371 -0.025500879 -0.028415186 0.026619665 -0.049022317 -0.009261055 0.92083573 -0.005482217 0.48683164 0.003543112 -0.04205924 -0.08817897 0.5688816 -0.096356735 0.4929704 -0.034698393 -0.112883404 -0.10762111 -0.059485286 0.4721869 -0.040426042 -0.09075145 -0.008999375 0.63429636 0.0021797232 -0.10016624 0.06742817 0.531482 0.42407078 -0.084413126 -0.038560648 0.08122021 0.42896566 -0.051482268 0.09406318 0.59645975 -0.062046427 -0.09421452 -0.025562832 -0.08284639 0.35256767 -0.093722366 -0.035221543 -0.019487035 0.5397024 -0.08464623 -0.056856085 -0.067655645 -0.07567968 -0.057737824
35 -0.08974343 -0.044401456 -0.08323032 0.2541479 -0.004175203 -0.072605416 0.32451174 0.3888648 -0.01914004 -0.084182754 -0.02618811 -0.1182567 -0.10267513 0.45211646 -0.041004404 -0.023176854 -0.06043045 -0.018463468 -0.04339988 -0.07830889 0.04444596 -0.043250483 0.09203576 0.058546256 -0.06691686 -0.059849944 0.30840367 -0.111056745 -0.088851355 -0.10832607 -0.09361341 -0.10608452 0.5032718 -0.005323741 0.2653954 -0.032481346 1.2864195 0.30208516 0.2278677 -0.06381245 0.09962416 0.29903954 -0.0059847306 -0.047530483 -0.08535018 0.03427258 0.19645211 0.20301946 -0.08359344 -0.03885925 -0.070586406 -0.045133453 0.24189375 -0.07538597 0.8553909 -0.039131116 0.10711475 -0.0049656774 -0.07196779 -0.053443868 0.36541095 -0.052452844 -0.0699017 0.2694523
36 -0.11834895 0.21466607 -0.12159302 -0.047793146 -0.09916108 0.6485831 -0.04274172 -0.029159987 -0.025351847 -0.045626573 -0.08629099 -0.080353715 -0.022094755 -0.003025396 -0.056079008 0.12234523 0.5291449 -0.01718457 -0.030694226 -0.028221149 -0.006370162 -0.011114384 0.4589311 0.085430756 0.7417004 -0.08359718 -0.03026929 -0.15332882 -0.023940384 -0.106065534 -0.07951558 0.49842158 0.5229674 -0.022520902 0.17881289 0.001973278 0.6103968 0.72894007 0.43504208 0.69139284 -0.028539691 -0.07336451 0.5792245 0.06970617 -0.0024586995 0.08531789 -0.007533046 0.0006261328 -0.08975481 -0.019393707 0.52495986 -0.040365398 -0.020720663 -0.031439465 -0.06551439 0.5290389 -0.08890158 0.5643537 -0.021798154 -0.052058723 0.13103878 0.15068164 -0.04766464 -0.056820985
37 0.36529672 -0.036771048 -0.097106054 -0.017751949 -0.0660835 0.08895376 0.83653086 -0.037311595 -0.032329626 -0.030053092 -0.043241017 -0.029569913 0.11853563 0.12281325 -0.100374535 -0.025512883 -0.04777248 -0.062163856 -0.0013139764 -0.03784764 0.14490798 0.19338709 0.22044726 0.08745227 -0.017218469 0.0017589421 -0.04252986 -0.110143505 -0.00069072517 -0.04450083 0.24950801 0.12725753 0.19362332 -0.026350124 -0.038490064 -0.06592665 0.03184331 0.04998085 -0.0047183796 -0.06606221 0.3357624 -0.09492392 -0.018140135 -0.099565744 -0.021315122 0.012462197 -0.04371354 -0.05588254 -0.07414157 -0.041495144 0.2897258 -0.11580111 -0.018454067 -0.06336551 -0.021949429 -0.077173166 -0.17598324 0.031995192 -0.062455215 0.40975866 -0.022502964 -0.08570567 0.04303448 -0.041817136
38 0.7085878 0.06337174 0.31322092 0.8161358 -0.03523289 -0.022864925 0.17099263 -0.042615652 0.39913565 -0.0515691 0.10921671 -0.018248532 -0.055417057 0.072688945 -0.082633734 1.0559523 -0.11027093 -0.068101585 -0.027662618 -0.012101997 -0.001893482 0.29781288 0.18606451 0.13021587 -0.041375365 -0.040321663 -0.017479181 -0.06641239 -0.10750319 -0.15829583 0.13486457 -0.06709828 -0.013962343 -0.015300467 0.7123891 -0.000689186 0.6543687 -0.014291096 -0.021496754 -0.07812194 -0.0453369 0.13465348 0.1674835 0.35947895 -0.02487033 -0.0029280696 0.6151175 0.15215999 -0.109622635 -0.05759859 -0.0040554353 -0.10956886 0.022111965 -0.06746082 -0.007573742 -0.01739767 -0.017312355 -0.04606464 -0.04146141 -0.05681924 -0.06641763 -0.12280803 -0.050665975 -0.018651187
39 -0.09387045 -0.025306473 -0.020474752 -0.037369378 -0.0021022502 -0.051377725 -0.0031417606 -0.02524868 -0.041972425 -0.12137407 -0.07131102 -0.08835257 -0.056716748 0.0830587 -0.050625987 -0.014123431 -0.02739193 0.35570896 -0.003737074 -0.04768896 0.5350996 0.029221721 0.030077245 0.008163711 -0.028140903 -0.083 -0.093628965 -0.067146055 -0.08986093 -0.09011603 -0.11226831 -0.09499381 1.4528825 -0.06257696 -0.034266345 -0.05670215 0.89510673 -0.022494402 0.12837523 -0.053297646 0.0056678066 -0.07970812 0.08705461 0.13802491 -0.08861952 -0.06693384 -0.056268748 -0.032454025 -0.06750851 0.096387155 -0.0046448256 -0.14334439 0.28884152 -0.055679478 0.40932846 0.10461674 -0.08913827 0.02524488 0.5271983 -0.04607634 0.5394058 -0.030627495 -0.065801255 0.30324987
40 -0.093638726 -0.017961605 -0.033655148 -0.014516073 0.1318793 -0.03448319 -0.04705941 0.3404595 0.28268868 0.07046419 0.38229036 -0.05213933 -0.059818026 0.45218608 -0.053117108 -0.0128449965 -0.00030063465 -0.037595153 -0.037134346 -0.07543411 -0.044106822 -0.014569217 0.24866459 -0.027195984 -0.0018576406 -0.08206638 -0.06443142 -0.12539615 -0.097980134 -0.050963707 -0.072425306 -0.012051351 0.18827878 0.4958918 0.6616402 -0.074532494 -0.008047454 -0.04821692 0.019820284 -0.017093278 -0.050960373 0.119618714 0.71406966 0.4504854 -0.017214987 0.044379447 -0.051418025 -0.020341365 -0.036376324 -0.047088813 0.15941186 -0.08501324 -0.060466558 -0.013279813 -0.024008408 -0.0017294976 -0.039297298 0.0032059262 -0.013310668 -0.03379863 0.17058554 -0.014965959 0.023109274 0.1034062
41 -0.0674599 0.14942384 -0.10274047 -0.043981858 -0.0767369 0.7726341 0.38566017 0.4681558 0.42293808 -0.051191624 -0.13812798 -0.051142048 -0.021299914 0.28350356 -0.029920414 -0.0007360031 -0.06359541 -0.2613415 0.2185834 0.054937977 -0.047971267 -0.024943683 0.61067325 -0.050894883 0.069511235 0.53997016 -0.025121013 -0.16542295 -0.11276986 -0.042493768 -0.14044875 -0.10289176 -0.015366104 0.43657106 0.5695057 -0.122330725 1.1356636 -0.046520986 0.33519423 0.21879786 0.10455283 0.017024128 0.20129833 -0.08398276 -0.06350475 -0.014526627 -0.052197207 -0.060142398 0.6375009 -0.03862476 -0.048894864 -0.18692754 -0.043008175 -0.08604383 0.20663318 0.9570315 -0.006270677 0.22062986 -0.01873481 -0.10911446 -0.0705019 -0.16731656 0.06454348 -0.045481242
42 -0.03970806 0.096126564 -0.056508552 -0.027032191 -0.046711024 0.37199116 0.25730598 0.05838257 0.072538756 -0.05344782 -0.09136392 -0.05983835 -0.008010782 0.20653917 -0.06821739 0.04378421 -0.050941046 -0.21078162 0.11346447 0.5227417 -0.05412234 -0.029913235 0.38114494 -0.042828206 0.0028013168 0.6515062 0.059873864 -0.089347474 -0.090599515 -0.05991705 -0.09768032 -0.11577747 -7.059849e-05 0.38575995 0.50609577 -0.062350757 0.65833455 -0.056080885 0.094008125 -0.02689001 0.041159745 0.21433377 0.25753683 -0.10721196 -0.054902088 -0.022239937 0.03839049 -0.050191123 0.25529656 -0.022241503 -0.025729075 -0.15949772 -0.012318492 -0.08171107 0.3017018 0.65389615 -0.022307595 0.18857734 -0.012146174 -0.094332375 -0.055118393 -0.12932052 0.17593078 -0.034023467
43 -0.08866521 0.6879696 -0.03336075 -0.123325825 0.24569544 -0.05355021 -0.024369018 -0.08536693 0.27938914 -0.04230466 -0.093500786 -0.012312665 0.5391626 -0.10674677 -0.052093066 0.04596236 -0.08519258 0.27966642 -0.0062184255 -0.0510688 0.0024550152 0.09300106 0.19880004 -0.09079117 -0.018794104 -0.09309806 -0.07766664 -0.026970869 -0.07542714 -0.05460885 -0.080703616 0.58694136 -0.017354598 0.09615521 -0.04992559 0.12664008 -0.013905329 -0.04276158 0.12534824 -0.00747512 0.012610112 -0.051018257 -0.023274075 -0.014257467 -0.06275168 -0.019755764 -0.081893355 -0.097332045 0.13735709 -0.082508706 0.50687337 -0.11272633 0.4203723 0.06204219 -0.006631877 -0.030138528 -0.041013263 0.19502273 -0.008675556 -0.012904513 -0.081418216 0.5535161 0.11265303 -0.012904249
44 0.037674643 -0.01653806 -0.009709529 0.47008514 -0.018760925 -0.014521144 0.21631518 -0.083083294 0.06857241 -0.04588639 -0.06836945 -0.047051106 0.024851114 -0.02919184 -0.09472913 0.45788538 -0.004688407 -0.011738341 0.009856727 -0.10849364 -0.009538493 -0.023820836 0.26121143 -0.01629635 0.19647923 -0.0047858246 -0.017294003 -0.09899454 0.20900208 -0.11062869 -0.009413123 -0.002795944 -0.0305096 -0.014710823 0.38086855 0.3221715 0.22575107 0.49556762 -0.010490901 0.4770456 -0.036097582 -0.040470768 0.04605283 -0.05367228 -0.036345314 0.34520772 -0.019063434 -0.06955268 -0.09024229 -0.05644656 -0.014184159 -0.04987938 -0.047273993 -0.016794406 0.24452513 -0.10253626 -0.05155952 -0.0058339275 -0.0011985088 0.5129915 0.16194701 -0.048407365 -0.06050166 -0.04426335
45 0.32470843 0.053685926 -0.049447313 0.0022385642 -0.010361256 0.30519232 -0.017443534 -0.07343223 0.6683753 0.47925907 -0.01939296 0.02609176 0.16064766 0.10268735 -0.0913433 -0.0026549639 -0.07154276 -0.03857952 0.54866636 -0.059216917 0.11962696 -0.028564934 0.029677756 0.3390942 -0.049089547 -0.0799314 -0.086571194 -0.04492927 0.40088114 -0.09035321 0.011560621 -0.056452017 -0.03409065 -0.007475746 -0.024412995 0.0953873 -0.0077810297 -0.017393684 0.12912214 -0.039363265 -0.014417666 -0.09362031 -0.0941277 -0.036341485 -0.03350922 0.07585438 -0.034908872 -0.076197766 -0.05096509 0.2368904 -0.015108622 -0.09693805 -0.022906573 0.12814613 -0.039835252 -0.07731765 -0.121351264 -0.01858216 -0.017202934 0.05947928 0.117082246 0.085336946 -0.020460647 -0.069390655
46 -0.09018683 -0.05924928 -0.102077164 -0.012955141 -0.038929645 -0.0714285 -0.05001331 0.36926243 0.61925536 -0.025424713 -0.06470358 -0.07517975 0.2796984 -0.015115425 -0.01294999 -0.022876903 -0.017034069 -0.06227975 -0.03537755 -0.059787016 -0.038872678 -0.029907087 0.024189178 -0.05356301 -0.06297391 -0.104373515 -0.02434005 -0.043162536 -0.022234686 -0.015065416 0.33834654 -0.04772637 0.049904183 -0.06506753 -0.00788655 0.06343884 -0.00060012046 -0.08479427 0.62099296 -0.087465875 0.08740418 0.17948778 0.7180733 0.5613554 0.094827995 0.26047233 0.20642209 -0.12709044 0.10494785 -0.07337259 -0.011301953 -0.06962313 -0.0538336 0.12156143 -0.027456015 -0.10457859 -0.11398172 -0.008266584 -0.022651505 -0.026964888 0.20073968 0.46485496 -0.024398342 0.5324536
47 -0.036540404 0.17735595 -0.028336102 -0.035548855 -0.09369845 -0.010232768 0.14158389 -0.019506568 -0.010514299 0.30974203 -0.07195484 0.17877516 -0.055374354 -0.008304589 0.15703541 -0.010911846 -0.04281994 -0.051219273 -0.07060354 -0.03611817 -0.03249935 0.018306445 0.25082287 -0.012260022 0.5715397 -0.063992165 -0.039892424 -0.024108652 0.0046799085 -0.05317076 -0.06617698 -0.014659554 0.36052436 0.0007057325 -0.005720141 -0.05385164 0.2802901 -0.00049822446 0.63756937 -0.0713151 0.1330277 -0.049600568 -0.021582048 -0.010430685 -0.051310312 0.1880236 -0.057095494 0.14350237 0.5998915 0.08709977 -0.03609638 -0.06569042 0.4767676 -0.05675468 -0.07101678 -0.003987443 -0.06801685 0.39766136 -0.0153603675 0.009175409 0.10432835 0.44260973 -0.07258971 0.017057154
48 0.41636658 0.25093564 0.26626295 -0.0036545265 -0.038570974 -0.09225127 -0.096493244 -0.05620687 -0.07799258 -0.15035391 -0.11287121 -0.05568816 0.057549506 -0.054262143 -0.10081978 0.13108663 0.1116941 -0.027551895 0.53716666 -0.07947323 -0.06118259 -0.008642678 0.32646263 -0.09340554 -0.08065012 -0.11645778 -0.009509302 0.12733684 -0.1932837 -0.09444417 -0.0402476 -0.08349415 0.15892647 -0.088503785 -0.030559242 -0.030943064 0.038815558 -0.021253955 0.33694327 -0.059359174 0.40523 0.09522147 -0.097586475 0.37995207 -0.048844676 -0.048845887 0.075113736 -0.10101712 -0.03398046 -0.08586239 -0.06553345 -0.14107637 -0.0817007 -0.049861893 -0.013543489 -0.04627874 -0.096674226 -0.005323713 -0.087385096 0.562899 0.18478507 -0.0387424 0.7475337 -0.11647762
49 0.122017734 0.052696574 0.21974644 0.30557457 -0.06658771 0.11184786 0.14367825 0.045082718 -0.08865489 -0.08276843 -0.08123817 -0.05123159 0.13620743 -0.04885776 -0.065831736 -0.021858754 -0.03386094 0.037757553 -0.07165891 -0.12316086 -0.058835078 0.028125204 0.639835 -0.060056042 -0.040049285 -0.13028848 -0.09346813 0.114880934 -0.055183034 -0.07528529 -0.10376418 -0.1353778 0.7072816 -0.080227 -0.042473916 -0.028925642 0.25801778 -0.016987493 0.020269122 -0.0084287375 0.4562415 -0.01437021 0.26923653 1.157952 0.001552498 -0.04267477 -0.03348583 -0.05306104 -0.01658135 0.69663304 -0.049804416 -0.14397307 0.052297123 -0.045146823 -0.026710207 -0.11613011 -0.13337032 -0.01064569 0.40862226 0.16055815 0.6814655 0.010117912 -0.122163616 -0.07791155
50 -0.068941705 -0.014885168 -0.022543043 -0.03843112 -0.008946928 0.021082664 0.6034967 -0.076574676 0.36311397 0.11021183 -0.039252203 -0.041204628 0.4178202 0.24309753 -0.1008932 0.05862895 -0.04816274 -0.012033979 -0.021872034 -0.07181252 0.27754328 -0.03320583 0.24786787 -0.024190921 0.008643041 -0.1952583 -0.09416121 -0.098372415 0.260114 -0.06401317 -0.21612468 -0.041449867 -0.06627932 -0.020131452 -0.030766759 -0.080844894 0.31924286 -0.014984326 0.261542 0.43080783 1.1833353 -0.05073885 -0.025897026 -0.0705143 -0.025989423 -0.032087307 0.17299818 -0.06593907 -0.051033933 0.5274257 0.35508972 -0.1130875 -0.041162908 -0.0792248 -0.018901413 -0.01825283 -0.08199536 -0.019881474 -0.026536439 -0.06919279 -0.08077067 -0.13035718 -0.020779643 -0.0022235557
51 -0.044378754 -0.034020897 0.24883313 -0.07967572 0.05144868 -0.046288334 0.32880595 -0.057213165 0.24790142 -0.026436914 -0.11693487 -0.06697427 -0.06688767 0.22633748 -0.09768363 -0.15085235 -0.07234299 -0.016546043 0.37335944 -0.038653087 0.030982083 -0.056417204 0.77188414 -0.05896017 -0.04559112 0.049894758 -0.025503132 -0.0633451 0.35782322 -0.035121083 -0.0548726 -0.08578009 -0.02011453 -0.031276226 -0.0006544298 -0.06661572 -0.021602808 0.64659864 -0.012461166 -0.09082563 -0.13051412 0.42249158 -0.029912425 -0.0711527 -0.08864901 0.45760542 -0.041889474 0.07863487 0.33769396 -0.039806716 -0.06956395 0.06818334 0.46033233 0.2863367 -0.08413184 -0.05864889 -0.06182871 -0.056265067 0.8742336 -0.03910476 -0.062465776 -0.046329986 -0.042888764 0.36909592
52 0.10202021 -0.012811229 -0.04050303 -0.031693466 -0.07845907 -0.020202821 -0.012764598 0.34160918 -0.093510516 -0.026398188 0.4212293 -0.018409794 0.48163238 0.2900714 0.56030846 -0.027638605 0.41114637 -0.06775621 -0.08848345 0.5155307 -0.081977606 -0.042415075 0.25195026 -0.058568534 -0.029563306 -0.075432666 -0.13836747 0.007966841 -0.06328186 0.11953712 -0.053821333 -0.119298816 -0.078071706 0.057746336 0.019267552 -0.09360818 -0.010484432 0.14642918 -0.013806469 -0.058272835 -0.009300503 0.15182838 -0.036391556 0.130543 0.93429375 0.056051336 -0.1185832 -0.07150821 -0.12782805 -0.026624514 -0.07173489 -0.1839669 -0.040102232 -0.07854234 0.013509084 0.37504673 0.114827216 0.006499651 0.29763642 0.00078717945 0.34022856 -0.08390614 -0.09764574 -0.0077859038
53 0.12962642 -0.00690676 -0.011130032 -0.05244896 -0.05711645 -0.048937697 0.8819339 -0.018298237 -0.038361013 -0.04347365 -0.0941897 -0.06484551 -0.064210355 0.09203262 -0.030457571 0.068362 -0.07376988 -0.064551674 0.053071644 -0.08579575 -0.006497407 -0.09229922 -0.023153977 -0.088313065 -0.120542005 -0.05035151 -0.025985127 -0.0018275384 0.16610989 -0.007130801 -0.10424906 -0.05946843 -0.048193116 -0.0054708193 -0.044762198 -0.07518428 0.30859712 0.46861207 0.1502651 -0.0632371 -0.011189866 0.8655855 -0.105903864 -0.104368426 -0.013711951 0.039286204 0.59444845 0.09752681 0.16353032 0.16398907 -0.05459199 0.00066931546 0.6544847 -0.098678775 0.7342317 -0.0468667 -0.0352063 0.56745535 -0.020497799 -0.021354621 -0.08734093 -0.047339782 0.097451545 -0.018224128
54 -0.081476875 -0.062261593 -0.03909938 0.06480298 -0.018207764 -0.061881673 0.15860815 -0.020496747 -0.01934413 -0.06418892 -0.005973071 -0.10014261 -0.010857852 0.21028525 -0.10707726 -0.01925459 0.41217712 0.2635402 -0.042587996 -0.03996473 -0.039277293 -0.06719605 0.7489218 -0.025873695 -0.08650373 -0.053198315 0.19187875 -0.086359456 -0.08091087 -0.079547994 -0.065148525 -0.08822882 0.5388626 -0.08612539 -0.008928079 0.055938292 1.1050228 -0.023020158 0.2691684 0.53632385 0.23885372 -0.015385146 0.21155216 -0.03470957 -0.15529434 -0.013201328 -0.05147208 -0.064761914 0.192363 -0.03927799 -0.0570105 -0.13366628 -0.03326278 -0.062301558 -0.011272446 0.24506892 -0.063196 -0.052079864 0.6655985 -0.010366648 -0.037494976 -0.054976474 -0.12482458 -0.05666081
55 -0.03020872 0.05397603 0.110787466 -0.015812224 0.053037636 -0.047769576 0.42918217 0.41499397 -0.06014187 -0.09460908 -0.07471581 0.22649874 -0.009415607 0.10773427 -0.056474734 -0.015756344 -0.056459226 -0.07572197 0.027460206 -0.11851325 -0.04010579 -0.050481427 0.33241963 -0.01731691 -0.06083674 0.118205324 -0.035694364 -0.071872406 0.085293345 -0.09339166 -0.06788437 0.08705702 0.40266725 -0.07422042 0.28477573 -0.039184175 -0.031455327 -0.080898784 0.34536052 -0.07427045 -0.04011811 0.38351077 0.052210905 -0.058190335 -0.038939763 0.08977895 -0.012937355 -0.013557831 0.1530483 0.32137975 -0.015335584 -0.029898942 0.17364061 0.39110646 -0.04553969 -0.1042552 -0.122306965 -0.017439967 1.2571881 0.07178927 -0.054475464 -0.044911638 -0.044981863 -0.023821773
56 -0.0033030552 -0.021037348 0.07407081 -0.024969403 -0.05232641 -0.04229765 -0.046962626 0.1020622 -0.00095431396 -0.05446936 -0.0034756109 -0.039686903 -0.04286581 -0.028950537 -0.075869516 0.1108637 -0.06201579 -0.021567425 0.31027398 0.04399463 0.18492514 -0.017468905 0.41158694 -0.02964425 -0.046666455 0.56657606 0.23054971 -0.047427166 -0.031695183 -0.062467676 0.2850654 -0.018817758 -0.04085554 -0.034474615 -0.0385649 0.0020666104 0.09514179 -0.012214725 0.004609393 -0.08100407 -0.02007509 -0.05563439 -0.0021892865 -0.08284485 0.14362215 -0.0066453977 -0.035642423 -0.0517022 -0.07339685 -0.06378569 0.14416362 -0.060317654 -0.006268649 -0.001997822 0.045358267 -0.07429839 -0.050883163 0.33428594 -0.024405232 -0.070569254 -0.015867975 -0.012635834 -0.031339142 -0.014047791
57 -0.09388393 0.034059282 0.3260662 -0.030956907 -0.033565532 -0.03063525 0.028805528 -0.05279113 -0.008873022 -0.077248774 -0.1015733 -0.120101586 -0.010239286 0.0025484832 -0.060820896 0.11778273 -0.0025751733 0.20254949 -0.0153610995 0.21965963 -0.017968465 0.0066918414 0.07808233 -0.042801835 0.07535799 -0.075838625 -0.079638734 -0.026777623 -0.071512856 -0.020123174 0.015644891 -0.032448452 0.016128937 -0.03344718 -0.027103169 0.107406996 -0.024912177 -0.034962412 0.07917386 -0.058824003 -0.0036918595 -0.06808349 -0.01256898 -0.011395554 -0.03526553 0.07053617 -0.008294064 -0.058670443 -0.029156575 -0.065591276 0.12924129 -0.08587429 -0.015063765 -0.0029207284 0.031202434 -0.04219754 -0.017272811 0.018662747 -0.007965581 0.5722755 -0.047601778 -0.0253696 0.40236133 -0.01648364
58 -0.02519392 -0.014690633 -0.02072788 0.1305266 -0.034331914 -0.032854278 0.109257124 -0.025150722 0.060786717 -0.022346338 -0.0169216 0.15577722 -0.047709215 -0.017600963 -0.083817706 -0.0028262362 -0.07164735 -0.04222695 -0.026719019 -0.053861357 0.5819828 0.10705174 0.27203774 0.6953168 0.05718453 -0.04155099 -0.025709836 0.0046359138 0.2711384 0.1348808 0.055408306 -0.054679066 -0.046951722 -0.035018545 -0.008413687 -0.04932445 0.14621657 0.109795436 0.06558843 -0.052845765 0.058505546 -0.015396264 0.27280962 -0.05946913 -0.026406914 0.01441001 0.18933561 0.19414009 -0.05958007 -0.026406828 -0.032767106 -0.030328913 0.28619102 0.14581445 -0.057687588 -0.035244793 -0.08103003 -0.031137297 -0.02454756 -0.0015290664 -0.004537877 -0.04835661 -0.04069746 0.077238314
59 -0.058409523 -0.022721788 -0.087835655 -0.034399856 -0.05507424 -0.09806758 -0.08083201 -0.0268805 0.6295629 0.37023598 0.5556495 -0.13200013 -0.110030115 0.9994506 -0.012068671 -0.018161673 -0.12818009 -0.13969363 -0.0495062 0.01404964 -0.064138636 0.07774467 0.78000635 -0.066012375 -0.031006772 -0.07815589 0.055584654 -0.03751573 -0.032181673 0.22414456 -0.1179741 -0.10764563 -0.040083125 -0.02564077 0.46068063 0.47725314 0.85342807 -0.04649201 0.39752716 -0.06714199 -0.07698683 0.2833331 0.14137101 0.5653364 -0.04999718 0.09821946 -0.020712623 -0.029354436 -0.022024926 -0.119530655 0.04118538 -0.24018717 -0.07857342 0.36617896 -0.04082175 0.3298058 -0.08821725 -0.04277594 -0.028006643 0.002815097 -0.1365964 -0.043089617 -0.115831725 -0.06317314
60 -0.014214197 0.28341347 -0.03938217 0.07571166 -0.04308608 -0.045871623 0.07787624 -0.051593352 0.133982 0.19216137 -0.05342245 0.66716534 0.07108281 -0.041485738 -0.08392322 -0.0030932135 -0.042505603 -0.053359855 0.0105315745 -0.02267874 -0.0014223461 -0.03310676 0.13548739 0.24994272 -0.00802059 -0.065706566 -0.03311917 -0.028699784 0.29918897 -0.07721286 -0.036681667 -0.028591355 -0.09378978 -0.11283972 0.24791765 -0.023642696 -0.01873027 0.1272637 0.34301472 -0.013968465 -0.017855546 -0.061856784 0.041614905 -0.048997544 -0.020130252 0.45114568 0.02070432 -0.004315566 -0.06648631 -0.042031135 -0.027667725 -0.06684161 -0.0034894503 0.13262622 -0.01040447 -0.044192992 -0.05433886 -0.036620986 -0.024360944 0.02517045 0.3862115 -0.022644153 -0.05248929 -0.071414545
61 -0.05333974 -0.006730031 0.17429315 -0.009333829 -0.037548643 -0.09007031 -0.009827759 -0.026967151 -0.026504224 -0.019142935 -0.08534648 -0.054508813 -0.004732653 -0.051732253 0.19696726 0.11108093 -0.029289773 -0.0531935 0.06942719 0.007385907 -0.05874752 0.052089915 0.090778135 -0.07964074 -0.012007749 -0.06763079 -0.08839076 -0.005900211 -0.095784426 -0.042908467 0.0038342793 -0.058161538 0.086614415 -0.026309898 -0.053474903 -0.0037802383 0.029486377 -0.032326188 0.1884867 -0.05844468 -0.013427268 -0.008462029 -0.014203881 -0.045124553 0.67153645 0.010044495 -0.006732506 -0.08272525 -0.045790266 -0.006007891 -0.04229204 -0.09309609 -0.016442027 -0.033126768 0.62055844 -0.09985991 -0.117021315 0.13759919 -0.033507805 0.3990044 0.1913671 0.19719371 -0.05050939 0.76830065
62 -0.094273515 -0.018679587 -0.08945961 0.2433196 0.44602796 -0.05700869 -0.06646692 -0.041489433 -0.039170336 -0.03205202 -0.0045822966 -0.16975485 0.50212973 -0.061192054 -0.04749344 0.19384433 -0.04172834 0.07828259 0.24430513 0.05478694 0.5372653 -0.057181932 0.19148836 0.58869183 -0.085976504 -0.09321048 -0.0652791 -0.056738436 -0.12619184 0.6404076 -0.12692834 -0.04899839 0.04144945 -0.10841296 0.09684837 -0.062121507 0.005713403 -0.049037244 0.12899582 -0.07863784 -0.022162369 -0.08154118 0.5657252 -0.09023186 -0.07270103 -0.03643432 -0.009424987 -0.019225303 -0.013083673 0.65284705 -0.11073971 -0.052529193 -0.05066636 -0.02857527 0.21830931 -0.02210403 -0.09502082 -0.038664322 0.4948845 -0.12985313 0.11123324 -0.09579767 -0.08372857 -0.020843796
63 0.24720137 0.016803052 -0.06444963 -0.022520239 0.037924334 0.23228997 -0.06298037 -0.022083245 -0.09234826 -0.034747276 -0.0011566812 -0.07133934 0.041189183 -0.051088046 -0.046766724 0.34493244 0.7202257 -0.01353017 0.4540901 -0.054243844 -0.03715007 0.30864298 0.06789493 -0.031121347 -0.035182443 -0.12665239 -0.065694354 -0.03526378 -0.034582675 -0.0854843 -0.053769123 -0.097759895 -0.031337295 0.2237119 -0.017049601 -0.035417385 0.13809767 -0.045100342 0.17445734 -0.05568092 0.23270178 0.3949726 -0.02838151 0.28100663 0.12477441 0.13235584 0.102970615 -0.007972869 -0.030696863 -0.010762043 -0.020458598 -0.086855665 -0.051112264 -0.054488022 0.21725106 -0.07980257 -0.049929436 0.19239351 0.03163729 0.27914461 -0.08814293 0.14550471 0.09967314 -0.007385219
64 0.079195134 -0.023073433 0.08933084 0.6499466 -0.023022113 -0.021230854 0.17175336 -0.1331283 -0.023652837 -0.05824734 -0.084383905 -0.072421715 0.018163254 -0.031228945 -0.1061937 0.57837033 -0.010406135 0.060414262 -0.0420147 -0.12434428 -0.018574705 -0.02392754 0.42018902 -0.04433759 0.19614112 0.02214438 0.024130324 -0.09511459 0.2229706 -0.13370126 -0.026131663 -0.008281353 -0.030397197 -0.05766759 0.38490003 0.44893143 0.27849075 0.75318956 -0.014123656 0.80029875 -0.058289945 -0.0026678275 0.1817148 -0.056981552 -0.048667338 0.3168104 -0.038859863 -0.08028914 -0.1437895 -0.069964714 -0.056555387 -0.05875945 -0.054550767 -0.0123113105 0.42350835 -0.10568301 -0.05370585 -0.018639313 -0.01570346 0.844234 0.18065055 -0.06899344 -0.09083507 -0.058879882
65 0.43475714 0.07273998 -0.07957629 -0.03642043 0.30207923 -0.04928791 -0.032224044 -0.071314715 0.13014074 -0.04955019 0.0152924275 0.20452479 -0.013278465 -0.04080611 -0.02528274 0.2106521 -0.089644775 -0.02758351 0.016742796 0.09803984 0.10605707 -0.013666786 -0.02390558 -0.027708132 -0.005169657 0.015707415 -0.067574345 -0.013267611 0.27580333 -0.062318068 0.06731731 0.25423762 -0.10498954 0.22084934 -0.02038153 0.018790808 -0.0021670521 -0.0055341157 0.066417515 0.027359145 0.100290455 -0.025262183 0.078926034 -0.046425596 -0.024206419 -0.0077358484 -0.06619331 -0.067935325 0.01824045 -0.0729716 -0.0032975748 -0.12978129 -0.11682331 -0.05725282 -0.04979024 0.01979073 0.06263027 -0.036010917 0.04021849 -0.053613156 -0.08508889 -0.04894764 -0.07259879 0.10677019
66 -0.023289368 0.10354262 -0.048230905 -0.027324354 0.19469051 -0.005167897 -0.062002655 -0.0075165355 -0.09341011 -0.029245673 0.1316881 -0.09241136 -0.06828111 -0.009767471 -0.057579286 0.1094261 0.43823478 -0.07391371 0.46205413 0.08548617 -0.06240905 0.14829439 0.3952711 -0.09343873 0.16821614 -0.12616862 -0.05512741 -0.0935197 0.10095259 -0.071703605 -0.068576664 -0.103562884 0.048461363 0.29398194 -0.02057502 -0.041194044 0.06766676 0.59869224 0.21238671 -0.1046947 0.088672794 0.32020208 -0.0211446 0.69244206 -0.004393804 0.5129556 0.4515578 -0.078457795 -0.07817176 -0.054204177 -0.012503887 -0.17122903 -0.019955767 0.5259872 0.35464782 -0.06028635 -0.09949652 0.03663405 0.097406566 -0.10093673 -0.12816118 0.4474632 0.18091778 -0.07747551
67 -0.027434552 -0.028391719 0.016681531 1.1038188 -0.061655577 -0.070308894 -0.09647212 -0.14372176 -0.05822174 -0.05470841 0.025090445 -0.112128034 -0.093438886 -0.003997107 -0.077573754 0.19551085 0.07403441 0.16692583 -0.014726643 -0.10410328 -0.028428072 -0.026667947 0.2956252 -0.045427542 -0.017739821 -0.023423215 0.3780561 -0.08010631 0.20919359 -0.08229642 0.014334278 -0.03959633 0.04602793 -0.07090994 0.1874758 0.23260267 0.07474709 0.27393994 0.18825376 0.9455101 -0.10416257 0.558286 0.14464985 -0.0028376784 -0.056482997 0.18318968 -0.06998933 -0.038638506 -0.16820644 -0.07644528 -0.021817518 -0.061347898 -0.04891303 -0.0265017 0.048428904 -0.096975565 -0.0035418079 -0.032432314 0.0074016703 0.5548612 -0.050890774 0.1157707 -0.1065428 -0.03439079
68 -0.10615686 -0.051512655 -0.1130541 -0.006381832 -0.056710955 -0.07431751 -0.06714195 0.06498193 0.65237993 -0.016669068 -0.081377335 -0.056189466 0.1789789 -0.020832594 -0.014235715 -0.02468435 -0.030881776 -0.06301277 -0.02248493 -0.00887555 -0.042183306 -0.038552828 0.08835197 -0.0366607 -0.07060889 -0.08404869 -0.05341498 -0.026108373 -0.011792024 -0.02839833 0.2347471 -0.04200763 0.005739295 -0.055571586 -0.025694508 0.04721198 0.4389989 -0.06383816 0.7229096 -0.06416191 -0.0137697905 -0.009307708 0.48225346 0.51234037 -0.00080595276 0.3376416 0.2866549 -0.0831311 -0.04103082 -0.07323152 -0.037866306 -0.089779 -0.028693477 0.06993875 -0.021114562 -0.035326082 -0.10221296 -0.014243121 -0.055811245 -0.045919813 0.26201314 0.36076027 -0.060148727 0.8698594
69 0.14568801 -0.024170982 -0.020056818 0.250829 0.097942024 -0.009194896 -0.043916844 -0.018345324 -0.059535187 0.0048472174 0.24820438 -0.032237 0.08807305 -0.024666987 0.24649535 -0.005292423 0.6252302 0.0296699 -0.028840542 -0.08348184 -0.031980854 0.012299094 0.08308491 -0.009570668 -0.03046885 0.18073507 -0.022991376 -0.055016916 -0.06875964 -0.0004631402 0.07444116 0.029921355 -0.045663875 0.22319642 0.07929766 -0.05588782 0.011811508 0.17682965 0.16061155 -0.053164035 -0.014347263 0.25976425 0.09722511 -0.03645117 0.50463253 -0.01221352 0.24663028 -0.0011664989 -0.10382841 0.07346063 -0.035761107 -0.083634645 -0.025843738 0.24254608 -0.08400601 -0.003912179 -0.009813896 -0.019105766 -0.07263289 0.013472058 -0.0106162205 -0.08065169 0.019425811 -0.007967204
70 -0.099118285 -0.02734206 -0.06315632 -0.036048662 -0.06257654 -0.047547624 -0.085661225 -0.017397575 -0.0042270995 -0.010262222 -0.085153006 -0.07905496 -0.034113094 -0.042583738 -0.04046924 0.10186514 -0.09463803 0.13964295 -0.030485427 -0.006796755 -0.0010292742 0.07146839 0.4568647 -0.0047134026 -0.078118905 0.063247554 -0.08395115 -0.024726005 -0.027532069 -0.09096339 -0.011003822 -0.072002165 0.65985656 -0.0714018 -0.05894476 -0.039357882 0.76784986 -0.0061890874 -0.056126256 -0.0453653 -0.012774798 -0.01809202 -0.03701421 -0.13316432 -0.073048025 -0.031406276 -0.09902794 0.048583478 -0.03693306 0.91564965 -0.022074917 -0.15794794 0.19059154 -0.036613367 -0.012761625 0.18864764 -0.12335817 0.055044588 0.47031045 -0.027855305 -0.07364222 -0.031659737 -0.08608501 0.88595957
71 -0.09999427 -0.054840844 -0.018632397 -0.0043992847 0.3421036 -0.055335905 0.11516451 0.006646987 -0.016050834 -0.079854965 -0.046972867 -0.08965259 -0.10944455 0.25071594 -0.021204082 -0.014011401 -0.04109136 0.2924633 -0.014281548 -0.057742175 0.38037622 0.019722015 -0.0071869097 0.082067296 -0.015884323 -0.075837046 -0.031008488 -0.12584059 -0.11463207 -0.10410811 -0.12471717 -0.07091792 1.075951 -0.03164218 0.10400207 -0.057873856 0.8813122 0.062824495 0.2241236 -0.05477893 -0.007167651 -0.029622031 0.03978226 -0.022012314 -0.1002177 -0.018184444 -0.03529032 -0.005868155 -0.07753013 -0.048543308 -0.04428231 -0.092092924 0.009955289 -0.08136373 0.429179 0.4257551 -0.045416187 -0.0045980546 0.0492843 -0.014536264 0.5453005 -0.04285638 -0.0520831 0.5207169
72 -0.020077625 0.02712268 -0.078644395 -0.054210763 0.0646685 -0.08510958 -0.028481117 -0.03813622 -0.049820095 -0.04556187 0.4792846 0.031742513 0.16081493 -0.031580064 0.26676 -0.013031601 -0.058210056 -0.013574299 -0.021779863 0.22416764 -0.067096256 -0.0056125387 0.07786563 -0.033216115 -0.039524447 0.28833246 -0.08428538 0.32639533 0.30899048 0.0974834 0.2349452 0.21308963 -0.020732014 0.23822483 -0.08631673 -0.054887246 -0.023636876 -0.0248747 0.1521252 -0.050362576 0.20605153 -0.0072752326 0.22598484 -0.048587583 -0.023673223 0.08683453 -0.063677594 -0.044077616 -0.039842155 -0.06521443 -0.041216914 -0.07668334 -0.034153655 -0.07345568 -0.056109846 -0.0772815 0.3070249 -0.06436614 -0.025560057 -0.061741468 -0.0063806265 -0.042066105 -0.033084303 -0.058742892
73 -0.066222124 -0.012706848 -0.082840085 -0.04429061 -0.04238644 0.31946266 0.39440575 -0.037998427 -0.016058449 -0.06268989 -0.028852714 -0.069284014 -0.044627476 0.58383113 0.14166583 0.0598726 0.08972457 -0.055000972 -0.005566302 0.32337448 -0.06447979 -0.013706575 0.011430317 -0.032147657 0.15211235 -0.073365286 -0.06190554 -0.079323016 -0.03818172 0.17873178 -0.060887095 -0.039865963 -0.06518882 -0.067435324 -0.02496685 -0.04985919 0.24612957 0.25725257 0.50400454 0.18537152 0.13169593 -0.050906103 -0.069303215 -0.03298002 -0.01199663 0.011338795 -0.06798343 -0.04419254 -0.1451359 -0.05875485 -0.052937966 -0.107939236 -0.010849483 -0.009216505 -0.034833398 0.27568156 -0.056403697 -0.05320552 -0.056179922 0.26990455 -0.020920955 -0.001194012 0.46601593 -0.06972879
74 -0.07858391 0.47014895 -0.041712724 0.085924916 -0.057932075 -0.075768314 0.017457938 -0.04265221 -0.008854854 0.13050081 -0.048508175 0.86196166 0.12247691 -0.068022534 -0.09361593 0.04363634 -0.06431638 -0.055742145 0.042443085 -0.04319056 0.36806837 -0.016155696 0.24680337 0.5218734 -0.024178997 -0.068499975 -0.0042384816 -0.040285002 0.42943233 -0.07630054 -0.02520579 -0.03276516 -0.087570876 -0.15982288 0.48348433 -0.08784147 -0.020879595 0.107782066 0.13569072 -0.04304945 -0.035412688 -0.038320657 0.503514 -0.07967428 -0.030464297 0.42904827 0.20139122 0.19351044 -0.0587545 -0.04949063 -0.052395344 -0.05344137 0.10948492 0.28572083 0.0041683875 -0.06221347 -0.098360516 -0.04947878 -0.018822579 -0.03745226 0.57837844 -0.03555153 -0.075804725 -0.043260165
75 0.51105773 -0.009615829 0.2068596 0.31591657 -0.00745087 -0.02100809 0.026601756 -0.026449079 -0.013668462 0.06655481 0.16220152 -0.035644796 -0.010237339 -0.009923322 -0.042861603 0.34035683 -0.005780042 -0.05869776 -0.034299362 -0.0578188 -0.0053849737 0.03067084 0.0806339 -0.013491663 -0.025341159 0.25064442 -0.0007353224 -0.05964179 -0.065233044 -0.06607716 0.06386178 -0.006112755 -0.048556924 0.16643348 0.5767827 -0.046096157 0.28044412 0.2561426 -0.02570045 -0.04670928 -0.033812307 0.40593278 -0.03897449 0.05060041 0.29358536 0.025659291 0.41686317 -0.009847822 -0.12234565 0.083014436 -0.03467138 -0.06102405 0.009473439 -0.016036568 -0.05614933 0.013923248 0.059863456 -0.017638274 -0.07978127 -0.047815856 -0.042592067 -0.10746217 0.0052118422 -0.026538584
76 -0.1013791 0.013215799 -0.049367454 -0.036864936 0.28695095 0.03505089 0.8880368 -0.053890556 0.88173765 0.4881183 -0.024828648 -0.04252186 0.5080499 0.21190399 -0.12345538 0.21974595 -0.08018862 0.45772868 -0.0044009755 -0.11107103 0.05376546 -0.023152916 0.31570467 -0.029069496 0.05739573 -0.183232 -0.1381254 -0.12116815 -0.006384524 -0.07139387 -0.21354857 -0.041801523 -0.0916533 -0.041154083 0.0919483 -0.11861908 0.40291312 -0.005353254 0.16275752 0.0034612343 1.0713098 -0.051459588 -0.049890816 -0.0670227 -0.035750743 -0.040495854 0.48598585 -0.037182968 -0.04029233 0.6312088 0.3086806 -0.150619 -0.024273334 -0.11295407 -0.06557386 -0.039992783 -0.08555367 -0.016617281 -0.054877784 -0.12677197 -0.109124236 -0.17617373 -0.0017732714 0.22079293
77 0.19840993 0.003389481 0.32465777 0.52500856 -0.05151349 -0.007013476 0.2531443 -0.03215135 -0.0907223 -0.016174456 -0.097478636 -0.07100609 0.028433716 -0.05462596 -0.027239664 -0.025176018 -0.034056738 0.08324376 -0.10049845 -0.12551866 -0.07112944 0.04349503 0.63691217 -0.039385997 -0.049900614 -0.13946961 -0.06616153 0.1992236 -0.05747614 -0.028137345 -0.102141194 -0.101427875 0.4355673 -0.06823851 -0.06844675 -0.017142884 0.3534614 -0.013072361 0.01953718 -0.010054884 0.37253723 0.17747167 0.27722555 0.8779548 -0.013336842 -0.013114681 -0.083547704 -0.06040119 0.31820536 0.1975467 -0.05408106 -0.14626198 -0.020558596 -0.07804641 -0.04361459 -0.08281473 -0.12704979 -0.034892257 0.41414937 0.35067347 0.5989562 0.03043915 -0.14872459 -0.06038869
78 -0.052471817 0.2390291 -0.052856263 -0.05861773 -0.12494059 -0.016375214 0.24636613 -0.034918576 -0.020232158 0.33748874 -0.098168455 0.2814763 -0.10604366 -0.03115246 0.2422349 0.024091134 -0.0445282 -0.07417282 -0.09638272 -0.043311577 -0.048748113 -0.0065656663 0.30241752 -0.013692694 0.67289793 -0.07371592 -0.044897955 -0.02735891 0.19910754 -0.0759609 -0.06289228 -0.024299918 0.49880734 -0.020622455 -0.0151671395 -0.07826581 0.22191158 0.28192756 0.87995034 -0.08301648 0.21065724 -0.070156865 -0.02514993 -0.039003614 -0.08487713 0.32390606 -0.08132524 0.25147346 0.8140463 0.20479153 -0.060133893 -0.075152226 0.88154745 -0.08532026 -0.09907194 -0.002144729 -0.076767705 0.41805804 -0.0073596123 0.029188238 0.20641366 0.63571596 -0.119895056 -0.0037769624
79 -0.018108621 -0.009079381 0.51117116 -0.010181094 0.26602435 0.55913866 -0.024492066 -0.08205367 -0.08087016 -0.070675395 -0.07259267 -0.03914788 0.35426447 -0.10166204 -0.09550015 -0.00917787 -0.085989386 -0.019638536 -0.059448313 0.2979642 0.06712946 0.07115215 0.07717996 0.06599777 -0.022967707 -0.04749829 -0.05843994 -0.050967198 0.04375522 -0.04491791 -0.13602746 -0.10524315 -0.016579354 -0.05367715 -0.05806772 0.15208463 -0.01024611 -0.0056927195 0.13383493 0.24895743 0.40294048 -0.01974278 -0.015924856 -0.07579678 -0.014472823 0.13239196 -0.057015724 -0.024733968 -0.07934212 0.345811 -0.009560172 -0.10570641 0.31281668 -0.018378159 -0.008294622 -0.06379881 -0.0021075772 1.0078131 0.3241672 0.33125848 -0.09205037 0.20644248 -0.019595873 -0.070240654
80 -0.067072205 -0.008367765 0.2197452 0.23255742 -0.016857427 0.060939655 -0.0053779436 -0.052393783 -0.055850472 -0.118949056 -0.073495686 -0.05816984 0.2216095 -0.01494129 -0.08417543 0.20470162 -0.072724685 -0.0864224 -0.06613951 0.48437494 -0.03166578 -0.010813969 0.17271861 -0.030759593 -0.018713886 0.5667915 0.10986455 -0.022746122 -0.017800765 -0.15633717 -0.12922888 -0.047238436 0.12664303 -0.0514622 -0.030255282 0.44112337 0.03503587 0.0683039 -0.04533033 0.6539765 0.54791504 -0.030961577 -0.008935652 -0.11674795 -0.052082684 -0.0009372931 -0.06578259 0.025736619 -0.12454499 0.41656122 -0.025532892 -0.11196395 -0.03910564 -0.07937662 0.028864585 0.7263203 -0.054077256 0.39285645 -0.004033625 -0.0059255734 -0.041531708 -0.084042326 -0.011220286 -0.005558774
81 -0.10578847 0.040087458 -0.020398732 -0.0060060667 -0.075330764 -0.1712236 -0.07826432 0.31206915 -0.0367866 -0.026236257 -0.038767487 -0.08123811 -0.044919394 0.094094746 -0.11221041 0.08636548 -0.06938743 -0.07469495 -0.035854593 0.25369486 0.36436912 -0.03649556 0.30881447 -0.10043446 0.36270258 0.68750536 -0.10169633 -0.04445243 -0.16708107 -0.066226676 0.31591162 -0.03560364 0.19376093 -0.0054919026 0.10657965 -0.04997417 -0.031949587 0.5106353 0.14750275 -0.02155056 -0.023862187 -0.01121769 -0.03171261 -0.026270295 -0.0016803694 0.94014835 0.2562366 -0.08291402 -0.018658517 -0.08515292 -0.034182545 -0.15733974 0.067590244 0.8800028 -0.04983629 -0.0772344 -0.057031285 0.04233869 0.15212409 -0.11044752 -0.032228965 0.3754441 0.8365972 -0.09484454
82 0.058515973 -0.0006644127 0.08054262 -0.015734369 -0.10463234 -0.06852854 1.2258773 0.007684529 -0.069338284 0.3008717 -0.17201118 -0.050402444 -0.0874927 0.068286054 -0.07707467 -0.034453534 -0.09885899 -0.07816961 -0.009505409 -0.07625847 0.64571095 -0.1332904 0.28238776 -0.02722387 -0.086262174 -0.0848571 0.27175927 -0.06513911 0.12282001 -0.016266724 -0.14766765 -0.1108979 -0.067336924 0.26185024 0.005245683 -0.09366261 0.14018244 0.7310291 0.101484805 -0.119835235 -0.004507981 1.0241681 -0.02437831 -0.094756894 -0.03730401 -0.0047562714 0.69270396 0.2184277 0.22229543 0.23362331 -0.062558934 -0.047435474 0.34600726 -0.1043905 1.2278569 -0.081581585 0.09176881 -0.020723393 0.04596948 -0.046797067 -0.098025076 -0.08473784 -0.02531007 -0.047329035
83 -0.021703126 -0.00926375 0.014523577 0.071724415 -0.034806248 -0.016255056 0.07131443 -8.098632e-05 -0.08502862 -0.10328008 -0.076182246 -0.052438468 -0.01100976 -0.0068606124 -0.06093023 -0.02841638 -0.02130176 0.14767808 -0.039225735 -0.09217 0.04037122 0.035255536 0.20733704 -0.034182645 -0.018174222 -0.12014528 -0.09820376 -0.03285594 -0.06599613 -0.06699669 -0.11085047 -0.12767108 0.8744561 -0.066552244 -0.03498925 -0.03582294 0.6046559 -0.01650752 0.1567005 -0.033928413 0.15183043 -0.04067882 0.20798585 0.77427363 -0.020374795 -0.04968058 -0.036975287 -0.020151835 -0.05993938 0.43559986 -0.023349201 -0.1280132 0.14295694 -0.05182014 0.09478 -0.044413473 -0.1086458 0.044041187 0.36658686 0.039550148 0.6176255 -0.0057833493 -0.10249796 -0.0137657095
84 1.1505032 0.004237171 -0.11871474 -0.015604555 -0.02753213 -0.03801497 -0.016695749 -0.043430835 0.25183105 -0.067921236 0.096563205 0.038318664 -0.0018117437 -0.018718882 -0.05411395 0.3686361 -0.12295332 -0.055413414 0.17639306 -0.005855978 0.03916237 -0.0052247248 -0.007450126 -0.023690829 0.23553002 -0.033246722 -0.062654 -0.0061953394 0.12370132 -0.06482998 -0.05327726 -0.024800578 -0.12004521 0.017426638 -0.008391601 0.19644246 0.013515179 0.065941155 -0.005774376 0.041388504 0.08941221 -0.06302953 -0.04158842 -0.045658585 -0.009571396 -0.062210556 -0.10140919 -0.07878584 -0.028095648 -0.022056358 -0.022957051 -0.12660497 -0.080242544 -0.0058223456 -0.026698101 0.039238706 0.22510329 -0.030620424 -0.011249676 -0.010105312 -0.08408919 -0.07548595 -0.12320802 0.16254152
85 -0.12028058 0.6416054 -0.11283852 -0.03219959 -0.07992314 0.53992844 -0.028117064 -0.010221289 -0.035830934 -0.032049883 -0.084748186 -0.02416504 0.15959358 -0.043407217 -0.025093196 0.065258875 0.2563462 -0.02163343 -0.03516189 -0.043880854 0.047976475 -0.024679238 0.48563808 0.110253476 0.31605074 -0.058148455 -0.027182896 -0.12839209 -0.011766119 -0.08774408 -0.08770355 0.43288326 0.30745444 0.0058730715 0.5100664 -0.020095779 0.44520256 0.71999186 0.34724456 0.70461446 -0.03076063 -0.05982816 0.40516412 0.07194346 -0.024145244 0.038040183 -0.062030066 0.078537144 -0.059270054 -0.06039203 0.37404245 -0.058888257 -0.032834496 0.07205796 -0.0542673 0.3788684 -0.074920766 0.1676233 0.013760212 -0.06674001 0.31528938 0.381043 -0.050533768 -0.04161046
86 -0.0052461433 -0.02487623 0.6138668 0.45491895 0.023465468 -0.018540157 0.11719007 -0.066621 -0.072965264 -0.029848203 -0.13837446 -0.09460645 -0.02389185 -0.06759145 -0.039479192 -0.023135534 -0.036189478 0.3313622 -0.10004999 -0.11666935 -0.09835496 -0.021428972 1.0993397 -0.049186774 -0.114742875 -0.09437414 0.12918296 0.40192258 -0.13734935 -0.057621032 -0.09989437 -0.10016884 0.68365574 -0.093888715 -0.07814907 -0.046911553 0.95804805 -0.037946027 -0.011840207 -0.01196214 0.4733951 -0.0032968714 0.284586 0.36195612 -0.10162567 0.023726737 -0.16913018 -0.065835975 0.93458813 -0.0086710695 -0.09344035 -0.1715023 0.078627996 -0.070311956 -0.050917257 0.07805061 -0.13092713 -0.0040170737 0.29850075 0.25347283 0.58739173 0.32874447 -0.14344598 -0.05870816
87 -0.06264695 -0.010728393 0.8107714 0.03113233 -0.069142304 -0.073451765 -0.06336292 -0.06194381 -0.008737616 -0.07042022 -0.13116927 -0.09587855 -0.017559996 -0.085628726 -0.028896425 0.09756089 -0.13000844 -0.059340537 0.14690655 -0.039052036 -0.041590776 0.111273654 0.05003565 -0.04014994 0.053719416 -0.045567695 -0.037918575 -0.044110548 -0.09097798 0.035619095 0.30276552 -0.019733964 0.5708896 -0.08727598 -0.06256255 0.46513253 -0.005752381 -0.03618228 -0.0028754976 -0.032038413 0.07230525 -0.060508586 -0.013986341 -0.061819293 0.16490021 -0.04297935 0.10771245 -0.19831891 -0.0148858 0.017289598 -0.0064426595 -0.1406961 -0.028245553 -0.037600674 0.012470426 -0.094183646 -0.02584961 0.09571202 -0.07314404 0.12683386 -0.032024734 -0.013883865 0.47008365 0.25974667
88 -0.028918723 -0.011059186 -0.08386886 -0.015178825 1.0157424 -0.03126594 -0.05679139 -0.049893785 -0.00478869 -0.1144136 -0.048775446 -0.04121759 -0.031405743 0.11539579 -0.023440018 0.29325518 -0.04867243 0.14197226 0.5482404 0.45141587 -0.018217612 -0.009652025 0.0196141 -0.015643334 0.27185062 -0.04148234 -0.035706256 0.12909207 -0.005822798 -0.055680163 -0.0911032 -0.049439184 -0.067388676 0.654151 -0.018209621 -0.059470203 0.17031625 -0.018296197 0.34517512 -0.062852405 -0.016234754 -0.06533379 -0.06122612 -0.039584935 -0.0041973246 -0.018181043 -0.0389355 -0.08947513 -0.11929157 -0.052310895 -0.07718699 -0.1371135 -0.036472138 -0.022780482 0.51847243 -0.074592076 -0.036558546 -0.043951407 0.58549964 -0.03646165 -0.10493312 -0.036765274 -0.056429952 -0.027717555
89 -0.034538385 0.2803237 0.31659275 -0.039464332 -0.09898737 -0.016329812 0.36444804 -0.04776395 -0.05841152 -0.090405695 -0.13858292 -0.011777477 -0.02764303 0.21017544 -0.10670932 0.8045672 -0.142197 -0.028703138 0.6414485 -0.034761865 1.09521 0.04529635 0.06347423 -0.027783975 -0.027728627 -0.001509843 -0.020329911 -0.099849105 -0.051213663 -0.09669692 -0.010753778 0.40720308 -0.04422405 -0.061544158 0.0748569 -0.07318448 0.10968602 0.46149236 -0.042978853 -0.041797586 0.058976255 -0.063163236 -0.067007005 -0.059372734 -0.049138855 0.06659599 0.00873992 -0.077159144 -0.04246832 0.25269318 0.2772285 -0.08206295 0.70953035 -0.04351013 0.26653585 0.023922963 0.0031416342 0.18894567 -0.035531666 -0.068583526 -0.07547464 0.0628738 -0.0472479 -0.053302377
90 -0.048596095 -0.0116174705 0.2758766 -0.038121432 0.5239386 -0.043273985 -0.060409512 -0.10119853 -0.0069757192 0.43678185 -0.13371314 -0.0074939015 -0.074482866 -0.02538584 0.058621988 -0.01896139 -0.027741974 -0.014099878 -0.06682246 -0.07039065 -0.07387192 -0.027167365 0.45863247 -0.0635099 -0.1339089 -0.0069130496 -0.0055971234 0.03653395 -0.13609426 -0.03146584 -0.023992028 -0.045978867 0.29218486 -0.06804222 -0.09673218 -0.09525228 0.6247573 -0.038987216 0.023235358 -0.09694038 0.27726418 -0.07063072 -0.011127182 -0.0708645 -0.069807306 0.07696558 -0.14162482 -0.023841452 0.868598 0.12528028 -0.10689362 -0.12791543 0.457139 0.06090351 -0.049140446 0.3847195 -0.080364965 0.1148572 -0.028882792 -0.014664756 0.55828327 0.60707164 0.0447319 -0.033130232
91 -0.015450989 -0.008327582 -0.06406545 -0.018271219 0.68322164 -0.054430194 -0.06942818 -0.011433507 0.03984288 -0.1003077 -0.054433525 -0.056246746 -0.037373923 0.028663732 -0.031106815 0.13041158 -0.081000954 0.22844215 0.44223133 0.15376557 0.3060374 -0.005126612 -0.0033822202 -0.021733027 0.28392702 0.13857512 0.10587071 -0.020810515 0.0538429 -0.018487088 -0.124251895 -0.054147817 -0.060972333 0.4447928 0.12699085 -0.03731206 0.24761918 -0.029421946 0.14754128 -0.06695409 -0.009461726 -0.05029601 -0.079670526 0.10395235 -0.02977104 -0.014948122 -0.040143568 -0.113829635 -0.09767121 -0.036229942 -0.06951641 -0.11656667 -0.03272211 -0.031440023 0.55831265 -0.0610546 -0.050857175 -0.031751182 0.58178854 -0.046258036 -0.104271606 -0.029177163 -0.042016666 -0.035364784
92 -0.0022964296 -0.0058864364 -0.031199757 -0.028151417 -0.0674984 -0.08833521 1.0338641 0.18118325 -0.07616218 -0.0058670524 -0.07275991 -0.035409108 -0.015194018 0.03372692 -0.047341626 -0.014191012 -0.034899406 -0.05708146 -0.035899337 -0.082617536 -0.018863639 -0.11720363 -0.0073848437 -0.07275714 -0.092708714 -0.076815985 -0.034973726 0.09566461 -0.029874777 -0.04963811 -0.16127315 -0.07229142 -0.046310153 0.16576278 -0.0005561723 -0.058030166 0.092698276 0.18301466 0.19956347 -0.06596296 -0.01449942 0.7806898 -0.07166728 -0.07030618 -0.01733831 0.21989521 0.55298287 0.25276423 0.22527224 -0.013295205 -0.051793307 0.06848867 0.47779605 -0.08079908 0.8295349 -0.053306013 0.0810995 0.09676352 -0.013289458 -0.033413526 -0.108806506 -0.07853668 0.05384709 -0.07060315
93 0.09361733 -0.014099853 -0.06275298 -0.02000433 -0.04315434 -0.0004998764 0.23238651 -0.02865531 -0.015942743 -0.04517443 -0.076125085 0.07848607 -0.031018063 -0.02066957 -0.053507764 -0.015398288 -0.020763496 -0.066390656 -0.019486329 -0.03836916 0.20404011 0.013265051 -0.002190038 -0.010874246 0.03369672 -0.055461127 -0.01797743 -0.07174485 -0.027571445 -0.020078992 0.18013975 0.2935675 -0.055292238 -0.0109360255 -0.033618372 -0.048945997 -0.024960002 0.079354465 0.11706747 -0.0159387 0.19232972 -0.017791271 -0.002810532 -0.04840282 -0.012162372 0.15160783 -0.043943085 -0.043904345 -0.00042513572 -0.0387063 -0.004825937 -0.05321756 -0.022996094 0.00048645306 -0.06529007 -0.030262206 -0.113727525 0.088771105 -0.03503923 0.099728115 -0.021932097 -0.0139496 0.14335392 -0.014937492
94 -0.109258585 0.29757652 -0.06642204 -0.026204681 -0.064714365 0.20919533 0.4804532 -0.047977306 -0.069884 -0.11784539 -0.07934904 -0.07793755 0.35185775 0.12458538 -0.0635445 0.038375396 -0.062084444 0.03482198 0.11752356 0.019020904 -0.06906697 -0.06815552 0.13558917 0.14927037 0.0068856953 -0.082276575 -0.10407288 0.16138506 -0.0031849262 -0.06404843 -0.006197946 -0.119329415 -0.0410711 -0.048697703 -0.09457368 -0.0733342 0.333607 -0.0012756158 0.29032087 0.3582145 0.46126252 -0.034945257 0.46655786 -0.023173293 -0.013073099 -0.13913265 -0.1362348 -0.07136239 -0.14738286 0.7413851 -0.008507648 -0.13390568 -0.04233306 0.066528045 0.069232196 -0.07617584 -0.11023795 -0.009448567 -0.03740235 -0.0074422616 -0.09852636 0.26610234 0.07548675 -0.062349893
95 -0.081001826 -0.009146237 0.055502944 -0.020862374 0.096196875 -0.033507977 -0.040563833 0.2661642 0.49181715 -0.03985056 -0.04815933 -0.08381321 -0.057554137 0.052765142 0.06365078 0.13816735 -0.09715199 -0.07602532 -0.009525324 0.07067326 0.17569923 -0.009009779 0.12734604 0.74414855 0.071603335 0.61910295 -0.041005146 -0.051503707 0.22348891 0.12285582 0.21977162 0.03940861 0.32160926 -0.03314216 -0.055131115 -0.055012085 0.14037675 0.08117337 0.082653835 -0.037342124 -0.015074949 -0.022270562 0.005506631 -0.111239575 -0.057596948 -0.005598651 -0.031913526 -0.07639175 0.48027512 0.21070987 -0.05150289 -0.041715335 -0.013631912 -0.03098003 -0.029930253 -0.031296574 -0.06896051 -0.02876844 0.09600742 -0.036000315 -0.124687076 -0.06153768 0.3074022 0.30249032
96 -0.04544975 -0.0077185235 0.43491894 -0.021655379 -0.035426993 -0.07000551 -0.032348625 -0.02836134 -0.03605799 -0.035363857 -0.09290981 -0.08048207 -0.013883342 -0.0558832 -0.0052799606 0.04260522 -0.052930575 -0.03980776 0.17324775 -0.020231027 -0.03592479 0.0687817 -0.002385621 -0.055816542 -9.194259e-05 -0.053131767 -0.06748072 -0.017246258 -0.085251115 -0.028455451 0.2320491 -0.03333745 0.32181466 -0.061936 -0.050507177 0.023489997 0.031274002 -0.01684283 0.045555107 -0.06277078 -0.00020226855 -0.03210401 -0.011049322 -0.040697362 0.4375552 -0.018069757 0.09148939 -0.12001135 -0.039090883 -0.011990561 -0.040707514 -0.09306689 -0.0068806917 -0.029173145 0.34037098 -0.07967218 -0.060194552 0.08493093 -0.0655478 0.32171372 0.08586501 0.10722743 0.17706254 0.58991474
97 -0.10072952 0.1091789 -0.06790357 -0.057466395 -0.055691596 0.4887909 0.6198412 -0.057344716 -0.04812177 -0.113329604 -0.079885945 -0.07860388 0.000572494 0.33108082 -0.028205499 -0.01136627 -0.03830784 0.049347583 0.0015728655 0.108380154 -0.07452869 -0.058854293 0.017493948 0.124980085 0.096255824 -0.09102776 -0.08880574 0.097054034 -0.027929513 -0.04624924 -0.041087344 -0.07257567 -0.0627634 -0.08846646 -0.08441029 -0.10010939 0.33723298 0.12818933 0.49761292 0.34436947 0.46590766 -0.07270687 0.111367434 -0.032111872 -0.03577668 -0.083966024 -0.12974413 -0.062142998 -0.16288194 0.2989213 -0.044967517 -0.12401924 -0.022940872 0.040703308 -0.01337097 -0.00028111413 -0.0815833 -0.030772278 -0.051082868 0.024591416 -0.05633701 0.169489 0.44889346 -0.07251602
98 0.28003818 -0.005476614 -0.079770975 -0.06837909 -0.060864367 -0.15756512 -0.024551427 0.049728207 -0.04670021 -0.06415569 1.0627191 -0.02902751 0.07183827 -0.032019418 0.6433753 0.07274015 -0.0009543307 0.059957318 -0.011800486 0.16865042 -0.15428703 -0.025891036 0.15683079 -0.029272173 -0.057127662 0.14347 -0.09686007 0.3594471 -0.00018320429 0.3166298 -0.01137521 -0.02958701 -0.025950769 -0.00956991 -0.1646248 -0.089054726 -0.032594945 -0.016406914 -0.01921394 -0.09683906 0.14060515 0.13682637 0.27587748 -0.07431268 0.34857053 0.349915 -0.10735674 -0.077909194 -0.14645371 0.10916239 -0.10949042 -0.03663687 0.033069603 -0.042693023 -0.076871336 -0.10890651 0.35246766 -0.031235114 -0.040791508 -0.06354712 0.4355889 -0.055256523 -0.07642124 -0.11143073
99 -0.052295394 -0.0949603 -0.023246467 0.007944884 -0.061134707 -0.062185463 -0.06571903 0.4050638 0.5570525 -0.046726678 -0.0405852 -0.09880759 0.26472926 -0.017065002 -0.04081874 -0.025530312 -0.058301996 -0.07034844 -0.022132374 -0.1107584 -0.042393688 -0.019894242 0.13723646 -0.049603593 -0.020124359 -0.027574679 -0.0120802885 -0.015507343 -0.0979537 0.39584622 0.0894287 -0.038451873 0.08654292 -0.06722305 -0.009608316 0.3503359 -0.042888727 -0.108076625 0.4269445 -0.044310965 0.05316169 0.028409788 0.5820825 0.10929471 0.017471088 -0.0071568224 -0.041689053 -0.13007979 0.14133357 -0.017226325 0.05785932 0.09732301 -0.07632408 0.16011424 -0.047837652 -0.13502797 -0.056188084 0.055414785 0.06912061 -0.0035500072 -0.06740448 0.09866259 -0.010576564 -0.009956604
100 0.8937975 0.13077474 -0.14243664 -0.040211428 0.20389074 -0.06264916 -0.074140884 -0.04231145 0.10971262 -0.094381504 -0.017026393 0.0031718593 -0.005228368 -0.028794175 -0.018108131 0.40003112 -0.15769672 -0.077055946 -0.002534865 0.055658147 0.09848185 -0.047157906 -0.0985259 -0.037190154 -0.022344789 0.0081578065 -0.076436795 -0.065060355 0.18199477 -0.069947705 -0.03021036 0.3964834 -0.13512428 0.12885326 -0.0011752507 0.4097941 0.09966364 -0.009188475 0.035203688 0.2135001 -0.049856275 -0.06464409 -0.016423004 -0.09483633 -0.0395413 -0.04382468 -0.10087532 -0.13454597 -0.034081157 -0.07569814 -0.022165377 -0.16316245 -0.13406013 -0.040909868 -0.06538981 -0.015391663 -0.0216979 0.005961121 -0.03487737 -0.041495364 -0.09394002 -0.052686334 -0.12054576 0.043712977
101 -0.10741007 -0.0061417604 -0.0798376 -0.04758957 -0.03466416 -0.05037559 -0.08560597 0.005530618 -0.03201877 0.18262345 -0.110736124 -0.07806397 0.050420374 -0.0387194 -0.018869761 0.13397634 -0.08618587 0.1558682 -0.056233834 0.06486581 -0.0002233672 0.08107372 0.5189583 -0.03899017 -0.010208718 0.3324569 -0.08617535 -0.019061303 -0.057231672 -0.13208202 -0.06334268 -0.08219952 0.43173 -0.06865501 -0.056696266 -0.030364541 0.909468 -0.059770014 -0.043398943 -0.05744934 0.07126746 -0.027859027 -0.03974685 -0.09427676 -0.066337064 -0.018542688 -0.090677425 0.172048 -0.062266152 1.1299336 -0.056367677 -0.15681739 -0.011834644 -0.04649995 -0.03355607 0.49236006 -0.12240102 0.11296054 0.16421491 0.0013817917 -0.09239241 -0.057525493 -0.13366191 0.59539646
102 -0.026945869 0.07130196 0.2037806 0.1588999 0.032150693 -0.031219294 0.08435864 0.2684737 -0.04146298 -0.0680807 -0.042664643 0.29213873 -0.028417394 0.08852061 -0.02094904 -0.002494604 -0.03423224 -0.06510798 -0.005721792 -0.070667505 -0.021170584 -0.021072775 0.26878378 -0.029704282 -0.050028514 -0.028122393 -0.035658963 -0.030670939 -0.03370315 -0.056737483 -0.07635441 0.17397328 0.13843836 -0.04446825 0.03829594 0.011747335 -0.0094416095 -0.060504783 0.16739416 -0.04734633 -0.011469983 0.08678389 -0.014638813 0.016641088 -0.037913907 0.13541663 -0.02302657 -0.015969489 0.06285815 0.22872743 0.012601025 -0.044195015 0.18504469 0.36149904 -0.027177839 -0.04120642 -0.07266923 -0.0016638077 0.7922201 0.05263226 -0.03070552 -0.022626024 -0.04284164 -0.02028972
103 -0.08324504 -0.0028808862 -0.053530492 -0.040774103 -0.03157207 0.21167064 0.46534002 -0.027520675 0.33302358 -0.016253928 -0.059333242 -0.036477618 0.32555982 0.3228269 -0.0569427 -0.0008928822 -0.044869356 -0.10085887 -0.0045678103 -0.071373515 0.11335055 -0.016431633 0.29992092 -0.03835912 0.14679337 -0.110193096 -0.06590797 -0.113801755 0.11027729 -0.058145132 -0.17414805 -0.020231094 -0.051914353 0.05509305 0.0016476763 -0.0664698 0.4856728 -0.013403671 0.21366894 0.6680923 1.0466864 -0.04363414 -0.005765702 -0.06504458 -0.033670437 -0.01848342 -0.013103142 -0.060523678 0.031122515 0.32302493 0.25753954 -0.11679008 -0.046221036 -0.06340026 -0.006224811 0.19882114 -0.07403379 0.007901512 -0.038105402 -0.062777884 -0.073141254 -0.115873255 0.041515037 -0.028762717
104 -0.15335506 -0.031394668 -0.060101103 -0.04561407 -0.093998514 -0.06586618 -0.112292305 -0.06814012 0.35889474 -0.10792302 -0.09865803 -0.1157092 -0.06748544 -0.048989896 -0.11893399 0.032673396 -0.10340681 0.37405688 0.28372356 0.05722069 0.34060156 -0.027244238 0.2132996 -0.016964603 -0.13542704 -0.08353901 -0.13493341 -0.011760014 0.06892177 -0.073158175 0.02038995 -0.06282922 1.0543462 -0.10142014 -0.079814754 -0.059130263 0.75268775 0.18064019 -0.040136606 -0.063005224 -0.036393076 -0.007887489 -0.015292688 -0.17218973 -0.07274743 -0.0633217 -0.096133105 -0.06403494 -0.0563446 0.33674765 0.16916399 -0.22415844 0.57503 -0.045158092 0.1831069 -0.053568233 -0.1273043 -0.023143921 0.956777 -0.055651177 -0.06490017 -0.009104936 0.008928366 1.1602628
105 -0.08215992 -0.015431734 -0.04081735 -0.024588838 -0.01989582 -0.044114776 -0.042487614 0.15216723 0.412456 0.2081251 0.65953475 -0.06779804 -0.07735147 0.7126393 -0.047386244 -0.01339487 -0.03372819 -0.07423613 -0.028394878 -0.068022534 -0.07007656 -0.0033173838 0.5468182 -0.038531613 0.077564515 -0.09003506 -0.08999025 -0.109498225 -0.0776371 -0.053691197 -0.068558685 -0.015170216 -0.025808958 0.49973094 0.94322115 -0.062775634 0.07599253 -0.051213432 0.0059412234 -0.015145349 -0.06644112 0.2697555 0.8538027 0.636329 -0.009943393 0.011373436 -0.09052729 -0.009055731 0.0524225 -0.05071498 0.30045596 -0.120161414 -0.04737185 -0.017593559 -0.07833763 -0.021350471 -0.06966007 0.035471134 0.009562305 -0.06700733 -0.035370316 -0.03752476 -0.0038071033 -0.009867049
106 -0.10400148 0.79582936 -0.09669638 -0.004410201 -0.08326307 0.2545049 -0.026996568 -0.010212959 -0.03891493 0.004004799 -0.04688119 0.11251463 0.29939374 -0.056501817 -0.0055667744 0.04185904 -0.0144530535 -0.023720851 -0.04938925 -0.05327335 0.090199396 -0.024800215 0.36503577 0.3125643 -0.0088714445 -0.041523043 -0.017220093 -0.08109275 0.065617226 -0.06959127 -0.09314025 0.44492668 -0.008700785 -0.028177453 0.77947474 -0.03999732 0.19928402 0.4860794 0.24609105 0.45075494 -0.01815929 -0.055035897 0.4942223 0.016862039 -0.03478467 -0.0063274535 -0.026215333 0.15020287 -0.034598246 -0.061244585 0.089464635 -0.049311142 -0.01949383 0.15264018 -0.031542983 0.057540596 -0.07596674 -0.0063813487 0.0038488572 -0.06231758 0.4648347 0.38460258 -0.06783303 -0.012650222
107 0.45755073 -0.035957154 -0.041969348 -0.02620458 -0.027120812 -0.050736595 0.36305705 -0.057062633 0.8857841 -0.05163327 -0.063464336 -0.019320114 0.08974129 -0.004198318 0.11320216 0.2055984 -0.0847739 0.04094871 -0.020588098 -0.0057197656 -0.024141131 -0.033124235 0.15017018 -0.018346658 0.29993805 -0.073489465 -0.082218364 0.28396964 0.33495104 -0.030948086 -0.1293457 -0.051982142 -0.02298976 -0.06542745 -0.019720772 -0.06501397 -0.012805457 -0.03786503 0.2159051 -0.051398583 0.20985812 -0.03473715 0.053502046 0.21485797 -0.043575168 -0.0061139655 -0.08242236 -0.07873341 -0.05030681 -0.0020333151 -0.03266797 -0.09923739 0.32432792 -0.025378963 -0.0067364248 -0.089070134 0.07005693 -0.028794253 0.53971225 0.09034807 -0.04256288 -0.09127941 -0.11229122 -0.01868202
108 -0.06265699 -0.01389867 0.17168684 -0.022596937 0.016160974 0.10757421 0.013757335 -0.039360013 -0.059416898 -0.08983614 -0.06980213 -0.028714567 -0.021882556 0.019252669 -0.032795083 0.07988116 -0.055011954 -0.07605731 -0.042975497 0.38974926 -0.0063054534 -0.017269148 -0.0031166892 -0.06453472 -0.06407845 -0.09194738 -0.08613705 -0.10707521 -0.036130395 -0.039397832 -0.057280283 -0.04091628 0.34036568 -0.061932303 -0.022174861 -0.04204953 -0.034441005 0.28808427 0.2181423 -0.111918844 -0.023554673 -0.043728247 -0.05355665 0.21607248 -0.042363103 0.9375255 0.2567197 -0.08392143 -0.07606198 -0.006340875 0.015121046 -0.12294076 0.7795188 -0.06776666 -0.05048058 -0.027803589 -0.090040125 0.2381814 -0.004064685 0.2829463 0.11089484 0.41604942 0.19203672 0.17576891
109 -0.024867715 0.18920515 0.1656905 -0.023440517 -0.056978222 -0.01892711 0.32829925 -0.020371975 -0.027008688 -0.066785194 -0.092379056 -0.0019222144 -0.03633292 0.10119142 -0.079395056 0.5588653 -0.10455904 -0.014211562 0.47078663 -0.034959234 0.7400887 -0.008199823 0.09564656 -0.019912487 -0.021087652 -0.010097915 -0.011211628 -0.07468907 -0.033020057 -0.06647345 -0.012485735 0.30497435 -0.019411145 -0.05588286 0.045629524 -0.066696666 0.10568673 0.3753923 -0.021259265 -0.018289454 0.10466126 -0.042047124 -0.037977446 -0.03686999 -0.036054317 0.014021599 -0.005264987 -0.051197845 -0.019141585 0.15754774 0.21397771 -0.056872904 0.52609897 -0.024923455 0.29869 -0.006919432 0.043665938 0.08770392 -0.016187493 -0.04783738 -0.05354904 0.050098665 -0.027990697 -0.029157653
110 -0.09767943 -0.0016877406 0.02856329 -0.023325093 -0.059383314 -0.08450835 -0.033636652 -0.014606029 0.0118914135 -0.0039524445 -0.027282884 -0.051688608 -0.026005954 -0.03392662 0.08234417 0.070485845 -0.030185953 -0.05248622 -0.01680237 -0.027300922 -0.08264923 0.0037600175 0.13268198 -0.07878597 -0.035522077 -0.0800224 -0.105228595 -0.050213274 -0.09325766 -0.037038956 0.08819071 -0.0807286 0.020541811 -0.008282433 -0.047505926 -0.00531334 0.14039251 -0.028162051 0.29251227 -0.080755495 -0.022405919 0.17266825 0.056737415 -0.03705159 0.9991988 0.15543075 0.008854363 -0.06788933 -0.0066704093 0.17629829 -0.023320863 -0.1180951 -0.018190026 -0.035702433 0.6007018 -0.12151549 -0.14736286 -0.0095975185 -0.020569477 0.23920509 0.2131359 0.20261368 -0.07221034 0.91272116
111 -0.08054112 -0.05776295 -0.028988345 -0.036677588 -0.021156501 -0.07948484 -0.043860085 0.5435882 -0.0067037824 -0.07178343 -0.11315366 -0.15174654 0.0043211943 -0.04365503 -0.021814479 -0.052777465 -0.12668446 0.25402117 0.62179023 0.17184846 0.862865 -0.034424376 0.21053706 -0.011228833 -0.00059330853 1.0143809 0.2915222 0.11277951 -0.0039135176 0.14597438 -0.09104136 -0.055347152 -0.06454908 -0.047986966 0.2856566 0.21859618 0.08419668 -0.07266271 -0.031674925 -0.094462946 0.025124323 -0.04817919 -0.02715384 0.21506013 -0.07231784 -0.027158478 -0.0358031 -0.12925233 -0.06912237 -0.08433202 0.054412458 -0.11623037 -0.061063517 -0.02404362 0.2367914 -0.038852297 -0.08509809 0.23086476 -0.05748547 -0.08563327 -0.11516827 -0.064790815 -0.08272489 -0.065067954
112 -0.027908746 -0.030887142 -0.044011854 -0.022977708 -0.055402245 -0.07166949 0.7511068 0.10791776 -0.038693506 -0.01635262 -0.0667425 -0.07226919 -0.053713854 0.3509533 -0.026373431 -0.030103056 -0.08251043 -0.050361123 -0.022860276 -0.06544243 0.049919687 -0.09169703 -0.0013268496 -0.045755487 -0.08962211 -0.04816896 0.112068236 -0.023254422 -0.042831197 -0.03890732 -0.118633464 -0.09608391 0.009638841 0.060748287 -0.0039713494 -0.039119087 0.41776767 0.16433758 0.28375635 -0.055821825 -0.0032323308 0.7043338 -0.045336526 -0.05126859 -0.046387263 0.1363463 0.42633742 0.11170049 -0.0033258689 -0.0201912 -0.060094267 0.1281535 0.2626471 -0.07053005 0.95456207 -0.056908943 0.036601413 0.23629458 -0.050211847 -0.047801893 -0.035988756 -0.04744043 -0.017319722 0.006197367
113 -0.04738661 -0.01750254 -0.013437609 -0.040878214 0.043193944 0.21959317 -0.013497829 -0.04290367 -0.02668213 -0.07467728 -0.028813202 -0.01851976 -0.04320346 0.043099295 -0.004861915 0.017592996 -0.06720858 -0.069270685 -0.021319505 0.22832268 0.0017890991 -0.013214293 -0.015005638 -0.032755893 -0.06484958 -0.091344535 -0.07426388 -0.111468665 0.05440519 -0.047625907 -0.079636954 -0.03651863 0.09034258 -0.030290132 -0.024544844 -0.004608399 -0.02782768 0.13049552 0.11471572 -0.073165886 -0.010676941 -0.042703256 -0.07522295 0.0026582852 -0.048483502 0.92347586 0.06644494 -0.087447666 -0.065822385 -0.006234744 0.16236372 -0.079597265 0.50020283 -0.052813273 -0.044892743 -0.03752184 -0.068518855 0.21402968 0.051770017 0.10263422 0.0055775326 0.37858617 -0.0047152396 0.18203503
114 -0.09160545 0.24432558 -0.046562072 -0.005255882 -0.053719252 0.112211615 0.22969614 -0.03428481 -0.055432536 -0.0860431 -0.0742383 -0.05548097 0.28228822 0.014803846 -0.05749008 0.019519083 -0.049016442 0.03090828 0.11351787 -0.005117773 -0.046139255 -0.052462816 0.16584475 0.11711974 0.018437538 -0.04119045 -0.07598337 0.08059237 -0.005205054 -0.06547855 -0.000506394 -0.09122797 -0.006983577 -0.036628634 -0.059289902 -0.025204116 0.23677737 -0.0009350472 0.13737708 0.26454985 0.2918465 -0.013140196 0.35091373 -0.016547402 -0.014825984 -0.105615474 -0.08956369 -0.04462564 -0.10332934 0.64650303 0.09796552 -0.10507263 -0.023153892 0.07553587 0.04204631 -0.069027565 -0.10208638 0.004176614 -0.0018193132 -0.001147677 -0.080848575 0.24128972 -0.005731448 -0.031438794
115 -0.07160231 0.07546172 -0.035527557 -0.03693815 0.28413156 -0.024769157 0.7355626 -0.041141253 0.40882185 0.49443522 -0.093743265 -0.025925009 0.41902238 -0.0068544126 -0.089116275 0.028154837 -0.06483398 0.32874346 -0.025170356 -0.093079984 -0.0028627445 0.0060288347 0.29831344 -0.034660827 0.312866 -0.05933317 -0.11562208 -0.07318206 -0.026194965 -0.083733924 -0.1419666 -0.051196124 -0.035597112 0.059392877 -0.0323884 -0.06252191 0.47589603 -0.011880651 0.28581262 -0.03268245 0.33521137 -0.02688541 -0.08958858 -0.041630793 -0.035854295 -0.03082931 0.37930703 0.041434977 -0.040093444 0.5365114 0.17123152 -0.11735516 -0.012820552 -0.064446054 -0.051788628 -0.017862052 -0.058751978 -0.010447777 -0.054212727 -0.084937945 -0.10273246 -0.12120687 -0.024752423 0.106184855
116 0.16850169 0.07818304 -0.05515346 0.021039223 0.10374865 0.2841226 -0.03724716 -0.09721933 1.1614926 0.2749822 -0.0017184702 -0.056545716 -0.022445807 0.048614107 -0.11780118 0.37405452 -0.04845611 -0.06946478 0.7765304 -0.11613361 0.23508152 -0.02503764 0.14385325 0.25395846 -0.04479898 -0.08876024 -0.057487454 -0.14293633 0.31342405 -0.058392342 0.21484968 -0.04439417 -0.045709018 0.41981608 -0.025341103 -0.025282586 -0.023782616 -0.024374306 -0.056412794 -0.051018704 -0.011130258 -0.12814553 -0.06890006 -0.058042 -0.055136897 -0.020636825 -0.07248834 -0.06421447 -0.0118807955 0.43500274 -0.028894747 -0.07781361 -0.04960701 -0.002742854 -0.10237203 -0.07868941 -0.11085441 -0.012268178 -0.08442451 -0.048904758 0.39412242 0.16891424 0.2128198 -0.04379357
117 -0.101768605 -0.0052555413 -0.06629271 -0.064078145 -0.033219546 -0.041667346 -0.019738391 0.055551723 -0.008021369 -0.02320007 -0.1037822 -0.043254197 0.62390536 -0.07130468 -0.07199544 -0.03787825 -0.0653844 0.21541788 0.046782006 0.2298566 0.24772003 -0.021112127 0.36886197 -0.05233909 -0.07571527 0.31122446 -0.007573432 0.22072358 -0.07037695 -0.042435247 -0.038702793 0.35755128 -0.007163582 -0.0015713144 -0.01490334 0.34489676 -0.040413376 -0.024454178 0.0971846 -0.04885322 -0.008347668 -0.04312657 -0.03322724 -0.0873004 -0.026385559 -0.01672445 -0.06498249 -0.07556339 -0.043670695 -0.0889885 0.272914 -0.1146641 -0.052137982 0.19273165 -0.0422406 -0.07060858 -0.10140681 0.2947098 -0.029192353 -0.02819473 -0.08325089 0.25138992 -0.056928497 -0.015103936
118 -0.036184832 0.26900652 0.30754888 -0.04195968 -0.11207967 0.11723557 0.19414231 -0.062519416 -0.05578491 -0.049036905 -0.12368726 -0.022172501 0.023148227 0.42502967 -0.097397536 0.58539927 -0.12119415 -0.042165246 0.45647335 -0.007922602 0.8136992 0.26999533 -0.0007842308 -0.018957613 -0.013753143 0.040955506 -0.041750968 -0.08663767 -0.030888317 -0.07454857 -0.018911304 0.28439903 -0.06676894 -0.010277745 0.042663563 -0.049489517 0.20816171 0.26938206 -0.06489911 -0.058211338 -0.033206463 -0.050195117 -0.06713989 -0.067426 -0.03761692 0.104837395 0.07263352 -0.0556076 -0.035640508 0.196955 0.24661548 -0.070574686 0.38446563 -0.057399493 0.08693527 0.16153629 0.004076546 0.17396915 -0.015024165 -0.05178469 -0.07261069 -0.034888595 -0.054560073 -0.047989197
119 -0.063419804 -0.022044567 -0.08022455 -0.028307635 -0.04174454 -0.0603983 -0.04232767 0.003986597 0.6814316 0.32854205 0.733069 -0.08348355 -0.0875881 0.9867878 -0.049853697 -0.010734367 -0.073695354 -0.09539562 -0.02409838 -0.047449965 -0.05935755 0.008041913 0.75395006 -0.038669456 -0.005462756 -0.080276124 -0.04694061 -0.053839248 -0.05179559 -0.03432528 -0.07860193 -0.05636538 -0.06420042 0.29317096 0.85859346 -0.021275613 0.36418137 -0.050880708 0.08677576 -0.03946661 -0.05247925 0.30742994 0.70771563 0.48984325 -0.009776781 0.14901043 -0.059950896 -0.00421687 0.061761394 -0.07436625 0.10404451 -0.16319682 -0.062412214 0.12108782 -0.059039142 0.03186416 -0.06683295 -0.017546771 -0.0038898364 -0.06667671 -0.09054133 -0.0636205 -0.061026763 -0.042254012
120 -0.014523367 -0.003799685 -0.08944647 -0.042220652 -0.0744212 -0.0112517355 1.1286454 0.11687096 -0.057033 -0.07670043 -0.045413606 -0.057864036 0.34914213 0.13548794 -0.06880262 -0.043750647 -0.05897672 -0.066138424 -0.005421841 -0.06628452 -0.067635536 0.045762714 0.05336372 0.3013391 -0.036561362 0.3611482 -0.044701558 -0.08725625 0.64293253 -0.04276983 -0.030601552 -0.035932504 0.6770839 -0.027526824 0.01378169 -0.060929485 0.17686239 -0.010926249 0.25173575 -0.046813514 0.05819902 -0.06182936 -0.04057475 -0.11034594 -0.030827815 0.007459091 0.0015969293 -0.07311771 -0.049537238 -0.008327781 0.11519645 -0.10032153 -0.015174582 -0.04439893 -0.011354018 -0.112916544 -0.11495479 -0.033538107 0.15304004 0.11923816 -0.033845678 -0.11929156 -0.061153006 -0.07493607
121 -0.083986126 0.37090757 0.37459475 -0.031639397 -0.052022994 -0.031397182 0.30412206 -0.050686922 -0.08274709 -0.08025355 0.02856991 -0.004608227 0.39232692 -0.03686439 -0.051836055 -0.03439645 -0.05196401 -0.009726173 -0.04192816 0.46187913 -0.010554997 -0.028849944 0.38506785 -0.038964566 0.33366975 -0.043041445 -0.123577766 0.38935202 0.07354727 -0.04738009 -0.104614176 -0.00443871 -0.030166406 -0.056587756 -0.043595117 -0.0012296124 0.06745689 -0.047883917 0.22661641 -0.007195027 0.2655524 -0.089786574 0.14053795 -0.03619161 -0.02292061 0.4926255 0.13110323 -0.0726599 -0.122120015 -0.036358777 0.18419749 -0.15433136 -0.023994211 -0.051851697 0.12777333 -0.02588707 -0.06705489 -0.013888664 -0.02878437 0.064296305 -0.06091388 -0.05353421 0.25564772 -0.06889588
122 -0.11256494 0.8184208 -0.06955855 0.049568027 -0.06451184 -0.033466525 -0.018620338 -0.015042237 -0.021009585 0.18301769 -0.024658976 0.5659613 0.4083874 -0.04794015 -0.034193333 0.09681961 -0.06109574 -0.033295847 -0.035176273 -0.05473962 0.40906203 -0.006002322 0.34880495 0.56576484 -0.03184207 -0.042582285 -6.3077736e-05 -0.044556554 0.28106403 -0.05841281 -0.06989782 0.20411268 -0.054680493 -0.087622635 0.7998104 -0.08867773 0.13424838 0.18704782 0.037033852 0.0032041278 -0.0316236 -0.044077545 0.79085696 -0.03489336 -0.046267223 0.022614859 0.06276654 0.24412659 -0.03456367 -0.059023466 -0.05504742 -0.044548195 0.0059191715 0.32868803 -0.022338608 -0.045302268 -0.088885985 -0.03327359 -0.016144793 -0.054891128 0.7403486 0.11990811 -0.08319973 -0.008103474
123 0.08932251 0.04365771 0.3149648 -0.018076565 0.13542973 0.35626104 -0.029729484 -0.07484483 -0.101846896 -0.08991507 -0.050843228 -0.024452684 0.3846765 -0.09602921 -0.10324438 -0.007827207 -0.042112004 -0.02754862 -0.08421607 0.030297639 0.014484404 0.077231035 0.05041682 -0.012962222 -0.046907213 -0.059993513 -0.07087647 -0.07519307 -0.02163986 -0.029952023 -0.10938646 -0.10977693 0.02485991 -0.05647664 -0.06260308 -0.0077298298 -0.029711897 -0.008997698 0.3197621 0.22952709 0.3201739 -0.04286781 -0.02879334 -0.063903056 -0.0023373177 0.1537315 -0.033721227 -0.029885883 -0.064015746 0.3736828 0.05714755 -0.0996127 0.34737492 -0.01758958 0.046569172 -0.074857175 0.14260538 1.0259544 0.2789456 0.55911744 -0.11063204 0.28718868 0.013863558 -0.11295494
124 -0.0699432 -0.044000626 -0.012918459 -0.014545678 -0.056346275 -0.06613566 -0.015971528 0.3567063 0.18968526 -0.06092238 -0.06140123 -0.14271396 -0.031285893 -0.011039563 0.12978522 -0.02222376 -0.08606747 -0.012738104 0.22661644 0.19216031 0.29544508 -0.013673589 0.16082053 0.2557733 0.12712096 0.82859826 -0.018975321 -0.0021136662 0.061912075 0.23418282 -0.037762318 -0.039549913 -0.024468536 -0.016422987 -0.01610972 -0.011938534 0.17723006 -0.073108174 0.008478284 -0.059860475 -0.0008774022 -0.026451075 0.015056714 -0.033244297 -0.0393292 -0.013432801 -0.034911014 -0.08317105 0.08229501 -0.037338145 0.013429016 -0.08036059 -0.010516025 -0.051144976 0.092583805 -0.0068342313 -0.047740426 0.09740971 -0.08132467 -0.053743154 -0.09583104 -0.08448209 -0.018685117 -0.014980479
125 -0.047434065 0.11006566 -0.04367112 -0.021301959 -0.032805543 -0.0012586337 0.15802757 -0.024067497 -0.03530508 -0.080936 -0.08039274 -0.050479837 0.04853774 0.12927058 -0.07216414 0.0382956 -0.058820575 -0.1839119 -0.022490978 0.6905998 -0.043575335 -0.034218125 0.19718091 -0.061033476 -0.014441967 0.6448036 0.12031013 -0.032636236 -0.05065853 -0.099837415 -0.12006432 -0.11016741 -0.007516432 0.35429877 0.33232766 -0.011497971 0.28703395 -0.043264598 0.052555524 0.035503082 0.1468195 0.16044325 0.18953189 -0.11465281 -0.052176118 -0.02447666 -0.0014152107 -0.040044423 -0.033023376 -0.0037335672 -0.016184641 -0.14639224 -0.016323363 -0.075744055 0.30955982 0.6377042 -0.0031943147 0.2575922 -0.034585025 -0.08534252 -0.045611344 -0.11085036 0.08519864 -0.02984508
126 -0.05201167 0.0032214927 -0.02922981 0.015973369 -0.031091535 -0.017847143 0.15088294 -0.043245543 -0.05862835 -0.11463808 -0.09348725 -0.05625532 0.17801507 0.08713677 -0.09689515 0.19848034 -0.058062058 -0.13666555 -0.050928857 0.6206555 -0.054120924 -0.0113672195 0.17141914 -0.059676792 -0.03176758 0.75889456 0.20806007 0.047299586 -0.044328872 -0.16377978 -0.11559029 -0.05490757 0.06522905 0.023240373 -0.00529601 0.33084822 0.05997108 -0.00782486 -0.01148565 0.29667795 0.27585086 0.08375904 0.06636918 -0.12507598 -0.06477735 -0.007047483 -0.042280983 -0.020922918 -0.10444184 0.26419353 -0.02964513 -0.13594101 -0.019159568 -0.07376246 0.18304987 0.69303846 -0.05129093 0.3238109 -0.028992062 -0.03904316 -0.06325801 -0.10648717 0.0889221 -0.006196136
127 -0.037983242 -0.0069599445 -0.07942303 -0.00028942898 -0.049666673 -0.06731903 -0.05095609 -0.043914057 0.2833232 -0.020067248 -0.015845207 -0.072626404 -0.020561721 0.38667986 -0.020832904 -0.023847697 -0.064243495 -0.08142203 -0.04084118 -0.058471616 -0.023958147 0.009449108 0.2328201 -0.059371162 -0.053314205 -0.027695892 -0.031285297 -0.02505449 -0.017171927 0.11941006 -0.11574947 -0.06844532 -0.014571026 -0.03159772 -0.038283408 0.184866 1.1490654 -0.013133262 0.7361281 -0.0017784361 -0.033456527 -0.0022808902 -0.06723022 0.45223594 -0.009409184 0.21555269 0.18663579 -0.04067114 -0.04045262 -0.045842815 -0.004781186 -0.14707148 -0.0076082097 0.2126671 0.057914224 0.26461667 -0.019206021 -0.012627413 -0.0505245 0.16725323 -0.06404555 -0.039824363 -0.09870848 0.20900166
128 -0.06352567 0.08227472 -0.023814177 -0.027420962 -0.025453875 -0.06255132 -0.047856417 0.26164725 -0.038843412 0.95127136 -0.112844184 -0.029396987 -0.0050119017 0.32735267 -0.09251086 -0.015971497 0.009559292 0.06447875 -0.064842366 -0.0024181323 0.83025986 0.21224926 0.37719542 0.20676506 0.1725466 -0.08377641 0.17692466 -0.0431078 0.07205537 -0.102333464 -0.08073237 -0.074325636 0.1680427 0.28448832 -0.036603894 -0.03982763 0.08254491 0.12626353 0.035196915 -0.07700502 -0.011028218 0.021082519 0.6729644 -0.054745685 -0.03468313 0.07459184 0.1540189 0.07448567 0.10720414 0.51476985 -0.04964402 -0.069697045 -0.011117781 -0.037810113 -0.015930144 -0.052272756 -0.045465592 -0.023448458 0.32742578 -0.07160931 -0.015419448 -0.04593257 -0.0758891 -0.058471918
